{"learner":{"attributes":{"scikit_learn":"{\"_estimator_type\": \"classifier\"}"},"feature_names":[],"feature_types":[],"gradient_booster":{"model":{"cats":{"enc":[],"feature_segments":[],"sorted_idx":[]},"gbtree_model_param":{"num_parallel_tree":"1","num_trees":"100"},"iteration_indptr":[0,1,2,3,4,5,6,7,8,9,10,11,12,13,14,15,16,17,18,19,20,21,22,23,24,25,26,27,28,29,30,31,32,33,34,35,36,37,38,39,40,41,42,43,44,45,46,47,48,49,50,51,52,53,54,55,56,57,58,59,60,61,62,63,64,65,66,67,68,69,70,71,72,73,74,75,76,77,78,79,80,81,82,83,84,85,86,87,88,89,90,91,92,93,94,95,96,97,98,99,100],"tree_info":[0,0,0,0,0,0,0,0,0,0,0,0,0,0,0,0,0,0,0,0,0,0,0,0,0,0,0,0,0,0,0,0,0,0,0,0,0,0,0,0,0,0,0,0,0,0,0,0,0,0,0,0,0,0,0,0,0,0,0,0,0,0,0,0,0,0,0,0,0,0,0,0,0,0,0,0,0,0,0,0,0,0,0,0,0,0,0,0,0,0,0,0,0,0,0,0,0,0,0,0],"trees":[{"base_weights":[8.6855856E-8,-9.1204494E-1,6.797463E0,-1.0878264E0,4.828793E-1,1.1242643E1,2.7747664E0,-1.0887703E0,-8.891168E-1,1.0212547E1,-3.2782057E-1,1.1706283E1,-3.2686752E-1,-7.212085E-1,6.3423276E0,-1.0900427E0,-1.0327829E0,-9.925198E-1,2.9410057E0,-3.2633954E-1,1.1411979E1,-1.0194123E0,1.17458315E1,2.0209544E0,-8.486063E-1,1.1524564E1,-1.0898806E0,-1.0900985E0,3.9760405E-1,-3.277224E-1,-9.66503E-2,2.4580102E0,-1.0662215E0,-3.19714E-1,1.1657219E1,-1.5534685E-2,-3.1592318E-1,1.1751566E1,-2.617943E-1,3.4529567E0,-1.0292317E0,-9.4734156E-1,1.5582758E0,-3.1469715E-1,1.1626796E1,-3.2768613E-1,4.5961338E-1,-3.2784075E-1,-3.2397544E-1,-2.5233617E-1,8.348916E-1,-3.254806E-1,1.1455424E0,-6.5798186E-2,-3.2576713E-1,5.8307316E-2,3.5183253E0,3.5318172E0,3.153692E0,-2.0331989E-1,-3.2563993E-1,1.771757E-1,-3.0462626E-1,-3.2572305E-1,3.439053E0,3.4946759E0,-2.743565E-1],"categories":[],"categories_nodes":[],"categories_segments":[],"categories_sizes":[],"default_left":[0,0,0,0,0,0,0,0,0,0,0,0,0,0,0,0,0,0,0,0,0,0,0,0,0,0,0,0,0,0,0,0,0,0,0,0,0,0,0,0,0,0,0,0,0,0,0,0,0,0,0,0,0,0,0,0,0,0,0,0,0,0,0,0,0,0,0],"id":0,"left_children":[1,3,5,7,9,11,13,15,17,19,-1,21,-1,23,25,27,29,31,-1,-1,33,35,37,39,41,43,45,47,49,-1,51,-1,53,-1,55,-1,-1,57,-1,-1,59,61,63,-1,65,-1,-1,-1,-1,-1,-1,-1,-1,-1,-1,-1,-1,-1,-1,-1,-1,-1,-1,-1,-1,-1,-1],"loss_changes":[1.01938675E6,3.55489E4,3.478028E5,2.3171875E1,2.487484E5,5.284675E4,1.27377336E5,8E0,6.887141E2,3.0663578E4,0E0,4.49425E3,0E0,1.8039719E3,1.9469502E5,1.0828125E1,1.599082E2,4.2113263E2,0E0,0E0,6.2686875E3,8.742523E-1,6.525E2,6.64944E3,1.1732095E3,3.8404688E3,1.4781006E1,2.28125E0,1.8385149E1,0E0,6.725792E2,0E0,9.84259E0,0E0,1.618875E3,0E0,0E0,1.09E2,0E0,0E0,2.7128906E0,4.96563E2,5.1108335E3,0E0,8.3028125E2,0E0,0E0,0E0,0E0,0E0,0E0,0E0,0E0,0E0,0E0,0E0,0E0,0E0,0E0,0E0,0E0,0E0,0E0,0E0,0E0,0E0,0E0],"parents":[2147483647,0,0,1,1,2,2,3,3,4,4,5,5,6,6,7,7,8,8,9,9,11,11,13,13,14,14,15,15,16,16,17,17,20,20,21,21,22,22,23,23,24,24,25,25,26,26,27,27,28,28,30,30,32,32,34,34,37,37,40,40,41,41,42,42,44,44],"right_children":[2,4,6,8,10,12,14,16,18,20,-1,22,-1,24,26,28,30,32,-1,-1,34,36,38,40,42,44,46,48,50,-1,52,-1,54,-1,56,-1,-1,58,-1,-1,60,62,64,-1,66,-1,-1,-1,-1,-1,-1,-1,-1,-1,-1,-1,-1,-1,-1,-1,-1,-1,-1,-1,-1,-1,-1],"split_conditions":[1E0,5.6527782E-2,8.281574E-3,5.6444112E-2,5.9484467E-2,1.3547754E-3,5.6409337E-2,1.3690476E-1,8.8E-2,3.6363637E-1,-3.2782057E-1,2.2385873E-2,-3.2686752E-1,9.259259E-3,5.9484467E-2,4.4444445E-1,2.386456E-2,7.4074073E-3,2.9410057E0,-3.2633954E-1,3.3333334E-1,3.2464577E-8,5.9484467E-2,7.0710914E-5,4.6692133E-2,3.3333334E-1,2.45E-1,1.875E-1,3.3333334E-1,-3.277224E-1,3.6363637E-1,2.4580102E0,8.281574E-3,-3.19714E-1,4.9622345E-6,-1.5534685E-2,-3.1592318E-1,7.0710914E-5,-2.617943E-1,3.4529567E0,1.3547754E-3,2.5E-1,8.8E-2,-3.1469715E-1,6.666667E-1,-3.2768613E-1,4.5961338E-1,-3.2784075E-1,-3.2397544E-1,-2.5233617E-1,8.348916E-1,-3.254806E-1,1.1455424E0,-6.5798186E-2,-3.2576713E-1,5.8307316E-2,3.5183253E0,3.5318172E0,3.153692E0,-2.0331989E-1,-3.2563993E-1,1.771757E-1,-3.0462626E-1,-3.2572305E-1,3.439053E0,3.4946759E0,-2.743565E-1],"split_indices":[9,7,8,7,7,0,7,1,8,6,0,7,0,8,7,2,7,8,0,0,10,0,7,0,7,10,8,5,10,0,6,0,8,0,0,0,0,0,0,0,0,5,8,0,10,0,0,0,0,0,0,0,0,0,0,0,0,0,0,0,0,0,0,0,0,0,0],"split_type":[0,0,0,0,0,0,0,0,0,0,0,0,0,0,0,0,0,0,0,0,0,0,0,0,0,0,0,0,0,0,0,0,0,0,0,0,0,0,0,0,0,0,0,0,0,0,0,0,0,0,0,0,0,0,0,0,0,0,0,0,0,0,0,0,0,0,0],"sum_hessian":[1.6442605E5,1.4497498E5,1.9451057E4,1.2875068E5,1.6224304E4,9.239444E3,1.0211612E4,1.2813757E5,6.131133E2,2.2604133E3,1.396389E4,8.904715E3,3.3472922E2,5.1579546E3,5.0536577E3,1.2527181E5,2.8657546E3,6.0813934E2,4.9739194E0,2.1690952E2,2.0435037E3,2.7511992E1,8.877202E3,2.2833398E2,4.9296206E3,2.9772017E3,2.0764558E3,1.2526738E5,4.429897E0,2.693999E3,1.7175566E2,3.963592E0,6.041758E2,3.932505E1,2.0041786E3,1.0103273E0,2.6501665E1,8.873239E3,3.963592E0,5.486855E1,1.7346544E2,4.735948E3,1.9367198E2,2.3936987E1,2.9532646E3,2.0751348E3,1.3211974E0,9.889488E4,2.6372498E4,3.3418522E0,1.0880449E0,1.377154E2,3.404026E1,1.3989148E1,5.9018665E2,1.2279364E1,1.9918993E3,8.715938E3,1.573002E2,2.572449E1,1.4774095E2,2.0043341E2,4.535515E3,1.5356976E2,4.0102226E1,2.9481353E3,5.1293545E0],"tree_param":{"num_deleted":"0","num_feature":"12","num_nodes":"67","size_leaf_vector":"1"}},{"base_weights":[-5.2868736E-1,-9.629372E-1,9.1373557E-1,-1.0609092E0,-3.4545127E-1,1.2640779E0,2.7279407E-1,-1.0628332E0,-9.830665E-1,1.2052622E0,-3.200311E-1,1.3048373E0,-3.2321846E-1,-8.391793E-1,8.171166E-1,-1.0629033E0,3.6502877E-1,-3.199196E-1,-9.74202E-2,-3.181534E-1,1.283858E0,-3.1029776E-1,1.3077606E0,1.1999114E-1,-9.3959916E-1,1.2681077E0,-1.0630926E0,-1.0642991E0,-1.0178564E0,6.4097095E-1,-2.4673939E-1,1.7531142E0,-1.1186962E0,1.298583E0,-2.1271636E0,1.3154337E0,9.591735E-1,4.4659224E0,-1.0801716E0,-9.957304E-1,1.0350025E0,1.3208177E0,5.006437E-1,-3.198589E-1,2.9198328E-1,-3.2005665E-1,-3.163495E-1,1.2794238E-1,-3.0922407E-1,-2.736173E-1,9.9113816E-1,-6.972636E-2,-3.3769026E-1,-3.0439544E-1,3.9247432E-1,-2.9287747E-1,-9.7617894E-1,-8.301764E-3,3.946585E-1,4.35571E-1,1.6322643E-2,2.8620396E0,3.958864E-1,-3.126566E-1,-9.589942E-1,-3.0275398E-1,1.0707672E-1,1.1989013E0,-2.8488463E-1,3.97033E-1,-9.1070145E-1,-3.423376E-1,3.9564076E-1],"categories":[],"categories_nodes":[],"categories_segments":[],"categories_sizes":[],"default_left":[0,0,0,0,0,0,0,0,0,0,0,0,0,0,0,0,0,0,0,0,0,0,0,0,0,0,0,0,0,0,0,0,0,0,0,0,0,0,0,0,0,0,0,0,0,0,0,0,0,0,0,0,0,0,0,0,0,0,0,0,0,0,0,0,0,0,0,0,0,0,0,0,0],"id":1,"left_children":[1,3,5,7,9,11,13,15,17,19,-1,21,-1,23,25,27,29,-1,31,-1,33,-1,35,37,39,41,43,45,47,-1,-1,49,51,53,55,57,59,61,63,65,67,69,71,-1,-1,-1,-1,-1,-1,-1,-1,-1,-1,-1,-1,-1,-1,-1,-1,-1,-1,-1,-1,-1,-1,-1,-1,-1,-1,-1,-1,-1,-1],"loss_changes":[9.204011E4,6.8320625E3,7.634662E3,1.35546875E1,1.730204E4,2.0995312E3,7.274959E3,9.9296875E0,1.744021E2,8.7589404E2,0E0,1.4910547E2,0E0,3.8058838E2,6.843565E3,4.8828125E0,1.3151471E1,0E0,3.883461E2,0E0,2.4117871E2,0E0,5.6464844E1,1.9620623E3,3.9737036E2,2.6262695E2,1.0907349E1,1.1875E0,5.4081543E1,0E0,0E0,3.0510236E2,5.522156E-1,1.0700391E2,2.3773659E1,2.7148438E0,2.0879459E2,1.2869302E3,2.0371643E1,6.362549E1,5.875744E2,7.3674805E1,5.655124E2,0E0,0E0,0E0,0E0,0E0,0E0,0E0,0E0,0E0,0E0,0E0,0E0,0E0,0E0,0E0,0E0,0E0,0E0,0E0,0E0,0E0,0E0,0E0,0E0,0E0,0E0,0E0,0E0,0E0,0E0],"parents":[2147483647,0,0,1,1,2,2,3,3,4,4,5,5,6,6,7,7,8,8,9,9,11,11,13,13,14,14,15,15,16,16,18,18,20,20,22,22,23,23,24,24,25,25,26,26,27,27,28,28,31,31,32,32,33,33,34,34,35,35,36,36,37,37,38,38,39,39,40,40,41,41,42,42],"right_children":[2,4,6,8,10,12,14,16,18,20,-1,22,-1,24,26,28,30,-1,32,-1,34,-1,36,38,40,42,44,46,48,-1,-1,50,52,54,56,58,60,62,64,66,68,70,72,-1,-1,-1,-1,-1,-1,-1,-1,-1,-1,-1,-1,-1,-1,-1,-1,-1,-1,-1,-1,-1,-1,-1,-1,-1,-1,-1,-1,-1,-1],"split_conditions":[1E0,5.6527782E-2,9.259259E-3,1.1904762E-1,5.9484467E-2,1.3547754E-3,5.6444112E-2,4.4444445E-1,2.386456E-2,3.6363637E-1,-3.200311E-1,2.2385873E-2,-3.2321846E-1,2.5E-1,5.9484467E-2,5.6344684E-2,1.1339021E-5,-3.199196E-1,7.537273E-6,-3.181534E-1,2.1875E-1,-3.1029776E-1,7.0710914E-5,7.0710914E-5,4.081633E-2,5.86226E-2,2.45E-1,1.875E-1,7.4074073E-3,6.4097095E-1,-2.4673939E-1,6.7161295E-6,7.7256E-6,3.3333334E-1,3.3333334E-1,1.8218927E-7,3.3333334E-1,4.6692133E-2,5.6409337E-2,4.6692133E-2,7.0603187E-6,1.3547754E-3,3.8E-2,-3.198589E-1,2.9198328E-1,-3.2005665E-1,-3.163495E-1,1.2794238E-1,-3.0922407E-1,-2.736173E-1,9.9113816E-1,-6.972636E-2,-3.3769026E-1,-3.0439544E-1,3.9247432E-1,-2.9287747E-1,-9.7617894E-1,-8.301764E-3,3.946585E-1,4.35571E-1,1.6322643E-2,2.8620396E0,3.958864E-1,-3.126566E-1,-9.589942E-1,-3.0275398E-1,1.0707672E-1,1.1989013E0,-2.8488463E-1,3.97033E-1,-9.1070145E-1,-3.423376E-1,3.9564076E-1],"split_indices":[9,7,8,1,7,0,7,2,7,6,0,7,0,5,7,7,0,0,0,0,5,0,0,0,1,7,8,5,8,0,0,0,0,10,10,0,10,7,7,7,0,0,8,0,0,0,0,0,0,0,0,0,0,0,0,0,0,0,0,0,0,0,0,0,0,0,0,0,0,0,0,0,0],"split_type":[0,0,0,0,0,0,0,0,0,0,0,0,0,0,0,0,0,0,0,0,0,0,0,0,0,0,0,0,0,0,0,0,0,0,0,0,0,0,0,0,0,0,0,0,0,0,0,0,0,0,0,0,0,0,0,0,0,0,0,0,0,0,0,0,0,0,0,0,0,0,0,0,0],"sum_hessian":[1.4693922E5,1.129387E5,3.400052E4,9.747271E4,1.5465998E4,2.1983332E4,1.2017187E4,9.510922E4,2.3634907E3,4.9098926E3,1.0556105E4,2.1607637E4,3.7569504E2,3.9491316E3,8.0680547E3,9.51048E4,4.4162936E0,2.1600442E3,2.0344658E2,1.6418687E2,4.7457056E3,2.6528765E1,2.158111E4,3.7425006E2,3.5748816E3,6.5074814E3,1.5605732E3,9.2224664E4,2.880137E3,1.4515692E0,2.9647243E0,7.209503E1,1.3135155E2,4.7259233E3,1.9782166E1,2.1113576E4,4.6753168E2,8.039806E1,2.93852E2,3.4765508E3,9.8330894E1,6.088592E3,4.188897E2,1.558674E3,1.8991787E0,7.306065E4,1.9164016E4,2.519375E1,2.854943E3,2.6669563E1,4.5425472E1,1.2882491E0,1.300633E2,1.9229898E1,4.706694E3,1.0709575E1,9.07259E0,1.465122E0,2.1112111E4,3.0229742E2,1.6523425E2,2.9993595E1,5.040447E1,2.901375E2,3.7144825E0,3.442575E3,3.3975792E1,3.904961E1,5.9281284E1,6.08562E3,2.971586E0,1.3918916E2,2.7970053E2],"tree_param":{"num_deleted":"0","num_feature":"12","num_nodes":"73","size_leaf_vector":"1"}},{"base_weights":[-5.155455E-1,-9.434059E-1,8.3669645E-1,-1.0411942E0,-3.3751994E-1,1.1631213E0,2.3674569E-1,-3.1462938E-1,-1.0162725E0,1.1058544E0,-3.145275E-1,1.1997024E0,-3.178516E-1,-8.2442164E-1,7.5215906E-1,-3.145497E-1,-9.3621373E-1,-3.1209192E-1,1.1762267E0,1.212278E0,7.0967E-1,-8.7298125E-1,6.8051124E-1,1.1561458E0,-1.0437196E0,-6.989307E-1,-1.0427566E0,1.1905609E0,-1.5697827E0,-2.5499588E-1,3.6374867E-1,1.1496928E0,1.6958272E-2,-2.1956447E-1,-9.572106E-1,2.196673E0,-8.533906E-1,1.2124666E0,4.2739338E-1,-3.1430337E-1,6.6087973E-1,-2.9769474E-1,7.807932E-2,-3.131526E-1,3.849784E-1,-1.3329162E-1,3.6150312E-1,-2.8103763E-1,-5.796094E-1,3.923494E-1,-3.5776457E-1,-7.0236504E-1,3.91777E-1,4.0845382E-1,-3.0604696E-1,-2.9192036E-1,7.594132E-2,1.1709317E0,-3.4698057E-1,1.18184E-1,-3.080994E-1,3.6458382E-1,-5.3399384E-1,-2.1506485E-1,3.6308742E-1,-6.437666E-2,3.8364723E-1],"categories":[],"categories_nodes":[],"categories_segments":[],"categories_sizes":[],"default_left":[0,0,0,0,0,0,0,0,0,0,0,0,0,0,0,0,0,0,0,0,0,0,0,0,0,0,0,0,0,0,0,0,0,0,0,0,0,0,0,0,0,0,0,0,0,0,0,0,0,0,0,0,0,0,0,0,0,0,0,0,0,0,0,0,0,0,0],"id":2,"left_children":[1,3,5,7,9,11,13,-1,15,17,-1,19,-1,21,23,-1,25,-1,27,29,31,33,35,37,39,41,43,45,47,-1,-1,49,51,53,55,57,59,61,63,-1,65,-1,-1,-1,-1,-1,-1,-1,-1,-1,-1,-1,-1,-1,-1,-1,-1,-1,-1,-1,-1,-1,-1,-1,-1,-1,-1],"loss_changes":[6.490616E4,5.04875E3,5.2803887E3,1.27734375E1,1.2154515E4,1.4210996E3,5.1979814E3,0E0,4.3208984E1,5.9160596E2,0E0,1.05015625E2,0E0,2.2765454E2,4.641984E3,0E0,1.2378467E2,0E0,1.5086914E2,8.546875E0,1.3174231E2,1.6547144E2,2.2905139E2,2.1382812E2,8.621582E0,4.3060376E2,9.915039E0,8.950635E1,2.796379E0,0E0,0E0,9.947046E1,5.1656067E2,4.3814285E2,5.1420654E1,2.8721982E2,1.1075546E1,4.296045E1,3.3788138E2,0E0,2.0790448E0,0E0,0E0,0E0,0E0,0E0,0E0,0E0,0E0,0E0,0E0,0E0,0E0,0E0,0E0,0E0,0E0,0E0,0E0,0E0,0E0,0E0,0E0,0E0,0E0,0E0,0E0],"parents":[2147483647,0,0,1,1,2,2,3,3,4,4,5,5,6,6,8,8,9,9,11,11,13,13,14,14,16,16,18,18,19,19,20,20,21,21,22,22,23,23,24,24,25,25,26,26,27,27,28,28,31,31,32,32,33,33,34,34,35,35,36,36,37,37,38,38,40,40],"right_children":[2,4,6,8,10,12,14,-1,16,18,-1,20,-1,22,24,-1,26,-1,28,30,32,34,36,38,40,42,44,46,48,-1,-1,50,52,54,56,58,60,62,64,-1,66,-1,-1,-1,-1,-1,-1,-1,-1,-1,-1,-1,-1,-1,-1,-1,-1,-1,-1,-1,-1,-1,-1,-1,-1,-1,-1],"split_conditions":[1E0,5.6527782E-2,9.259259E-3,3.3333334E-1,5.9484467E-2,1.3547754E-3,5.6444112E-2,-3.1462938E-1,3.6363637E-1,3.6363637E-1,-3.145275E-1,7.0710914E-5,-3.178516E-1,6.043956E-2,5.9484467E-2,-3.145497E-1,7.2872476E-6,-3.1209192E-1,2.1875E-1,3.2464577E-8,3.3333334E-1,2.5E-1,7.0176784E-6,5.86226E-2,2.45E-1,6.8212757E-6,2.777778E-1,6.005462E-6,3.3333334E-1,-2.5499588E-1,3.6374867E-1,2.5E-1,5.6246385E-2,7.0710914E-5,4.6692133E-2,6.0714286E-2,1.0001189E-5,1.3547754E-3,3.8E-2,-3.1430337E-1,3.2464577E-8,-2.9769474E-1,7.807932E-2,-3.131526E-1,3.849784E-1,-1.3329162E-1,3.6150312E-1,-2.8103763E-1,-5.796094E-1,3.923494E-1,-3.5776457E-1,-7.0236504E-1,3.91777E-1,4.0845382E-1,-3.0604696E-1,-2.9192036E-1,7.594132E-2,1.1709317E0,-3.4698057E-1,1.18184E-1,-3.080994E-1,3.6458382E-1,-5.3399384E-1,-2.1506485E-1,3.6308742E-1,-6.437666E-2,3.8364723E-1],"split_indices":[9,7,8,10,7,0,7,0,6,6,0,0,0,1,7,0,0,0,5,0,10,5,0,7,8,0,2,0,10,0,0,5,7,0,7,1,0,0,8,0,0,0,0,0,0,0,0,0,0,0,0,0,0,0,0,0,0,0,0,0,0,0,0,0,0,0,0],"split_type":[0,0,0,0,0,0,0,0,0,0,0,0,0,0,0,0,0,0,0,0,0,0,0,0,0,0,0,0,0,0,0,0,0,0,0,0,0,0,0,0,0,0,0,0,0,0,0,0,0,0,0,0,0,0,0,0,0,0,0,0,0,0,0,0,0,0,0],"sum_hessian":[1.1218125E5,8.521791E4,2.6963342E4,7.337471E4,1.1843196E4,1.7461723E4,9.50162E3,5.6247594E4,1.7127113E4,3.908032E3,7.9351646E3,1.7179436E4,2.8228775E2,3.106059E3,6.395561E3,1.2202909E4,4.9242036E3,1.2363786E2,3.7843943E3,1.6748158E4,4.3127667E2,3.0093757E3,9.66834E1,5.221361E3,1.1742002E3,1.528228E3,3.3959753E3,3.7653057E3,1.9088503E1,1.3551761E0,1.6746803E4,2.633392E2,1.6793745E2,3.440424E2,2.6653333E3,4.8405575E1,4.8277832E1,4.846167E3,3.751937E2,1.1718644E3,2.3357742E0,1.1702529E3,3.5797507E2,3.3949426E3,1.032878E0,3.272684E1,3.7325789E3,8.253113E0,1.083539E1,2.4709782E2,1.6241388E1,5.9063606E1,1.0887384E2,1.1541346E2,2.2862894E2,2.6310588E3,3.4274483E1,3.1971685E1,1.643389E1,5.7433934E0,4.2534435E1,4.8422095E3,3.9575324E0,1.5245348E2,2.227402E2,1.2365863E0,1.0991879E0],"tree_param":{"num_deleted":"0","num_feature":"12","num_nodes":"67","size_leaf_vector":"1"}},{"base_weights":[-5.048494E-1,-9.2827517E-1,7.8953713E-1,-1.0256802E0,-3.3151367E-1,1.0994728E0,2.2077845E-1,-3.1068122E-1,-9.933456E-1,1.0400698E0,-3.1058368E-1,1.133517E0,-3.1385058E-1,-7.8720367E-1,7.080425E-1,-3.1060794E-1,-8.9260745E-1,-3.0738506E-1,1.1052169E0,1.1473126E0,6.3060015E-1,-8.35137E-1,4.4614813E-1,1.0808607E0,-1.0292228E0,-3.1073275E-1,-6.3087463E-1,1.1193818E0,-3.9792132E-1,-2.2112483E-1,3.442658E-1,1.0656271E0,2.6452169E-2,-2.0949037E-1,-9.176768E-1,1.2566868E0,-3.0186445E-1,1.1437289E0,3.6724648E-1,-3.1028804E-1,5.0497895E-1,-2.3789458E-1,9.824123E-1,-2.9830876E-1,3.393404E-1,3.6322457E-1,-3.5309708E-1,-5.117772E-1,3.3397752E-1,3.6467618E-1,-2.915661E-1,-2.8095415E-1,5.3447366E-2,6.5507716E-1,-3.265574E-1,3.4400713E-1,-4.1080987E-1,-1.4306958E-1,3.4224695E-1,-7.124336E-2,3.0487934E-1],"categories":[],"categories_nodes":[],"categories_segments":[],"categories_sizes":[],"default_left":[0,0,0,0,0,0,0,0,0,0,0,0,0,0,0,0,0,0,0,0,0,0,0,0,0,0,0,0,0,0,0,0,0,0,0,0,0,0,0,0,0,0,0,0,0,0,0,0,0,0,0,0,0,0,0,0,0,0,0,0,0],"id":3,"left_children":[1,3,5,7,9,11,13,-1,15,17,-1,19,-1,21,23,-1,25,-1,27,29,31,33,35,37,39,-1,41,43,-1,-1,-1,45,47,49,51,53,-1,55,57,-1,59,-1,-1,-1,-1,-1,-1,-1,-1,-1,-1,-1,-1,-1,-1,-1,-1,-1,-1,-1,-1],"loss_changes":[4.659663E4,3.7234062E3,3.6939434E3,1.6636719E1,8.679423E3,9.9202344E2,3.631701E3,0E0,5.3918945E1,4.1128296E2,0E0,9.191992E1,0E0,1.4283093E2,3.2294243E3,0E0,1.4252026E2,0E0,1.0331714E2,6.7246094E0,9.425386E1,1.1960925E2,1.0815349E2,1.8370996E2,7.3773193E0,0E0,8.595666E2,7.415845E1,0E0,0E0,0E0,6.929195E1,2.8657245E2,2.963575E2,4.2467285E1,1.3002411E2,0E0,2.9638672E1,2.1850092E2,0E0,1.5983133E0,0E0,0E0,0E0,0E0,0E0,0E0,0E0,0E0,0E0,0E0,0E0,0E0,0E0,0E0,0E0,0E0,0E0,0E0,0E0,0E0],"parents":[2147483647,0,0,1,1,2,2,3,3,4,4,5,5,6,6,8,8,9,9,11,11,13,13,14,14,16,16,18,18,19,19,20,20,21,21,22,22,23,23,24,24,26,26,27,27,31,31,32,32,33,33,34,34,35,35,37,37,38,38,40,40],"right_children":[2,4,6,8,10,12,14,-1,16,18,-1,20,-1,22,24,-1,26,-1,28,30,32,34,36,38,40,-1,42,44,-1,-1,-1,46,48,50,52,54,-1,56,58,-1,60,-1,-1,-1,-1,-1,-1,-1,-1,-1,-1,-1,-1,-1,-1,-1,-1,-1,-1,-1,-1],"split_conditions":[1E0,5.6527782E-2,9.259259E-3,3.3333334E-1,5.9484467E-2,1.3547754E-3,5.6444112E-2,-3.1068122E-1,3.6363637E-1,3.6363637E-1,-3.1058368E-1,7.0710914E-5,-3.1385058E-1,6.043956E-2,5.9484467E-2,-3.1060794E-1,2.386456E-2,-3.0738506E-1,2.1875E-1,3.2464577E-8,3.3333334E-1,2.5E-1,1.0001189E-5,5.86226E-2,2.45E-1,-3.1073275E-1,8.8E-2,3.3333334E-1,-3.9792132E-1,-2.2112483E-1,3.442658E-1,2.5E-1,5.629868E-2,7.0710914E-5,4.6692133E-2,6.0714286E-2,-3.0186445E-1,1.3547754E-3,3.8E-2,-3.1028804E-1,2.5E-1,-2.3789458E-1,9.824123E-1,-2.9830876E-1,3.393404E-1,3.6322457E-1,-3.5309708E-1,-5.117772E-1,3.3397752E-1,3.6467618E-1,-2.915661E-1,-2.8095415E-1,5.3447366E-2,6.5507716E-1,-3.265574E-1,3.4400713E-1,-4.1080987E-1,-1.4306958E-1,3.4224695E-1,-7.124336E-2,3.0487934E-1],"split_indices":[9,7,8,10,7,0,7,0,6,6,0,0,0,1,7,0,7,0,5,0,10,5,0,7,8,0,8,10,0,0,0,5,7,0,7,1,0,0,8,0,5,0,0,0,0,0,0,0,0,0,0,0,0,0,0,0,0,0,0,0,0],"split_type":[0,0,0,0,0,0,0,0,0,0,0,0,0,0,0,0,0,0,0,0,0,0,0,0,0,0,0,0,0,0,0,0,0,0,0,0,0,0,0,0,0,0,0,0,0,0,0,0,0,0,0,0,0,0,0,0,0,0,0,0,0],"sum_hessian":[8.501611E4,6.4060594E4,2.0955518E4,5.507103E4,8.989563E3,1.3563423E4,7.3920938E3,4.2114574E4,1.2956459E4,3.0482615E3,5.941302E3,1.3352042E4,2.1138129E2,2.4087014E3,4.9833926E3,9.136629E3,3.81983E3,9.278921E1,2.9554722E3,1.2994311E4,3.5773148E2,2.3189019E3,8.9799644E1,4.1032173E3,8.8017523E2,2.467271E3,1.3525591E3,2.9388918E3,1.6580313E1,1.2635399E0,1.2993047E4,2.0753123E2,1.5020024E2,2.7068253E2,2.0482192E3,5.772118E1,3.207846E1,3.770445E3,3.3277216E2,8.776005E2,2.574675E0,1.2994215E3,5.3137554E1,1.5788107E1,2.9231038E3,1.953501E2,1.218113E1,5.7683193E1,9.2517044E1,9.413334E1,1.765492E2,2.013749E3,3.4470272E1,4.141969E1,1.630149E1,3.7665503E3,3.8948321E0,1.5931136E2,1.734608E2,1.2683641E0,1.3063111E0],"tree_param":{"num_deleted":"0","num_feature":"12","num_nodes":"61","size_leaf_vector":"1"}},{"base_weights":[-4.9651045E-1,-9.169301E-1,7.558907E-1,-1.0140654E0,-3.2710546E-1,1.0414674E0,1.7605834E-1,-3.0779707E-1,-9.746194E-1,9.914219E-1,-3.0772698E-1,1.0910465E0,-3.148042E-1,-8.73199E-1,6.8530023E-1,-3.0789784E-1,-8.5733247E-1,-3.0349958E-1,1.0528743E0,1.1085517E0,5.1026493E-1,-9.876972E-1,1.3919004E0,-9.7642344E-1,1.1031818E0,-9.047661E-1,2.2512014E-1,-5.318382E-1,1.0792176E0,-3.363058E-1,1.1091207E0,9.8664707E-1,-2.3346256E-2,9.6256286E-1,-1.1004684E0,5.0655813E0,8.2149184E-1,2.9203374E0,-1.0190188E0,1.133359E0,-3.0129233E-1,-3.0779365E-1,-2.0225061E-1,6.3568515E-1,-3.046704E-1,6.475056E-1,-3.6331218E-1,3.2647964E-1,-7.2392726E-1,1.1456693E0,3.323632E-1,3.3962175E-1,-3.4202123E-1,-3.8472146E-1,2.8349766E-1,3.450783E-1,-2.7981356E-1,-3.0869395E-1,-3.547169E-1,5.1551304E0,1.4245282E-1,3.4562227E-1,-3.1819E-1,-2.6193377E-1,2.0799894E0,5.278696E-3,-3.0760607E-1,8.0692446E-1,3.313162E-1],"categories":[],"categories_nodes":[],"categories_segments":[],"categories_sizes":[],"default_left":[0,0,0,0,0,0,0,0,0,0,0,0,0,0,0,0,0,0,0,0,0,0,0,0,0,0,0,0,0,0,0,0,0,0,0,0,0,0,0,0,0,0,0,0,0,0,0,0,0,0,0,0,0,0,0,0,0,0,0,0,0,0,0,0,0,0,0,0,0],"id":4,"left_children":[1,3,5,7,9,11,13,-1,15,17,-1,19,-1,21,23,-1,25,-1,27,29,31,33,35,37,39,41,43,45,47,-1,49,51,53,55,57,59,61,63,65,67,-1,-1,-1,-1,-1,-1,-1,-1,-1,-1,-1,-1,-1,-1,-1,-1,-1,-1,-1,-1,-1,-1,-1,-1,-1,-1,-1,-1,-1],"loss_changes":[3.375013E4,2.7490703E3,2.667372E3,1.8382812E1,6.2531445E3,1.120002E3,2.8417478E3,0E0,5.724414E1,2.9048413E2,0E0,1.0663281E2,0E0,4.520891E2,2.4873188E3,0E0,1.5108618E2,0E0,9.582715E1,1.4229492E1,7.891704E1,3.6501086E2,1.719342E2,1.2248181E2,1.8311841E2,7.800366E1,2.938996E2,7.2008804E1,7.3553955E1,0E0,3.025E1,5.201091E1,1.8087634E2,3.3441948E1,7.947632E0,6.0939484E2,4.7223667E1,1.2850269E2,4.699707E0,1.2425342E2,0E0,0E0,0E0,0E0,0E0,0E0,0E0,0E0,0E0,0E0,0E0,0E0,0E0,0E0,0E0,0E0,0E0,0E0,0E0,0E0,0E0,0E0,0E0,0E0,0E0,0E0,0E0,0E0,0E0],"parents":[2147483647,0,0,1,1,2,2,3,3,4,4,5,5,6,6,8,8,9,9,11,11,13,13,14,14,16,16,18,18,19,19,20,20,21,21,22,22,23,23,24,24,25,25,26,26,27,27,28,28,30,30,31,31,32,32,33,33,34,34,35,35,36,36,37,37,38,38,39,39],"right_children":[2,4,6,8,10,12,14,-1,16,18,-1,20,-1,22,24,-1,26,-1,28,30,32,34,36,38,40,42,44,46,48,-1,50,52,54,56,58,60,62,64,66,68,-1,-1,-1,-1,-1,-1,-1,-1,-1,-1,-1,-1,-1,-1,-1,-1,-1,-1,-1,-1,-1,-1,-1,-1,-1,-1,-1,-1,-1],"split_conditions":[1E0,5.6527782E-2,2E-2,3.6363637E-1,5.9484467E-2,1.3547754E-3,4.2E-2,-3.0779707E-1,3.3333334E-1,3.6363637E-1,-3.0772698E-1,7.0710914E-5,-3.148042E-1,3.4375E-1,2.6179189E-2,-3.0789784E-1,5.6344684E-2,-3.0349958E-1,6.173438E-6,7.3863952E-3,3.3333334E-1,2.5E-1,3.3333334E-1,6.94855E-6,6.666667E-1,2.386456E-2,2.1875E-1,1E0,1.6214683E-5,-3.363058E-1,2.386456E-2,2.5E-1,5.6444112E-2,1.3547754E-3,5.6033287E-2,7.6530613E-3,7.359768E-6,3.4375E-1,6.1E-2,4.317145E-2,-3.0129233E-1,-3.0779365E-1,-2.0225061E-1,6.3568515E-1,-3.046704E-1,6.475056E-1,-3.6331218E-1,3.2647964E-1,-7.2392726E-1,1.1456693E0,3.323632E-1,3.3962175E-1,-3.4202123E-1,-3.8472146E-1,2.8349766E-1,3.450783E-1,-2.7981356E-1,-3.0869395E-1,-3.547169E-1,5.1551304E0,1.4245282E-1,3.4562227E-1,-3.1819E-1,-2.6193377E-1,2.0799894E0,5.278696E-3,-3.0760607E-1,8.0692446E-1,3.313162E-1],"split_indices":[9,7,8,6,7,0,8,0,10,6,0,0,0,5,7,0,7,0,0,7,10,5,10,0,10,7,5,4,0,0,7,5,7,0,7,1,0,5,8,7,0,0,0,0,0,0,0,0,0,0,0,0,0,0,0,0,0,0,0,0,0,0,0,0,0,0,0,0,0],"split_type":[0,0,0,0,0,0,0,0,0,0,0,0,0,0,0,0,0,0,0,0,0,0,0,0,0,0,0,0,0,0,0,0,0,0,0,0,0,0,0,0,0,0,0,0,0,0,0,0,0,0,0,0,0,0,0,0,0,0,0,0,0,0,0,0,0,0,0,0,0],"sum_hessian":[6.4096344E4,4.798761E4,1.6108734E4,4.12016E4,6.7860073E3,1.0792474E4,5.3162603E3,3.1618148E4,9.583453E3,2.350193E3,4.435814E3,1.0542949E4,2.4952437E2,1.7368624E3,3.5793982E3,6.6458403E3,2.937613E3,6.949483E1,2.2806982E3,1.0233591E4,3.093585E2,1.6538273E3,8.303513E1,7.189854E2,2.8604126E3,2.8144465E3,1.231663E2,3.697919E1,2.243719E3,2.1089466E0,1.0231481E4,1.6299525E2,1.4636325E2,8.999105E1,1.5638362E3,1.0100819E1,7.293432E1,7.0437117E0,7.119417E2,2.8204883E3,3.992433E1,1.8424956E3,9.7195105E2,4.8470825E1,7.469547E1,7.0152726E0,2.9963919E1,2.2386077E3,5.1113625E0,3.285076E0,1.0228196E4,1.5300072E2,9.994532E0,6.3488945E1,8.28743E1,8.223957E1,7.751487E0,8.423333E2,7.2150287E2,2.0215058E0,8.079313E0,6.2367737E1,1.0566578E1,4.023102E0,3.0206099E0,4.3134875E0,7.0762823E2,4.9864628E1,2.7706238E3],"tree_param":{"num_deleted":"0","num_feature":"12","num_nodes":"69","size_leaf_vector":"1"}},{"base_weights":[-4.9097735E-1,-9.06696E-1,7.2850275E-1,-1.003253E0,-3.2352042E-1,1.0111367E0,1.5596443E-1,-3.0572683E-1,-9.517578E-1,9.539541E-1,-3.0563876E-1,1.0589774E0,-3.1143692E-1,-8.603909E-1,6.751613E-1,-3.0578122E-1,-8.067242E-1,-3.0003718E-1,1.0126663E0,1.0783904E0,4.5902723E-1,8.8004553E-1,-9.7594506E-1,-9.7168344E-1,1.0900862E0,-4.4592455E-1,-1.0068513E0,1.0305226E0,-3.7411484E-1,-2.97964E-1,1.0790102E0,9.329702E-1,-2.193716E-2,1.0641356E0,-2.8820497E-1,-1.0914047E0,6.094774E-1,1.4326302E0,-1.0118276E0,2.699728E0,1.058288E0,-2.8689992E-1,1.2895271E-1,-3.0267227E-1,2.8370985E-1,-1.2056815E-1,3.1645775E-1,1.0896156E0,3.2330734E-1,3.217202E-1,-3.2963088E-1,-3.5235888E-1,2.2579876E-1,-1.750403E-1,3.2933375E-1,-3.064994E-1,-3.5243142E-1,3.4911734E-1,-5.9159464E-1,1.0393739E0,-3.2670948E-1,-7.8784384E-2,-3.0549383E-1,2.7032095E-1,1.3309798E0,3.2281196E-1,-2.974586E-1],"categories":[],"categories_nodes":[],"categories_segments":[],"categories_sizes":[],"default_left":[0,0,0,0,0,0,0,0,0,0,0,0,0,0,0,0,0,0,0,0,0,0,0,0,0,0,0,0,0,0,0,0,0,0,0,0,0,0,0,0,0,0,0,0,0,0,0,0,0,0,0,0,0,0,0,0,0,0,0,0,0,0,0,0,0,0,0],"id":5,"left_children":[1,3,5,7,9,11,13,-1,15,17,-1,19,-1,21,23,-1,25,-1,27,29,31,33,35,37,39,41,43,45,-1,-1,47,49,51,53,-1,55,57,59,61,63,65,-1,-1,-1,-1,-1,-1,-1,-1,-1,-1,-1,-1,-1,-1,-1,-1,-1,-1,-1,-1,-1,-1,-1,-1,-1,-1],"loss_changes":[2.4421348E4,2.022582E3,1.981647E3,2.4166016E1,4.5348853E3,8.049375E2,2.1371028E3,0E0,7.030615E1,2.0747705E2,0E0,9.282715E1,0E0,2.762693E2,1.83263E3,0E0,1.6650513E2,0E0,7.1800415E1,1.1038086E1,5.7665874E1,3.0091751E1,2.3582043E2,5.35654E1,1.0675122E2,3.6996304E2,6.922241E0,6.0886597E1,0E0,0E0,2.2217773E1,3.726789E1,1.1381449E2,4.9897156E0,0E0,5.763794E0,1.279812E2,5.132947E1,2.3157349E0,1.2358783E2,7.754077E1,0E0,0E0,0E0,0E0,0E0,0E0,0E0,0E0,0E0,0E0,0E0,0E0,0E0,0E0,0E0,0E0,0E0,0E0,0E0,0E0,0E0,0E0,0E0,0E0,0E0,0E0],"parents":[2147483647,0,0,1,1,2,2,3,3,4,4,5,5,6,6,8,8,9,9,11,11,13,13,14,14,16,16,18,18,19,19,20,20,21,21,22,22,23,23,24,24,25,25,26,26,27,27,30,30,31,31,32,32,33,33,35,35,36,36,37,37,38,38,39,39,40,40],"right_children":[2,4,6,8,10,12,14,-1,16,18,-1,20,-1,22,24,-1,26,-1,28,30,32,34,36,38,40,42,44,46,-1,-1,48,50,52,54,-1,56,58,60,62,64,66,-1,-1,-1,-1,-1,-1,-1,-1,-1,-1,-1,-1,-1,-1,-1,-1,-1,-1,-1,-1,-1,-1,-1,-1,-1,-1],"split_conditions":[1E0,5.6527782E-2,2E-2,3.6363637E-1,5.9484467E-2,1.3547754E-3,4.8E-2,-3.0572683E-1,3.3333334E-1,3.6363637E-1,-3.0563876E-1,7.0710914E-5,-3.1143692E-1,2.5E-1,2.6179189E-2,-3.0578122E-1,7.2872476E-6,-3.0003718E-1,2.1875E-1,7.3863952E-3,3.3333334E-1,1.3547754E-3,3.4375E-1,6.9877983E-6,4.3728426E-2,6.794787E-6,4.4444445E-1,6.173438E-6,-3.7411484E-1,-2.97964E-1,2.386456E-2,2.5E-1,5.6253895E-2,2.2268202E-2,-2.8820497E-1,5.6033287E-2,2.3310211E-5,1.6666667E-1,8.8E-2,3.4375E-1,1.3547754E-3,-2.8689992E-1,1.2895271E-1,-3.0267227E-1,2.8370985E-1,-1.2056815E-1,3.1645775E-1,1.0896156E0,3.2330734E-1,3.217202E-1,-3.2963088E-1,-3.5235888E-1,2.2579876E-1,-1.750403E-1,3.2933375E-1,-3.064994E-1,-3.5243142E-1,3.4911734E-1,-5.9159464E-1,1.0393739E0,-3.2670948E-1,-7.8784384E-2,-3.0549383E-1,2.7032095E-1,1.3309798E0,3.2281196E-1,-2.974586E-1],"split_indices":[9,7,8,6,7,0,8,0,10,6,0,0,0,5,7,0,0,0,5,7,10,0,5,0,7,0,2,0,0,0,7,5,7,7,0,7,0,8,8,5,0,0,0,0,0,0,0,0,0,0,0,0,0,0,0,0,0,0,0,0,0,0,0,0,0,0,0],"split_type":[0,0,0,0,0,0,0,0,0,0,0,0,0,0,0,0,0,0,0,0,0,0,0,0,0,0,0,0,0,0,0,0,0,0,0,0,0,0,0,0,0,0,0,0,0,0,0,0,0,0,0,0,0,0,0,0,0,0,0,0,0,0,0,0,0,0,0],"sum_hessian":[4.816977E4,3.5923695E4,1.2246071E4,3.0820068E4,5.103629E3,8.198239E3,4.047832E3,2.3556814E4,7.2632534E3,1.7985903E3,3.3050386E3,8.0116865E3,1.8655244E2,1.36842E3,2.6794119E3,4.9520537E3,2.3112E3,5.1996456E1,1.7465939E3,7.7598003E3,2.5188654E2,8.4786064E1,1.283634E3,5.389535E2,2.1404585E3,8.257402E2,1.4854597E3,1.7334402E3,1.3153645E1,1.8424251E0,7.7579575E3,1.2639598E2,1.2549056E2,7.746112E1,7.3249416E0,1.1967886E3,8.684549E1,8.281316E0,5.306722E2,3.983995E1,2.1006184E3,5.2163336E2,3.0410678E2,1.4843798E3,1.0799109E0,2.8699709E1,1.7047405E3,2.5851536E0,7.7553726E3,1.187208E2,7.675177E0,5.023112E1,7.5259445E1,1.2230461E0,7.6238075E1,6.5886865E2,5.379199E2,7.194737E1,1.4898116E1,4.378889E0,3.9024265E0,4.910134E0,5.257621E2,2.0317978E1,1.9521975E1,2.0830537E3,1.7564661E1],"tree_param":{"num_deleted":"0","num_feature":"12","num_nodes":"67","size_leaf_vector":"1"}},{"base_weights":[-4.85415E-1,-8.972975E-1,7.0907086E-1,-9.9508685E-1,-3.307556E-1,9.880818E-1,1.4693509E-1,-3.0420518E-1,-9.346281E-1,7.8950053E-1,-3.0409825E-1,1.0346471E0,-3.0841666E-1,-8.812558E-1,6.320218E-1,-3.0421767E-1,-7.742195E-1,-3.0450803E-1,9.442318E-1,1.0569103E0,4.0527847E-1,8.3125097E-1,-9.8466307E-1,1.0098823E0,-1.0066094E0,-4.143552E-1,-9.977948E-1,-2.9662627E-1,1.0005124E0,-2.59135E-1,1.0576049E0,8.7736714E-1,-2.5183044E-2,1.0735283E0,-4.9084353E-1,-1.0833894E0,4.4818425E-1,1.0459464E0,-2.9784185E-1,-1.3030045E-1,-3.0516863E-1,-2.984091E-1,5.8673576E-2,-3.0007848E-1,2.354489E-1,3.0743256E-1,-3.3318198E-1,8.28579E-1,3.16903E-1,-2.8393784E-1,3.1460565E-1,-2.9252356E-1,1.9382906E-1,3.7080888E-2,3.284074E-1,1.4725551E-1,-2.2752416E-1,-3.042661E-1,-3.483349E-1,3.091243E-1,-5.7283914E-1,-2.9518238E-1,3.190222E-1,-2.0315608E-1,3.4419388E-1],"categories":[],"categories_nodes":[],"categories_segments":[],"categories_sizes":[],"default_left":[0,0,0,0,0,0,0,0,0,0,0,0,0,0,0,0,0,0,0,0,0,0,0,0,0,0,0,0,0,0,0,0,0,0,0,0,0,0,0,0,0,0,0,0,0,0,0,0,0,0,0,0,0,0,0,0,0,0,0,0,0,0,0,0,0],"id":6,"left_children":[1,3,5,7,9,11,13,-1,15,17,-1,19,-1,21,23,-1,25,-1,27,29,31,33,35,37,39,41,43,-1,45,-1,47,49,51,53,55,57,59,61,-1,63,-1,-1,-1,-1,-1,-1,-1,-1,-1,-1,-1,-1,-1,-1,-1,-1,-1,-1,-1,-1,-1,-1,-1,-1,-1],"loss_changes":[1.7787305E4,1.4890547E3,1.4538301E3,2.5291016E1,3.0293323E3,5.8267676E2,1.5348317E3,0E0,6.90293E1,4.1973712E2,0E0,8.442383E1,0E0,1.7551245E2,1.2955073E3,0E0,1.4593042E2,0E0,1.513258E2,8.71582E0,4.2396713E1,1.8694523E1,1.3215302E2,1.237782E2,3.5177612E0,2.4752063E2,5.715088E0,0E0,6.9944336E1,0E0,9.652832E0,3.207534E1,7.079704E1,8.346367E-1,2.859853E0,3.5054932E0,8.529807E1,6.0231934E1,0E0,4.8598647E0,0E0,0E0,0E0,0E0,0E0,0E0,0E0,0E0,0E0,0E0,0E0,0E0,0E0,0E0,0E0,0E0,0E0,0E0,0E0,0E0,0E0,0E0,0E0,0E0,0E0],"parents":[2147483647,0,0,1,1,2,2,3,3,4,4,5,5,6,6,8,8,9,9,11,11,13,13,14,14,16,16,18,18,19,19,20,20,21,21,22,22,23,23,24,24,25,25,26,26,28,28,30,30,31,31,32,32,33,33,34,34,35,35,36,36,37,37,39,39],"right_children":[2,4,6,8,10,12,14,-1,16,18,-1,20,-1,22,24,-1,26,-1,28,30,32,34,36,38,40,42,44,-1,46,-1,48,50,52,54,56,58,60,62,-1,64,-1,-1,-1,-1,-1,-1,-1,-1,-1,-1,-1,-1,-1,-1,-1,-1,-1,-1,-1,-1,-1,-1,-1,-1,-1],"split_conditions":[1E0,5.6444112E-2,2E-2,3.6363637E-1,5.9484467E-2,1.3547754E-3,4.2E-2,-3.0420518E-1,3.3333334E-1,3.3333334E-1,-3.0409825E-1,7.0710914E-5,-3.0841666E-1,2.5E-1,3.1707317E-1,-3.0421767E-1,7.1680493E-6,-3.0450803E-1,3.6363637E-1,7.3863952E-3,3.3333334E-1,7.0710914E-5,3.4375E-1,6.666667E-1,6.9748767E-6,6.7161295E-6,4.4444445E-1,-2.9662627E-1,2.1875E-1,-2.59135E-1,2.386456E-2,2.218408E-2,5.6444112E-2,6.005462E-6,3.3333334E-1,5.6033287E-2,7.6240067E-6,2.418156E-2,-2.9784185E-1,7.6530613E-3,-3.0516863E-1,-2.984091E-1,5.8673576E-2,-3.0007848E-1,2.354489E-1,3.0743256E-1,-3.3318198E-1,8.28579E-1,3.16903E-1,-2.8393784E-1,3.1460565E-1,-2.9252356E-1,1.9382906E-1,3.7080888E-2,3.284074E-1,1.4725551E-1,-2.2752416E-1,-3.042661E-1,-3.483349E-1,3.091243E-1,-5.7283914E-1,-2.9518238E-1,3.190222E-1,-2.0315608E-1,3.4419388E-1],"split_indices":[9,7,8,6,7,0,8,0,10,10,0,0,0,5,8,0,0,0,6,7,10,0,5,10,0,0,2,0,5,0,7,7,7,0,10,7,0,7,0,1,0,0,0,0,0,0,0,0,0,0,0,0,0,0,0,0,0,0,0,0,0,0,0,0,0],"split_type":[0,0,0,0,0,0,0,0,0,0,0,0,0,0,0,0,0,0,0,0,0,0,0,0,0,0,0,0,0,0,0,0,0,0,0,0,0,0,0,0,0,0,0,0,0,0,0,0,0,0,0,0,0,0,0,0,0,0,0,0,0,0,0,0,0],"sum_hessian":[3.615166E4,2.6882342E4,9.269317E3,2.2924625E4,3.9577166E3,6.19415E3,3.0751675E3,1.744623E4,5.478395E3,1.4988335E3,2.458883E3,6.0547935E3,1.3935638E2,9.8549445E2,2.089673E3,3.6604854E3,1.8179099E3,1.179304E2,1.3809031E3,5.8472734E3,2.0752011E2,5.571817E1,9.2977625E2,1.6984113E3,3.9126187E2,6.977204E2,1.1201895E3,3.859992E1,1.3423032E3,1.6646714E0,5.845609E3,9.847932E1,1.090408E2,4.7247883E1,8.470288E0,8.700704E2,5.9705868E1,1.6688369E3,2.9574287E1,4.843515E0,3.8641837E2,3.572101E2,3.4051028E2,1.1190798E3,1.1096846E0,1.3275603E3,1.4742865E1,2.705188E0,5.842904E3,8.067667E0,9.0411644E1,4.4963116E1,6.407769E1,1.1787523E0,4.606913E1,1.6354542E0,6.8348346E0,4.6781265E2,4.0225772E2,4.833284E1,1.1373028E1,1.37607975E1,1.6550762E3,3.7207818E0,1.1227331E0],"tree_param":{"num_deleted":"0","num_feature":"12","num_nodes":"65","size_leaf_vector":"1"}},{"base_weights":[-4.800212E-1,-8.881885E-1,6.927562E-1,-9.8521537E-1,-3.280532E-1,9.699542E-1,1.398623E-1,-3.030917E-1,-9.072009E-1,7.6153517E-1,-3.0294913E-1,1.0155588E0,-3.0560267E-1,-8.366215E-1,6.332157E-1,-3.0306226E-1,-7.148358E-1,-3.0194715E-1,9.0977156E-1,1.0411979E0,3.577884E-1,7.510933E-1,-9.51615E-1,1.0111905E0,-9.980646E-1,-3.623346E-1,-1.0037799E0,-6.732838E-1,9.8024386E-1,-2.2317806E-1,1.0419929E0,5.025647E-1,-3.586042E-1,1.0354967E0,-5.100214E-1,-1.071766E0,5.1970035E-1,1.0465156E0,-3.0387205E-1,-7.6515384E-2,-3.036654E-1,-2.948528E-1,1.8760012E-2,-3.018747E-1,1.4573629E-1,-2.9850036E-1,5.9333175E-1,3.0650082E-1,-3.390746E-1,-1.2814231E-1,3.1273136E-1,8.177625E-2,3.254419E-1,1.1364372E-2,3.1737804E-1,2.6207315E-2,-2.7837422E-1,-3.035201E-1,-3.4274745E-1,3.2680386E-1,-4.4277653E-1,3.2176474E-1,-2.9976806E-1,-2.3408048E-1,2.327175E-1],"categories":[],"categories_nodes":[],"categories_segments":[],"categories_sizes":[],"default_left":[0,0,0,0,0,0,0,0,0,0,0,0,0,0,0,0,0,0,0,0,0,0,0,0,0,0,0,0,0,0,0,0,0,0,0,0,0,0,0,0,0,0,0,0,0,0,0,0,0,0,0,0,0,0,0,0,0,0,0,0,0,0,0,0,0],"id":7,"left_children":[1,3,5,7,9,11,13,-1,15,17,-1,19,-1,21,23,-1,25,-1,27,29,31,33,35,37,39,41,43,45,47,-1,49,51,-1,53,55,57,59,61,-1,63,-1,-1,-1,-1,-1,-1,-1,-1,-1,-1,-1,-1,-1,-1,-1,-1,-1,-1,-1,-1,-1,-1,-1,-1,-1],"loss_changes":[1.2982093E4,1.0930381E3,1.0730095E3,3.2646484E1,2.2083784E3,4.2398535E2,1.1275479E3,0E0,8.2153076E1,3.0083972E2,0E0,7.652344E1,0E0,1.441582E2,9.5964557E2,0E0,1.4854474E2,0E0,1.1851068E2,7.0029297E0,3.940722E1,1.9759382E1,1.3014417E2,9.1350586E1,3.743927E0,1.7409433E2,3.4417114E0,4.087232E1,8.961127E1,0E0,3.3120117E0,2.0937336E1,0E0,9.4633484E-1,2.711486E0,1.7227783E0,6.528659E1,6.719702E1,0E0,3.9120016E0,0E0,0E0,0E0,0E0,0E0,0E0,0E0,0E0,0E0,0E0,0E0,0E0,0E0,0E0,0E0,0E0,0E0,0E0,0E0,0E0,0E0,0E0,0E0,0E0,0E0],"parents":[2147483647,0,0,1,1,2,2,3,3,4,4,5,5,6,6,8,8,9,9,11,11,13,13,14,14,16,16,18,18,19,19,20,20,21,21,22,22,23,23,24,24,25,25,26,26,27,27,28,28,30,30,31,31,33,33,34,34,35,35,36,36,37,37,39,39],"right_children":[2,4,6,8,10,12,14,-1,16,18,-1,20,-1,22,24,-1,26,-1,28,30,32,34,36,38,40,42,44,46,48,-1,50,52,-1,54,56,58,60,62,-1,64,-1,-1,-1,-1,-1,-1,-1,-1,-1,-1,-1,-1,-1,-1,-1,-1,-1,-1,-1,-1,-1,-1,-1,-1,-1],"split_conditions":[1E0,5.6444112E-2,2E-2,3.6363637E-1,5.9484467E-2,1.3547754E-3,4.8E-2,-3.030917E-1,3.3333334E-1,3.3333334E-1,-3.0294913E-1,7.0710914E-5,-3.0560267E-1,2.5E-1,3.1707317E-1,-3.0306226E-1,7.835915E-6,-3.0194715E-1,6.253388E-6,7.3863952E-3,5.9484467E-2,7.0710914E-5,3.4375E-1,1.3547754E-3,6.9748767E-6,6.7161295E-6,1.1111111E-1,2.2222222E-1,8.883342E-6,-2.2317806E-1,6.144042E-7,5.6527782E-2,-3.586042E-1,5.921474E-6,1.3547754E-3,5.6033287E-2,7.124602E-6,5.9484467E-2,-3.0387205E-1,3.4375E-1,-3.036654E-1,-2.948528E-1,1.8760012E-2,-3.018747E-1,1.4573629E-1,-2.9850036E-1,5.9333175E-1,3.0650082E-1,-3.390746E-1,-1.2814231E-1,3.1273136E-1,8.177625E-2,3.254419E-1,1.1364372E-2,3.1737804E-1,2.6207315E-2,-2.7837422E-1,-3.035201E-1,-3.4274745E-1,3.2680386E-1,-4.4277653E-1,3.2176474E-1,-2.9976806E-1,-2.3408048E-1,2.327175E-1],"split_indices":[9,7,8,6,7,0,8,0,10,10,0,0,0,5,8,0,0,0,0,7,7,0,5,0,0,0,2,2,0,0,0,7,0,0,0,7,0,7,0,5,0,0,0,0,0,0,0,0,0,0,0,0,0,0,0,0,0,0,0,0,0,0,0,0,0],"split_type":[0,0,0,0,0,0,0,0,0,0,0,0,0,0,0,0,0,0,0,0,0,0,0,0,0,0,0,0,0,0,0,0,0,0,0,0,0,0,0,0,0,0,0,0,0,0,0,0,0,0,0,0,0,0,0,0,0,0,0,0,0,0,0,0,0],"sum_hessian":[2.7117793E4,2.0116719E4,7.001074E3,1.7145934E4,2.9707847E3,4.662657E3,2.3384172E3,1.2964475E4,4.181459E3,1.143374E3,1.8274106E3,4.5586055E3,1.04051865E2,7.846603E2,1.553757E3,2.7204663E3,1.4609923E3,8.800015E1,1.0553739E3,4.3870225E3,1.7158276E2,5.2618954E1,7.320413E2,1.2617777E3,2.9197928E2,6.5913074E2,8.018616E2,4.461479E1,1.0107591E3,1.5368891E0,4.3854854E3,1.5757112E2,1.4011647E1,4.3082092E1,9.536861E0,6.770254E2,5.5015934E1,1.2406093E3,2.1168503E1,4.513358E0,2.874659E2,2.6735416E2,3.917766E2,8.008586E2,1.0030322E0,4.0343597E1,4.2711954E0,9.9180743E2,1.8951693E1,1.0372533E0,4.384448E3,1.1400781E2,4.356331E1,1.0064678E0,4.2075623E1,4.2509995E0,5.2858624E0,3.744734E2,3.0255203E2,4.315233E1,1.1863605E1,1.2254897E3,1.5119449E1,2.5182874E0,1.9950708E0],"tree_param":{"num_deleted":"0","num_feature":"12","num_nodes":"65","size_leaf_vector":"1"}},{"base_weights":[-4.7418272E-1,-8.779022E-1,6.7851156E-1,-9.761865E-1,-3.3244368E-1,9.514107E-1,1.3517556E-1,-3.0226886E-1,-8.816687E-1,6.360075E-1,-3.020782E-1,9.9602175E-1,-3.0288613E-1,-8.21339E-1,6.1734664E-1,-3.021935E-1,-6.681586E-1,-3.0026025E-1,8.620857E-1,1.029848E0,2.8369457E-1,7.0346606E-1,-9.3696517E-1,-9.31415E-1,1.0038425E0,-3.0225202E-1,-3.258326E-1,9.587459E-1,-3.0502564E-1,-1.9151396E-1,1.0307735E0,8.048899E-1,-1.5957035E-1,1.0018153E0,-4.428356E-1,-1.0608364E0,4.7866568E-1,4.8849607E-1,-1.0013975E0,1.0429591E0,-2.943796E-1,-1.7589226E-1,8.041095E-1,-1.3288413E-1,3.0333617E-1,-1.1814092E-1,3.0940783E-1,2.920963E-1,-3.4318E-1,-2.896434E-1,1.3419972E-1,4.6249248E-2,3.0901068E-1,1.4047627E-1,-2.0954582E-1,-3.0212846E-1,-3.365671E-1,2.924201E-1,-4.476003E-1,4.363991E-1,-1.5982893E-1,-8.499873E-2,-3.0271515E-1,6.534976E-1,2.949539E-1],"categories":[],"categories_nodes":[],"categories_segments":[],"categories_sizes":[],"default_left":[0,0,0,0,0,0,0,0,0,0,0,0,0,0,0,0,0,0,0,0,0,0,0,0,0,0,0,0,0,0,0,0,0,0,0,0,0,0,0,0,0,0,0,0,0,0,0,0,0,0,0,0,0,0,0,0,0,0,0,0,0,0,0,0,0],"id":8,"left_children":[1,3,5,7,9,11,13,-1,15,17,-1,19,-1,21,23,-1,25,-1,27,29,31,33,35,37,39,-1,41,43,-1,-1,45,47,49,51,53,55,57,59,61,63,-1,-1,-1,-1,-1,-1,-1,-1,-1,-1,-1,-1,-1,-1,-1,-1,-1,-1,-1,-1,-1,-1,-1,-1,-1],"loss_changes":[9.473349E3,8.078955E2,7.828574E2,3.6995117E1,1.5051361E3,3.085039E2,8.1530444E2,0E0,8.49436E1,3.5100827E2,0E0,8.253003E1,0E0,1.051257E2,7.043684E2,0E0,1.3736743E2,0E0,1.520542E2,5.7233887E0,3.6447174E1,1.4922287E1,9.716217E1,2.3861847E1,7.408801E1,0E0,4.6477682E2,5.856958E1,0E0,0E0,3.1433105E0,2.4931087E1,4.2391647E1,6.521034E-1,2.525042E0,5.342407E-1,4.548358E1,1.2339539E1,9.4776917E-1,6.052008E1,0E0,0E0,0E0,0E0,0E0,0E0,0E0,0E0,0E0,0E0,0E0,0E0,0E0,0E0,0E0,0E0,0E0,0E0,0E0,0E0,0E0,0E0,0E0,0E0,0E0],"parents":[2147483647,0,0,1,1,2,2,3,3,4,4,5,5,6,6,8,8,9,9,11,11,13,13,14,14,16,16,18,18,19,19,20,20,21,21,22,22,23,23,24,24,26,26,27,27,30,30,31,31,32,32,33,33,34,34,35,35,36,36,37,37,38,38,39,39],"right_children":[2,4,6,8,10,12,14,-1,16,18,-1,20,-1,22,24,-1,26,-1,28,30,32,34,36,38,40,-1,42,44,-1,-1,46,48,50,52,54,56,58,60,62,64,-1,-1,-1,-1,-1,-1,-1,-1,-1,-1,-1,-1,-1,-1,-1,-1,-1,-1,-1,-1,-1,-1,-1,-1,-1],"split_conditions":[1E0,5.6409337E-2,2E-2,3.6363637E-1,5.9484467E-2,1.3547754E-3,4.8E-2,-3.0226886E-1,3.3333334E-1,3.6363637E-1,-3.020782E-1,7.0710914E-5,-3.0288613E-1,2.5E-1,2.6179189E-2,-3.021935E-1,2.386456E-2,-3.0026025E-1,2.1875E-1,7.3863952E-3,3.3333334E-1,7.0710914E-5,3.4375E-1,1.25E-1,6.666667E-1,-3.0225202E-1,6.1E-2,6.173438E-6,-3.0502564E-1,-1.9151396E-1,5.3655384E-7,2.5E-1,5.6253895E-2,6.005462E-6,3.3333334E-1,5.6033287E-2,2.3310211E-5,6.840076E-5,1.6666667E-1,4.6692133E-2,-2.943796E-1,-1.7589226E-1,8.041095E-1,-1.3288413E-1,3.0333617E-1,-1.1814092E-1,3.0940783E-1,2.920963E-1,-3.4318E-1,-2.896434E-1,1.3419972E-1,4.6249248E-2,3.0901068E-1,1.4047627E-1,-2.0954582E-1,-3.0212846E-1,-3.365671E-1,2.924201E-1,-4.476003E-1,4.363991E-1,-1.5982893E-1,-8.499873E-2,-3.0271515E-1,6.534976E-1,2.949539E-1],"split_indices":[9,7,8,6,7,0,8,0,10,6,0,0,0,5,7,0,7,0,5,7,10,0,5,8,10,0,8,0,0,0,0,5,7,0,10,7,0,0,8,7,0,0,0,0,0,0,0,0,0,0,0,0,0,0,0,0,0,0,0,0,0,0,0,0,0],"split_type":[0,0,0,0,0,0,0,0,0,0,0,0,0,0,0,0,0,0,0,0,0,0,0,0,0,0,0,0,0,0,0,0,0,0,0,0,0,0,0,0,0,0,0,0,0,0,0,0,0,0,0,0,0,0,0,0,0,0,0,0,0,0,0,0,0],"sum_hessian":[2.035453E4,1.5074927E4,5.2796016E3,1.2772673E4,2.3022542E3,3.5139258E3,1.765676E3,9.582111E3,3.1905613E3,9.4518115E2,1.3570729E3,3.4362476E3,7.767824E1,5.9152515E2,1.1741509E3,2.0062428E3,1.1843185E3,1.1428633E2,8.3089484E2,3.2800422E3,1.562052E2,4.133545E1,5.501897E2,2.3421146E2,9.399394E2,5.937703E2,5.905482E2,7.9070526E2,4.0189526E1,1.4366974E0,3.2786055E3,7.1416794E1,8.47884E1,3.289887E1,8.43658E0,5.0615085E2,4.4038845E1,1.0720342E1,2.2349112E2,9.222412E2,1.7698189E1,5.442004E2,4.634781E1,2.8212166E1,7.624931E2,1.071987E0,3.2775337E3,6.618564E1,5.2311597E0,3.6168858E1,4.8619545E1,1.2682259E0,3.1630642E1,1.6663617E0,6.770218E0,2.785006E2,2.2765022E2,3.5586243E1,8.452602E0,5.290682E0,5.42966E0,2.7577481E0,2.2073337E2,4.4356495E1,8.778847E2],"tree_param":{"num_deleted":"0","num_feature":"12","num_nodes":"65","size_leaf_vector":"1"}},{"base_weights":[-4.689054E-1,-8.69228E-1,6.621145E-1,-9.671887E-1,-3.2886437E-1,9.561076E-1,1.5779757E-1,-3.0165792E-1,-8.548741E-1,6.113316E-1,-3.014017E-1,1.0192478E0,1.335196E-2,-7.114692E-1,5.5604964E-1,-3.015306E-1,-6.176301E-1,-3.0011445E-1,8.361496E-1,-8.7102816E-2,1.0199705E0,3.1455043E-1,-2.9639214E-1,-3.2743707E-1,-9.255726E-1,9.230806E-1,-5.0784516E-1,-2.6019558E-1,-2.9888916E-1,-2.9190552E-1,9.221211E-1,4.5882E-1,3.0614305E-1,4.738275E-1,-3.4147525E-1,-9.6423125E-1,1.8080184E0,-4.7220013E-1,-9.85176E-1,9.68872E-1,-3.03033E-1,7.995834E-1,-7.821588E-1,-2.8911865E-1,2.1807408E-2,2.8199023E-1,-1.4052347E0,1.7586769E-1,2.264386E-2,2.4860713E-1,4.0083792E-2,2.1259196E-2,-3.005307E-1,5.8631116E-1,2.5951934E-1,-2.9345435E-1,2.3550992E-1,-2.3011437E-1,-3.0322936E-1,2.948629E-1,-2.53392E-1,3.0850852E-1,-2.3670632E-1,-3.2254505E-1,2.760926E-1],"categories":[],"categories_nodes":[],"categories_segments":[],"categories_sizes":[],"default_left":[0,0,0,0,0,0,0,0,0,0,0,0,0,0,0,0,0,0,0,0,0,0,0,0,0,0,0,0,0,0,0,0,0,0,0,0,0,0,0,0,0,0,0,0,0,0,0,0,0,0,0,0,0,0,0,0,0,0,0,0,0,0,0,0,0],"id":9,"left_children":[1,3,5,7,9,11,13,-1,15,17,-1,19,21,23,25,-1,27,-1,29,-1,31,33,-1,35,37,39,41,43,-1,-1,45,47,-1,49,-1,51,53,55,57,59,-1,61,63,-1,-1,-1,-1,-1,-1,-1,-1,-1,-1,-1,-1,-1,-1,-1,-1,-1,-1,-1,-1,-1,-1],"loss_changes":[6.9141816E3,5.966865E2,5.917711E2,4.024707E1,1.1013196E3,1.5010205E2,5.0978995E2,0E0,8.620471E1,2.6356168E2,0E0,2.5332031E0,4.8358585E1,3.7746475E1,3.9473047E2,0E0,1.279314E2,0E0,9.9952515E1,0E0,2.0288086E-1,2.9054508E1,0E0,2.2910144E2,7.548828E0,6.746442E1,9.373931E1,1.14491684E2,0E0,0E0,6.528186E1,1.4849764E-1,0E0,1.3382103E1,0E0,5.1004257E0,3.6573715E0,2.3910091E1,6.825714E-1,1.9476135E1,0E0,1.7355194E1,1.0828633E2,0E0,0E0,0E0,0E0,0E0,0E0,0E0,0E0,0E0,0E0,0E0,0E0,0E0,0E0,0E0,0E0,0E0,0E0,0E0,0E0,0E0,0E0],"parents":[2147483647,0,0,1,1,2,2,3,3,4,4,5,5,6,6,8,8,9,9,11,11,12,12,13,13,14,14,16,16,18,18,20,20,21,21,23,23,24,24,25,25,26,26,27,27,30,30,31,31,33,33,35,35,36,36,37,37,38,38,39,39,41,41,42,42],"right_children":[2,4,6,8,10,12,14,-1,16,18,-1,20,22,24,26,-1,28,-1,30,-1,32,34,-1,36,38,40,42,44,-1,-1,46,48,-1,50,-1,52,54,56,58,60,-1,62,64,-1,-1,-1,-1,-1,-1,-1,-1,-1,-1,-1,-1,-1,-1,-1,-1,-1,-1,-1,-1,-1,-1],"split_conditions":[1E0,5.6409337E-2,9.259259E-3,3.6363637E-1,5.9484467E-2,7.0710914E-5,4.4152997E-2,-3.0165792E-1,3.3333334E-1,3.3333334E-1,-3.014017E-1,1.8218927E-7,1.3547754E-3,6.956626E-6,5.86226E-2,-3.015306E-1,7.835915E-6,-3.0011445E-1,3.6363637E-1,-8.7102816E-2,2.2172821E-6,5.9484467E-2,-2.9639214E-1,3.4375E-1,2.5E-1,1.3547754E-3,2.5E-1,6.7161295E-6,-2.9888916E-1,-2.9190552E-1,2.079348E-5,4.096805E-2,3.0614305E-1,3.3333334E-1,-3.4147525E-1,2.5E-1,7.6530613E-3,2.386456E-2,7.0176784E-6,6.666667E-1,-3.03033E-1,5.9484467E-2,3.4375E-1,-2.8911865E-1,2.1807408E-2,2.8199023E-1,-1.4052347E0,1.7586769E-1,2.264386E-2,2.4860713E-1,4.0083792E-2,2.1259196E-2,-3.005307E-1,5.8631116E-1,2.5951934E-1,-2.9345435E-1,2.3550992E-1,-2.3011437E-1,-3.0322936E-1,2.948629E-1,-2.53392E-1,3.0850852E-1,-2.3670632E-1,-3.2254505E-1,2.760926E-1],"split_indices":[9,7,8,6,7,0,7,0,10,10,0,0,0,0,7,0,0,0,6,0,0,7,0,5,5,0,5,0,0,0,0,7,0,10,0,5,1,7,0,10,0,7,5,0,0,0,0,0,0,0,0,0,0,0,0,0,0,0,0,0,0,0,0,0,0],"split_type":[0,0,0,0,0,0,0,0,0,0,0,0,0,0,0,0,0,0,0,0,0,0,0,0,0,0,0,0,0,0,0,0,0,0,0,0,0,0,0,0,0,0,0,0,0,0,0,0,0,0,0,0,0,0,0,0,0,0,0,0,0,0,0,0,0],"sum_hessian":[1.5268481E4,1.1277176E4,3.991306E3,9.54585E3,1.7313254E3,2.5208643E3,1.4704415E3,7.1107173E3,2.4351328E3,7.2407495E2,1.0072505E3,2.3625535E3,1.5831091E2,4.617629E2,1.00867865E3,1.4890187E3,9.46114E2,8.821496E1,6.3586E2,1.0819962E0,2.3614714E3,1.2223003E2,3.608089E1,1.6619405E2,2.9556888E2,7.5005206E2,2.5862665E2,4.8756998E2,4.5854404E2,2.8377235E1,6.074828E2,2.9464931E0,2.358525E3,1.1076069E2,1.1469336E1,1.2844124E2,3.7752796E1,3.5379303E1,2.6018958E2,7.3318396E2,1.6868069E1,4.4520237E1,2.141064E2,1.5599353E2,3.3157645E2,6.063848E2,1.0979632E0,1.8142573E0,1.1322359E0,5.35105E1,5.7250187E1,4.463843E0,1.239774E2,3.1752079E1,6.0007153E0,2.538494E1,9.994364E0,3.0570303E1,2.2961926E2,7.2802014E2,5.1638584E0,3.9224148E1,5.2960896E0,1.8298372E2,3.1122673E1],"tree_param":{"num_deleted":"0","num_feature":"12","num_nodes":"65","size_leaf_vector":"1"}},{"base_weights":[-4.6151242E-1,-8.555553E-1,6.4495534E-1,-9.594169E-1,-3.4863806E-1,9.3969643E-1,1.4842045E-1,-3.0119938E-1,-8.334184E-1,3.5255748E-1,-3.008557E-1,1.01293E0,3.5576709E-3,-6.149457E-1,5.7336473E-1,-3.010035E-1,-5.921265E-1,-2.9981622E-1,7.025634E-1,-7.248918E-2,1.0138568E0,2.49209E-1,-2.9281533E-1,-2.0991737E-1,-8.7308854E-1,9.733847E-1,-4.9196407E-1,-3.008523E-1,-2.6621786E-1,-7.374351E-1,8.676685E-1,4.0483928E-1,3.043663E-1,3.7552685E-1,-3.1605452E-1,-9.0757483E-1,1.6465147E0,-5.197843E-1,-9.5467454E-1,9.787687E-1,-2.0102946E-1,7.622102E-1,-7.5855625E-1,-1.5310824E-1,7.0972353E-1,-2.8069282E-1,4.3226925E-1,2.988642E-1,-2.804807E-1,1.590396E-1,1.6640645E-2,3.5763945E-2,3.0912653E-1,1.1767444E-1,-2.9957947E-1,5.180899E-1,-2.1459365E-1,2.746582E-1,-2.3519741E-1,-2.937335E-1,-1.278738E-1,2.3036273E-1,3.0425143E-1,2.9801998E-1,-2.138771E-1,-3.166803E-1,2.4514948E-1],"categories":[],"categories_nodes":[],"categories_segments":[],"categories_sizes":[],"default_left":[0,0,0,0,0,0,0,0,0,0,0,0,0,0,0,0,0,0,0,0,0,0,0,0,0,0,0,0,0,0,0,0,0,0,0,0,0,0,0,0,0,0,0,0,0,0,0,0,0,0,0,0,0,0,0,0,0,0,0,0,0,0,0,0,0,0,0],"id":10,"left_children":[1,3,5,7,9,11,13,-1,15,17,-1,19,21,23,25,-1,27,-1,29,-1,31,33,-1,35,37,39,41,-1,43,45,47,49,-1,51,-1,53,55,57,59,61,-1,63,65,-1,-1,-1,-1,-1,-1,-1,-1,-1,-1,-1,-1,-1,-1,-1,-1,-1,-1,-1,-1,-1,-1,-1,-1],"loss_changes":[5.022755E3,4.4689062E2,4.4264136E2,3.876123E1,6.6369336E2,1.3014136E2,3.6631238E2,0E0,7.518762E1,3.3131583E2,0E0,2.2921143E0,3.362895E1,4.204808E1,3.095417E2,0E0,1.0229111E2,0E0,1.3273297E2,0E0,3.3666992E-1,1.8779543E1,0E0,2.0683116E2,6.605377E0,5.3243713E0,6.699562E1,0E0,2.7658856E2,2.6256704E1,1.1653555E2,1.3154358E-1,0E0,1.7096016E1,0E0,1.41020355E1,9.531586E0,1.9077679E1,2.1518555E0,3.1505432E0,0E0,1.2754086E1,7.777564E1,0E0,0E0,0E0,0E0,0E0,0E0,0E0,0E0,0E0,0E0,0E0,0E0,0E0,0E0,0E0,0E0,0E0,0E0,0E0,0E0,0E0,0E0,0E0,0E0],"parents":[2147483647,0,0,1,1,2,2,3,3,4,4,5,5,6,6,8,8,9,9,11,11,12,12,13,13,14,14,16,16,18,18,20,20,21,21,23,23,24,24,25,25,26,26,28,28,29,29,30,30,31,31,33,33,35,35,36,36,37,37,38,38,39,39,41,41,42,42],"right_children":[2,4,6,8,10,12,14,-1,16,18,-1,20,22,24,26,-1,28,-1,30,-1,32,34,-1,36,38,40,42,-1,44,46,48,50,-1,52,-1,54,56,58,60,62,-1,64,66,-1,-1,-1,-1,-1,-1,-1,-1,-1,-1,-1,-1,-1,-1,-1,-1,-1,-1,-1,-1,-1,-1,-1,-1],"split_conditions":[1E0,5.6356013E-2,9.259259E-3,3.6363637E-1,5.9484467E-2,7.0710914E-5,5.6444112E-2,-3.0119938E-1,3.3333334E-1,3.3333334E-1,-3.008557E-1,1.8218927E-7,1.3547754E-3,6.9748767E-6,5.86226E-2,-3.010035E-1,2.386456E-2,-2.9981622E-1,6.407958E-6,-7.248918E-2,2.2172821E-6,5.9484467E-2,-2.9281533E-1,3.4375E-1,2.5E-1,1.3547754E-3,2.5E-1,-3.008523E-1,1.25E-1,2.2222222E-1,8.137464E-6,7.4074073E-3,3.043663E-1,5.6356013E-2,-3.1605452E-1,2.5E-1,4.375E-1,7.0710914E-5,4.4152997E-2,6.1E-2,-2.0102946E-1,5.9484467E-2,3.4375E-1,-1.5310824E-1,7.0972353E-1,-2.8069282E-1,4.3226925E-1,2.988642E-1,-2.804807E-1,1.590396E-1,1.6640645E-2,3.5763945E-2,3.0912653E-1,1.1767444E-1,-2.9957947E-1,5.180899E-1,-2.1459365E-1,2.746582E-1,-2.3519741E-1,-2.937335E-1,-1.278738E-1,2.3036273E-1,3.0425143E-1,2.9801998E-1,-2.138771E-1,-3.166803E-1,2.4514948E-1],"split_indices":[9,7,8,6,7,0,7,0,10,10,0,0,0,0,7,0,7,0,0,0,0,7,0,5,5,0,5,0,8,2,0,8,0,7,0,5,5,0,7,8,0,7,5,0,0,0,0,0,0,0,0,0,0,0,0,0,0,0,0,0,0,0,0,0,0,0,0],"split_type":[0,0,0,0,0,0,0,0,0,0,0,0,0,0,0,0,0,0,0,0,0,0,0,0,0,0,0,0,0,0,0,0,0,0,0,0,0,0,0,0,0,0,0,0,0,0,0,0,0,0,0,0,0,0,0,0,0,0,0,0,0,0,0,0,0,0,0],"sum_hessian":[1.1517929E4,8.493421E3,3.0245083E3,7.048392E3,1.4450287E3,1.8973541E3,1.1271542E3,5.2011445E3,1.8472472E3,6.976931E2,7.473356E2,1.7596183E3,1.3773587E2,4.029147E2,7.242395E2,1.0820618E3,7.651853E2,1.4309892E2,5.545942E2,1.10722E0,1.758511E3,1.1071744E2,2.7018425E1,1.5754243E2,2.4537227E2,5.265949E2,1.9764462E2,3.376266E2,4.2755875E2,5.669043E1,4.9790372E2,2.6768625E0,1.7558342E3,1.01579575E2,9.137865E0,1.1488074E2,4.2661697E1,4.7414993E1,1.9795728E2,5.252785E2,1.3163637E0,3.4321434E1,1.6332318E2,3.9200238E2,3.555636E1,5.2485245E1,4.2051826E0,4.6517877E2,3.2724976E1,1.5894539E0,1.0874087E0,7.385581E1,2.7723763E1,7.301741E0,1.07578995E2,4.151632E1,1.1453805E0,6.9878945E0,4.0427097E1,1.8839223E2,9.565046E0,7.876523E1,4.465133E2,2.9953548E1,4.367886E0,1.3769576E2,2.5627428E1],"tree_param":{"num_deleted":"0","num_feature":"12","num_nodes":"67","size_leaf_vector":"1"}},{"base_weights":[-4.538166E-1,-8.422559E-1,6.29585E-1,-9.5002383E-1,-3.466068E-1,9.2189157E-1,1.4285357E-1,-3.0085185E-1,-8.05769E-1,2.712357E-1,-3.0038953E-1,1.007852E0,-1.4876922E-3,-6.7192763E-1,5.2038044E-1,-3.0057153E-1,-5.499603E-1,-2.988022E-1,6.160943E-1,1.7498444E-1,3.0300406E-1,1.975302E-1,-2.8863296E-1,-3.6653382E-1,-8.9175344E-1,-2.831924E-1,9.655859E-1,-2.2400169E-1,-3.0080783E-1,8.037049E-1,-3.021046E-1,2.5725397E-1,-2.1007358E-1,7.079639E-1,-1.8844105E-1,-9.4495255E-1,1.2855126E0,-3.7752816E-1,-9.769337E-1,5.965705E-1,-7.2372985E-1,1.0202211E0,-7.570433E-1,6.1812247E-3,-2.945931E-1,-1.4736152E-1,2.716254E-1,2.8597173E-1,-3.4191546E-1,-2.7083695E-1,1.3626532E-1,3.2494287E-4,-2.9805332E-1,4.1686574E-1,-2.0886722E-1,-2.826279E-1,2.1106853E-1,-1.3253665E-1,-2.9507357E-1,-3.134343E-1,2.675363E-1,1.1313009E-1,-2.7180883E-1,6.017854E-1,2.9865035E-1,-2.661124E-1,9.592502E-2],"categories":[],"categories_nodes":[],"categories_segments":[],"categories_sizes":[],"default_left":[0,0,0,0,0,0,0,0,0,0,0,0,0,0,0,0,0,0,0,0,0,0,0,0,0,0,0,0,0,0,0,0,0,0,0,0,0,0,0,0,0,0,0,0,0,0,0,0,0,0,0,0,0,0,0,0,0,0,0,0,0,0,0,0,0,0,0],"id":11,"left_children":[1,3,5,7,9,11,13,-1,15,17,-1,19,21,23,25,-1,27,-1,29,31,-1,33,-1,35,37,39,41,43,-1,45,-1,-1,-1,47,49,51,53,55,57,59,61,63,65,-1,-1,-1,-1,-1,-1,-1,-1,-1,-1,-1,-1,-1,-1,-1,-1,-1,-1,-1,-1,-1,-1,-1,-1],"loss_changes":[3.6555596E3,3.4117725E2,3.2606305E2,3.919922E1,4.6278146E2,1.1368628E2,2.653306E2,0E0,7.031311E1,2.5804135E2,0E0,2.182129E0,2.3701002E1,1.8013954E1,2.110778E2,0E0,9.055696E1,0E0,1.4200003E2,3.3491833E0,0E0,2.0366951E1,0E0,1.12102394E2,6.558731E0,8.2148895E1,3.6479706E1,6.657093E1,0E0,5.5259064E1,0E0,0E0,0E0,2.122222E1,2.762011E1,3.9759293E0,7.259346E0,1.5375254E1,4.5684814E-2,3.528662E1,2.862677E1,6.974121E0,1.9965959E0,0E0,0E0,0E0,0E0,0E0,0E0,0E0,0E0,0E0,0E0,0E0,0E0,0E0,0E0,0E0,0E0,0E0,0E0,0E0,0E0,0E0,0E0,0E0,0E0],"parents":[2147483647,0,0,1,1,2,2,3,3,4,4,5,5,6,6,8,8,9,9,11,11,12,12,13,13,14,14,16,16,18,18,19,19,21,21,23,23,24,24,25,25,26,26,27,27,29,29,33,33,34,34,35,35,36,36,37,37,38,38,39,39,40,40,41,41,42,42],"right_children":[2,4,6,8,10,12,14,-1,16,18,-1,20,22,24,26,-1,28,-1,30,32,-1,34,-1,36,38,40,42,44,-1,46,-1,-1,-1,48,50,52,54,56,58,60,62,64,66,-1,-1,-1,-1,-1,-1,-1,-1,-1,-1,-1,-1,-1,-1,-1,-1,-1,-1,-1,-1,-1,-1,-1,-1],"split_conditions":[1E0,5.6344684E-2,9.259259E-3,3.6363637E-1,5.9484467E-2,7.0710914E-5,4.4152997E-2,-3.0085185E-1,3.3333334E-1,3.6363637E-1,-3.0038953E-1,2.2172821E-6,1.3547754E-3,7.0013652E-6,6.1E-2,-3.0057153E-1,2.1875E-1,-2.988022E-1,2.1875E-1,3.3333334E-1,3.0300406E-1,3.3333334E-1,-2.8863296E-1,3.4375E-1,2.5E-1,2.4E-2,5.9484467E-2,8.671918E-6,-3.0080783E-1,6.173438E-6,-3.021046E-1,2.5725397E-1,-2.1007358E-1,2.5E-1,5.6208488E-2,2.5E-1,4.375E-1,2.386456E-2,1.5E-2,5.6527782E-2,2.5E-1,4.6692133E-2,7.6530613E-3,6.1812247E-3,-2.945931E-1,-1.4736152E-1,2.716254E-1,2.8597173E-1,-3.4191546E-1,-2.7083695E-1,1.3626532E-1,3.2494287E-4,-2.9805332E-1,4.1686574E-1,-2.0886722E-1,-2.826279E-1,2.1106853E-1,-1.3253665E-1,-2.9507357E-1,-3.134343E-1,2.675363E-1,1.1313009E-1,-2.7180883E-1,6.017854E-1,2.9865035E-1,-2.661124E-1,9.592502E-2],"split_indices":[9,7,8,6,7,0,7,0,10,6,0,0,0,0,8,0,5,0,5,10,0,10,0,5,5,8,7,0,0,0,0,0,0,5,7,5,5,7,8,7,5,7,1,0,0,0,0,0,0,0,0,0,0,0,0,0,0,0,0,0,0,0,0,0,0,0,0],"split_type":[0,0,0,0,0,0,0,0,0,0,0,0,0,0,0,0,0,0,0,0,0,0,0,0,0,0,0,0,0,0,0,0,0,0,0,0,0,0,0,0,0,0,0,0,0,0,0,0,0,0,0,0,0,0,0,0,0,0,0,0,0,0,0,0,0,0,0],"sum_hessian":[8.684168E3,6.392459E3,2.2917087E3,5.2500376E3,1.1424218E3,1.4312672E3,8.604415E2,3.8386506E3,1.4113868E3,5.880529E2,5.5436884E2,1.3092897E3,1.21977486E2,2.7219925E2,5.8824225E2,7.9721893E2,6.1416785E2,1.2539157E2,4.6266132E2,3.601364E0,1.3056884E3,1.017017E2,2.0275784E1,1.150429E2,1.5715636E2,2.0984564E2,3.783966E2,3.5794742E2,2.5622046E2,4.1517703E2,4.7484287E1,2.0348065E0,1.5665574E0,4.34312E1,5.8270504E1,8.5526245E1,2.9516657E1,2.31051E1,1.3405125E2,6.989987E1,1.3994576E2,3.671595E2,1.1237128E1,2.713523E2,8.659512E1,2.9957563E1,3.8521948E2,3.876882E1,4.6623745E0,2.7404358E1,3.0866148E1,4.2233305E0,8.130292E1,2.8328264E1,1.1883924E0,1.5263036E1,7.842064E0,2.4717715E0,1.3157948E2,1.0268719E1,5.9631157E1,1.9730858E1,1.20214905E2,7.0215597E0,3.601379E2,1.018388E1,1.0532486E0],"tree_param":{"num_deleted":"0","num_feature":"12","num_nodes":"67","size_leaf_vector":"1"}},{"base_weights":[-4.4328326E-1,-8.2237387E-1,6.1158615E-1,-3.0062318E-1,-4.769654E-1,9.083437E-1,1.3511467E-1,-3.003084E-1,-3.9203096E-2,1.0034789E0,-7.986797E-3,-5.707238E-1,5.418318E-1,-7.478442E-1,3.6382705E-1,1.5039007E-1,3.0192015E-1,1.6748038E-1,-2.8364983E-1,-2.1877994E-1,-8.416714E-1,9.4628984E-1,-4.6554607E-1,-2.9950154E-1,-3.859704E-1,2.6324134E0,2.3762567E-1,2.34679E-1,-1.5546034E-1,6.5846616E-1,-1.608593E-1,-8.7359875E-1,1.307386E0,-5.1179606E-1,-9.43366E-1,6.796164E-1,3.0147696E-1,6.4900446E-1,-7.0987475E-1,-2.9816002E-1,5.5743796E-1,4.0159038E-1,3.576199E0,-1.8103155E-1,1.7120206E-1,2.6941168E-1,-3.1674597E-1,-3.2242405E-1,6.500516E-2,9.462076E-2,-2.9707995E-1,4.1722676E-1,-1.892195E-1,2.0725408E-1,-2.5427914E-1,-1.9412735E-1,-3.0466014E-1,2.287238E-1,-3.340787E-1,2.7860266E-1,-1.8676865E-1,-3.0762964E-1,2.0719413E-1],"categories":[],"categories_nodes":[],"categories_segments":[],"categories_sizes":[],"default_left":[0,0,0,0,0,0,0,0,0,0,0,0,0,0,0,0,0,0,0,0,0,0,0,0,0,0,0,0,0,0,0,0,0,0,0,0,0,0,0,0,0,0,0,0,0,0,0,0,0,0,0,0,0,0,0,0,0,0,0,0,0,0,0],"id":12,"left_children":[1,3,5,-1,7,9,11,-1,13,15,17,19,21,23,25,27,-1,29,-1,31,33,35,37,-1,39,41,43,-1,-1,45,47,49,51,53,55,57,-1,59,61,-1,-1,-1,-1,-1,-1,-1,-1,-1,-1,-1,-1,-1,-1,-1,-1,-1,-1,-1,-1,-1,-1,-1,-1],"loss_changes":[2.6411587E3,3.0107202E2,2.4679791E2,0E0,3.8181168E2,9.3800964E1,1.9304866E2,0E0,2.595834E2,2.2780762E0,1.6968706E1,2.3266953E1,1.7419861E2,2.9482605E1,1.6526877E2,2.3075387E0,0E0,1.4119566E1,0E0,1.0939807E2,4.1667786E0,4.0800476E0,3.3912453E1,0E0,1.8793893E2,3.49797E2,1.544097E2,0E0,0E0,1.5335729E1,1.8483587E1,1.0910534E1,6.197075E0,1.4657936E1,1.5826721E0,9.459417E0,0E0,8.618544E0,4.5447117E1,0E0,0E0,0E0,0E0,0E0,0E0,0E0,0E0,0E0,0E0,0E0,0E0,0E0,0E0,0E0,0E0,0E0,0E0,0E0,0E0,0E0,0E0,0E0,0E0],"parents":[2147483647,0,0,1,1,2,2,4,4,5,5,6,6,8,8,9,9,10,10,11,11,12,12,13,13,14,14,15,15,17,17,19,19,20,20,21,21,22,22,24,24,25,25,26,26,29,29,30,30,31,31,32,32,33,33,34,34,35,35,37,37,38,38],"right_children":[2,4,6,-1,8,10,12,-1,14,16,18,20,22,24,26,28,-1,30,-1,32,34,36,38,-1,40,42,44,-1,-1,46,48,50,52,54,56,58,-1,60,62,-1,-1,-1,-1,-1,-1,-1,-1,-1,-1,-1,-1,-1,-1,-1,-1,-1,-1,-1,-1,-1,-1,-1,-1],"split_conditions":[1E0,3.3333334E-1,9.259259E-3,-3.0062318E-1,3.6363637E-1,7.0710914E-5,5.6527782E-2,-3.003084E-1,4.7025762E-2,2.2172821E-6,1.3547754E-3,7.0176784E-6,5.86226E-2,2.386456E-2,5.5937883E-2,3.3333334E-1,3.0192015E-1,3.3333334E-1,-2.8364983E-1,3.4375E-1,2.5E-1,6.1E-2,2.5E-1,-2.9950154E-1,2.8E-2,5.5836573E-2,5.6315634E-2,2.34679E-1,-1.5546034E-1,2.5E-1,5.556645E-2,2.5E-1,4.375E-1,3.3333334E-1,1.0001189E-5,7.0710914E-5,3.0147696E-1,5.9484467E-2,3.4375E-1,-2.9816002E-1,5.5743796E-1,4.0159038E-1,3.576199E0,-1.8103155E-1,1.7120206E-1,2.6941168E-1,-3.1674597E-1,-3.2242405E-1,6.500516E-2,9.462076E-2,-2.9707995E-1,4.1722676E-1,-1.892195E-1,2.0725408E-1,-2.5427914E-1,-1.9412735E-1,-3.0466014E-1,2.287238E-1,-3.340787E-1,2.7860266E-1,-1.8676865E-1,-3.0762964E-1,2.0719413E-1],"split_indices":[9,10,8,0,6,0,7,0,7,0,0,0,7,7,7,10,0,10,0,5,5,8,5,0,8,7,7,0,0,5,7,5,5,10,0,0,0,7,5,0,0,0,0,0,0,0,0,0,0,0,0,0,0,0,0,0,0,0,0,0,0,0,0],"split_type":[0,0,0,0,0,0,0,0,0,0,0,0,0,0,0,0,0,0,0,0,0,0,0,0,0,0,0,0,0,0,0,0,0,0,0,0,0,0,0,0,0,0,0,0,0,0,0,0,0,0,0,0,0,0,0,0,0,0,0,0,0,0,0],"sum_hessian":[6.602437E3,4.8571377E3,1.7452993E3,3.1936814E3,1.6634562E3,1.0749125E3,6.703868E2,7.5651526E2,9.069409E2,9.737236E2,1.01188934E2,2.44926E2,4.2546082E2,3.2849615E2,5.7844476E2,3.5025496E0,9.70221E2,8.5927826E1,1.5261108E1,1.0732503E2,1.3760097E2,3.0361948E2,1.21841324E2,1.9308273E2,1.354134E2,2.9436563E1,5.490082E2,1.7133124E0,1.7892373E0,3.4032127E1,5.18957E1,7.540097E1,3.1924059E1,3.3845657E1,1.0375531E2,5.699377E1,2.466257E2,2.1609467E1,1.0023186E2,1.069887E2,2.842471E1,2.6841831E1,2.594731E0,1.55501E2,3.935072E2,3.0277035E1,3.755094E0,1.4631574E1,3.7264126E1,6.585224E0,6.881574E1,3.0878225E1,1.0458335E0,7.156817E0,2.668884E1,2.2274973E1,8.148034E1,5.502786E1,1.9659121E0,1.7934563E1,3.6749048E0,8.201952E1,1.8212334E1],"tree_param":{"num_deleted":"0","num_feature":"12","num_nodes":"63","size_leaf_vector":"1"}},{"base_weights":[-4.3530047E-1,-8.0090576E-1,5.9412855E-1,-3.004046E-1,-4.5457014E-1,9.09442E-1,1.5278445E-1,-2.999876E-1,-7.660646E-2,1.002211E0,3.2933757E-2,-6.038159E-1,4.8977715E-1,1.8607074E-1,-9.734973E-1,3.063181E-1,3.0138743E-1,1.8053243E-1,-2.9633257E-1,-3.1653422E-1,-4.257745E-1,7.108899E-1,-9.526887E-1,-4.621792E-1,5.693195E-1,-1.0223264E0,2.8783572E-1,2.0907898E-1,-7.181411E-2,2.7606457E-1,-1.9504897E-1,-7.064202E-1,1.5459059E-1,2.3153877E-1,1.0041494E0,-2.9867133E-1,2.2268033E-2,1.5324607E-1,-1.8243459E-1,-1.00062154E-1,2.494337E-1,-1.3255271E-1,-3.1740123E-1,-2.687567E-1,1.3174252E-1,1.5269206E-1,-2.9673645E-1,3.543728E-1,-2.8938457E-1,2.2210465E-1,-1.0750843E-1,3.0754307E-1,9.065834E-2],"categories":[],"categories_nodes":[],"categories_segments":[],"categories_sizes":[],"default_left":[0,0,0,0,0,0,0,0,0,0,0,0,0,0,0,0,0,0,0,0,0,0,0,0,0,0,0,0,0,0,0,0,0,0,0,0,0,0,0,0,0,0,0,0,0,0,0,0,0,0,0,0,0],"id":13,"left_children":[1,3,5,-1,7,9,11,-1,13,15,17,19,21,23,25,27,-1,29,-1,-1,31,33,35,37,39,41,-1,-1,-1,-1,43,45,47,49,51,-1,-1,-1,-1,-1,-1,-1,-1,-1,-1,-1,-1,-1,-1,-1,-1,-1,-1],"loss_changes":[1.9079917E3,2.5920654E2,1.8478549E2,0E0,2.829551E2,6.297528E1,1.4179245E2,0E0,1.9150063E2,8.692627E-1,1.1507322E1,1.3327438E1,1.2331199E2,1.565217E2,1.8358917E1,9.897471E-1,0E0,1.8665985E1,0E0,0E0,2.0408459E1,4.6714478E1,2.3432121E0,3.357142E1,9.392938E1,3.261795E0,0E0,0E0,0E0,0E0,2.037524E1,2.9429214E1,4.8759224E1,3.8703026E1,2.7393188E0,0E0,0E0,0E0,0E0,0E0,0E0,0E0,0E0,0E0,0E0,0E0,0E0,0E0,0E0,0E0,0E0,0E0,0E0],"parents":[2147483647,0,0,1,1,2,2,4,4,5,5,6,6,8,8,9,9,10,10,11,11,12,12,13,13,14,14,15,15,17,17,20,20,21,21,22,22,23,23,24,24,25,25,30,30,31,31,32,32,33,33,34,34],"right_children":[2,4,6,-1,8,10,12,-1,14,16,18,20,22,24,26,28,-1,30,-1,-1,32,34,36,38,40,42,-1,-1,-1,-1,44,46,48,50,52,-1,-1,-1,-1,-1,-1,-1,-1,-1,-1,-1,-1,-1,-1,-1,-1,-1,-1],"split_conditions":[1E0,3.3333334E-1,8.281574E-3,-3.004046E-1,3.6363637E-1,7.0710914E-5,4.4152997E-2,-2.999876E-1,7.835915E-6,2.2172821E-6,2.5E-1,2.2385873E-2,5.9484467E-2,6.8367813E-6,4.4444445E-1,3.3333334E-1,3.0138743E-1,3.3333334E-1,-2.9633257E-1,-3.1653422E-1,3.4375E-1,6.896552E-2,2.45E-1,2E-1,5.556645E-2,8.671918E-6,2.8783572E-1,2.0907898E-1,-7.181411E-2,2.7606457E-1,5.6253895E-2,2.5E-1,4.375E-1,2.5E-2,7.0710914E-5,-2.9867133E-1,2.2268033E-2,1.5324607E-1,-1.8243459E-1,-1.00062154E-1,2.494337E-1,-1.3255271E-1,-3.1740123E-1,-2.687567E-1,1.3174252E-1,1.5269206E-1,-2.9673645E-1,3.543728E-1,-2.8938457E-1,2.2210465E-1,-1.0750843E-1,3.0754307E-1,9.065834E-2],"split_indices":[9,10,8,0,6,0,7,0,0,0,5,7,7,0,2,10,0,10,0,0,5,8,8,4,7,0,0,0,0,0,7,5,5,8,0,0,0,0,0,0,0,0,0,0,0,0,0,0,0,0,0,0,0],"split_type":[0,0,0,0,0,0,0,0,0,0,0,0,0,0,0,0,0,0,0,0,0,0,0,0,0,0,0,0,0,0,0,0,0,0,0,0,0,0,0,0,0,0,0,0,0,0,0,0,0,0,0,0,0],"sum_hessian":[5.067264E3,3.7394187E3,1.3278457E3,2.3673918E3,1.372027E3,7.7388873E2,5.53957E2,5.6094995E2,8.11077E2,6.996906E2,7.4198135E1,1.7045886E2,3.8349808E2,6.2795654E2,1.8312045E2,2.8606217E0,6.9682996E2,6.554342E1,8.654715E0,4.6829506E1,1.2362936E2,3.329656E2,5.0532467E1,2.3323793E2,3.9471863E2,1.7906805E2,4.052411E0,1.5057032E0,1.3549185E0,2.1584352E1,4.3959064E1,8.318607E1,4.0443283E1,1.270629E2,2.0590271E2,4.8536194E1,1.9962713E0,3.0093729E1,2.031442E2,8.8751854E1,3.0596677E2,1.1143594E1,1.6792445E2,2.0686758E1,2.3272308E1,1.5546769E1,6.7639305E1,2.1064919E1,1.9378365E1,6.808344E1,5.8979454E1,1.9947636E2,6.426343E0],"tree_param":{"num_deleted":"0","num_feature":"12","num_nodes":"53","size_leaf_vector":"1"}},{"base_weights":[-4.187121E-1,-7.688804E-1,5.690012E-1,-3.0022275E-1,-4.1071537E-1,8.951087E-1,1.3957165E-1,-2.9966658E-1,-7.08547E-2,9.9878645E-1,2.4126327E-2,-4.8799288E-1,5.211603E-1,1.5536718E-1,-3.0203024E-1,2.57347E-1,3.006952E-1,1.7235816E-1,-3.0497822E-1,-3.0860472E-1,-3.2401848E-1,9.0839577E-1,-4.2597213E-1,2.6865202E-1,-1.0059098E0,1.8206339E-1,-5.7162415E-2,-1.4827964E-1,2.9314148E-1,-6.600166E-1,7.3753107E-1,-1.8532613E-1,9.2674345E-1,4.8447378E-2,-9.303737E-1,3.0664748E-1,1.8210702E-2,-3.4304515E-1,2.7152622E-1,1.0421661E-1,-2.6741275E-1,-6.233992E-2,-2.996122E-1,3.7514526E-1,-2.8391245E-1,-3.2254833E-1,1.9183475E-1,2.85168E-1,6.957131E-2,2.8330508E-1,-8.400681E-2,-2.955955E-1,1.7715292E-2],"categories":[],"categories_nodes":[],"categories_segments":[],"categories_sizes":[],"default_left":[0,0,0,0,0,0,0,0,0,0,0,0,0,0,0,0,0,0,0,0,0,0,0,0,0,0,0,0,0,0,0,0,0,0,0,0,0,0,0,0,0,0,0,0,0,0,0,0,0,0,0,0,0],"id":14,"left_children":[1,3,5,-1,7,9,11,-1,13,15,17,19,21,23,-1,25,-1,27,-1,-1,29,31,33,35,37,-1,-1,39,-1,41,43,45,47,49,51,-1,-1,-1,-1,-1,-1,-1,-1,-1,-1,-1,-1,-1,-1,-1,-1,-1,-1],"loss_changes":[1.3557626E3,2.3987341E2,1.435863E2,0E0,2.2755629E2,5.2629974E1,1.0660912E2,0E0,1.5318634E2,1.1060181E0,9.901826E0,1.4601475E1,1.01859856E2,7.696024E1,0E0,7.1286714E-1,0E0,1.4606752E1,0E0,0E0,4.7109287E1,4.118988E0,1.9421314E1,8.328612E1,1.4712284E1,0E0,0E0,1.53910055E1,0E0,1.5080254E1,2.8735998E1,3.6808822E0,2.9837341E0,1.282308E1,2.1944008E0,0E0,0E0,0E0,0E0,0E0,0E0,0E0,0E0,0E0,0E0,0E0,0E0,0E0,0E0,0E0,0E0,0E0,0E0],"parents":[2147483647,0,0,1,1,2,2,4,4,5,5,6,6,8,8,9,9,10,10,11,11,12,12,13,13,15,15,17,17,20,20,21,21,22,22,23,23,24,24,27,27,29,29,30,30,31,31,32,32,33,33,34,34],"right_children":[2,4,6,-1,8,10,12,-1,14,16,18,20,22,24,-1,26,-1,28,-1,-1,30,32,34,36,38,-1,-1,40,-1,42,44,46,48,50,52,-1,-1,-1,-1,-1,-1,-1,-1,-1,-1,-1,-1,-1,-1,-1,-1,-1,-1],"split_conditions":[1E0,3.3333334E-1,8.281574E-3,-3.0022275E-1,3.6363637E-1,7.0710914E-5,5.6527782E-2,-2.9966658E-1,2.1875E-1,2.2172821E-6,5.9484467E-2,2E-1,5.86226E-2,8.671918E-6,-3.0203024E-1,3.3333334E-1,3.006952E-1,5.6253895E-2,-3.0497822E-1,-3.0860472E-1,3.75E-1,5.83684E-6,5.9484467E-2,1E0,1.1111111E-1,1.8206339E-1,-5.7162415E-2,7.4074073E-3,2.9314148E-1,2.5E-1,1.0001189E-5,3.4E-2,7.0710914E-5,2.4E-2,2.45E-1,3.0664748E-1,1.8210702E-2,-3.4304515E-1,2.7152622E-1,1.0421661E-1,-2.6741275E-1,-6.233992E-2,-2.996122E-1,3.7514526E-1,-2.8391245E-1,-3.2254833E-1,1.9183475E-1,2.85168E-1,6.957131E-2,2.8330508E-1,-8.400681E-2,-2.955955E-1,1.7715292E-2],"split_indices":[9,10,8,0,6,0,7,0,5,0,7,4,7,0,0,10,0,7,0,0,5,0,7,4,2,0,0,8,0,5,0,8,0,8,8,0,0,0,0,0,0,0,0,0,0,0,0,0,0,0,0,0,0],"split_type":[0,0,0,0,0,0,0,0,0,0,0,0,0,0,0,0,0,0,0,0,0,0,0,0,0,0,0,0,0,0,0,0,0,0,0,0,0,0,0,0,0,0,0,0,0,0,0,0,0,0,0,0,0],"sum_hessian":[3.917643E3,2.8924287E3,1.0252145E3,1.7547064E3,1.1377222E3,5.8209155E2,4.43123E2,4.159417E2,7.2178046E2,5.2004144E2,6.2050114E1,1.6745157E2,2.756714E2,5.819498E2,1.3983061E2,2.814938E0,5.172265E2,5.5044415E1,7.0056973E0,3.7738647E1,1.2971292E2,1.957002E2,7.997121E1,5.3092566E2,5.1024174E1,1.3816926E0,1.4332454E0,3.9945297E1,1.5099119E1,9.881468E1,3.089824E1,3.0786414E0,1.9262155E2,4.1676216E1,3.8294994E1,1.13985054E2,4.169406E2,4.7972248E1,3.0519257E0,2.4281376E1,1.5663921E1,4.3006428E1,5.5808254E1,2.3880981E1,7.017258E0,1.3348814E0,1.74376E0,1.8588219E2,6.7393627E0,1.0677717E1,3.0998499E1,3.6284214E1,2.0107796E0],"tree_param":{"num_deleted":"0","num_feature":"12","num_nodes":"53","size_leaf_vector":"1"}},{"base_weights":[-3.9792264E-1,-7.2805595E-1,5.429678E-1,-3.0006114E-1,-3.6128515E-1,8.7521744E-1,1.2854306E-1,-2.993164E-1,-6.2011395E-2,9.95004E-1,1.6261544E-2,-4.447813E-1,4.8818168E-1,1.15866095E-1,-3.0040464E-1,2.1509661E-1,3.000446E-1,1.7550513E-1,-2.8145692E-1,-3.1139863E-1,-2.8288162E-1,8.757124E-1,-3.6629456E-1,-2.3412341E-1,4.4153005E-1,-5.473283E-2,1.7477201E-1,8.6832696E-1,-1.8379165E-1,2.4304779E-1,-5.878033E-1,5.941459E-1,2.98258E-1,-6.0577345E-1,6.4038265E-1,-1.2966624E-1,1.4403789E-1,2.8300628E-1,-2.4515053E-2,9.202595E-2,2.8205368E-1,-2.740612E-1,7.85702E-2,1.6614136E-1,-2.6742983E-1,-2.645728E-1,9.029037E-2,2.90282E-1,9.317116E-4,1.367716E-1,-3.015369E-1,2.6822606E-1,-1.8364911E-1],"categories":[],"categories_nodes":[],"categories_segments":[],"categories_sizes":[],"default_left":[0,0,0,0,0,0,0,0,0,0,0,0,0,0,0,0,0,0,0,0,0,0,0,0,0,0,0,0,0,0,0,0,0,0,0,0,0,0,0,0,0,0,0,0,0,0,0,0,0,0,0,0,0],"id":15,"left_children":[1,3,5,-1,7,9,11,-1,13,15,17,19,21,23,-1,25,-1,27,-1,-1,29,31,33,35,37,-1,-1,39,41,43,45,47,-1,49,51,-1,-1,-1,-1,-1,-1,-1,-1,-1,-1,-1,-1,-1,-1,-1,-1,-1,-1],"loss_changes":[9.519833E2,2.2604431E2,1.09530014E2,0E0,1.8425865E2,4.5439972E1,7.351698E1,0E0,1.1027231E2,1.3404846E0,8.5372305E0,1.2917835E1,7.281862E1,6.3385048E1,0E0,6.6356784E-1,0E0,1.2121126E1,0E0,0E0,1.7693695E1,4.4440155E0,1.7026579E1,3.8164085E1,7.568471E1,0E0,0E0,3.8078022E-1,1.0799107E1,1.4903142E1,1.8450289E1,1.0411608E1,0E0,2.4314875E1,4.916602E0,0E0,0E0,0E0,0E0,0E0,0E0,0E0,0E0,0E0,0E0,0E0,0E0,0E0,0E0,0E0,0E0,0E0,0E0],"parents":[2147483647,0,0,1,1,2,2,4,4,5,5,6,6,8,8,9,9,10,10,11,11,12,12,13,13,15,15,17,17,20,20,21,21,22,22,23,23,24,24,27,27,28,28,29,29,30,30,31,31,33,33,34,34],"right_children":[2,4,6,-1,8,10,12,-1,14,16,18,20,22,24,-1,26,-1,28,-1,-1,30,32,34,36,38,-1,-1,40,42,44,46,48,-1,50,52,-1,-1,-1,-1,-1,-1,-1,-1,-1,-1,-1,-1,-1,-1,-1,-1,-1,-1],"split_conditions":[1E0,3.3333334E-1,8.281574E-3,-3.0006114E-1,3.6363637E-1,7.0710914E-5,5.6527782E-2,-2.993164E-1,2.1875E-1,2.2172821E-6,2.5E-1,2.2385873E-2,5.86226E-2,5.6315634E-2,-3.0040464E-1,5.611156E-2,3.000446E-1,3.3333334E-1,-2.8145692E-1,-3.1139863E-1,3.3333334E-1,6.1E-2,3.4375E-1,4E-2,9.259259E-3,-5.473283E-2,1.7477201E-1,2.5005737E-2,5.6125503E-2,3.37E-1,8.8E-2,2.7E-2,2.98258E-1,2.5E-1,7.088745E-6,-1.2966624E-1,1.4403789E-1,2.8300628E-1,-2.4515053E-2,9.202595E-2,2.8205368E-1,-2.740612E-1,7.85702E-2,1.6614136E-1,-2.6742983E-1,-2.645728E-1,9.029037E-2,2.90282E-1,9.317116E-4,1.367716E-1,-3.015369E-1,2.6822606E-1,-1.8364911E-1],"split_indices":[9,10,8,0,6,0,7,0,5,0,5,7,7,7,0,7,0,10,0,0,10,8,5,8,8,0,0,7,7,8,8,8,0,5,0,0,0,0,0,0,0,0,0,0,0,0,0,0,0,0,0,0,0],"split_type":[0,0,0,0,0,0,0,0,0,0,0,0,0,0,0,0,0,0,0,0,0,0,0,0,0,0,0,0,0,0,0,0,0,0,0,0,0,0,0,0,0,0,0,0,0,0,0,0,0,0,0,0,0],"sum_hessian":[3.062519E3,2.2672336E3,7.952854E2,1.3005126E3,9.6672095E2,4.4078806E2,3.5449734E2,3.0844577E2,6.582752E2,3.867018E2,5.4086254E1,1.365604E2,2.1793695E2,5.542049E2,1.0407028E2,2.8147378E0,3.838871E2,4.7052063E1,7.034192E0,2.811893E1,1.0844146E2,1.4991922E2,6.801773E1,2.672614E2,2.8694348E2,1.5939332E0,1.2208045E0,1.5584388E1,3.1467674E1,3.98724E1,6.856905E1,4.6182518E1,1.03736694E2,5.5268196E1,1.2749533E1,2.0954024E2,5.7721188E1,1.4606029E2,1.408832E2,2.3655074E0,1.3218881E1,1.1533621E1,1.9934053E1,3.1700771E1,8.171628E0,5.152611E1,1.7042944E1,2.7909933E1,1.8272587E1,1.5067994E1,4.02002E1,1.0840056E1,1.9094762E0],"tree_param":{"num_deleted":"0","num_feature":"12","num_nodes":"53","size_leaf_vector":"1"}},{"base_weights":[-3.743417E-1,-6.8096375E-1,5.127484E-1,-2.9990512E-1,-3.1328374E-1,8.55074E-1,1.1450886E-1,-2.9890606E-1,-5.5250376E-2,9.9115044E-1,9.18016E-3,-3.904755E-1,4.6106264E-1,9.129634E-2,-1.0085148E0,1.9434154E-1,2.9936287E-1,1.7073375E-1,-2.8980374E-1,-9.9769413E-1,-2.3535833E-1,8.37589E-1,-3.4161463E-1,-8.2739884E-1,2.9068604E-1,-1.0714135E0,2.473508E-1,1.6375114E-1,-7.250218E-2,-1.258473E-1,2.7948773E-1,-3.1160787E-1,-8.5586384E-2,-5.3067154E-1,7.280269E-1,4.3489975E-1,9.5607287E-1,8.9195244E-2,-8.9317465E-1,-2.7752557E-1,4.2388043E-1,2.2065682E-2,2.911939E-1,-2.9584578E-1,-4.7713766E-1,8.31476E-2,-2.3231323E-1,-1.3583357E-2,-2.983535E-1,3.4097752E-1,-2.5634453E-1,2.6721722E-1,-6.1399645E-1,2.976364E-1,-1.100355E-2,2.4952345E-1,-8.258922E-2,-2.9060346E-1,-1.9052863E-3],"categories":[],"categories_nodes":[],"categories_segments":[],"categories_sizes":[],"default_left":[0,0,0,0,0,0,0,0,0,0,0,0,0,0,0,0,0,0,0,0,0,0,0,0,0,0,0,0,0,0,0,0,0,0,0,0,0,0,0,0,0,0,0,0,0,0,0,0,0,0,0,0,0,0,0,0,0,0,0],"id":16,"left_children":[1,3,5,-1,7,9,11,-1,13,15,17,19,21,23,25,27,-1,29,-1,31,33,35,37,39,41,43,-1,-1,-1,45,-1,-1,-1,47,49,51,53,55,57,-1,-1,-1,-1,-1,-1,-1,-1,-1,-1,-1,-1,-1,-1,-1,-1,-1,-1,-1,-1],"loss_changes":[6.5979767E2,2.1087054E2,8.487779E1,0E0,1.4768881E2,3.855568E1,5.0805916E1,0E0,8.523348E1,1.3527222E0,7.638431E0,1.0905262E1,5.2272987E1,9.717405E1,1.025602E1,6.924503E-1,0E0,9.492558E0,0E0,3.975563E-1,2.7560535E1,5.1845093E0,1.3299398E1,2.2016563E1,6.423379E1,1.9290161E0,0E0,0E0,0E0,8.257829E0,0E0,0E0,0E0,1.6544615E1,1.57329035E1,3.4082344E1,3.2521439E0,8.929328E0,1.6335793E0,0E0,0E0,0E0,0E0,0E0,0E0,0E0,0E0,0E0,0E0,0E0,0E0,0E0,0E0,0E0,0E0,0E0,0E0,0E0,0E0],"parents":[2147483647,0,0,1,1,2,2,4,4,5,5,6,6,8,8,9,9,10,10,11,11,12,12,13,13,14,14,15,15,17,17,19,19,20,20,21,21,22,22,23,23,24,24,25,25,29,29,33,33,34,34,35,35,36,36,37,37,38,38],"right_children":[2,4,6,-1,8,10,12,-1,14,16,18,20,22,24,26,28,-1,30,-1,32,34,36,38,40,42,44,-1,-1,-1,46,-1,-1,-1,48,50,52,54,56,58,-1,-1,-1,-1,-1,-1,-1,-1,-1,-1,-1,-1,-1,-1,-1,-1,-1,-1,-1,-1],"split_conditions":[1E0,3.3333334E-1,8.281574E-3,-2.9990512E-1,3.6363637E-1,7.0710914E-5,5.6527782E-2,-2.9890606E-1,8.671918E-6,2.2172821E-6,5.9484467E-2,2E-1,5.86226E-2,6.478379E-6,4.4444445E-1,3.3333334E-1,2.9936287E-1,5.6253895E-2,-2.8980374E-1,4.081633E-2,3.75E-1,3.4E-2,5.9484467E-2,1.1111111E-1,4.2E-2,5.6527782E-2,2.473508E-1,1.6375114E-1,-7.250218E-2,7.4074073E-3,2.7948773E-1,-3.1160787E-1,-8.5586384E-2,2.5E-1,1.0001189E-5,3.2E-2,7.0710914E-5,2.5E-1,2.45E-1,-2.7752557E-1,4.2388043E-1,2.2065682E-2,2.911939E-1,-2.9584578E-1,-4.7713766E-1,8.31476E-2,-2.3231323E-1,-1.3583357E-2,-2.983535E-1,3.4097752E-1,-2.5634453E-1,2.6721722E-1,-6.1399645E-1,2.976364E-1,-1.100355E-2,2.4952345E-1,-8.258922E-2,-2.9060346E-1,-1.9052863E-3],"split_indices":[9,10,8,0,6,0,7,0,0,0,7,4,7,0,2,10,0,7,0,1,5,8,7,2,8,7,0,0,0,8,0,0,0,5,0,8,0,5,8,0,0,0,0,0,0,0,0,0,0,0,0,0,0,0,0,0,0,0,0],"split_type":[0,0,0,0,0,0,0,0,0,0,0,0,0,0,0,0,0,0,0,0,0,0,0,0,0,0,0,0,0,0,0,0,0,0,0,0,0,0,0,0,0,0,0,0,0,0,0,0,0,0,0,0,0,0,0,0,0,0,0],"sum_hessian":[2.4234302E3,1.80111E3,6.2232007E2,9.638698E2,8.372402E2,3.3403632E2,2.8828375E2,2.2877153E2,6.084687E2,2.8759933E2,4.6436977E1,1.1727238E2,1.7101138E2,5.281757E2,8.0292984E1,2.6574767E0,2.8494186E2,4.054507E1,5.891906E0,2.2756878E1,9.45155E1,1.1637688E2,5.4634506E1,9.362866E1,4.3454703E2,7.80309E1,2.2620838E0,1.3318915E0,1.3255851E0,2.9774248E1,1.07708235E1,2.1085415E1,1.6714616E0,7.268426E1,2.183125E1,2.7518997E1,8.885788E1,3.1145676E1,2.3488832E1,9.027924E1,3.3494127E0,3.3020868E2,1.04338356E2,6.951238E1,8.518518E0,1.8716303E1,1.1057944E1,3.6053276E1,3.6630978E1,1.7575474E1,4.255775E0,2.3790165E1,3.7288332E0,8.574497E1,3.1129074E0,9.832612E0,2.1313063E1,2.1560858E1,1.927975E0],"tree_param":{"num_deleted":"0","num_feature":"12","num_nodes":"59","size_leaf_vector":"1"}},{"base_weights":[-3.485956E-1,-2.9972693E-1,2.1115791E-2,1.7310356E-1,-3.0209246E-1,2.7828035E-1,-9.7514105E-1,-9.749179E-1,3.7410673E-1,-2.988493E-1,-3.646743E-3,-5.4163672E-2,-9.841884E-1,9.812657E-1,1.5974414E-1,-3.000976E-1,-1.0916454E-1,3.061003E-1,-3.5512173E-1,2.3713182E-1,-4.3179963E-2],"categories":[],"categories_nodes":[],"categories_segments":[],"categories_sizes":[],"default_left":[0,0,0,0,0,0,0,0,0,0,0,0,0,0,0,0,0,0,0,0,0],"id":17,"left_children":[1,-1,3,5,-1,7,9,11,13,-1,-1,-1,15,17,19,-1,-1,-1,-1,-1,-1],"loss_changes":[4.654546E2,0E0,1.9314513E2,1.3030952E2,0E0,1.189146E2,1.821579E0,3.4075165E-1,1.19294205E2,0E0,0E0,0E0,3.3032227E-1,2.1447433E1,1.3025583E2,0E0,0E0,0E0,0E0,0E0,0E0],"parents":[2147483647,0,0,2,2,3,3,5,5,6,6,7,7,8,8,12,12,13,13,14,14],"right_children":[2,-1,4,6,-1,8,10,12,14,-1,-1,-1,16,18,20,-1,-1,-1,-1,-1,-1],"split_conditions":[1.875E-1,-2.9972693E-1,4.5454547E-1,5.9484467E-2,-3.0209246E-1,2.386456E-2,5.11E-1,4.8777622E-8,1E0,-2.988493E-1,-3.646743E-3,-5.4163672E-2,4.0625E-1,2.4354247E-5,2.7272728E-1,-3.000976E-1,-1.0916454E-1,3.061003E-1,-3.5512173E-1,2.3713182E-1,-4.3179963E-2],"split_indices":[5,0,6,7,0,7,8,0,4,0,0,0,5,0,6,0,0,0,0,0,0],"split_type":[0,0,0,0,0,0,0,0,0,0,0,0,0,0,0,0,0,0,0,0,0],"sum_hessian":[1.9343138E3,7.0035736E2,1.2339564E3,1.075754E3,1.5820245E2,9.861796E2,8.9574326E1,6.9400475E1,9.167792E2,8.7626854E1,1.947467E0,1.0367708E0,6.83637E1,2.3828497E2,6.784942E2,6.603325E1,2.3304536E0,2.3458057E2,3.704413E0,2.1999422E2,4.5849997E2],"tree_param":{"num_deleted":"0","num_feature":"12","num_nodes":"21","size_leaf_vector":"1"}},{"base_weights":[-3.1857142E-1,-2.9953778E-1,1.6477302E-2,1.452587E-1,-3.016047E-1,1.5506668E-2,9.500411E-1,5.590317E-1,-1.6650404E-1,3.039613E-1,-3.13658E-1,9.4173527E-1,-2.3871326E-1,-9.8513824E-1,8.580877E-3,-2.0748805E-1,2.9857332E-1,2.3128133E-1,-1.5807971E-1,-3.5451334E-3,-2.9828736E-1,3.248519E-2,-3.377915E-1],"categories":[],"categories_nodes":[],"categories_segments":[],"categories_sizes":[],"default_left":[0,0,0,0,0,0,0,0,0,0,0,0,0,0,0,0,0,0,0,0,0,0,0],"id":18,"left_children":[1,-1,3,5,-1,7,9,11,13,-1,-1,15,17,19,21,-1,-1,-1,-1,-1,-1,-1,-1],"loss_changes":[3.5890894E2,0E0,1.3915807E2,9.804008E1,0E0,8.019107E1,1.7490585E1,6.2306015E1,8.705585E1,0E0,0E0,1.2716492E1,1.982256E1,9.416046E-1,5.6828873E1,0E0,0E0,0E0,0E0,0E0,0E0,0E0,0E0],"parents":[2147483647,0,0,2,2,3,3,5,5,6,6,7,7,8,8,11,11,12,12,13,13,14,14],"right_children":[2,-1,4,6,-1,8,10,12,14,-1,-1,16,18,20,22,-1,-1,-1,-1,-1,-1,-1,-1],"split_conditions":[1.875E-1,-2.9953778E-1,4.5454547E-1,4.0625E-1,-3.016047E-1,2.7272728E-1,3.3520726E-5,7.0710914E-5,3.3333334E-1,3.039613E-1,-3.13658E-1,2.6060495E-6,3.3333334E-1,1.8023448E-2,2.1875E-1,-2.0748805E-1,2.9857332E-1,2.3128133E-1,-1.5807971E-1,-3.5451334E-3,-2.9828736E-1,3.248519E-2,-3.377915E-1],"split_indices":[5,0,6,5,0,6,0,0,10,0,0,0,10,7,5,0,0,0,0,0,0,0,0],"split_type":[0,0,0,0,0,0,0,0,0,0,0,0,0,0,0,0,0,0,0,0,0,0,0],"sum_hessian":[1.5745028E3,5.191179E2,1.0553849E3,9.380231E2,1.17361786E2,8.086644E2,1.2935864E2,2.0234505E2,6.063194E2,1.25867004E2,3.4916425E0,1.3662244E2,6.572261E1,1.0601319E2,5.0030618E2,3.9555008E0,1.3266695E2,1.4223145E1,5.149947E1,1.0089831E0,1.050042E2,4.60723E2,3.9583214E1],"tree_param":{"num_deleted":"0","num_feature":"12","num_nodes":"23","size_leaf_vector":"1"}},{"base_weights":[-2.8633964E-1,-2.9930732E-1,1.1741286E-2,1.18870705E-1,-3.010878E-1,1.0210362E-2,9.4187886E-1,1.1402229E-1,-7.926551E-1,3.0233806E-1,-3.066084E-1,-1.0716641E-1,7.6082116E-1,-8.9029133E-1,6.2717634E-1,5.302803E-2,-1.767154E-1,2.455411E-1,-4.9237135E-1,-3.6445875E-2,-2.9778895E-1,2.6737574E-1,-5.722927E-2],"categories":[],"categories_nodes":[],"categories_segments":[],"categories_sizes":[],"default_left":[0,0,0,0,0,0,0,0,0,0,0,0,0,0,0,0,0,0,0,0,0,0,0],"id":19,"left_children":[1,-1,3,5,-1,7,9,11,13,-1,-1,15,17,19,21,-1,-1,-1,-1,-1,-1,-1,-1],"loss_changes":[2.770499E2,0E0,1.0037893E2,7.4630615E1,0E0,6.1625866E1,1.362973E1,9.373808E1,1.229446E1,0E0,0E0,6.696784E1,2.4461456E1,6.144226E0,1.473315E0,0E0,0E0,0E0,0E0,0E0,0E0,0E0,0E0],"parents":[2147483647,0,0,2,2,3,3,5,5,6,6,7,7,8,8,11,11,12,12,13,13,14,14],"right_children":[2,-1,4,6,-1,8,10,12,14,-1,-1,16,18,20,22,-1,-1,-1,-1,-1,-1,-1,-1],"split_conditions":[1.875E-1,-2.9930732E-1,4.5454547E-1,4.0625E-1,-3.010878E-1,5.86226E-2,3.3520726E-5,5.6527782E-2,1.98E-1,3.0233806E-1,-3.066084E-1,9.259259E-3,2.5E-1,2.7272728E-1,5.9484467E-2,5.302803E-2,-1.767154E-1,2.455411E-1,-4.9237135E-1,-3.6445875E-2,-2.9778895E-1,2.6737574E-1,-5.722927E-2],"split_indices":[5,0,6,5,0,7,0,7,8,0,0,8,5,6,7,0,0,0,0,0,0,0,0],"split_type":[0,0,0,0,0,0,0,0,0,0,0,0,0,0,0,0,0,0,0,0,0,0,0],"sum_hessian":[1.3055355E3,3.8482584E2,9.207097E2,8.336372E2,8.70725E1,7.3730457E2,9.633264E1,6.536451E2,8.3659485E1,9.367545E1,2.657192E0,4.8769885E2,1.6594624E2,7.862567E1,5.033819E0,3.072817E2,1.8041714E2,1.6270071E2,3.2455356E0,9.493566E0,6.91321E1,3.7375143E0,1.2963046E0],"tree_param":{"num_deleted":"0","num_feature":"12","num_nodes":"23","size_leaf_vector":"1"}},{"base_weights":[-2.521273E-1,-2.9901507E-1,8.555461E-3,-9.774719E-1,1.0769531E-1,-3.0241473E-2,-2.964677E-1,8.679963E-1,-4.964412E-2,1.005136E0,-5.200361E-1,5.738353E-1,-2.3211439E-1,-4.7958854E-1,1.0707746E0,-7.487922E-1,2.0939526E-1,9.7377115E-1,-1.11089215E-1,-3.0514032E-1,1.3059618E0,-2.6812094E-1,1.5145643E-1,-1.18541956E-1,3.3458596E-1,-1.8657448E-2,-3.0433917E-1,-7.381336E-2,2.9722878E-1,3.5436806E-1,-1.2486869E-1,-2.8377357E-3,-3.0034214E-1,-2.4875365E-1,4.6547732E-1],"categories":[],"categories_nodes":[],"categories_segments":[],"categories_sizes":[],"default_left":[0,0,0,0,0,0,0,0,0,0,0,0,0,0,0,0,0,0,0,0,0,0,0,0,0,0,0,0,0,0,0,0,0,0,0],"id":20,"left_children":[1,-1,3,5,7,-1,-1,9,11,13,15,17,19,21,23,25,-1,27,29,31,33,-1,-1,-1,-1,-1,-1,-1,-1,-1,-1,-1,-1,-1,-1],"loss_changes":[2.1432123E2,0E0,8.014679E1,6.065216E-1,8.915156E1,0E0,0E0,2.4845184E1,7.045471E1,1.1879379E1,3.907498E0,3.852169E1,5.418699E1,2.745908E0,7.748642E0,1.8904977E0,0E0,2.080925E0,2.1231758E1,9.4242744E1,1.2769871E1,0E0,0E0,0E0,0E0,0E0,0E0,0E0,0E0,0E0,0E0,0E0,0E0,0E0,0E0],"parents":[2147483647,0,0,2,2,3,3,4,4,7,7,8,8,9,9,10,10,11,11,12,12,13,13,14,14,15,15,17,17,18,18,19,19,20,20],"right_children":[2,-1,4,6,8,-1,-1,10,12,14,16,18,20,22,24,26,-1,28,30,32,34,-1,-1,-1,-1,-1,-1,-1,-1,-1,-1,-1,-1,-1,-1],"split_conditions":[1.875E-1,-2.9901507E-1,2.386456E-2,7.0420676E-8,1E0,-3.0241473E-2,-2.964677E-1,7.2872476E-6,2.7272728E-1,3.9773145E-6,2.777778E-1,7.0710914E-5,1.25E-1,2.5E-1,3.6363637E-1,8.990265E-6,2.0939526E-1,5.6661183E-6,3.3333334E-1,9.259259E-3,3.6363637E-1,-2.6812094E-1,1.5145643E-1,-1.18541956E-1,3.3458596E-1,-1.8657448E-2,-3.0433917E-1,-7.381336E-2,2.9722878E-1,3.5436806E-1,-1.2486869E-1,-2.8377357E-3,-3.0034214E-1,-2.4875365E-1,4.6547732E-1],"split_indices":[5,0,7,0,4,0,0,0,6,0,2,0,8,4,6,0,0,0,10,8,6,0,0,0,0,0,0,0,0,0,0,0,0,0,0],"split_type":[0,0,0,0,0,0,0,0,0,0,0,0,0,0,0,0,0,0,0,0,0,0,0,0,0,0,0,0,0,0,0,0,0,0,0],"sum_hessian":[1.103126E3,2.8532553E2,8.178005E2,7.3904076E1,7.4389636E2,1.0212746E0,7.2882805E1,1.2677469E2,6.171217E2,1.1562647E2,1.114822E1,1.3923325E2,4.7788843E2,4.6283364E0,1.1099813E2,9.709854E0,1.4383665E0,8.763839E1,5.1594856E1,4.569926E2,2.0895826E1,3.3226588E0,1.3056774E0,3.0389493E0,1.0795918E2,3.0532198E0,6.656634E0,1.0187876E0,8.6619606E1,9.307021E0,4.2287838E1,3.2144638E2,1.3554622E2,1.9107586E0,1.898507E1],"tree_param":{"num_deleted":"0","num_feature":"12","num_nodes":"35","size_leaf_vector":"1"}},{"base_weights":[-2.198648E-1,-2.986355E-1,1.01687405E-2,9.1759354E-2,-2.9998377E-1,-8.1959933E-1,1.7533569E-1,-8.977228E-1,2.1587676E-1,2.9675367E-1,-3.4603336E-1,-9.551453E-1,-2.9490066E-1,9.2847663E-1,1.5699957E-1,1.3499795E-1,-1.0618187E0,-2.9875615E-1,-1.3632633E-1,1.2126286E-1,-2.4706736E-1,3.0894154E-1,-2.2548623E-1,-4.2432096E-2,1.4783998E-1,2.8439888E-1,-4.6212032E-2,-3.35163E-1,1.7794478E-1],"categories":[],"categories_nodes":[],"categories_segments":[],"categories_sizes":[],"default_left":[0,0,0,0,0,0,0,0,0,0,0,0,0,0,0,0,0,0,0,0,0,0,0,0,0,0,0,0,0],"id":21,"left_children":[1,-1,3,5,-1,7,9,11,-1,13,15,17,19,21,23,25,27,-1,-1,-1,-1,-1,-1,-1,-1,-1,-1,-1,-1],"loss_changes":[1.6582312E2,0E0,5.9248398E1,5.0799507E1,0E0,7.3848457E0,3.8718597E1,1.5799446E0,0E0,4.358424E1,3.9976677E1,5.392494E-1,2.596244E0,1.6014885E1,4.0837452E1,1.6613379E1,4.9355316E0,0E0,0E0,0E0,0E0,0E0,0E0,0E0,0E0,0E0,0E0,0E0,0E0],"parents":[2147483647,0,0,2,2,3,3,5,5,6,6,7,7,9,9,10,10,11,11,12,12,13,13,14,14,15,15,16,16],"right_children":[2,-1,4,6,-1,8,10,12,-1,14,16,18,20,22,24,26,28,-1,-1,-1,-1,-1,-1,-1,-1,-1,-1,-1,-1],"split_conditions":[1.875E-1,-2.986355E-1,4.5454547E-1,5.6661183E-6,-2.9998377E-1,1.1111111E-1,8.671918E-6,2.1875E-1,2.1587676E-1,1E0,2.7272728E-1,1.6666667E-1,3.3333334E-1,3.1707317E-1,6.882167E-6,7.0710914E-5,2.777778E-1,-2.9875615E-1,-1.3632633E-1,1.2126286E-1,-2.4706736E-1,3.0894154E-1,-2.2548623E-1,-4.2432096E-2,1.4783998E-1,2.8439888E-1,-4.6212032E-2,-3.35163E-1,1.7794478E-1],"split_indices":[5,0,6,0,0,2,0,5,0,4,6,8,10,8,0,0,2,0,0,0,0,0,0,0,0,0,0,0,0],"split_type":[0,0,0,0,0,0,0,0,0,0,0,0,0,0,0,0,0,0,0,0,0,0,0,0,0,0,0,0,0],"sum_hessian":[9.283878E2,2.1160562E2,7.167822E2,6.640534E2,5.2728836E1,5.5041916E1,6.090115E2,5.2779766E1,2.262148E0,4.943229E2,1.1468857E2,4.76558E1,5.1239657E0,8.85249E1,4.05798E2,6.907757E1,4.5611004E1,4.3158245E1,4.497556E0,2.3076594E0,2.8163064E0,8.38546E1,4.6703E0,2.1515738E2,1.9064062E2,1.7519464E1,5.15581E1,4.4448273E1,1.1627337E0],"tree_param":{"num_deleted":"0","num_feature":"12","num_nodes":"29","size_leaf_vector":"1"}},{"base_weights":[-1.8903685E-1,-2.981356E-1,3.244396E-3,-9.506469E-1,7.240745E-2,-2.9644692E-2,-9.6946806E-1,-3.130549E-2,9.8970926E-1,-2.9713175E-1,-4.2803553E-1,1.8634175E-1,-6.406465E-1,1.087643E0,-5.035045E-1,-1.4710543E-2,-1.7267282E-1,-1.0326541E-1,6.3100386E-1,4.4674084E-1,-7.188359E-1,3.7003112E-1,8.480853E-1,-2.3196389E-1,2.2554833E-2,2.2548158E-1,-1.20021015E-1,2.6894832E-1,-2.8948036E-1,-2.3813882E-1,1.4130673E-1,1.251419E-1,2.754437E-1],"categories":[],"categories_nodes":[],"categories_segments":[],"categories_sizes":[],"default_left":[0,0,0,0,0,0,0,0,0,0,0,0,0,0,0,0,0,0,0,0,0,0,0,0,0,0,0,0,0,0,0,0,0],"id":22,"left_children":[1,-1,3,5,7,-1,9,11,13,-1,15,17,19,21,23,-1,-1,25,27,-1,29,-1,31,-1,-1,-1,-1,-1,-1,-1,-1,-1,-1],"loss_changes":[1.2676356E2,0E0,4.3757175E1,6.230736E-1,5.8859924E1,0E0,7.2883606E-2,7.392624E1,9.737579E0,0E0,1.6148782E-1,5.2970963E1,2.5498432E1,1.0247726E0,7.6851726E-1,0E0,0E0,6.364496E1,6.9581375E1,0E0,1.3054428E1,0E0,3.9093018E-1,0E0,0E0,0E0,0E0,0E0,0E0,0E0,0E0,0E0,0E0],"parents":[2147483647,0,0,2,2,3,3,4,4,6,6,7,7,8,8,10,10,11,11,12,12,13,13,14,14,17,17,18,18,20,20,22,22],"right_children":[2,-1,4,6,8,-1,10,12,14,-1,16,18,20,22,24,-1,-1,26,28,-1,30,-1,32,-1,-1,-1,-1,-1,-1,-1,-1,-1,-1],"split_conditions":[1.875E-1,-2.981356E-1,2.386456E-2,1.1516041E-7,1.25E-1,-2.9644692E-2,2.2385873E-2,9.259259E-3,3.1707317E-1,-2.9713175E-1,1.98E-1,5.6283325E-2,2.6179189E-2,2.1875E-1,5.9484467E-2,-1.4710543E-2,-1.7267282E-1,4.317145E-2,5.9484467E-2,4.4674084E-1,4.0625E-1,3.7003112E-1,4.4152997E-2,-2.3196389E-1,2.2554833E-2,2.2548158E-1,-1.20021015E-1,2.6894832E-1,-2.8948036E-1,-2.3813882E-1,1.4130673E-1,1.251419E-1,2.754437E-1],"split_indices":[5,0,7,0,8,0,7,8,8,0,8,7,7,5,7,0,0,7,7,0,5,0,7,0,0,0,0,0,0,0,0,0,0],"split_type":[0,0,0,0,0,0,0,0,0,0,0,0,0,0,0,0,0,0,0,0,0,0,0,0,0,0,0,0,0,0,0,0,0],"sum_hessian":[8.181932E2,1.5698799E2,6.6120514E2,4.3838806E1,6.1736633E2,1.0827891E0,4.275602E1,5.555231E2,6.1843258E1,4.0363346E1,2.392672E0,4.098317E2,1.4569139E2,5.829175E1,3.5515075E0,1.0437781E0,1.3488941E0,2.4865268E2,1.6117902E2,4.520244E0,1.4117114E2,3.3658493E1,2.4633257E1,2.1931822E0,1.358325E0,6.368676E1,1.8496593E2,1.3856625E2,2.2612772E1,1.3311769E2,8.0534525E0,4.417145E0,2.0216112E1],"tree_param":{"num_deleted":"0","num_feature":"12","num_nodes":"33","size_leaf_vector":"1"}},{"base_weights":[-1.6445698E-1,-2.9747286E-1,1.6065744E-3,5.7123953E-1,-1.1488204E-1,4.8150778E-2,2.2019782E0,-4.015441E-1,1.9810732E-1,8.835132E-1,-2.9708782E-1,3.90982E0,3.5884392E-1,-7.5845785E-2,-8.423661E-1,3.7991402E-1,-5.455626E-1,-1.2154264E-1,2.868709E-1,8.7510985E-1,4.657886E0,2.708694E-1,-2.3673084E-1,-4.2055243E-1,1.7809623E0,-9.939672E-1,-5.1393604E-1,1.0036201E0,1.0951102E-1,-1.7079486E-1,-8.973958E-1,-9.852517E-3,3.7912115E-1,1.5180306E0,4.3865392E-1,-2.2170243E-1,2.422403E-2,2.0111086E0,1.5273467E-1,-3.0216262E-1,-6.899277E-2,2.0351705E-1,-2.8659034E-1,8.169817E-1,2.6546884E-1,-8.853985E-2,1.9131833E-1,2.5978824E-1,-1.8284926E-1,-2.87768E-1,2.0159848E-2],"categories":[],"categories_nodes":[],"categories_segments":[],"categories_sizes":[],"default_left":[0,0,0,0,0,0,0,0,0,0,0,0,0,0,0,0,0,0,0,0,0,0,0,0,0,0,0,0,0,0,0,0,0,0,0,0,0,0,0,0,0,0,0,0,0,0,0,0,0,0,0],"id":23,"left_children":[1,-1,3,5,7,9,11,13,15,17,-1,19,21,23,25,27,29,-1,-1,31,33,-1,-1,35,37,39,41,43,45,47,49,-1,-1,-1,-1,-1,-1,-1,-1,-1,-1,-1,-1,-1,-1,-1,-1,-1,-1,-1,-1],"loss_changes":[9.654353E1,0E0,3.897294E1,8.495386E1,4.383062E1,6.725501E1,7.475804E1,3.6526043E1,3.1815199E1,4.41111E0,0E0,2.4204254E1,8.667756E0,9.526024E1,4.8758774E0,3.1671488E1,5.9563484E0,0E0,0E0,1.3452563E0,5.149704E0,0E0,0E0,2.007073E1,1.4253885E2,5.0634766E-1,1.9718311E1,9.200596E0,2.8524881E1,1.1294298E1,1.4758263E0,0E0,0E0,0E0,0E0,0E0,0E0,0E0,0E0,0E0,0E0,0E0,0E0,0E0,0E0,0E0,0E0,0E0,0E0,0E0,0E0],"parents":[2147483647,0,0,2,2,3,3,4,4,5,5,6,6,7,7,8,8,9,9,11,11,12,12,13,13,14,14,15,15,16,16,19,19,20,20,23,23,24,24,25,25,26,26,27,27,28,28,29,29,30,30],"right_children":[2,-1,4,6,8,10,12,14,16,18,-1,20,22,24,26,28,30,-1,-1,32,34,-1,-1,36,38,40,42,44,46,48,50,-1,-1,-1,-1,-1,-1,-1,-1,-1,-1,-1,-1,-1,-1,-1,-1,-1,-1,-1,-1],"split_conditions":[1.875E-1,-2.9747286E-1,7.4074073E-3,5.604876E-2,5.632459E-2,4.317145E-2,5.6409337E-2,5.5937883E-2,5.86226E-2,2.386456E-2,-2.9708782E-1,6.842919E-6,5.86226E-2,5.556645E-2,5.6246385E-2,8.281574E-3,5.9484467E-2,-1.2154264E-1,2.868709E-1,5.6172576E-2,8.671918E-6,2.708694E-1,-2.3673084E-1,4.2E-2,5.5836573E-2,5.4054055E-2,8.281574E-3,5.6344684E-2,5.673868E-2,9.259259E-3,5.11E-1,-9.852517E-3,3.7912115E-1,1.5180306E0,4.3865392E-1,-2.2170243E-1,2.422403E-2,2.0111086E0,1.5273467E-1,-3.0216262E-1,-6.899277E-2,2.0351705E-1,-2.8659034E-1,8.169817E-1,2.6546884E-1,-8.853985E-2,1.9131833E-1,2.5978824E-1,-1.8284926E-1,-2.87768E-1,2.0159848E-2],"split_indices":[5,0,8,7,7,7,7,7,7,7,0,0,7,7,7,8,7,0,0,7,0,0,0,8,7,8,8,7,7,8,8,0,0,0,0,0,0,0,0,0,0,0,0,0,0,0,0,0,0,0,0],"split_type":[0,0,0,0,0,0,0,0,0,0,0,0,0,0,0,0,0,0,0,0,0,0,0,0,0,0,0,0,0,0,0,0,0,0,0,0,0,0,0,0,0,0,0,0,0,0,0,0,0,0,0],"sum_hessian":[7.018678E2,1.1652352E2,5.853443E2,9.8716034E1,4.8662827E2,7.552088E1,2.319515E1,2.53849E2,2.3277927E2,4.193556E1,3.3585323E1,1.1457439E1,1.1737712E1,1.4666133E2,1.0718767E2,1.8744363E2,4.533564E1,1.9959636E0,3.9939594E1,2.694872E0,8.7625675E0,8.108339E0,3.6293728E0,1.2434993E2,2.2311403E1,7.194974E1,3.5237926E1,5.5868015E1,1.3157562E2,2.2671606E1,2.2664034E1,1.0821449E0,1.6127269E0,7.2648034E0,1.4977639E0,7.575291E1,4.8597027E1,3.7040186E0,1.8607384E1,7.0411026E1,1.5387167E0,9.374944E0,2.5862984E1,2.1912441E0,5.367677E1,7.475235E1,5.6823265E1,6.451443E0,1.6220161E1,2.1304005E1,1.3600278E0],"tree_param":{"num_deleted":"0","num_feature":"12","num_nodes":"51","size_leaf_vector":"1"}},{"base_weights":[-1.6303977E-1,-2.9659212E-1,-2.7530465E-2,3.5100196E-2,-2.9886523E-1,-7.609154E-1,9.7230576E-2,-8.272018E-1,1.7085661E-1,1.4591082E-2,6.397082E-1,-2.7011776E-1,-8.984053E-1,1.7209041E-1,-5.0813913E-1,-2.675061E-1,8.874426E-1,1.0348416E-1,-2.131275E-1,-2.8667352E-1,-9.330227E-2,-1.8380728E-2,1.875647E-1,-3.9625448E-1,-8.151531E-2,3.1132644E-1,3.1773437E-2],"categories":[],"categories_nodes":[],"categories_segments":[],"categories_sizes":[],"default_left":[0,0,0,0,0,0,0,0,0,0,0,0,0,0,0,0,0,0,0,0,0,0,0,0,0,0,0],"id":24,"left_children":[1,-1,3,5,-1,7,9,11,-1,13,15,17,19,21,23,-1,25,-1,-1,-1,-1,-1,-1,-1,-1,-1,-1],"loss_changes":[6.946184E1,0E0,3.2467518E1,2.4954645E1,0E0,3.6932697E0,2.095064E1,1.1539917E0,0E0,3.357566E1,2.4231277E1,1.7129726E0,7.368393E-1,3.3169582E1,1.7785643E1,0E0,6.1964264E0,0E0,0E0,0E0,0E0,0E0,0E0,0E0,0E0,0E0,0E0],"parents":[2147483647,0,0,2,2,3,3,5,5,6,6,7,7,9,9,10,10,11,11,12,12,13,13,14,14,16,16],"right_children":[2,-1,4,6,-1,8,10,12,-1,14,16,18,20,22,24,-1,26,-1,-1,-1,-1,-1,-1,-1,-1,-1,-1],"split_conditions":[1.875E-1,-2.9659212E-1,4.5454547E-1,5.6661183E-6,-2.9886523E-1,1.1111111E-1,6.1E-2,3.6363637E-1,1.7085661E-1,9.259259E-3,2.4321789E-2,3.3333334E-1,1.6666667E-1,5.632459E-2,1.1E-2,-2.675061E-1,1.2855165E-5,1.0348416E-1,-2.131275E-1,-2.8667352E-1,-9.330227E-2,-1.8380728E-2,1.875647E-1,-3.9625448E-1,-8.151531E-2,3.1132644E-1,3.1773437E-2],"split_indices":[5,0,6,0,0,2,8,6,0,8,7,10,8,7,8,0,0,0,0,0,0,0,0,0,0,0,0],"split_type":[0,0,0,0,0,0,0,0,0,0,0,0,0,0,0,0,0,0,0,0,0,0,0,0,0,0,0],"sum_hessian":[6.201225E2,8.654498E1,5.335775E2,5.0207922E2,3.1498274E1,3.55366E1,4.6654263E2,3.421038E1,1.3262156E0,4.057576E2,6.078505E1,4.4203043E0,2.9790077E1,3.1232455E2,9.343303E1,8.102047E0,5.2683002E1,1.9345326E0,2.4857717E0,2.6576511E1,3.213566E0,2.0672563E2,1.0559892E2,2.0021479E1,7.341155E1,4.390994E1,8.773062E0],"tree_param":{"num_deleted":"0","num_feature":"12","num_nodes":"27","size_leaf_vector":"1"}},{"base_weights":[-1.3699071E-1,-2.954223E-1,-2.5983196E-2,2.355389E-2,-2.9740575E-1,-2.8232614E-2,8.77777E-1,4.2885867E-1,-1.2812246E-1,2.9281238E-1,-2.5500363E-1,8.6065024E-1,-9.1031104E-2,-9.547477E-1,-3.1022342E-2,-1.4418453E-1,2.9342452E-1,2.379628E-1,-9.510162E-2,-1.4362484E-3,-2.939113E-1,-1.5639664E-1,3.250566E-2],"categories":[],"categories_nodes":[],"categories_segments":[],"categories_sizes":[],"default_left":[0,0,0,0,0,0,0,0,0,0,0,0,0,0,0,0,0,0,0,0,0,0,0],"id":25,"left_children":[1,-1,3,5,-1,7,9,11,13,-1,-1,15,17,19,21,-1,-1,-1,-1,-1,-1,-1,-1],"loss_changes":[5.3099968E1,0E0,2.394322E1,2.1114998E1,0E0,2.0622892E1,5.4615517E0,1.8265627E1,2.9704918E1,0E0,0E0,7.4562454E0,7.777198E0,9.177246E-1,2.2781054E1,0E0,0E0,0E0,0E0,0E0,0E0,0E0,0E0],"parents":[2147483647,0,0,2,2,3,3,5,5,6,6,7,7,8,8,11,11,12,12,13,13,14,14],"right_children":[2,-1,4,6,-1,8,10,12,14,-1,-1,16,18,20,22,-1,-1,-1,-1,-1,-1,-1,-1],"split_conditions":[1.875E-1,-2.954223E-1,4.5454547E-1,4.0625E-1,-2.9740575E-1,2.7272728E-1,8.457911E-6,7.0710914E-5,3.3333334E-1,2.9281238E-1,-2.5500363E-1,2.6060495E-6,3.3333334E-1,1.9579874E-2,5.556645E-2,-1.4418453E-1,2.9342452E-1,2.379628E-1,-9.510162E-2,-1.4362484E-3,-2.939113E-1,-1.5639664E-1,3.250566E-2],"split_indices":[5,0,6,5,0,6,0,0,10,0,0,0,10,7,7,0,0,0,0,0,0,0,0],"split_type":[0,0,0,0,0,0,0,0,0,0,0,0,0,0,0,0,0,0,0,0,0,0,0],"sum_hessian":[5.6352496E2,6.43351E1,4.9918985E2,4.7575262E2,2.3437231E1,4.4947083E2,2.6281813E1,8.001816E1,3.6945267E2,2.5279205E1,1.0026083E0,4.3354702E1,3.6663456E1,3.7907642E1,3.31545E2,3.241263E0,4.0113438E1,6.951595E0,2.9711863E1,1.0008982E0,3.6906746E1,7.277887E1,2.5876614E2],"tree_param":{"num_deleted":"0","num_feature":"12","num_nodes":"23","size_leaf_vector":"1"}},{"base_weights":[-1.131711E-1,-2.9387295E-1,-2.1431623E-2,1.8556923E-2,-2.9519907E-1,5.679943E-1,-5.3094324E-2,8.070332E-1,-6.515689E-1,-1.08378336E-1,8.2559335E-1,-5.109424E-1,9.5619166E-1,5.0108075E-2,-7.825801E-1,2.925347E-2,-5.7664317E-1,9.5955354E-1,-2.135394E-1,7.2242744E-2,-2.2748232E-1,-7.8739755E-2,3.3302665E-1,-1.085457E-1,-2.9499903E-1,-1.3292794E-1,5.2944813E-2,-4.0348879E-1,-1.1764042E-1,3.1216064E-1,-8.9661986E-2],"categories":[],"categories_nodes":[],"categories_segments":[],"categories_sizes":[],"default_left":[0,0,0,0,0,0,0,0,0,0,0,0,0,0,0,0,0,0,0,0,0,0,0,0,0,0,0,0,0,0,0],"id":26,"left_children":[1,-1,3,5,-1,7,9,11,13,15,17,19,21,-1,23,25,27,29,-1,-1,-1,-1,-1,-1,-1,-1,-1,-1,-1,-1,-1],"loss_changes":[4.0575275E1,0E0,1.7834854E1,1.7564177E1,0E0,1.5529747E1,1.9273739E1,9.036068E0,1.0946181E0,2.4019243E1,5.5212517E0,1.1256751E0,7.6821213E0,0E0,3.1351566E-1,2.0161049E1,1.1472282E1,2.5566063E0,0E0,0E0,0E0,0E0,0E0,0E0,0E0,0E0,0E0,0E0,0E0,0E0,0E0],"parents":[2147483647,0,0,2,2,3,3,5,5,6,6,7,7,8,8,9,9,10,10,11,11,12,12,14,14,15,15,16,16,17,17],"right_children":[2,-1,4,6,-1,8,10,12,14,16,18,20,22,-1,24,26,28,30,-1,-1,-1,-1,-1,-1,-1,-1,-1,-1,-1,-1,-1],"split_conditions":[1.875E-1,-2.9387295E-1,4.5454547E-1,1E0,-2.9519907E-1,7.1680493E-6,1.25E-1,2.386456E-2,1.0810811E-2,9.259259E-3,3.1707317E-1,2.45E-1,3.6363637E-1,5.0108075E-2,2E-1,5.556645E-2,1.1E-2,2.5E-1,-2.135394E-1,7.2242744E-2,-2.2748232E-1,-7.8739755E-2,3.3302665E-1,-1.085457E-1,-2.9499903E-1,-1.3292794E-1,5.2944813E-2,-4.0348879E-1,-1.1764042E-1,3.1216064E-1,-8.9661986E-2],"split_indices":[5,0,6,4,0,0,8,7,8,8,8,8,6,0,4,7,8,5,0,0,0,0,0,0,0,0,0,0,0,0,0],"split_type":[0,0,0,0,0,0,0,0,0,0,0,0,0,0,0,0,0,0,0,0,0,0,0,0,0,0,0,0,0,0,0],"sum_hessian":[5.0975037E2,4.7880436E1,4.6186993E2,4.4438907E2,1.7480858E1,5.0467335E1,3.9392172E2,4.2479465E1,7.987872E0,3.7142932E2,2.24924E1,4.0721493E0,3.8407314E1,1.0641088E0,6.9237633E0,2.8778226E2,8.3647064E1,2.1035345E1,1.4570535E0,1.0146254E0,3.0575242E0,4.2273064E0,3.4180008E1,3.1415594E0,3.7822037E0,6.7907906E1,2.1987436E2,1.4979765E1,6.86673E1,1.9926207E1,1.1091393E0],"tree_param":{"num_deleted":"0","num_feature":"12","num_nodes":"31","size_leaf_vector":"1"}},{"base_weights":[-9.206102E-2,-2.9183093E-1,-1.8837187E-2,-7.373955E-1,3.1200891E-2,-2.4401656E-1,-2.6663238E-1,1.1396951E-1,-3.7696263E-1,1.555353E-1,-5.0458986E-1,8.0330056E-1,2.8465329E-2,1.3122009E-1,-1.1047063E0,-7.2246414E-1,8.01667E-2,-6.2509346E-1,9.7946656E-1,-7.437831E-1,1.5776205E-1,8.2203656E-1,-1.455281E-1,-6.4370686E-1,-9.6450174E-1,-2.5749224E-1,-2.4302619E-2,-2.2022182E-1,-3.626932E-2,3.2877278E-1,1.8817237E-1,-2.952206E-1,2.961541E-1,5.1158756E-1,1.8952608E-2,-2.1188466E-1,3.308427E-1,1.2883746E-2,-2.614914E-1,-1.3002427E-1,-3.1160265E-1],"categories":[],"categories_nodes":[],"categories_segments":[],"categories_sizes":[],"default_left":[0,0,0,0,0,0,0,0,0,0,0,0,0,0,0,0,0,0,0,0,0,0,0,0,0,0,0,0,0,0,0,0,0,0,0,0,0,0,0,0,0],"id":27,"left_children":[1,-1,3,5,7,9,-1,11,13,-1,15,17,19,21,23,25,-1,27,29,31,33,35,37,-1,39,-1,-1,-1,-1,-1,-1,-1,-1,-1,-1,-1,-1,-1,-1,-1,-1],"loss_changes":[3.0822329E1,0E0,1.5934759E1,1.9379663E0,1.4052533E1,1.8813033E0,0E0,2.0343758E1,2.6087185E1,0E0,1.2999897E0,1.0198164E1,3.0915802E1,8.187149E0,2.1555862E0,4.0132093E-1,0E0,1.7460501E-1,7.194557E-1,1.9443487E1,3.8687386E1,6.0226736E0,4.2768497E0,0E0,6.263962E-1,0E0,0E0,0E0,0E0,0E0,0E0,0E0,0E0,0E0,0E0,0E0,0E0,0E0,0E0,0E0,0E0],"parents":[2147483647,0,0,2,2,3,3,4,4,5,5,7,7,8,8,10,10,11,11,12,12,13,13,14,14,15,15,17,17,18,18,19,19,20,20,21,21,22,22,24,24],"right_children":[2,-1,4,6,8,10,-1,12,14,-1,16,18,20,22,24,26,-1,28,30,32,34,36,38,-1,40,-1,-1,-1,-1,-1,-1,-1,-1,-1,-1,-1,-1,-1,-1,-1,-1],"split_conditions":[1.875E-1,-2.9183093E-1,5.4073707E-6,1E0,8.671918E-6,8.281574E-3,-2.6663238E-1,4.317145E-2,2.7272728E-1,1.555353E-1,5.86226E-2,2.386456E-2,5.556645E-2,3.3333334E-1,9.201042E-6,3.9773145E-6,8.01667E-2,2.2329047E-2,2.5E-1,5.4054055E-2,5.5874106E-2,2.2385873E-2,1.3547754E-3,-6.4370686E-1,2E-1,-2.5749224E-1,-2.4302619E-2,-2.2022182E-1,-3.626932E-2,3.2877278E-1,1.8817237E-1,-2.952206E-1,2.961541E-1,5.1158756E-1,1.8952608E-2,-2.1188466E-1,3.308427E-1,1.2883746E-2,-2.614914E-1,-1.3002427E-1,-3.1160265E-1],"split_indices":[5,0,0,4,0,8,0,7,6,0,7,7,7,10,0,0,0,7,5,8,7,7,0,0,4,0,0,0,0,0,0,0,0,0,0,0,0,0,0,0,0],"split_type":[0,0,0,0,0,0,0,0,0,0,0,0,0,0,0,0,0,0,0,0,0,0,0,0,0,0,0,0,0,0,0,0,0,0,0,0,0,0,0,0,0],"sum_hessian":[4.7723218E2,3.5689342E1,4.4154285E2,2.7851545E1,4.1369128E2,7.152351E0,2.0699194E1,3.4454434E2,6.9146965E1,1.5696673E0,5.5826836E0,3.7094578E1,3.0744977E2,4.1198074E1,2.7948887E1,4.4035473E0,1.1791364E0,3.792863E0,3.3301716E1,4.341187E1,2.640379E2,1.1220133E1,2.9977942E1,1.6196206E0,2.6329268E1,3.354987E0,1.0485603E0,2.7438633E0,1.0489994E0,2.3440952E1,9.8607645E0,3.849907E1,4.912799E0,1.42278385E1,2.4981004E2,1.5061669E0,9.713965E0,2.4547169E1,5.430772E0,4.0652323E0,2.2264034E1],"tree_param":{"num_deleted":"0","num_feature":"12","num_nodes":"41","size_leaf_vector":"1"}},{"base_weights":[-8.0287896E-2,-2.8915834E-1,-2.1013543E-2,4.0197402E-1,-1.07784286E-1,5.5208106E-2,7.1041465E-1,-3.3698562E-1,1.07276E-1,8.261241E-1,-2.8337854E-1,8.218292E-1,-2.100815E-1,7.2478265E-2,-7.6517445E-1,1.905132E-1,-8.524627E-1,-6.6556215E-2,2.746308E-1,-1.5321848E-1,8.777185E-1,-7.781029E-1,4.5082024E-1,-9.528109E-1,-4.0113124E-1,7.0594865E-1,-1.9076258E-2,-2.7893925E-1,2.1977067E-2,1.3534401E-1,3.2330516E-1,4.172233E-2,-3.0366603E-1,-1.280952E-2,4.5830628E-1,-1.5105923E-1,-3.0062413E-1,1.19162604E-1,-2.7478227E-1,2.4740942E-1,-1.02013364E-1,-4.015038E-2,2.9967204E-1],"categories":[],"categories_nodes":[],"categories_segments":[],"categories_sizes":[],"default_left":[0,0,0,0,0,0,0,0,0,0,0,0,0,0,0,0,0,0,0,0,0,0,0,0,0,0,0,0,0,0,0,0,0,0,0,0,0,0,0,0,0,0,0],"id":28,"left_children":[1,-1,3,5,7,9,11,13,15,17,-1,19,-1,21,23,25,27,-1,-1,-1,29,31,33,35,37,39,41,-1,-1,-1,-1,-1,-1,-1,-1,-1,-1,-1,-1,-1,-1,-1,-1],"loss_changes":[2.3038279E1,0E0,1.5224279E1,7.5137396E0,1.6992617E1,2.723873E1,6.436346E0,2.9294273E1,1.4400738E1,2.06715E0,0E0,3.0564213E0,0E0,2.8078201E1,5.1921005E0,1.7819614E1,1.099515E0,0E0,0E0,0E0,2.4121418E0,5.915354E0,3.209491E1,6.713486E-1,1.2481022E1,6.2020817E0,1.3936459E1,0E0,0E0,0E0,0E0,0E0,0E0,0E0,0E0,0E0,0E0,0E0,0E0,0E0,0E0,0E0,0E0],"parents":[2147483647,0,0,2,2,3,3,4,4,5,5,6,6,7,7,8,8,9,9,11,11,13,13,14,14,15,15,16,16,20,20,21,21,22,22,23,23,24,24,25,25,26,26],"right_children":[2,-1,4,6,8,10,12,14,16,18,-1,20,-1,22,24,26,28,-1,-1,-1,30,32,34,36,38,40,42,-1,-1,-1,-1,-1,-1,-1,-1,-1,-1,-1,-1,-1,-1,-1,-1],"split_conditions":[1.875E-1,-2.8915834E-1,7.4074073E-3,5.604876E-2,5.632459E-2,4.317145E-2,5.86226E-2,5.5913247E-2,5.9484467E-2,2.386456E-2,-2.8337854E-1,3.3333334E-1,-2.100815E-1,9E-3,5.6246385E-2,8.281574E-3,5.11E-1,-6.6556215E-2,2.746308E-1,-1.5321848E-1,6.882167E-6,4.317145E-2,5.556645E-2,5.602066E-2,8.281574E-3,8.883342E-6,1.25E-1,-2.7893925E-1,2.1977067E-2,1.3534401E-1,3.2330516E-1,4.172233E-2,-3.0366603E-1,-1.280952E-2,4.5830628E-1,-1.5105923E-1,-3.0062413E-1,1.19162604E-1,-2.7478227E-1,2.4740942E-1,-1.02013364E-1,-4.015038E-2,2.9967204E-1],"split_indices":[5,0,8,7,7,7,7,7,7,7,0,10,0,8,7,8,8,0,0,0,0,7,7,7,8,0,8,0,0,0,0,0,0,0,0,0,0,0,0,0,0,0,0],"split_type":[0,0,0,0,0,0,0,0,0,0,0,0,0,0,0,0,0,0,0,0,0,0,0,0,0,0,0,0,0,0,0,0,0,0,0,0,0,0,0,0,0,0,0],"sum_hessian":[4.3927325E2,2.6656536E1,4.1261673E2,6.961702E1,3.429997E2,3.3327454E1,3.628957E1,1.657665E2,1.772332E2,1.8915802E1,1.4411652E1,3.402012E1,2.2694485E0,8.516068E1,8.060581E1,1.6382622E2,1.3406992E1,1.3689253E0,1.7546877E1,1.0418273E0,3.2978294E1,2.5892668E1,5.926801E1,5.2123066E1,2.8482748E1,4.6674103E1,1.17152115E2,1.2369257E1,1.0377352E0,1.156456E1,2.1413733E1,5.3478594E0,2.054481E1,4.1300644E1,1.7967367E1,6.259918E0,4.5863144E1,1.1255985E1,1.7226763E1,4.210552E1,4.568585E0,1.06063934E2,1.1088174E1],"tree_param":{"num_deleted":"0","num_feature":"12","num_nodes":"43","size_leaf_vector":"1"}},{"base_weights":[-7.40786E-2,-2.8569335E-1,-2.5607748E-2,-2.4853471E-1,1.1538357E-1,4.6247345E-1,-3.392235E-1,2.892781E-1,-2.840802E-1,-4.983122E-1,8.5314256E-1,-5.6263727E-1,5.9099182E-2,5.919325E-2,5.5692947E-1,1.7188483E-1,-7.356406E-1,2.9051652E-2,-2.4729586E-1,2.9363668E-1,1.984926E-1,-6.07523E-1,2.4088064E-1,4.0814012E-1,-7.042269E-1,6.799323E-1,-5.716306E-2,1.0363764E0,3.445379E-1,3.2306105E-1,-2.4700077E-1,-1.9170336E-1,-1.107564E0,1.4188355E-1,-5.070242E-2,-6.169377E-2,-2.0344763E-1,-1.2706737E-1,2.0168918E-1,1.4107385E-1,-2.6925611E-1,-9.5515445E-2,2.4080534E-1,-2.2801849E-1,2.4871552E-2,1.4364955E-1,3.943728E-1,2.179593E-2,1.6332568E-1,2.4398436E-1,3.9023377E-2,1.0105509E-1,-1.7974661E-1,-7.0644236E-1,-2.77075E-1],"categories":[],"categories_nodes":[],"categories_segments":[],"categories_sizes":[],"default_left":[0,0,0,0,0,0,0,0,0,0,0,0,0,0,0,0,0,0,0,0,0,0,0,0,0,0,0,0,0,0,0,0,0,0,0,0,0,0,0,0,0,0,0,0,0,0,0,0,0,0,0,0,0,0,0],"id":29,"left_children":[1,-1,3,5,7,9,11,13,15,17,19,21,23,25,27,29,31,-1,-1,-1,33,35,-1,37,39,41,43,45,47,49,-1,51,53,-1,-1,-1,-1,-1,-1,-1,-1,-1,-1,-1,-1,-1,-1,-1,-1,-1,-1,-1,-1,-1,-1],"loss_changes":[1.7059155E1,0E0,1.2014928E1,9.704084E0,1.6357073E1,6.8707128E0,1.1770354E1,1.0049804E1,1.4860926E1,1.1654472E0,8.4022427E-1,5.6728916E0,1.31557E1,6.478726E0,7.337883E0,5.745262E0,7.0998096E0,0E0,0E0,0E0,4.1071343E-1,2.201603E0,0E0,7.7053957E0,3.9458566E0,1.9898753E0,7.546395E0,2.891592E0,2.8877625E0,2.953145E0,0E0,3.6233149E0,2.703001E0,0E0,0E0,0E0,0E0,0E0,0E0,0E0,0E0,0E0,0E0,0E0,0E0,0E0,0E0,0E0,0E0,0E0,0E0,0E0,0E0,0E0,0E0],"parents":[2147483647,0,0,2,2,3,3,4,4,5,5,6,6,7,7,8,8,9,9,10,10,11,11,12,12,13,13,14,14,15,15,16,16,20,20,21,21,23,23,24,24,25,25,26,26,27,27,28,28,29,29,31,31,32,32],"right_children":[2,-1,4,6,8,10,12,14,16,18,20,22,24,26,28,30,32,-1,-1,-1,34,36,-1,38,40,42,44,46,48,50,-1,52,54,-1,-1,-1,-1,-1,-1,-1,-1,-1,-1,-1,-1,-1,-1,-1,-1,-1,-1,-1,-1,-1,-1],"split_conditions":[1.875E-1,-2.8569335E-1,6.865854E-6,4.317145E-2,7.2872476E-6,5.6661183E-6,5.6409337E-2,5.630688E-2,2.7272728E-1,3.3333334E-1,2.5E-1,6.896552E-2,