{"learner":{"attributes":{"scikit_learn":"{\"_estimator_type\": \"classifier\"}"},"feature_names":[],"feature_types":[],"gradient_booster":{"model":{"cats":{"enc":[],"feature_segments":[],"sorted_idx":[]},"gbtree_model_param":{"num_parallel_tree":"1","num_trees":"100"},"iteration_indptr":[0,1,2,3,4,5,6,7,8,9,10,11,12,13,14,15,16,17,18,19,20,21,22,23,24,25,26,27,28,29,30,31,32,33,34,35,36,37,38,39,40,41,42,43,44,45,46,47,48,49,50,51,52,53,54,55,56,57,58,59,60,61,62,63,64,65,66,67,68,69,70,71,72,73,74,75,76,77,78,79,80,81,82,83,84,85,86,87,88,89,90,91,92,93,94,95,96,97,98,99,100],"tree_info":[0,0,0,0,0,0,0,0,0,0,0,0,0,0,0,0,0,0,0,0,0,0,0,0,0,0,0,0,0,0,0,0,0,0,0,0,0,0,0,0,0,0,0,0,0,0,0,0,0,0,0,0,0,0,0,0,0,0,0,0,0,0,0,0,0,0,0,0,0,0,0,0,0,0,0,0,0,0,0,0,0,0,0,0,0,0,0,0,0,0,0,0,0,0,0,0,0,0,0,0],"trees":[{"base_weights":[-1.3279224E-7,-2.2882122E-1,7.2545996E0,-7.0186466E-1,7.969265E-1,8.067554E0,-3.8208345E-1,-5.0035244E-1,-1.1023691E0,7.076406E0,2.7651453E-1,-1.1285592E0,8.565183E0,-1.078398E0,5.3662114E0,-6.3672805E-1,4.5871973E0,1.2467247E0,-1.1247553E0,8.569796E0,1.0366957E0,-1.0181175E0,1.4395664E0,1.01528846E-1,-3.3914527E-1,8.579599E0,-8.94488E-1,1.9178228E0,-1.0965523E0,-1.4824279E-1,8.455414E0,-2.7503294E-1,-1.1230493E0,-9.825678E-1,8.589485E0,-1.0511539E0,5.6542706E0,-1.1277128E0,7.9068832E0,-4.2491925E-1,8.598123E0,-9.4422054E-1,3.807249E0,-1.10847E0,5.6577187E0,4.806171E-1,5.554842E0,8.585543E0,8.893261E-1,6.6482544E-1,-3.2774627E-1,-1.1251483E0,7.281506E-1,-1.0765381E0,1.7010952E0,3.4394107E0,2.5623908E0,-3.3945766E-1,4.719412E-1,-3.388064E-1,1.3068083E-2,-1.9007066E-1,-3.3753747E-1,4.6242234E-1,2.5789247E0,-3.3673704E-1,2.2728562E0,2.1700778E0,-3.3310112E-1,-3.3849633E-1,-2.5855383E-1,-2.5191575E-1,2.5283716E0,1.2389845E0,-3.232126E-1,-2.1108371E-1,2.5797877E0,-3.3821744E-1,2.5127E0,7.444557E-1,2.5678089E0,-3.336725E-1,1.5139617E0,2.571291E0,1.148035E-1,1.9791979E0,-2.4698816E-1,2.5512204E0,-3.3575493E-1,-2.7167958E-1,2.576274E0,-1.9709526E-1,1.7056595E0,1.2903324E0,-3.3929262E-1,2.1798103E0,-3.0149361E-1,-3.3296585E-1,-1.754235E-1,1.2113938E0,-3.1513286E-1,1.6746541E0,-1.9413975E-1],"categories":[],"categories_nodes":[],"categories_segments":[],"categories_sizes":[],"default_left":[0,0,0,0,0,0,0,0,0,0,0,0,0,0,0,0,0,0,0,0,0,0,0,0,0,0,0,0,0,0,0,0,0,0,0,0,0,0,0,0,0,0,0,0,0,0,0,0,0,0,0,0,0,0,0,0,0,0,0,0,0,0,0,0,0,0,0,0,0,0,0,0,0,0,0,0,0,0,0,0,0,0,0,0,0,0,0,0,0,0,0,0,0,0,0,0,0,0,0,0,0,0,0],"id":0,"left_children":[1,3,5,7,9,11,13,15,17,19,21,23,25,27,29,31,33,35,37,39,41,43,45,-1,-1,47,49,-1,51,53,55,57,59,61,63,65,67,69,71,73,75,77,79,81,83,85,87,89,91,-1,-1,93,95,97,99,101,-1,-1,-1,-1,-1,-1,-1,-1,-1,-1,-1,-1,-1,-1,-1,-1,-1,-1,-1,-1,-1,-1,-1,-1,-1,-1,-1,-1,-1,-1,-1,-1,-1,-1,-1,-1,-1,-1,-1,-1,-1,-1,-1,-1,-1,-1,-1],"loss_changes":[1.2139346E6,3.4398647E5,1.388235E5,3.915628E4,7.311891E5,9.249175E4,8.62063E3,2.239501E5,8.541656E3,1.54443E5,3.1112238E5,3.3148193E0,2.622375E3,2.6750488E2,3.9656118E3,5.529382E4,1.878499E5,1.5537276E4,4.3061562E3,3.50175E3,1.8640838E4,5.8986273E4,4.2953403E5,0E0,0E0,8.675E2,2.0947052E1,0E0,1.0083594E2,1.4696492E2,3.4890625E1,2.8536694E5,9.863125E2,1.7462378E2,2.2625E2,6.2909045E2,5.624045E3,2.503125E1,2.4764575E2,1.3537373E2,1.548125E2,3.3911074E3,8.899277E3,2.24525E3,2.006514E4,7.0405956E5,4.048887E5,3.775E2,1.21653625E2,0E0,0E0,6.454907E1,3.4930243E2,2.8416443E-1,1.8840643E2,4.0262276E1,0E0,0E0,0E0,0E0,0E0,0E0,0E0,0E0,0E0,0E0,0E0,0E0,0E0,0E0,0E0,0E0,0E0,0E0,0E0,0E0,0E0,0E0,0E0,0E0,0E0,0E0,0E0,0E0,0E0,0E0,0E0,0E0,0E0,0E0,0E0,0E0,0E0,0E0,0E0,0E0,0E0,0E0,0E0,0E0,0E0,0E0,0E0],"parents":[2147483647,0,0,1,1,2,2,3,3,4,4,5,5,6,6,7,7,8,8,9,9,10,10,11,11,12,12,13,13,14,14,15,15,16,16,17,17,18,18,19,19,20,20,21,21,22,22,25,25,26,26,28,28,29,29,30,30,31,31,32,32,33,33,34,34,35,35,36,36,37,37,38,38,39,39,40,40,41,41,42,42,43,43,44,44,45,45,46,46,47,47,48,48,51,51,52,52,53,53,54,54,55,55],"right_children":[2,4,6,8,10,12,14,16,18,20,22,24,26,28,30,32,34,36,38,40,42,44,46,-1,-1,48,50,-1,52,54,56,58,60,62,64,66,68,70,72,74,76,78,80,82,84,86,88,90,92,-1,-1,94,96,98,100,102,-1,-1,-1,-1,-1,-1,-1,-1,-1,-1,-1,-1,-1,-1,-1,-1,-1,-1,-1,-1,-1,-1,-1,-1,-1,-1,-1,-1,-1,-1,-1,-1,-1,-1,-1,-1,-1,-1,-1,-1,-1,-1,-1,-1,-1,-1,-1],"split_conditions":[6.831378E-1,1.8018018E-2,5.4358137E-1,1.9444445E-1,2.6946107E-2,4.9556676E-1,5.258118E-2,1.3E-1,6.894324E-3,8.193982E-5,7.70947E-1,7.382034E-1,4.8E-1,7.5694484E-1,6.153846E-2,3.8582798E-2,1.7964073E-2,9.0289256E-4,1E0,2.5E-1,9.838721E-1,5.3487208E-2,7.5E-2,1.01528846E-1,-3.3914527E-1,4.4980267E-1,5.537441E-1,1.9178228E0,2.1766126E-2,3.37763E-1,7.5E-2,7E-3,1.0344828E-1,2.0774703E-2,3.8582798E-2,1.7964073E-2,4.8E-1,5.2390777E-2,9.8474497E-1,2.836048E-1,7.9350376E-1,6.0000002E-2,7.5E-2,3.9039038E-2,5.667101E-2,4.0591206E-2,9.1068804E-1,3.8922157E-2,2.1766126E-2,6.6482544E-1,-3.2774627E-1,6.894324E-3,3.8582798E-2,2.9346624E-1,7.8106605E-6,9.59477E-1,2.5623908E0,-3.3945766E-1,4.719412E-1,-3.388064E-1,1.3068083E-2,-1.9007066E-1,-3.3753747E-1,4.6242234E-1,2.5789247E0,-3.3673704E-1,2.2728562E0,2.1700778E0,-3.3310112E-1,-3.3849633E-1,-2.5855383E-1,-2.5191575E-1,2.5283716E0,1.2389845E0,-3.232126E-1,-2.1108371E-1,2.5797877E0,-3.3821744E-1,2.5127E0,7.444557E-1,2.5678089E0,-3.336725E-1,1.5139617E0,2.571291E0,1.148035E-1,1.9791979E0,-2.4698816E-1,2.5512204E0,-3.3575493E-1,-2.7167958E-1,2.576274E0,-1.9709526E-1,1.7056595E0,1.2903324E0,-3.3929262E-1,2.1798103E0,-3.0149361E-1,-3.3296585E-1,-1.754235E-1,1.2113938E0,-3.1513286E-1,1.6746541E0,-1.9413975E-1],"split_indices":[6,14,1,17,15,2,16,17,16,0,2,5,17,5,17,16,15,16,12,12,2,16,17,0,0,3,2,0,16,9,17,17,17,16,16,15,17,16,1,4,1,8,17,14,16,16,2,15,16,0,0,16,16,9,0,5,0,0,0,0,0,0,0,0,0,0,0,0,0,0,0,0,0,0,0,0,0,0,0,0,0,0,0,0,0,0,0,0,0,0,0,0,0,0,0,0,0,0,0,0,0,0,0],"split_type":[0,0,0,0,0,0,0,0,0,0,0,0,0,0,0,0,0,0,0,0,0,0,0,0,0,0,0,0,0,0,0,0,0,0,0,0,0,0,0,0,0,0,0,0,0,0,0,0,0,0,0,0,0,0,0,0,0,0,0,0,0,0,0,0,0,0,0,0,0,0,0,0,0,0,0,0,0,0,0,0,0,0,0,0,0,0,0,0,0,0,0,0,0,0,0,0,0,0,0,0,0,0,0],"sum_hessian":[7.3128156E5,7.08922E5,2.2359508E4,4.8517466E5,2.2374738E5,2.0208207E4,2.1513005E3,3.2277428E5,1.6240038E5,1.7122957E4,2.066244E5,1.0373223E3,1.9170887E4,1.9195856E3,2.3171486E2,3.143488E5,8.425481E3,1.5325035E3,1.6086786E5,1.3728104E4,3.394854E3,9.77811E4,1.08843305E5,1.1303164E0,1.0361919E3,1.9141807E4,2.9079958E1,3.8019733E0,1.9157836E3,8.354066E1,1.4817421E2,1.8027395E5,1.3407484E5,3.5231963E3,4.902285E3,1.00783124E3,5.246723E2,1.6081608E5,5.1789043E1,4.305478E1,1.3685049E4,1.9799033E3,1.4149507E3,9.64762E4,1.3048989E3,8.827452E4,2.056878E4,1.9126906E4,1.4899626E1,1.1303164E0,2.7949642E1,1.8866008E3,2.9182714E1,5.5899284E1,2.7641375E1,3.1854372E0,1.4498877E2,1.2318641E5,5.7087555E4,1.3335411E5,7.2073083E2,1.0233474E3,2.4998489E3,5.035046E0,4.89725E3,1.0004328E3,7.3984346E0,4.2530725E2,9.936509E1,1.6044584E5,3.7023E2,2.8771691E0,4.8911873E1,4.7267776E0,3.8328003E1,1.6440966E0,1.3683405E4,1.9426029E3,3.730044E1,1.1075046E3,3.0744608E2,9.6417945E4,5.8262672E1,8.4023615E2,4.646628E2,1.5510407E4,7.276412E4,1.4264901E4,6.3038774E3,4.0074854E0,1.9122898E4,1.1919701E1,2.9799252E0,1.2330725E0,1.8853678E3,5.44607E0,2.3736645E1,5.117251E1,4.7267776E0,1.4694114E1,1.2947261E1,1.8496087E0,1.3358285E0],"tree_param":{"num_deleted":"0","num_feature":"18","num_nodes":"103","size_leaf_vector":"1"}},{"base_weights":[-2.6309606E-1,1.4405415E0,-4.1479936E-1,1.7465775E0,-8.789879E-1,-1.8911844E-1,-1.0014821E0,-3.278599E-1,1.7984767E0,-1.4162517E-1,-1.1585131E0,-6.0510963E-1,5.828927E-1,-1.0591408E0,1.2863975E0,2.5847201E0,1.5777807E0,-1.051797E0,1.7152748E0,-1.7103865E0,-1.0427718E0,-9.577513E-2,-1.0403372E0,7.227793E0,5.226595E-1,-1.0986454E0,1.1549586E0,-7.4348265E-1,1.6169616E0,2.0428543E0,5.6676216E0,1.5779053E0,-3.048537E-1,1.5547353E0,-3.2796383E-1,-3.346427E-1,1.7230412E0,-5.8469594E-1,-3.2945216E-1,1.4899558E0,-1.1128088E0,-8.6717594E-1,3.1144366E0,7.316251E-2,-1.0549613E0,1.01181555E1,2.8987215E0,-1.5547737E-1,1.1619581E0,-1.1004682E0,4.043013E0,1.5221348E0,-6.4036727E-1,1.7578664E0,-1.1577682E0,1.6878046E0,-3.4061617E-1,6.13831E-1,-4.474271E-1,3.2043023E0,4.7700793E-1,1.1970848E-1,4.733849E-1,-3.651148E-1,9.2402464E-1,6.1164266E-1,4.9718797E-1,5.8937067E-1,-4.5815745E-1,-4.4363108E-1,-3.278861E-1,-3.325214E-1,2.0575355E-1,1.6907527E0,4.1765508E-1,-3.319522E-1,3.2854787E-1,-2.4011892E-1,-3.2486287E-1,3.177231E0,-3.5566825E-1,1.5103341E0,4.3746224E-1,4.4201136E-1,-3.2519257E-1,4.1821563E-1,-3.774364E-1,-3.3241802E-1,-8.90114E-2,1.7494596E0,4.082015E-1,-6.3130563E-1,4.6484402E-1,-3.0563557E-1,3.2980925E-1,-1.6639002E-1,5.6797916E-1,-6.041988E-1,-3.39401E-1,4.9055737E-1,1.1601211E0],"categories":[],"categories_nodes":[],"categories_segments":[],"categories_sizes":[],"default_left":[0,0,0,0,0,0,0,0,0,0,0,0,0,0,0,0,0,0,0,0,0,0,0,0,0,0,0,0,0,0,0,0,0,0,0,0,0,0,0,0,0,0,0,0,0,0,0,0,0,0,0,0,0,0,0,0,0,0,0,0,0,0,0,0,0,0,0,0,0,0,0,0,0,0,0,0,0,0,0,0,0,0,0,0,0,0,0,0,0,0,0,0,0,0,0,0,0,0,0,0,0],"id":1,"left_children":[1,3,5,7,9,11,13,-1,15,17,19,21,23,25,27,29,31,33,35,37,39,41,43,45,47,49,51,53,55,57,59,61,-1,63,-1,-1,65,-1,-1,67,69,71,73,75,77,79,81,83,85,87,89,91,93,95,97,99,-1,-1,-1,-1,-1,-1,-1,-1,-1,-1,-1,-1,-1,-1,-1,-1,-1,-1,-1,-1,-1,-1,-1,-1,-1,-1,-1,-1,-1,-1,-1,-1,-1,-1,-1,-1,-1,-1,-1,-1,-1,-1,-1,-1,-1],"loss_changes":[1.8272239E5,4.103739E4,8.595465E4,7.5279844E3,1.3887832E3,1.5056877E5,2.379239E4,0E0,8.698734E3,3.1344436E3,3.1032666E2,6.7538586E4,6.570435E4,1.5388266E4,2.9763442E3,1.8349086E4,1.425E1,1.3604126E2,1.5333984E1,1.2137256E2,7.186006E2,3.4764788E5,2.6753125E3,1.8422828E4,7.053431E4,1.6241719E3,2.0341055E3,6.461996E2,7.454424E2,1.1041797E2,3.3559484E4,1.40625E0,0E0,8.778783E1,0E0,0E0,9.26001E0,0E0,0E0,1.5935141E2,2.6966309E1,4.2404742E4,1.1810222E5,2.5699424E3,1.1514844E3,4.7345156E3,1.813374E3,1.1940566E5,4.7041E4,1.0539531E3,2.8691486E2,2.572124E2,3.4634537E2,2.8829895E1,9.80426E0,4.1997168E2,0E0,0E0,0E0,0E0,0E0,0E0,0E0,0E0,0E0,0E0,0E0,0E0,0E0,0E0,0E0,0E0,0E0,0E0,0E0,0E0,0E0,0E0,0E0,0E0,0E0,0E0,0E0,0E0,0E0,0E0,0E0,0E0,0E0,0E0,0E0,0E0,0E0,0E0,0E0,0E0,0E0,0E0,0E0,0E0,0E0],"parents":[2147483647,0,0,1,1,2,2,3,3,4,4,5,5,6,6,8,8,9,9,10,10,11,11,12,12,13,13,14,14,15,15,16,16,17,17,18,18,19,19,20,20,21,21,22,22,23,23,24,24,25,25,26,26,27,27,28,28,29,29,30,30,31,31,33,33,36,36,39,39,40,40,41,41,42,42,43,43,44,44,45,45,46,46,47,47,48,48,49,49,50,50,51,51,52,52,53,53,54,54,55,55],"right_children":[2,4,6,8,10,12,14,-1,16,18,20,22,24,26,28,30,32,34,36,38,40,42,44,46,48,50,52,54,56,58,60,62,-1,64,-1,-1,66,-1,-1,68,70,72,74,76,78,80,82,84,86,88,90,92,94,96,98,100,-1,-1,-1,-1,-1,-1,-1,-1,-1,-1,-1,-1,-1,-1,-1,-1,-1,-1,-1,-1,-1,-1,-1,-1,-1,-1,-1,-1,-1,-1,-1,-1,-1,-1,-1,-1,-1,-1,-1,-1,-1,-1,-1,-1,-1],"split_conditions":[4.9575666E-1,1.459855E-5,4.1502693E-1,4.9556676E-1,9.1068804E-1,6.4599486E-3,5.3487208E-2,-3.278599E-1,6.831378E-1,5.045499E-1,1.2033694E-2,2.5E-2,8.752552E-1,7.657316E-1,6.153846E-2,5.273786E-2,1E0,6.369851E-1,4.0983604E-3,4.0591206E-2,1.7E-2,2.0908266E-2,6.894324E-3,1E-2,1.1E-2,1E0,4.3647915E-1,5.667101E-2,7.257169E-2,9.1068804E-1,7.5E-2,3.29978E-8,-3.048537E-1,7.5E-2,-3.2796383E-1,-3.346427E-1,4.2388177E-1,-5.8469594E-1,-3.2945216E-1,4.5453128E-1,7.5E-2,9E-3,3.2918278E-2,9.0289256E-4,4.1E-2,8.668764E-6,7.5E-2,2.6946107E-2,3.1360158E-1,5.321567E-2,3.5190023E-2,1.5E-1,5.258118E-2,4.9999997E-2,5.4358137E-1,1E0,-3.4061617E-1,6.13831E-1,-4.474271E-1,3.2043023E0,4.7700793E-1,1.1970848E-1,4.733849E-1,-3.651148E-1,9.2402464E-1,6.1164266E-1,4.9718797E-1,5.8937067E-1,-4.5815745E-1,-4.4363108E-1,-3.278861E-1,-3.325214E-1,2.0575355E-1,1.6907527E0,4.1765508E-1,-3.319522E-1,3.2854787E-1,-2.4011892E-1,-3.2486287E-1,3.177231E0,-3.5566825E-1,1.5103341E0,4.3746224E-1,4.4201136E-1,-3.2519257E-1,4.1821563E-1,-3.774364E-1,-3.3241802E-1,-8.90114E-2,1.7494596E0,4.082015E-1,-6.3130563E-1,4.6484402E-1,-3.0563557E-1,3.2980925E-1,-1.6639002E-1,5.6797916E-1,-6.041988E-1,-3.39401E-1,4.9055737E-1,1.1601211E0],"split_indices":[1,0,5,2,2,9,16,0,6,2,17,17,2,4,17,16,13,5,17,16,17,16,16,17,17,13,3,16,16,2,17,0,0,17,0,0,4,0,0,1,17,17,16,16,17,0,17,15,4,16,16,17,16,7,1,13,0,0,0,0,0,0,0,0,0,0,0,0,0,0,0,0,0,0,0,0,0,0,0,0,0,0,0,0,0,0,0,0,0,0,0,0,0,0,0,0,0,0,0,0,0],"split_type":[0,0,0,0,0,0,0,0,0,0,0,0,0,0,0,0,0,0,0,0,0,0,0,0,0,0,0,0,0,0,0,0,0,0,0,0,0,0,0,0,0,0,0,0,0,0,0,0,0,0,0,0,0,0,0,0,0,0,0,0,0,0,0,0,0,0,0,0,0,0,0,0,0,0,0,0,0,0,0,0,0,0,0,0,0,0,0,0,0,0,0,0,0,0,0,0,0,0,0,0,0],"sum_hessian":[7.06997E5,5.780742E4,6.4918956E5,5.1069605E4,6.7378164E3,4.6884066E5,1.803489E5,9.163307E2,5.0153273E4,1.8525251E3,4.8852915E3,3.0467144E5,1.641692E5,1.7591605E5,4.4328574E3,1.0989995E4,3.9163277E4,1.2434657E3,6.090594E2,8.4455164E2,4.0407397E3,1.4038458E5,1.6428686E5,1.4736881E3,1.6269552E5,1.7283281E5,3.083235E3,6.206166E2,3.812241E3,9.348517E3,1.6414786E3,3.916179E4,1.4882146E0,1.8877142E1,1.2245886E3,1.2761829E0,6.077832E2,6.061364E2,2.3841524E2,1.0818553E2,3.9325542E3,1.13186945E5,2.7197633E4,2.129632E3,1.6215723E5,8.8288257E2,5.908056E2,7.894998E4,8.374554E4,1.7277236E5,6.046007E1,2.5598518E3,5.233832E2,8.7723236E1,5.328933E2,3.7169565E3,9.5284485E1,9.340351E3,8.165527E0,7.355292E2,9.0594946E2,1.8083358E0,3.9159984E4,6.772537E0,1.2104604E1,9.956991E1,5.0821332E2,9.3782005E1,1.4403528E1,1.9859863E2,3.7339556E3,9.796972E4,1.5217225E4,1.1037006E4,1.6160626E4,9.885206E2,1.1411113E3,1.6027441E4,1.4612978E5,8.475108E2,3.537175E1,2.3697238E2,3.5383322E2,2.8664219E4,5.0285758E4,7.641728E4,7.328259E3,1.7115534E5,1.6170045E3,3.55693E1,2.489077E1,1.8589422E1,2.5412625E3,4.3021854E2,9.316466E1,4.680862E0,8.304237E1,1.3705885E1,5.1918744E2,3.6310437E3,8.591301E1],"tree_param":{"num_deleted":"0","num_feature":"18","num_nodes":"101","size_leaf_vector":"1"}},{"base_weights":[-2.770608E-1,1.1307782E0,-4.0694016E-1,1.3624502E0,-8.2302517E-1,-2.158229E-1,-9.667981E-1,-3.1986836E-1,1.4007238E0,-1.4703903E-1,-1.0834168E0,-5.786503E-1,4.278957E-1,-1.0240278E0,1.1049654E0,1.521078E0,1.3597591E0,-1.022911E0,1.4172443E0,-1.3628682E0,-9.8252803E-1,-1.6401525E-1,-9.8502797E-1,7.0589975E-2,1.3347579E0,-1.0637463E0,9.8657715E-1,-7.023904E-1,1.3783559E0,1.5253612E0,-2.1223283E0,1.3598837E0,-2.504262E-1,1.040471E0,-3.1999254E-1,-2.2807606E-1,1.4269022E0,-1.4404218E0,-3.203097E-1,-1.0761836E0,1.4191893E0,-1.0789328E0,1.0283085E0,-2.3215568E-2,-9.997467E-1,1.2467508E0,-8.040329E-1,-3.2315353E-1,1.3986115E0,-1.0734454E0,-2.2616893E-1,1.2650189E0,-7.746244E-1,1.4449165E0,-1.1063569E0,1.4360087E0,-3.2696262E-1,4.6999314E-1,4.1565055E-1,-3.850524E-1,-8.474497E-1,9.553652E-2,4.0797967E-1,-3.2774532E-1,5.805264E-1,-1.1905586E-1,4.29561E-1,-4.6161702E-1,-3.184179E-1,-4.4752258E-1,-3.2020676E-1,-3.8876498E-1,5.0926614E-1,-5.0515825E-1,-3.2059094E-1,-3.7456536E-1,3.9247766E-1,-3.7489408E-1,1.7431028E-1,-2.0887311E-1,-3.1388637E-1,-3.9373395E-1,4.5288083E-1,4.0499914E-1,-2.6989877E-1,4.3436062E-1,-3.057263E-1,3.8305666E0,4.19193E-1,-3.2259536E-1,5.8131737E-1,3.0882294E0,-2.9536054E-1,3.9747483E-1,-2.5035793E-1,-3.079251E-1,1.5277626E-1,-2.440832E-1,4.6663827E-1,-4.5129403E-2,-3.3432403E-1,4.2152366E-1,7.2211E-1],"categories":[],"categories_nodes":[],"categories_segments":[],"categories_sizes":[],"default_left":[0,0,0,0,0,0,0,0,0,0,0,0,0,0,0,0,0,0,0,0,0,0,0,0,0,0,0,0,0,0,0,0,0,0,0,0,0,0,0,0,0,0,0,0,0,0,0,0,0,0,0,0,0,0,0,0,0,0,0,0,0,0,0,0,0,0,0,0,0,0,0,0,0,0,0,0,0,0,0,0,0,0,0,0,0,0,0,0,0,0,0,0,0,0,0,0,0,0,0,0,0,0,0],"id":2,"left_children":[1,3,5,7,9,11,13,-1,15,17,19,21,23,25,27,29,31,33,35,37,39,41,43,45,47,49,51,53,55,57,59,61,-1,63,-1,-1,65,67,-1,69,71,73,75,77,79,81,83,85,87,89,91,93,95,97,99,101,-1,-1,-1,-1,-1,-1,-1,-1,-1,-1,-1,-1,-1,-1,-1,-1,-1,-1,-1,-1,-1,-1,-1,-1,-1,-1,-1,-1,-1,-1,-1,-1,-1,-1,-1,-1,-1,-1,-1,-1,-1,-1,-1,-1,-1,-1,-1],"loss_changes":[1.0824714E5,2.2634102E4,5.7992844E4,4.156711E3,9.3294653E2,9.437333E4,1.6355492E4,0E0,2.1491406E2,2.0227858E3,1.0655127E2,4.3542094E4,4.719549E4,1.0720172E4,1.8332925E3,1.775039E2,1.0113281E1,8.650134E1,1.222998E1,2.163977E1,6.3478076E2,1.3953358E5,1.8475078E3,1.0748618E5,4.3586016E3,1.0690625E3,1.2763594E3,4.2482147E2,4.5997314E2,6.223242E1,4.347618E0,1.2304688E0,0E0,4.0557137E1,0E0,0E0,5.3515625E0,2.8135742E1,0E0,8.3498535E0,8.2383194E1,4.4898438E2,3.540038E4,1.4592052E3,1.8149375E3,2.9978469E4,1.2345234E4,1.884208E3,5.6878125E2,7.3571875E2,1.204179E4,2.835642E2,1.15497086E2,2.0661469E1,2.999298E0,9.117334E1,0E0,0E0,0E0,0E0,0E0,0E0,0E0,0E0,0E0,0E0,0E0,0E0,0E0,0E0,0E0,0E0,0E0,0E0,0E0,0E0,0E0,0E0,0E0,0E0,0E0,0E0,0E0,0E0,0E0,0E0,0E0,0E0,0E0,0E0,0E0,0E0,0E0,0E0,0E0,0E0,0E0,0E0,0E0,0E0,0E0,0E0,0E0],"parents":[2147483647,0,0,1,1,2,2,3,3,4,4,5,5,6,6,8,8,9,9,10,10,11,11,12,12,13,13,14,14,15,15,16,16,17,17,18,18,19,19,20,20,21,21,22,22,23,23,24,24,25,25,26,26,27,27,28,28,29,29,30,30,31,31,33,33,36,36,37,37,39,39,40,40,41,41,42,42,43,43,44,44,45,45,46,46,47,47,48,48,49,49,50,50,51,51,52,52,53,53,54,54,55,55],"right_children":[2,4,6,8,10,12,14,-1,16,18,20,22,24,26,28,30,32,34,36,38,40,42,44,46,48,50,52,54,56,58,60,62,-1,64,-1,-1,66,68,-1,70,72,74,76,78,80,82,84,86,88,90,92,94,96,98,100,102,-1,-1,-1,-1,-1,-1,-1,-1,-1,-1,-1,-1,-1,-1,-1,-1,-1,-1,-1,-1,-1,-1,-1,-1,-1,-1,-1,-1,-1,-1,-1,-1,-1,-1,-1,-1,-1,-1,-1,-1,-1,-1,-1,-1,-1,-1,-1],"split_conditions":[4.9575666E-1,1.459855E-5,4.1502693E-1,4.9556676E-1,9.1068804E-1,6.4599486E-3,5.3487208E-2,-3.1986836E-1,6.831378E-1,5.045499E-1,2.81202E-1,2E-2,7.5E-2,7.657316E-1,6.153846E-2,9.1068804E-1,1E0,6.369851E-1,3.8922157E-2,4.0591206E-2,7.215893E-2,7E-3,6.894324E-3,4.0591206E-2,4.1646797E-2,5.321567E-2,5.4358137E-1,5.667101E-2,7.257169E-2,4.0591206E-2,4.1646797E-2,3.29978E-8,-2.504262E-1,7.5E-2,-3.1999254E-1,-2.2807606E-1,6.6815144E-3,7.5E-2,-3.203097E-1,7.5E-2,9.155989E-1,5.9167266E-1,1.2161136E-2,4.45E-1,4.1E-2,7.9350376E-1,8.752552E-1,7.911303E-3,4.9892175E-1,1E0,7.1726584E-1,1.3788252E-5,4.494689E-2,6.1910314E-6,5.148426E-1,1E0,-3.2696262E-1,4.6999314E-1,4.1565055E-1,-3.850524E-1,-8.474497E-1,9.553652E-2,4.0797967E-1,-3.2774532E-1,5.805264E-1,-1.1905586E-1,4.29561E-1,-4.6161702E-1,-3.184179E-1,-4.4752258E-1,-3.2020676E-1,-3.8876498E-1,5.0926614E-1,-5.0515825E-1,-3.2059094E-1,-3.7456536E-1,3.9247766E-1,-3.7489408E-1,1.7431028E-1,-2.0887311E-1,-3.1388637E-1,-3.9373395E-1,4.5288083E-1,4.0499914E-1,-2.6989877E-1,4.3436062E-1,-3.057263E-1,3.8305666E0,4.19193E-1,-3.2259536E-1,5.8131737E-1,3.0882294E0,-2.9536054E-1,3.9747483E-1,-2.5035793E-1,-3.079251E-1,1.5277626E-1,-2.440832E-1,4.6663827E-1,-4.5129403E-2,-3.3432403E-1,4.2152366E-1,7.2211E-1],"split_indices":[1,0,5,2,2,9,16,0,6,2,3,17,17,4,17,2,13,5,15,16,5,17,16,16,16,16,1,16,16,16,16,0,0,17,0,0,17,17,0,17,2,1,16,17,17,1,2,16,1,13,2,0,16,0,1,13,0,0,0,0,0,0,0,0,0,0,0,0,0,0,0,0,0,0,0,0,0,0,0,0,0,0,0,0,0,0,0,0,0,0,0,0,0,0,0,0,0,0,0,0,0,0,0],"split_type":[0,0,0,0,0,0,0,0,0,0,0,0,0,0,0,0,0,0,0,0,0,0,0,0,0,0,0,0,0,0,0,0,0,0,0,0,0,0,0,0,0,0,0,0,0,0,0,0,0,0,0,0,0,0,0,0,0,0,0,0,0,0,0,0,0,0,0,0,0,0,0,0,0,0,0,0,0,0,0,0,0,0,0,0,0,0,0,0,0,0,0,0,0,0,0,0,0,0,0,0,0,0,0],"sum_hessian":[5.9199875E5,5.0000973E4,5.419978E5,4.470087E4,5.300098E3,4.040647E5,1.3793312E5,6.930965E2,4.4007777E4,1.4743074E3,3.8257908E3,2.5841244E5,1.4565223E5,1.3422581E5,3.7073042E3,1.1166004E4,3.2841773E4,9.4533984E2,5.289676E2,1.0115083E3,2.8142825E3,1.27907414E5,1.3050503E5,1.0448571E5,4.1166523E4,1.3162608E5,2.5997336E3,4.8689868E2,3.2204055E3,1.1153473E4,1.2530728E1,3.284029E4,1.4850438E0,1.9146488E1,9.2619336E2,1.9925834E0,5.26975E2,7.9796814E2,2.1354016E2,2.709189E3,1.05093605E2,7.237291E4,5.553451E4,1.9670697E3,1.2853796E5,4.456112E4,5.992459E4,1.5265542E3,3.963997E4,1.30119016E5,1.5070636E3,2.2450745E3,3.5465927E2,7.668712E1,4.1021155E2,3.147309E3,7.309652E1,8.603705E3,2.5497676E3,6.9997597E0,5.5309687E0,1.8342155E0,3.2838453E4,5.592239E0,1.355425E1,1.2172273E0,5.2575775E2,6.312047E2,1.6676344E2,5.286008E1,2.6563289E3,9.4329E0,9.5660706E1,1.2085077E3,7.11644E4,6.080206E3,4.9454305E4,6.489148E2,1.3181549E3,1.7092271E4,1.1144569E5,4.1501494E3,4.0410973E4,2.546746E3,5.7377844E4,4.3033963E2,1.0962146E3,3.4143946E0,3.9636555E4,1.300388E5,8.021864E1,1.00488266E2,1.4065754E3,2.183161E3,6.19135E1,2.966761E2,5.79832E1,3.2815628E0,7.3405556E1,3.5927696E0,4.0661877E2,3.0525244E3,9.478465E1],"tree_param":{"num_deleted":"0","num_feature":"18","num_nodes":"103","size_leaf_vector":"1"}},{"base_weights":[-2.6314467E-1,1.0235463E0,-3.8050804E-1,1.2287436E0,-7.8792065E-1,-9.4418883E-1,-2.0449646E-1,-3.1416184E-1,1.2621334E0,-1.4801587E-1,-1.0369567E0,-1.0012813E0,1.0034372E0,-5.2703315E-1,3.7664247E-1,1.2631625E0,-4.7413582E-1,-1.0019848E0,1.2607418E0,-1.2373646E0,-9.6002394E-1,-1.0412633E0,8.80163E-1,-6.382722E-1,1.2750049E0,-1.5471686E-1,-9.290353E-1,5.981042E-2,1.2043821E0,1.3314884E0,1.2390693E0,8.460733E-1,-3.1431746E-1,-2.0885426E-1,1.2699258E0,-1.2829319E0,-3.1388274E-1,-1.0550941E0,1.2037814E0,6.5883474E0,-1.0420054E0,1.1679821E0,-5.5041224E-1,1.3285699E0,-1.1175705E0,1.3257028E0,-3.1684622E-1,-1.0568063E0,7.0086193E-1,-6.0786325E-1,-9.932625E-1,8.6908996E-1,-1.0100064E0,1.247692E0,-9.8544896E-1,3.997494E-1,-2.9980123E-1,3.717608E-1,-2.0860249E-1,-2.9868367E-1,4.667762E-1,-9.850251E-2,3.8258308E-1,-4.0160593E-1,-3.1229752E-1,-3.9600906E-1,-3.146001E-1,-3.4838408E-1,4.322138E-1,1.7223868E-1,3.4435418E0,-3.131991E-1,4.1531202E-1,-4.3474376E-1,3.5933062E-1,-2.7857462E-1,1.7764275E-1,4.118553E-1,-1.4428389E-1,1.29928375E-2,-3.3962768E-1,3.9243963E-1,1.0699239E0,-4.2396286E-1,-3.1496412E-1,2.7914518E-1,-3.584746E-1,3.3277832E-2,-2.967539E-1,1.333777E-2,-3.045301E-1,3.7651712E-1,-3.1907785E-1,1.5913881E0,-3.0392867E-1,-3.3060288E-1,3.796834E-1,5.206854E-1,-3.1367734E-1],"categories":[],"categories_nodes":[],"categories_segments":[],"categories_sizes":[],"default_left":[0,0,0,0,0,0,0,0,0,0,0,0,0,0,0,0,0,0,0,0,0,0,0,0,0,0,0,0,0,0,0,0,0,0,0,0,0,0,0,0,0,0,0,0,0,0,0,0,0,0,0,0,0,0,0,0,0,0,0,0,0,0,0,0,0,0,0,0,0,0,0,0,0,0,0,0,0,0,0,0,0,0,0,0,0,0,0,0,0,0,0,0,0,0,0,0,0,0,0],"id":3,"left_children":[1,3,5,7,9,11,13,-1,15,17,19,21,23,25,27,29,-1,31,33,35,37,39,41,43,45,47,49,51,53,55,57,59,-1,-1,61,63,-1,65,67,69,71,73,75,77,79,81,-1,83,85,87,89,91,93,95,97,-1,-1,-1,-1,-1,-1,-1,-1,-1,-1,-1,-1,-1,-1,-1,-1,-1,-1,-1,-1,-1,-1,-1,-1,-1,-1,-1,-1,-1,-1,-1,-1,-1,-1,-1,-1,-1,-1,-1,-1,-1,-1,-1,-1],"loss_changes":[7.257856E4,1.493416E4,4.3698125E4,2.743707E3,6.513711E2,1.1654695E4,6.2912133E4,0E0,1.0603906E2,1.3805769E3,4.4184814E1,7.6602188E3,1.3317327E3,3.2305812E4,3.1416982E4,5.6882812E1,0E0,6.127289E1,8.668823E0,5.7355957E0,4.3964514E2,5.713594E2,8.732438E2,4.015542E2,3.0417188E2,8.64906E4,2.1402734E3,7.500872E4,3.1462734E3,2.3113281E1,7.6484375E0,2.4828796E1,0E0,0E0,4.1089478E0,7.4005127E0,0E0,2.0922852E0,5.2192215E1,2.8260547E2,4.831953E2,1.3929712E2,1.5421552E2,7.3598175E0,5.8106384E0,9.406738E1,0E0,1.3316797E2,2.5037617E4,4.741371E3,1.9599844E3,3.679512E4,7.331992E2,1.3705703E3,1.0715509E2,0E0,0E0,0E0,0E0,0E0,0E0,0E0,0E0,0E0,0E0,0E0,0E0,0E0,0E0,0E0,0E0,0E0,0E0,0E0,0E0,0E0,0E0,0E0,0E0,0E0,0E0,0E0,0E0,0E0,0E0,0E0,0E0,0E0,0E0,0E0,0E0,0E0,0E0,0E0,0E0,0E0,0E0,0E0,0E0],"parents":[2147483647,0,0,1,1,2,2,3,3,4,4,5,5,6,6,8,8,9,9,10,10,11,11,12,12,13,13,14,14,15,15,17,17,18,18,19,19,20,20,21,21,22,22,23,23,24,24,25,25,26,26,27,27,28,28,29,29,30,30,31,31,34,34,35,35,37,37,38,38,39,39,40,40,41,41,42,42,43,43,44,44,45,45,47,47,48,48,49,49,50,50,51,51,52,52,53,53,54,54],"right_children":[2,4,6,8,10,12,14,-1,16,18,20,22,24,26,28,30,-1,32,34,36,38,40,42,44,46,48,50,52,54,56,58,60,-1,-1,62,64,-1,66,68,70,72,74,76,78,80,82,-1,84,86,88,90,92,94,96,98,-1,-1,-1,-1,-1,-1,-1,-1,-1,-1,-1,-1,-1,-1,-1,-1,-1,-1,-1,-1,-1,-1,-1,-1,-1,-1,-1,-1,-1,-1,-1,-1,-1,-1,-1,-1,-1,-1,-1,-1,-1,-1,-1,-1],"split_conditions":[4.9575666E-1,1.459855E-5,8.7077177E-1,4.9556676E-1,9.1068804E-1,5.3487208E-2,6.4599486E-3,-3.1416184E-1,9.1068804E-1,5.045499E-1,2.81202E-1,7.657316E-1,7.5E-2,1.7E-2,7.5E-2,6.831378E-1,-4.7413582E-1,6.369851E-1,3.8922157E-2,4.0591206E-2,7.215893E-2,4.844961E-3,4.3647915E-1,5.667101E-2,7.257169E-2,7E-3,4.1E-2,9.321149E-1,3.1360158E-1,4.828974E-1,1E0,7.5E-2,-3.1431746E-1,-2.0885426E-1,6.6815144E-3,7.5E-2,-3.1388274E-1,7.5E-2,9.155989E-1,4.3729854E-1,1E0,1.5E-1,4.494689E-2,2E-1,5.148426E-1,3.003003E-2,-3.1684622E-1,5.9167266E-1,4.0591206E-2,3.2269437E-2,6.894324E-3,3.1360158E-1,6.6815144E-3,1.7964073E-2,9.329882E-1,3.997494E-1,-2.9980123E-1,3.717608E-1,-2.0860249E-1,-2.9868367E-1,4.667762E-1,-9.850251E-2,3.8258308E-1,-4.0160593E-1,-3.1229752E-1,-3.9600906E-1,-3.146001E-1,-3.4838408E-1,4.322138E-1,1.7223868E-1,3.4435418E0,-3.131991E-1,4.1531202E-1,-4.3474376E-1,3.5933062E-1,-2.7857462E-1,1.7764275E-1,4.118553E-1,-1.4428389E-1,1.29928375E-2,-3.3962768E-1,3.9243963E-1,1.0699239E0,-4.2396286E-1,-3.1496412E-1,2.7914518E-1,-3.584746E-1,3.3277832E-2,-2.967539E-1,1.333777E-2,-3.045301E-1,3.7651712E-1,-3.1907785E-1,1.5913881E0,-3.0392867E-1,-3.3060288E-1,3.796834E-1,5.206854E-1,-3.1367734E-1],"split_indices":[1,0,2,2,2,16,9,0,2,2,3,4,17,17,17,6,0,5,15,16,5,9,3,16,16,17,17,3,4,1,13,17,0,0,17,17,0,17,2,4,13,17,16,12,1,14,0,1,16,16,16,4,17,15,2,0,0,0,0,0,0,0,0,0,0,0,0,0,0,0,0,0,0,0,0,0,0,0,0,0,0,0,0,0,0,0,0,0,0,0,0,0,0,0,0,0,0,0,0],"split_type":[0,0,0,0,0,0,0,0,0,0,0,0,0,0,0,0,0,0,0,0,0,0,0,0,0,0,0,0,0,0,0,0,0,0,0,0,0,0,0,0,0,0,0,0,0,0,0,0,0,0,0,0,0,0,0,0,0,0,0,0,0,0,0,0,0,0,0,0,0,0,0,0,0,0,0,0,0,0,0,0,0,0,0,0,0,0,0,0,0,0,0,0,0,0,0,0,0,0,0],"sum_hessian":[4.80616E5,4.0173523E4,4.404425E5,3.608612E4,4.0873992E3,1.0480331E5,3.356392E5,5.2131494E2,3.556481E4,1.1455278E3,2.9418713E3,1.01819086E5,2.9842266E3,2.1584408E5,1.19795086E5,3.5552492E4,1.231635E1,7.133773E2,4.321505E2,8.118734E2,2.129998E3,9.970082E4,2.1182654E3,4.2338498E2,2.5608416E3,1.1206028E5,1.03783805E5,8.6635055E4,3.316003E4,9.254223E3,2.629827E4,1.680726E1,6.9657007E2,1.6692379E0,4.3048126E2,6.5093665E2,1.6093678E2,2.0408428E3,8.915528E1,8.833147E0,9.969199E4,1.7636235E3,3.5464194E2,8.261113E1,3.4077383E2,2.5067559E3,5.4085552E1,5.4547383E4,5.75129E4,1.729743E4,8.648637E4,4.932362E4,3.7311434E4,3.2517342E4,6.426898E2,9.250644E3,3.5786533E0,2.6296816E4,1.4532894E0,4.5638533E0,1.2243406E1,1.2350297E0,4.2924625E2,5.253405E2,1.2559613E2,4.3496468E1,1.9973463E3,7.763022E0,8.1392265E1,4.462391E0,4.370756E0,9.96108E4,8.119114E1,1.9310331E1,1.7443131E3,2.6659122E2,8.805073E1,8.087337E1,1.737757E0,4.185682E0,3.3658817E2,2.4888235E3,1.7932558E1,1.0359381E3,5.3511445E4,5.1299824E4,6.213074E3,5.995846E3,1.1301584E4,1.7824889E3,8.470388E4,4.1113406E4,8.210215E3,1.7404196E1,3.7294027E4,2.4564822E2,3.2271695E4,1.32954E1,6.293945E2],"tree_param":{"num_deleted":"0","num_feature":"18","num_nodes":"99","size_leaf_vector":"1"}},{"base_weights":[-2.4960445E-1,9.5853716E-1,-3.5624605E-1,1.1483146E0,-7.641812E-1,-1.940285E-1,-9.217744E-1,-3.0999032E-1,1.1788951E0,-1.4789705E-1,-1.006167E0,-8.8003695E-1,6.362681E-2,-9.77864E-1,9.318956E-1,1.1799016E0,-4.0403754E-1,-9.827615E-1,1.1708477E0,-1.0478557E0,-7.55523E-1,-5.27839E-1,-1.0928411E0,2.962491E-1,-9.4274217E-1,-1.0181484E0,7.979442E-1,-5.926418E-1,1.1762458E0,1.222385E0,1.1645972E0,7.020332E-1,-1.031779E0,1.1809006E0,-2.5636798E-1,-3.6564615E-1,-1.017966E0,8.49709E-1,-1.1262207E0,-9.875574E-1,2.4490814E0,-1.0460745E0,-1.1949894E0,7.668527E-1,-1.954941E-1,-1.0367613E0,1.024836E0,-1.0300281E0,-2.2790867E-1,1.0708884E0,-4.7905555E-1,1.1556418E0,-1.056309E0,1.2229675E0,-3.0904248E-1,3.670103E-1,-2.7095336E-1,-1.1644868E-1,3.4944943E-1,-2.897454E-1,4.0071014E-1,-3.103671E-1,4.3486625E-2,3.5588315E-1,1.320729E-3,2.4308532E-1,-3.113429E-1,3.6850613E-1,-3.3666486E-1,-3.674493E-1,-3.091678E-1,-3.6072075E-1,-2.4617812E-1,8.7824726E-1,-2.3867223E-1,-3.106668E-1,-3.9140713E-1,-4.1709188E-1,-3.006845E-1,1.06197484E-1,5.359243E-1,-2.2821596E-1,3.2545602E-1,-3.1095883E-1,-5.8963156E-1,3.6520594E-1,-3.1706256E-1,-3.0950713E-1,8.77993E-1,-3.045844E-1,5.3160334E-1,3.3554378E-1,-3.6034477E-1,6.516962E-1,-1.9099316E-1,-2.1386702E-1,3.7079984E-1,9.844927E-3,-3.223768E-1,3.6900693E-1,-8.849723E-1],"categories":[],"categories_nodes":[],"categories_segments":[],"categories_sizes":[],"default_left":[0,0,0,0,0,0,0,0,0,0,0,0,0,0,0,0,0,0,0,0,0,0,0,0,0,0,0,0,0,0,0,0,0,0,0,0,0,0,0,0,0,0,0,0,0,0,0,0,0,0,0,0,0,0,0,0,0,0,0,0,0,0,0,0,0,0,0,0,0,0,0,0,0,0,0,0,0,0,0,0,0,0,0,0,0,0,0,0,0,0,0,0,0,0,0,0,0,0,0,0,0],"id":4,"left_children":[1,3,5,7,9,11,13,-1,15,17,19,21,23,25,27,29,-1,31,33,35,37,39,41,43,45,47,49,51,53,55,57,59,61,63,-1,-1,65,67,69,71,73,75,77,79,81,83,85,87,89,91,93,95,97,99,-1,-1,-1,-1,-1,-1,-1,-1,-1,-1,-1,-1,-1,-1,-1,-1,-1,-1,-1,-1,-1,-1,-1,-1,-1,-1,-1,-1,-1,-1,-1,-1,-1,-1,-1,-1,-1,-1,-1,-1,-1,-1,-1,-1,-1,-1,-1],"loss_changes":[4.9884508E4,1.0268111E4,3.2638688E4,1.8885E3,4.6468018E2,4.8868434E4,8.246359E3,0E0,7.250391E1,9.6997266E2,2.2592285E1,5.6572383E3,4.705272E4,5.5074688E3,8.6855676E2,1.6710938E1,0E0,4.5269226E1,7.964325E0,8.55127E0,1.9299864E2,3.8915934E4,2.2353906E2,3.7779824E4,6.9819023E3,7.063828E2,5.9584814E2,2.6263293E2,2.0827881E2,1.6487305E1,7.9179688E0,1.8035358E1,1.864563E0,2.1474304E0,0E0,0E0,6.023401E1,4.7011364E1,1.2150269E0,8.8256836E2,5.9070625E3,8.647266E1,5.545625E2,3.5114137E4,5.777615E4,5.71875E0,6.911907E2,4.9072656E2,1.7592308E3,1.5354016E2,1.27346954E2,1.1102844E1,5.1203003E0,6.1540527E1,0E0,0E0,0E0,0E0,0E0,0E0,0E0,0E0,0E0,0E0,0E0,0E0,0E0,0E0,0E0,0E0,0E0,0E0,0E0,0E0,0E0,0E0,0E0,0E0,0E0,0E0,0E0,0E0,0E0,0E0,0E0,0E0,0E0,0E0,0E0,0E0,0E0,0E0,0E0,0E0,0E0,0E0,0E0,0E0,0E0,0E0,0E0],"parents":[2147483647,0,0,1,1,2,2,3,3,4,4,5,5,6,6,8,8,9,9,10,10,11,11,12,12,13,13,14,14,15,15,17,17,18,18,19,19,20,20,21,21,22,22,23,23,24,24,25,25,26,26,27,27,28,28,29,29,30,30,31,31,32,32,33,33,36,36,37,37,38,38,39,39,40,40,41,41,42,42,43,43,44,44,45,45,46,46,47,47,48,48,49,49,50,50,51,51,52,52,53,53],"right_children":[2,4,6,8,10,12,14,-1,16,18,20,22,24,26,28,30,-1,32,34,36,38,40,42,44,46,48,50,52,54,56,58,60,62,64,-1,-1,66,68,70,72,74,76,78,80,82,84,86,88,90,92,94,96,98,100,-1,-1,-1,-1,-1,-1,-1,-1,-1,-1,-1,-1,-1,-1,-1,-1,-1,-1,-1,-1,-1,-1,-1,-1,-1,-1,-1,-1,-1,-1,-1,-1,-1,-1,-1,-1,-1,-1,-1,-1,-1,-1,-1,-1,-1,-1,-1],"split_conditions":[4.9575666E-1,1.459855E-5,4.1502693E-1,4.9556676E-1,9.1068804E-1,1.930236E-2,5.3487208E-2,-3.0999032E-1,9.1068804E-1,5.368842E-1,2.861034E-2,1.6210474E-2,2.24E-1,7.657316E-1,7.5E-2,6.831378E-1,-4.0403754E-1,6.308968E-1,7.0129834E-2,1.5E-2,3.2269437E-2,1.4835592E-2,7E-3,3.8582798E-2,5.2390777E-2,5.321567E-2,4.3647915E-1,5.667101E-2,7.257169E-2,4.828974E-1,3.29978E-8,7.5E-2,4.5045044E-2,4.8E-1,-2.5636798E-1,-3.6564615E-1,1.7E-2,4.2E-2,4.0591206E-2,3.4E-2,1.2E-2,6.877675E-5,2.3E-2,3.4349542E-2,1.0344828E-1,3.6337963E-1,5.5776265E-2,3.9039038E-2,7.5E-2,4.8E-1,6.894324E-3,6.1910314E-6,5.148426E-1,9.684938E-1,-3.0904248E-1,3.670103E-1,-2.7095336E-1,-1.1644868E-1,3.4944943E-1,-2.897454E-1,4.0071014E-1,-3.103671E-1,4.3486625E-2,3.5588315E-1,1.320729E-3,2.4308532E-1,-3.113429E-1,3.6850613E-1,-3.3666486E-1,-3.674493E-1,-3.091678E-1,-3.6072075E-1,-2.4617812E-1,8.7824726E-1,-2.3867223E-1,-3.106668E-1,-3.9140713E-1,-4.1709188E-1,-3.006845E-1,1.06197484E-1,5.359243E-1,-2.2821596E-1,3.2545602E-1,-3.1095883E-1,-5.8963156E-1,3.6520594E-1,-3.1706256E-1,-3.0950713E-1,8.77993E-1,-3.045844E-1,5.3160334E-1,3.3554378E-1,-3.6034477E-1,6.516962E-1,-1.9099316E-1,-2.1386702E-1,3.7079984E-1,9.844927E-3,-3.223768E-1,3.6900693E-1,-8.849723E-1],"split_indices":[1,0,5,2,2,16,16,0,2,2,16,16,17,4,17,6,0,6,16,17,16,16,17,16,16,16,3,16,16,1,0,17,14,17,0,0,17,17,16,17,17,0,17,16,17,5,16,14,17,17,16,0,1,1,0,0,0,0,0,0,0,0,0,0,0,0,0,0,0,0,0,0,0,0,0,0,0,0,0,0,0,0,0,0,0,0,0,0,0,0,0,0,0,0,0,0,0,0,0,0,0],"split_type":[0,0,0,0,0,0,0,0,0,0,0,0,0,0,0,0,0,0,0,0,0,0,0,0,0,0,0,0,0,0,0,0,0,0,0,0,0,0,0,0,0,0,0,0,0,0,0,0,0,0,0,0,0,0,0,0,0,0,0,0,0,0,0,0,0,0,0,0,0,0,0,0,0,0,0,0,0,0,0,0,0,0,0,0,0,0,0,0,0,0,0,0,0,0,0,0,0,0,0,0,0],"sum_hessian":[3.8718372E5,3.1403688E4,3.5578003E5,2.8287791E4,3.115896E3,2.7647625E5,7.930379E4,3.90585E2,2.7897205E4,8.789689E2,2.2369272E3,7.548764E4,2.0098861E5,7.697509E4,2.328693E3,2.7886627E4,1.0579763E1,5.383853E2,3.405836E2,1.9151982E3,3.2172897E2,2.8433219E4,4.705442E4,1.632533E5,3.773531E4,7.526806E4,1.7070347E3,3.2148358E2,2.0072096E3,7.3645244E3,2.0522102E4,1.4844366E1,5.2354095E2,3.3931635E2,1.2672213E0,2.7908737E2,1.6361108E3,6.0116085E1,2.6161288E2,2.4630293E4,3.8029265E3,3.2284713E4,1.4769708E4,8.341944E4,7.983387E4,3.601484E4,1.7204666E3,7.415301E4,1.1150549E3,1.4065598E3,3.0047485E2,6.707628E1,2.5440732E2,1.9660234E3,4.1186153E1,7.361546E3,2.9783702E0,2.8456903E0,2.0519256E4,3.9427176E0,1.09016485E1,5.224285E2,1.1124537E0,3.3776447E2,1.5518811E0,1.7139795E1,1.6189711E3,5.074854E1,9.367546E0,1.23008545E2,1.3860434E2,1.0768036E4,1.3862257E4,3.3143403E3,4.8858627E2,3.1027746E4,1.2569678E3,7.332112E3,7.437596E3,5.9376766E4,2.4042668E4,5.538421E4,2.444966E4,3.6007965E4,6.8750644E0,1.5752063E3,1.4526031E2,7.412261E4,3.0401041E1,8.004201E2,3.146348E2,1.3781993E3,2.8360468E1,1.6139961E1,2.843349E2,2.4411645E0,6.463512E1,4.186444E0,2.5022087E2,1.9634089E3,2.614495E0],"tree_param":{"num_deleted":"0","num_feature":"18","num_nodes":"101","size_leaf_vector":"1"}},{"base_weights":[-2.2892816E-1,9.1597545E-1,-3.227067E-1,1.0961592E0,-7.460219E-1,-1.7480579E-1,-9.0420866E-1,-3.0685812E-1,1.1249763E0,-1.4719166E-1,-9.825676E-1,-8.291766E-1,4.741983E-2,-9.597006E-1,8.873671E-1,1.1259794E0,-3.5835886E-1,-9.692979E-1,1.1023494E0,-1.0264899E0,-7.2399133E-1,-4.8478812E-1,-1.0578564E0,2.3921093E-1,-9.181795E-1,-1.0006708E0,7.3017275E-1,-5.740842E-1,1.1196342E0,-2.4710032E-1,1.1262417E0,5.2938783E-1,-3.07126E-1,-2.642587E-1,1.1140171E0,-9.994569E-1,-3.4083968E-1,7.661513E-1,-3.2618138E-1,-9.019761E-1,1.5457847E0,1.6265604E0,-1.058672E0,3.6287552E-1,-1.0955751E0,-1.0273184E0,1.0091302E0,-1.0129988E0,-2.2586958E-1,9.2759836E-1,-8.031285E-1,1.0597286E0,-1.0309657E0,1.16384E0,-3.024218E-1,3.3791482E-1,-1.8631972E-1,-3.2431418E-1,3.7692344E-1,-1.7615949E-1,3.3699125E-1,2.305563E-1,-3.068986E-1,3.3383575E-1,-3.1082776E-1,-8.741312E-2,-3.0744433E-1,5.369129E-1,-2.1648888E-1,3.8105094E-1,7.9004765E-1,-3.222443E-1,-2.9083475E-1,3.3703718E-1,4.524408E-2,-3.554359E-1,6.762463E-1,-3.082392E-1,-1.2763138E-1,3.526929E-1,-3.184334E-1,-3.0487713E-1,3.7432227E-1,-2.8878412E-1,4.5280108E-1,3.131641E-1,-1.0108834E-1,3.463945E-1,-2.858907E-1,-1.532287E-1,3.5029766E-1,7.4601895E-3,-3.1633228E-1,3.514421E-1,-6.3901997E-1],"categories":[],"categories_nodes":[],"categories_segments":[],"categories_sizes":[],"default_left":[0,0,0,0,0,0,0,0,0,0,0,0,0,0,0,0,0,0,0,0,0,0,0,0,0,0,0,0,0,0,0,0,0,0,0,0,0,0,0,0,0,0,0,0,0,0,0,0,0,0,0,0,0,0,0,0,0,0,0,0,0,0,0,0,0,0,0,0,0,0,0,0,0,0,0,0,0,0,0,0,0,0,0,0,0,0,0,0,0,0,0,0,0,0,0],"id":5,"left_children":[1,3,5,7,9,11,13,-1,15,17,19,21,23,25,27,29,-1,31,33,35,37,39,41,43,45,47,49,51,53,-1,55,57,-1,-1,59,61,-1,63,-1,65,67,69,71,73,75,77,79,81,83,85,87,89,91,93,-1,-1,-1,-1,-1,-1,-1,-1,-1,-1,-1,-1,-1,-1,-1,-1,-1,-1,-1,-1,-1,-1,-1,-1,-1,-1,-1,-1,-1,-1,-1,-1,-1,-1,-1,-1,-1,-1,-1,-1,-1],"loss_changes":[3.424842E4,7.2328203E3,2.5356764E4,1.3316152E3,3.34531E2,3.4180555E4,5.94434E3,0E0,5.136133E1,6.8953E2,1.8490234E1,4.692285E3,3.2494922E4,4.0154414E3,6.1049E2,1.1917969E1,0E0,3.3575745E1,7.1463013E0,3.1479492E0,1.3578065E2,2.0146098E4,8.011328E1,2.4164102E4,6.1170684E3,5.405508E2,4.16422E2,1.8549423E2,1.4701392E2,0E0,5.9941406E0,1.8746086E1,0E0,0E0,4.8512573E0,4.937903E1,0E0,3.2043926E1,0E0,1.4793691E3,2.2431064E3,6.993618E-1,4.8390625E1,2.160897E4,3.7120225E3,1.9726562E0,5.386802E2,4.117578E2,1.13667E3,1.793053E2,4.7208305E1,9.830593E0,4.8236847E0,4.070166E1,0E0,0E0,0E0,0E0,0E0,0E0,0E0,0E0,0E0,0E0,0E0,0E0,0E0,0E0,0E0,0E0,0E0,0E0,0E0,0E0,0E0,0E0,0E0,0E0,0E0,0E0,0E0,0E0,0E0,0E0,0E0,0E0,0E0,0E0,0E0,0E0,0E0,0E0,0E0,0E0,0E0],"parents":[2147483647,0,0,1,1,2,2,3,3,4,4,5,5,6,6,8,8,9,9,10,10,11,11,12,12,13,13,14,14,15,15,17,17,18,18,19,19,20,20,21,21,22,22,23,23,24,24,25,25,26,26,27,27,28,28,30,30,31,31,34,34,35,35,37,37,39,39,40,40,41,41,42,42,43,43,44,44,45,45,46,46,47,47,48,48,49,49,50,50,51,51,52,52,53,53],"right_children":[2,4,6,8,10,12,14,-1,16,18,20,22,24,26,28,30,-1,32,34,36,38,40,42,44,46,48,50,52,54,-1,56,58,-1,-1,60,62,-1,64,-1,66,68,70,72,74,76,78,80,82,84,86,88,90,92,94,-1,-1,-1,-1,-1,-1,-1,-1,-1,-1,-1,-1,-1,-1,-1,-1,-1,-1,-1,-1,-1,-1,-1,-1,-1,-1,-1,-1,-1,-1,-1,-1,-1,-1,-1,-1,-1,-1,-1,-1,-1],"split_conditions":[4.9575666E-1,1.459855E-5,4.1502693E-1,4.9556676E-1,9.1068804E-1,1.930236E-2,5.3487208E-2,-3.0685812E-1,9.1068804E-1,5.368842E-1,2.861034E-2,1.6210474E-2,1.9444445E-1,7.657316E-1,7.5E-2,6.5902275E-1,-3.5835886E-1,6.369851E-1,4.0983604E-3,4.5453128E-1,3.2269437E-2,1.4835592E-2,9.329882E-1,3.1360158E-1,5.2390777E-2,5.321567E-2,1.3705838E-5,5.667101E-2,7.257169E-2,-2.4710032E-1,1E0,7.5E-2,-3.07126E-1,-2.642587E-1,3.8922157E-2,1.7E-2,-3.4083968E-1,4.2E-2,-3.2618138E-1,6.894324E-3,1.2E-2,1.3705838E-5,2.9E-2,9.3021506E-1,9.677419E-3,9.31E-1,5.5776265E-2,1E0,1.0344828E-1,5.4358137E-1,6.894324E-3,4.9999997E-2,5.148426E-1,9.684938E-1,-3.024218E-1,3.3791482E-1,-1.8631972E-1,-3.2431418E-1,3.7692344E-1,-1.7615949E-1,3.3699125E-1,2.305563E-1,-3.068986E-1,3.3383575E-1,-3.1082776E-1,-8.741312E-2,-3.0744433E-1,5.369129E-1,-2.1648888E-1,3.8105094E-1,7.9004765E-1,-3.222443E-1,-2.9083475E-1,3.3703718E-1,4.524408E-2,-3.554359E-1,6.762463E-1,-3.082392E-1,-1.2763138E-1,3.526929E-1,-3.184334E-1,-3.0487713E-1,3.7432227E-1,-2.8878412E-1,4.5280108E-1,3.131641E-1,-1.0108834E-1,3.463945E-1,-2.858907E-1,-1.532287E-1,3.5029766E-1,7.4601895E-3,-3.1633228E-1,3.514421E-1,-6.3901997E-1],"split_indices":[1,0,5,2,2,16,16,0,2,2,16,16,17,4,17,6,0,5,17,1,16,16,2,4,16,16,0,16,16,0,13,17,0,0,15,17,0,17,0,16,17,0,17,3,10,17,16,13,17,1,16,7,1,1,0,0,0,0,0,0,0,0,0,0,0,0,0,0,0,0,0,0,0,0,0,0,0,0,0,0,0,0,0,0,0,0,0,0,0,0,0,0,0,0,0],"split_type":[0,0,0,0,0,0,0,0,0,0,0,0,0,0,0,0,0,0,0,0,0,0,0,0,0,0,0,0,0,0,0,0,0,0,0,0,0,0,0,0,0,0,0,0,0,0,0,0,0,0,0,0,0,0,0,0,0,0,0,0,0,0,0,0,0,0,0,0,0,0,0,0,0,0,0,0,0,0,0,0,0,0,0,0,0,0,0,0,0,0,0,0,0,0,0],"sum_hessian":[3.1897972E5,2.4148752E4,2.9483097E5,2.178707E4,2.3616824E3,2.3504916E5,5.9781797E4,2.9184976E2,2.149522E4,6.69195E2,1.6924874E3,5.9586527E4,1.7546264E5,5.7986207E4,1.7955905E3,2.1486443E4,8.777437E0,4.0376895E2,2.6542606E2,1.4442024E3,2.4828505E2,2.3778926E4,3.58076E4,1.4638736E5,2.9075275E4,5.6614035E4,1.372172E3,2.4603532E2,1.549555E3,2.467833E0,2.1483975E4,1.3850945E1,3.89918E2,1.1167306E0,2.6430933E2,1.1666681E3,2.775342E2,4.8447716E1,1.9983734E2,1.9726588E4,4.0523376E3,1.0269948E1,3.5797332E4,1.339756E5,1.2411775E4,2.7517494E4,1.5577814E3,5.572704E4,8.869962E2,1.2159971E3,1.5617499E2,5.3477993E1,1.9255733E2,1.5184601E3,3.1094975E1,2.1482596E4,1.3788196E0,4.1566257E0,9.69432E0,1.0971688E0,2.6321216E2,1.4912794E1,1.1517554E3,4.0953484E1,7.494232E0,3.3044321E3,1.6422154E4,3.6589268E3,3.9341098E2,9.255505E0,1.0144434E0,3.0496666E4,5.3006655E3,2.9209271E4,1.0476631E5,1.2090425E4,3.213504E2,2.7510135E4,7.359585E0,1.4422313E3,1.1555002E2,5.5647387E4,7.964915E1,6.2294696E2,2.6404926E2,1.1137567E3,1.0224032E2,1.0626471E1,1.4554852E2,3.1988728E0,5.027912E1,4.1868687E0,1.8837047E2,1.515592E3,2.868052E0],"tree_param":{"num_deleted":"0","num_feature":"18","num_nodes":"95","size_leaf_vector":"1"}},{"base_weights":[-2.0371833E-1,8.8695365E-1,-2.831056E-1,1.0609002E0,-7.322887E-1,-8.885729E-1,-1.5140459E-1,-3.04421E-1,1.0885597E0,-1.4703003E-1,-9.645018E-1,-9.5733863E-1,5.2592653E-1,-7.9096705E-1,3.263317E-2,1.089574E0,-3.256434E-1,-9.590897E-1,1.0507847E0,-1.0099641E0,-7.007558E-1,-9.908824E-1,7.575294E-1,-3.9784187E-1,1.0237513E0,-4.500013E-1,-1.0339152E0,1.7966066E-1,-9.11283E-1,-2.2634892E-1,1.0898508E0,4.7072837E-1,-3.0477285E-1,1.0948131E0,2.078656E-1,-1.0123277E0,-9.0564825E-2,6.955558E-1,-3.1844202E-1,-9.963789E-1,9.4488645E-1,-6.9280857E-1,1.0937853E0,1.1333479E0,-1.0940108E0,4.714272E0,9.713051E-1,-8.3682615E-1,1.2533735E0,4.2452067E-1,-1.0347836E0,5.0429505E-1,-2.1880037E-1,-1.019814E0,9.9051553E-1,-8.511634E-2,3.270422E-1,-2.976845E-1,3.4226683E-1,3.2951212E-1,7.520278E-2,-4.3876085E-1,2.8978497E-1,-2.9733312E-1,-3.28612E-1,-2.1714187E-1,2.5020623E-1,-3.1272337E-1,3.0400613E-1,-3.0237937E-1,-8.3935425E-2,-5.4146785E-1,7.7601624E-1,2.2168061E-1,-3.2700396E-1,3.493671E-1,-2.9531717E-1,3.3074468E-1,8.8744056E-1,-5.3413045E-1,-3.0586708E-1,2.2149515E0,4.1922915E-1,-2.7281296E-1,3.4423226E-1,-6.904589E-2,-2.9761943E-1,4.3249992E-1,-1.9259402E-1,-3.138651E-1,-2.65661E-1,5.4824315E-2,4.3864146E-1,-2.1966207E-1,2.9968438E-1,-3.0600238E-1,-1.06613904E-1,3.462441E-1,-3.1314263E-1],"categories":[],"categories_nodes":[],"categories_segments":[],"categories_sizes":[],"default_left":[0,0,0,0,0,0,0,0,0,0,0,0,0,0,0,0,0,0,0,0,0,0,0,0,0,0,0,0,0,0,0,0,0,0,0,0,0,0,0,0,0,0,0,0,0,0,0,0,0,0,0,0,0,0,0,0,0,0,0,0,0,0,0,0,0,0,0,0,0,0,0,0,0,0,0,0,0,0,0,0,0,0,0,0,0,0,0,0,0,0,0,0,0,0,0,0,0,0,0],"id":6,"left_children":[1,3,5,7,9,11,13,-1,15,17,19,21,23,25,27,29,-1,31,33,35,37,39,41,43,45,47,49,51,53,-1,55,57,-1,59,61,63,65,67,-1,69,71,73,75,77,79,81,83,85,87,-1,89,91,93,95,97,-1,-1,-1,-1,-1,-1,-1,-1,-1,-1,-1,-1,-1,-1,-1,-1,-1,-1,-1,-1,-1,-1,-1,-1,-1,-1,-1,-1,-1,-1,-1,-1,-1,-1,-1,-1,-1,-1,-1,-1,-1,-1,-1,-1],"loss_changes":[2.3443861E4,5.175129E3,2.0125375E4,9.535078E2,2.421264E2,4.3864414E3,2.4399674E4,0E0,3.7279297E1,4.9470914E2,1.4593018E1,2.4742852E3,9.6205206E2,3.8366875E3,2.234076E4,9.177734E0,0E0,2.5095276E1,7.400833E0,2.2686768E0,9.68822E1,4.496914E2,4.0336417E2,7.8259204E2,2.5848047E2,1.2701344E4,5.898828E1,1.8016875E4,4.4789746E3,0E0,6.8203125E0,1.3156839E1,0E0,3.1108093E-1,1.5896601E1,8.2336426E-1,2.877349E0,2.3034775E1,0E0,3.478828E2,5.461186E2,8.951555E1,9.976935E1,9.670105E0,2.3963379E1,1.5596573E2,4.4536218E2,1.4791611E3,1.2741025E3,0E0,4.5210938E1,2.363866E4,3.9095547E4,2.2792969E0,3.9125757E2,0E0,0E0,0E0,0E0,0E0,0E0,0E0,0E0,0E0,0E0,0E0,0E0,0E0,0E0,0E0,0E0,0E0,0E0,0E0,0E0,0E0,0E0,0E0,0E0,0E0,0E0,0E0,0E0,0E0,0E0,0E0,0E0,0E0,0E0,0E0,0E0,0E0,0E0,0E0,0E0,0E0,0E0,0E0,0E0],"parents":[2147483647,0,0,1,1,2,2,3,3,4,4,5,5,6,6,8,8,9,9,10,10,11,11,12,12,13,13,14,14,15,15,17,17,18,18,19,19,20,20,21,21,22,22,23,23,24,24,25,25,26,26,27,27,28,28,30,30,31,31,33,33,34,34,35,35,36,36,37,37,39,39,40,40,41,41,42,42,43,43,44,44,45,45,46,46,47,47,48,48,50,50,51,51,52,52,53,53,54,54],"right_children":[2,4,6,8,10,12,14,-1,16,18,20,22,24,26,28,30,-1,32,34,36,38,40,42,44,46,48,50,52,54,-1,56,58,-1,60,62,64,66,68,-1,70,72,74,76,78,80,82,84,86,88,-1,90,92,94,96,98,-1,-1,-1,-1,-1,-1,-1,-1,-1,-1,-1,-1,-1,-1,-1,-1,-1,-1,-1,-1,-1,-1,-1,-1,-1,-1,-1,-1,-1,-1,-1,-1,-1,-1,-1,-1,-1,-1,-1,-1,-1,-1,-1,-1],"split_conditions":[4.9575666E-1,1.459855E-5,8.7077177E-1,4.9556676E-1,9.1068804E-1,5.7511914E-1,1.930236E-2,-3.04421E-1,9.1068804E-1,5.368842E-1,2.861034E-2,5.3487208E-2,2.1766126E-2,1.6210474E-2,1.9444445E-1,6.5902275E-1,-3.256434E-1,6.369851E-1,1E0,8.72093E-2,3.2269437E-2,3.3033032E-2,1.0344828E-1,6.894324E-3,3.8582798E-2,1.4835592E-2,9.329882E-1,4.0591206E-2,5.2390777E-2,-2.2634892E-1,3.29978E-8,7.5E-2,-3.0477285E-1,1.9379845E-1,2.5535426E-1,4.5453128E-1,1.2E-2,2.81202E-1,-3.1844202E-1,5.321567E-2,1.0344828E-1,5.5776265E-2,7.257169E-2,4.4980267E-1,5.4358137E-1,1E0,6.153846E-2,6.894324E-3,1.2E-2,4.2452067E-1,1.8481467E-2,3.4349542E-2,1.0344828E-1,9.31E-1,5.5776265E-2,-8.511634E-2,3.270422E-1,-2.976845E-1,3.4226683E-1,3.2951212E-1,7.520278E-2,-4.3876085E-1,2.8978497E-1,-2.9733312E-1,-3.28612E-1,-2.1714187E-1,2.5020623E-1,-3.1272337E-1,3.0400613E-1,-3.0237937E-1,-8.3935425E-2,-5.4146785E-1,7.7601624E-1,2.2168061E-1,-3.2700396E-1,3.493671E-1,-2.9531717E-1,3.3074468E-1,8.8744056E-1,-5.3413045E-1,-3.0586708E-1,2.2149515E0,4.1922915E-1,-2.7281296E-1,3.4423226E-1,-6.904589E-2,-2.9761943E-1,4.3249992E-1,-1.9259402E-1,-3.138651E-1,-2.65661E-1,5.4824315E-2,4.3864146E-1,-2.1966207E-1,2.9968438E-1,-3.0600238E-1,-1.06613904E-1,3.462441E-1,-3.1314263E-1],"split_indices":[1,0,2,2,2,4,16,0,2,2,16,16,16,16,17,6,0,5,12,9,16,14,17,16,16,16,2,16,16,0,0,17,0,9,3,1,17,3,0,16,17,16,16,3,1,13,17,16,17,0,16,16,17,17,16,0,0,0,0,0,0,0,0,0,0,0,0,0,0,0,0,0,0,0,0,0,0,0,0,0,0,0,0,0,0,0,0,0,0,0,0,0,0,0,0,0,0,0,0],"split_type":[0,0,0,0,0,0,0,0,0,0,0,0,0,0,0,0,0,0,0,0,0,0,0,0,0,0,0,0,0,0,0,0,0,0,0,0,0,0,0,0,0,0,0,0,0,0,0,0,0,0,0,0,0,0,0,0,0,0,0,0,0,0,0,0,0,0,0,0,0,0,0,0,0,0,0,0,0,0,0,0,0,0,0,0,0,0,0,0,0,0,0,0,0,0,0,0,0,0,0],"sum_hessian":[2.7075588E5,1.8369805E4,2.5238608E5,1.658817E4,1.7816335E3,4.5089766E4,2.0729631E5,2.17675E2,1.6370496E4,5.065592E2,1.2750743E3,4.2999664E4,2.0901013E3,4.6320703E4,1.6097561E5,1.6363361E4,7.1344333E0,3.020103E2,2.0454887E2,1.0851892E3,1.8988515E2,4.2175117E4,8.245467E2,7.319986E2,1.3581028E3,1.927377E4,2.7046934E4,1.3928147E5,2.169413E4,2.047671E0,1.6361313E4,1.12645E1,2.9074582E2,1.94111E2,1.0437893E1,1.0823058E3,2.8834069E0,3.879279E1,1.5109236E2,4.2056188E4,1.1893091E2,1.5498883E2,6.6955786E2,2.2859253E2,5.034061E2,1.778415E1,1.3403186E3,1.5707265E4,3.5665046E3,9.010759E0,2.7037924E4,7.675077E4,6.25307E4,2.0523375E4,1.1707555E3,3.2440162E0,1.6358069E4,3.3878708E0,7.876629E0,1.9299577E2,1.1152116E0,2.968249E0,7.4696436E0,8.7236066E2,2.099451E2,1.8402144E0,1.0431924E0,5.644446E0,3.3148342E1,4.1388547E4,6.676376E2,4.442599E1,7.450491E1,3.3473083E1,1.21515755E2,6.479323E2,2.1625532E1,2.2636777E2,2.2247596E0,4.701753E1,4.5638858E2,9.175284E0,8.608865E0,1.1442181E2,1.2258969E3,3.2008406E3,1.2506424E4,3.244428E3,3.2207666E2,2.510844E4,1.9294843E3,5.7462008E4,1.9288768E4,4.3986324E4,1.8544375E4,2.0516857E4,6.518382E0,1.0839967E3,8.675883E1],"tree_param":{"num_deleted":"0","num_feature":"18","num_nodes":"99","size_leaf_vector":"1"}},{"base_weights":[-1.822965E-1,-1.0320965E0,-9.722022E-2,-1.0258024E0,-1.1583711E0,2.3340551E-2,-7.333841E-1,4.7618863E-1,-1.0260454E0,-3.3348554E-1,-3.752746E-1,-8.892498E-2,8.7883335E-1,7.9565287E-1,-8.749458E-1,-1.0243691E0,-1.2109082E0,2.6759753E-1,-6.9556713E-1,-7.253251E-1,1.0983019E0,1.1356745E0,-1.0536613E0,-1.0023544E0,1.0532615E0,-3.0439922E-1,-3.1307456E-1,-3.9534917E-1,-3.1109667E-1,3.9307564E-1,-6.343862E-1,-1.018824E0,-2.389193E-1,1.0051088E0,-9.9090374E-1,2.0495036E0,1.0973605E0,-6.266038E-1,1.4009253E0,-3.1753737E-1,1.4115568E-1,-9.420582E-1,-1.0169842E0,1.145896E0,-1.0081979E0,3.9430473E-2,3.6158153E-1,-3.0007496E-1,3.3034056E-1,4.0082088E-1,-3.0662853E-1,4.273404E-1,-2.8931913E-1,8.3913684E-2,3.0785546E0,-3.139046E-1,-2.234628E-1,-2.6256695E-1,3.2974088E-1,-2.6938972E-1,2.9090455E-1,5.276407E-1,3.3215466E-1,-5.9318356E-2,-3.023423E-1,-3.051743E-1,-2.9968543E-3,3.3309466E-1,2.345274E0,-3.3346367E-1,-1.4574286E-1],"categories":[],"categories_nodes":[],"categories_segments":[],"categories_sizes":[],"default_left":[0,0,0,0,0,0,0,0,0,0,0,0,0,0,0,0,0,0,0,0,0,0,0,0,0,0,0,0,0,0,0,0,0,0,0,0,0,0,0,0,0,0,0,0,0,0,0,0,0,0,0,0,0,0,0,0,0,0,0,0,0,0,0,0,0,0,0,0,0,0,0],"id":7,"left_children":[1,3,5,7,9,11,13,-1,15,-1,-1,17,19,21,23,25,27,29,31,33,35,37,39,41,43,-1,-1,-1,-1,45,47,49,51,53,55,-1,57,59,61,-1,-1,63,65,67,69,-1,-1,-1,-1,-1,-1,-1,-1,-1,-1,-1,-1,-1,-1,-1,-1,-1,-1,-1,-1,-1,-1,-1,-1,-1,-1],"loss_changes":[1.6407828E4,1.5228516E1,1.5822277E4,1.4130859E1,2.8184814E0,1.665681E4,7.1148906E3,0E0,4.857422E0,0E0,0E0,3.315897E4,7.0839727E3,1.7527955E3,7.3914473E3,2.5800781E0,1.8200073E0,1.0929264E4,8.376916E3,1.1140109E3,8.802539E1,1.1009866E3,3.6645508E0,2.3933594E1,3.5730518E2,0E0,0E0,0E0,0E0,1.8014113E4,7.4893438E3,2.573203E2,2.838811E4,2.1642583E3,2.7868408E1,0E0,6.295117E1,1.3453859E2,2.1312183E2,0E0,0E0,2.701128E2,6.0078125E0,4.151162E2,3.8187256E0,0E0,0E0,0E0,0E0,0E0,0E0,0E0,0E0,0E0,0E0,0E0,0E0,0E0,0E0,0E0,0E0,0E0,0E0,0E0,0E0,0E0,0E0,0E0,0E0,0E0,0E0],"parents":[2147483647,0,0,1,1,2,2,3,3,4,4,5,5,6,6,8,8,11,11,12,12,13,13,14,14,15,15,16,16,17,17,18,18,19,19,20,20,21,21,22,22,23,23,24,24,29,29,30,30,31,31,32,32,33,33,34,34,36,36,37,37,38,38,41,41,42,42,43,43,44,44],"right_children":[2,4,6,8,10,12,14,-1,16,-1,-1,18,20,22,24,26,28,30,32,34,36,38,40,42,44,-1,-1,-1,-1,46,48,50,52,54,56,-1,58,60,62,-1,-1,64,66,68,70,-1,-1,-1,-1,-1,-1,-1,-1,-1,-1,-1,-1,-1,-1,-1,-1,-1,-1,-1,-1,-1,-1,-1,-1,-1,-1],"split_conditions":[6E-3,4.844961E-3,2.24E-1,2E-3,1.8960446E-2,1.3E-1,6.894324E-3,4.7618863E-1,2.0908266E-2,-3.3348554E-1,-3.752746E-1,4.0591206E-2,4.1646797E-2,4.8E-1,5.2390777E-2,1.8960446E-2,2.093358E-2,3.011521E-1,5.321567E-2,2.0697095E-2,3.29978E-8,4.11E-1,7.8571424E-2,1.6210474E-2,5.5776265E-2,-3.0439922E-1,-3.1307456E-1,-3.9534917E-1,-3.1109667E-1,3.4349542E-2,5.631554E-1,6.6815144E-3,5.5776265E-2,2.0164652E-2,2.1880274E-1,2.0495036E0,6.006006E-3,2.5E-1,4.7081104E-1,-3.1753737E-1,1.4115568E-1,3.5E-1,9.31E-1,1E0,5.2061564E-1,3.9430473E-2,3.6158153E-1,-3.0007496E-1,3.3034056E-1,4.0082088E-1,-3.0662853E-1,4.273404E-1,-2.8931913E-1,8.3913684E-2,3.0785546E0,-3.139046E-1,-2.234628E-1,-2.6256695E-1,3.2974088E-1,-2.6938972E-1,2.9090455E-1,5.276407E-1,3.3215466E-1,-5.9318356E-2,-3.023423E-1,-3.051743E-1,-2.9968543E-3,3.3309466E-1,2.345274E0,-3.3346367E-1,-1.4574286E-1],"split_indices":[17,9,17,17,16,17,16,0,16,0,0,16,16,17,16,16,16,5,16,16,0,17,8,16,16,0,0,0,0,16,6,17,16,16,4,0,14,12,6,0,0,17,17,1,6,0,0,0,0,0,0,0,0,0,0,0,0,0,0,0,0,0,0,0,0,0,0,0,0,0,0],"split_type":[0,0,0,0,0,0,0,0,0,0,0,0,0,0,0,0,0,0,0,0,0,0,0,0,0,0,0,0,0,0,0,0,0,0,0,0,0,0,0,0,0,0,0,0,0,0,0,0,0,0,0,0,0,0,0,0,0,0,0,0,0,0,0,0,0,0,0,0,0,0,0],"sum_hessian":[2.2694817E5,2.0651889E4,2.0629628E5,1.968007E4,9.718183E2,1.7343012E5,3.2866152E4,1.2232138E0,1.9678846E4,6.542877E2,3.1753058E2,1.5331203E5,2.0118102E4,2.784591E3,3.008156E4,1.9508486E4,1.7036028E2,9.6562805E4,5.674923E4,2.4208809E3,1.769722E4,2.3524475E3,4.3214365E2,2.8217533E4,1.8640275E3,1.2996988E4,6.511498E3,1.0142738E2,6.893289E1,8.4770625E4,1.1792173E4,3.3226945E4,2.3522285E4,3.2173877E2,2.099142E3,1.71405E0,1.7695506E4,3.0757983E2,2.0448676E3,4.3109262E2,1.0510429E0,5.52242E3,2.2695113E4,1.784292E3,7.973549E1,6.4117113E4,2.0653516E4,9.739435E3,2.0527375E3,4.552516E1,3.318142E4,7.1432227E3,1.6379062E4,2.9931354E2,2.2425236E1,1.7104265E3,3.8871558E2,1.5472805E1,1.7680033E4,2.6326358E2,4.4316246E1,9.1955524E2,1.1253124E3,4.4854736E2,5.0738726E3,2.268917E4,5.9439187E0,1.7759869E3,8.305028E0,6.5624695E1,1.4110788E1],"tree_param":{"num_deleted":"0","num_feature":"18","num_nodes":"71","size_leaf_vector":"1"}},{"base_weights":[-1.6667101E-1,-1.0233972E0,-9.088511E-2,3.4218433E-1,-1.0236855E0,1.3852995E-2,-7.231342E-1,-1.1120665E0,-1.0191083E0,4.4408783E-1,-2.1390693E-1,7.070831E-1,-8.671517E-1,-3.239717E-1,-3.5155204E-1,-1.0179107E0,-3.425415E-1,8.048722E-1,-9.244957E-1,-4.2263305E-1,9.013147E-1,9.9948853E-1,-1.0337979E0,-9.93167E-1,1.0125604E0,-3.032444E-1,-3.0953166E-1,-3.7614006E-1,1.1784632E0,-1.135968E0,6.8357277E-1,5.963121E-1,-6.8931866E-1,-3.16365E-1,1.0983071E0,-5.073197E-1,1.245957E0,-3.118732E-1,1.2115137E-1,-9.150301E-1,-1.0125804E0,1.1031886E0,-9.7206867E-1,7.5627804E-2,-2.951482E-1,3.930996E-1,-9.994113E-2,-3.5020956E-1,3.6400664E-1,-2.9410255E-1,3.4533572E-1,-5.2211434E-1,2.6374593E-1,-3.4268662E-1,-1.6788575E-1,4.5081845E-1,3.236642E-1,-2.1868119E-1,2.3478033E-1,4.2582992E-1,3.2360557E-1,-4.4531263E-2,-3.0025628E-1,-3.0387995E-1,-2.2338396E-3,2.3314312E0,3.2258293E-1,-3.320367E-1,-1.2047022E-1],"categories":[],"categories_nodes":[],"categories_segments":[],"categories_sizes":[],"default_left":[0,0,0,0,0,0,0,0,0,0,0,0,0,0,0,0,0,0,0,0,0,0,0,0,0,0,0,0,0,0,0,0,0,0,0,0,0,0,0,0,0,0,0,0,0,0,0,0,0,0,0,0,0,0,0,0,0,0,0,0,0,0,0,0,0,0,0,0,0],"id":8,"left_children":[1,3,5,-1,7,9,11,13,15,17,19,21,23,-1,-1,25,-1,27,29,31,33,35,37,39,41,-1,-1,43,45,47,49,51,53,-1,55,57,59,-1,-1,61,63,65,67,-1,-1,-1,-1,-1,-1,-1,-1,-1,-1,-1,-1,-1,-1,-1,-1,-1,-1,-1,-1,-1,-1,-1,-1,-1,-1],"loss_changes":[1.23111875E4,1.0780273E1,1.1536032E4,0E0,5.100586E0,1.4644684E4,5.100088E3,1.7199707E-1,9.921875E-1,2.5543684E4,2.2747078E4,1.154258E3,5.329004E3,0E0,0E0,3.857422E-1,0E0,1.8063549E4,3.6709678E3,2.2368285E4,5.9370186E3,7.2118066E2,3.1308289E0,3.1048828E1,2.5534314E2,0E0,0E0,3.7564802E3,6.1999688E3,7.050176E2,9.774528E2,1.1286889E4,3.8321934E3,0E0,1.083457E2,7.874261E1,4.686255E1,0E0,0E0,2.765459E2,5.9765625E0,2.4336316E2,4.3413925E0,0E0,0E0,0E0,0E0,0E0,0E0,0E0,0E0,0E0,0E0,0E0,0E0,0E0,0E0,0E0,0E0,0E0,0E0,0E0,0E0,0E0,0E0,0E0,0E0,0E0,0E0],"parents":[2147483647,0,0,1,1,2,2,4,4,5,5,6,6,7,7,8,8,9,9,10,10,11,11,12,12,15,15,17,17,18,18,19,19,20,20,21,21,22,22,23,23,24,24,27,27,28,28,29,29,30,30,31,31,32,32,34,34,35,35,36,36,39,39,40,40,41,41,42,42],"right_children":[2,4,6,-1,8,10,12,14,16,18,20,22,24,-1,-1,26,-1,28,30,32,34,36,38,40,42,-1,-1,44,46,48,50,52,54,-1,56,58,60,-1,-1,62,64,66,68,-1,-1,-1,-1,-1,-1,-1,-1,-1,-1,-1,-1,-1,-1,-1,-1,-1,-1,-1,-1,-1,-1,-1,-1,-1,-1],"split_conditions":[6E-3,2E-3,2.24E-1,3.4218433E-1,7.1900076E-1,3.2269437E-2,6.894324E-3,1.8960446E-2,2.0908266E-2,1.3980766E-5,1.0344828E-1,4.8E-1,5.2390777E-2,-3.239717E-1,-3.5155204E-1,1.8960446E-2,-3.425415E-1,1.9133596E-2,2.1054666E-2,8E-3,1.49700595E-2,4.11E-1,7.8571424E-2,1.6210474E-2,5.5776265E-2,-3.032444E-1,-3.0953166E-1,1E-2,3.726628E-2,9.677419E-3,3.3981618E-5,3.4349542E-2,3.4349542E-2,-3.16365E-1,1.3E-1,2.5E-1,4.7081104E-1,-3.118732E-1,1.2115137E-1,3.5E-1,9.31E-1,5.262292E-2,5.2061564E-1,7.5627804E-2,-2.951482E-1,3.930996E-1,-9.994113E-2,-3.5020956E-1,3.6400664E-1,-2.9410255E-1,3.4533572E-1,-5.2211434E-1,2.6374593E-1,-3.4268662E-1,-1.6788575E-1,4.5081845E-1,3.236642E-1,-2.1868119E-1,2.3478033E-1,4.2582992E-1,3.2360557E-1,-4.4531263E-2,-3.0025628E-1,-3.0387995E-1,-2.2338396E-3,2.3314312E0,3.2258293E-1,-3.320367E-1,-1.2047022E-1],"split_indices":[17,17,17,0,1,16,16,16,16,0,17,17,16,0,0,16,0,16,16,17,15,17,8,16,16,0,0,17,4,10,0,16,16,0,17,12,6,0,0,17,17,16,6,0,0,0,0,0,0,0,0,0,0,0,0,0,0,0,0,0,0,0,0,0,0,0,0,0,0],"split_type":[0,0,0,0,0,0,0,0,0,0,0,0,0,0,0,0,0,0,0,0,0,0,0,0,0,0,0,0,0,0,0,0,0,0,0,0,0,0,0,0,0,0,0,0,0,0,0,0,0,0,0,0,0,0,0,0,0,0,0,0,0,0,0,0,0,0,0,0,0],"sum_hessian":[1.8961408E5,1.5409049E4,1.7420502E5,1.5253853E0,1.5407523E4,1.4944844E5,2.4756584E4,7.4673004E2,1.4660793E4,5.173012E4,9.771832E4,2.264476E3,2.2492107E4,4.9790283E2,2.488272E2,1.4528291E4,1.3250223E2,4.0938402E4,1.0791721E4,8.2313125E4,1.5405194E4,1.939188E3,3.2528802E2,2.1079422E4,1.4126864E3,9.658001E3,4.8702896E3,9.83802E3,3.1100383E4,9.537736E3,1.2539851E3,1.7074416E4,6.5238707E4,1.4092201E3,1.3995975E4,2.7245438E2,1.6667336E3,3.2426135E2,1.0266675E0,4.2045806E3,1.6874842E4,1.3514178E3,6.1268486E1,4.8375254E3,5.000494E3,2.860507E4,2.4953113E3,9.412447E3,1.2528872E2,2.7482712E2,9.79158E2,1.8430328E3,1.5231383E4,1.4520091E4,5.0718617E4,6.379908E2,1.3357983E4,2.32879E2,3.957537E1,8.1451843E2,8.522152E2,4.2360608E2,3.780974E3,1.6868914E4,5.926864E0,4.4768267E0,1.346941E3,4.880375E1,1.2464738E1],"tree_param":{"num_deleted":"0","num_feature":"18","num_nodes":"69","size_leaf_vector":"1"}},{"base_weights":[-1.4506249E-1,-1.0170643E0,-7.808803E-2,2.4377072E-1,-1.0174284E0,1.225642E-2,-7.118781E-1,-3.240298E-1,-3.042215E-1,-6.2159145E-1,1.3456717E-1,6.436324E-1,-8.58126E-1,-9.6337396E-1,1.0015014E0,1.8046361E-1,-1.0955259E0,9.023366E-1,-1.0176983E0,-9.833086E-1,9.921271E-1,5.859425E-1,-1.0031204E0,-9.689933E-1,1.0265542E0,7.1456856E-1,1.6202636E-2,-1.2073601E0,6.5135527E-1,-7.961917E-1,1.0955403E0,-3.0742458E-1,1.0384598E-1,-8.826752E-1,-1.0091084E0,1.0828098E0,-9.2401993E-1,4.0711024E-1,-1.9800144E-1,-3.023053E-1,-1.5200728E-1,1.6673635E-3,-2.9721418E-1,2.9981256E-1,5.524358E-1,2.606171E-1,-3.2202128E-1,1.0655345E-1,-7.159378E-2,-3.8293472E-1,-3.0138192E-1,5.1461774E-1,-4.8716432E-1,1.2155929E-1,-2.7893385E-1,1.27914185E-2,3.4589997E-1,-3.2866053E-2,-2.9818118E-1,-3.0287448E-1,-1.6641254E-3,1.3352983E0,3.1729466E-1,-3.2512268E-1,-7.1569055E-2],"categories":[],"categories_nodes":[],"categories_segments":[],"categories_sizes":[],"default_left":[0,0,0,0,0,0,0,0,0,0,0,0,0,0,0,0,0,0,0,0,0,0,0,0,0,0,0,0,0,0,0,0,0,0,0,0,0,0,0,0,0,0,0,0,0,0,0,0,0,0,0,0,0,0,0,0,0,0,0,0,0,0,0,0,0],"id":9,"left_children":[1,3,5,-1,7,9,11,-1,-1,13,15,17,19,21,23,25,27,29,31,33,35,37,39,41,43,45,47,49,51,53,55,-1,-1,57,59,61,63,-1,-1,-1,-1,-1,-1,-1,-1,-1,-1,-1,-1,-1,-1,-1,-1,-1,-1,-1,-1,-1,-1,-1,-1,-1,-1,-1,-1],"loss_changes":[9.397073E3,8.472656E0,8.556239E3,0E0,1.3183594E0,1.0139539E4,3.6963691E3,0E0,0E0,1.1736789E4,6.189723E3,7.8147375E2,3.898666E3,1.0767568E3,1.8268188E2,9.272466E3,7.712041E2,5.16725E2,2.712143E0,4.0033203E1,1.8638306E2,4.214594E2,3.8091797E1,9.944496E-1,7.8660645E1,6.8527256E3,6.9829604E3,5.0640137E1,5.787832E2,2.6235497E1,8.536511E1,0E0,0E0,2.7724878E2,5.9472656E0,8.166077E1,5.078602E0,0E0,0E0,0E0,0E0,0E0,0E0,0E0,0E0,0E0,0E0,0E0,0E0,0E0,0E0,0E0,0E0,0E0,0E0,0E0,0E0,0E0,0E0,0E0,0E0,0E0,0E0,0E0,0E0],"parents":[2147483647,0,0,1,1,2,2,4,4,5,5,6,6,9,9,10,10,11,11,12,12,13,13,14,14,15,15,16,16,17,17,18,18,19,19,20,20,21,21,22,22,23,23,24,24,25,25,26,26,27,27,28,28,29,29,30,30,33,33,34,34,35,35,36,36],"right_children":[2,4,6,-1,8,10,12,-1,-1,14,16,18,20,22,24,26,28,30,32,34,36,38,40,42,44,46,48,50,52,54,56,-1,-1,58,60,62,64,-1,-1,-1,-1,-1,-1,-1,-1,-1,-1,-1,-1,-1,-1,-1,-1,-1,-1,-1,-1,-1,-1,-1,-1,-1,-1,-1,-1],"split_conditions":[6E-3,2E-3,2.24E-1,2.4377072E-1,5.9167266E-1,7.827557E-1,6.894324E-3,-3.240298E-1,-3.042215E-1,5.624861E-1,4.2644027E-1,4.8E-1,5.2390777E-2,1E0,4.9556676E-1,9.321149E-1,9.677419E-3,3.02E-1,7.8571424E-2,1.6210474E-2,5.5776265E-2,2.1021022E-2,1.32E-1,4.5126086E-1,6.6365063E-1,5.667101E-2,3.2269437E-2,4.0591206E-2,1.2903226E-2,8.979212E-1,9.0289256E-4,-3.0742458E-1,1.0384598E-1,3.5E-1,9.31E-1,5.262292E-2,7.06E-1,4.0711024E-1,-1.9800144E-1,-3.023053E-1,-1.5200728E-1,1.6673635E-3,-2.9721418E-1,2.9981256E-1,5.524358E-1,2.606171E-1,-3.2202128E-1,1.0655345E-1,-7.159378E-2,-3.8293472E-1,-3.0138192E-1,5.1461774E-1,-4.8716432E-1,1.2155929E-1,-2.7893385E-1,1.27914185E-2,3.4589997E-1,-3.2866053E-2,-2.9818118E-1,-3.0287448E-1,-1.6641254E-3,1.3352983E0,3.1729466E-1,-3.2512268E-1,-7.1569055E-2],"split_indices":[17,17,17,0,1,2,16,0,0,6,4,17,16,12,2,3,10,17,8,16,16,14,17,4,2,16,16,16,10,2,16,0,0,17,17,16,17,0,0,0,0,0,0,0,0,0,0,0,0,0,0,0,0,0,0,0,0,0,0,0,0,0,0,0,0],"split_type":[0,0,0,0,0,0,0,0,0,0,0,0,0,0,0,0,0,0,0,0,0,0,0,0,0,0,0,0,0,0,0,0,0,0,0,0,0,0,0,0,0,0,0,0,0,0,0,0,0,0,0,0,0,0,0,0,0,0,0,0,0,0,0,0,0],"sum_hessian":[1.6090403E5,1.1475808E4,1.4942822E5,1.8393244E0,1.1473969E4,1.30786125E5,1.8642102E4,5.670078E2,1.0906961E4,2.1154357E4,1.09631766E5,1.8151185E3,1.6826982E4,1.7474973E4,3.679383E3,1.0568921E5,3.942555E3,1.570946E3,2.4417252E2,1.5761102E4,1.0658807E3,4.3675006E2,1.7038223E4,4.571922E1,3.633664E3,2.4858117E4,8.083109E4,3.7056313E3,2.3692354E2,1.6012283E2,1.4108231E3,2.4316415E2,1.0083624E0,3.2233752E3,1.2537727E4,1.0181321E3,4.7748722E1,2.697303E2,1.6701978E2,1.6881992E4,1.5623192E2,1.0129874E0,4.4706234E1,3.5185376E3,1.151263E2,2.2885494E4,1.9726224E3,3.4689715E4,4.614138E4,2.759895E3,9.4573645E2,1.6159709E2,7.5326454E1,1.5819631E1,1.443032E2,7.309824E1,1.337725E3,4.0577435E2,2.8176008E3,1.25318125E4,5.9141846E0,6.244992E0,1.0118871E3,3.82539E1,9.494823E0],"tree_param":{"num_deleted":"0","num_feature":"18","num_nodes":"65","size_leaf_vector":"1"}},{"base_weights":[-1.2404963E-1,-6.4552844E-1,-2.4503056E-2,-2.8928033E-1,-1.0090232E0,-6.371554E-1,8.590198E-2,-6.922308E-1,9.8714274E-1,-1.0365623E0,-6.9253266E-1,-8.945579E-1,9.402271E-1,1.5226548E0,4.109627E-2,9.583736E-1,-7.880492E-1,1.1325314E0,-9.806786E-1,-1.0453836E0,-8.637832E-1,-1.3339156E-1,-9.8155123E-1,-9.314514E-1,4.6194136E-1,-1.1976365E0,9.939424E-1,1.7835137E0,-8.34947E-1,-8.307093E-1,1.3867123E-1,1.0363388E0,-6.0052708E-2,-1.0766188E0,-4.6185815E-1,1.102668E0,1.716843E1,-3.0041552E-1,-1.4564843E-1,-1.0189438E0,-1.1228272E0,5.4359503E0,-1.0002373E0,-6.833675E-1,6.780333E0,-3.8737008E-1,-9.897887E-1,-1.006529E0,-6.9488615E-1,-6.169953E-1,9.3590987E-1,-1.6493781E0,-3.08839E-1,1.0176961E0,3.469305E-1,-1.1721877E0,2.0308063E0,-3.8417435E-1,-1.081286E0,-4.9069393E-1,-1.1939766E0,1.1648395E0,-5.6383233E-3,3.129604E-1,7.4981645E-2,-2.949183E-1,5.242599E-1,-3.3809075E-1,6.996488E-1,3.8268402E-2,-3.001828E-1,-3.1067166E-1,3.473296E-1,1.0564194E1,7.6061405E-2,-2.378958E-1,4.1402456E-1,-3.0781066E-1,-2.7739626E-1,-3.4384215E-1,-3.140468E-1,-3.0118287E-1,-1.6413286E-1,-2.9100612E-1,5.464123E-1,2.6301808E0,-5.9973583E-2,6.595905E-2,-2.3885915E-1,-2.9738188E-1,-3.2893308E-2,5.9275603E-1,-3.025959E-1,-3.0395356E-1,-2.9217107E-2,1.7129664E-1,-3.134037E-1,3.0889368E-1,-2.763069E-1,-6.5832925E-1,-2.7859735E-1,3.0565664E-1,-1.8353328E-1,-3.137656E-1,3.1630266E-1,-3.068564E-1,-4.212199E-1,5.6456107E-1,8.7070894E-1,1.934703E-1,-2.9849327E-1,-2.579727E-1,-4.381268E-1,-2.0275795E-1,3.0361184E-1,-3.0691677E-1,-3.8564503E-1,3.0737007E-1,9.169652E-1,-1.3019569E-1,8.091127E-2],"categories":[],"categories_nodes":[],"categories_segments":[],"categories_sizes":[],"default_left":[0,0,0,0,0,0,0,0,0,0,0,0,0,0,0,0,0,0,0,0,0,0,0,0,0,0,0,0,0,0,0,0,0,0,0,0,0,0,0,0,0,0,0,0,0,0,0,0,0,0,0,0,0,0,0,0,0,0,0,0,0,0,0,0,0,0,0,0,0,0,0,0,0,0,0,0,0,0,0,0,0,0,0,0,0,0,0,0,0,0,0,0,0,0,0,0,0,0,0,0,0,0,0,0,0,0,0,0,0,0,0,0,0,0,0,0,0,0,0,0,0],"id":10,"left_children":[1,3,5,7,9,11,13,15,17,19,21,23,25,27,29,31,33,35,37,39,41,43,45,47,49,51,53,55,57,59,61,63,65,67,69,71,73,-1,75,77,79,-1,81,83,85,87,89,91,93,95,97,99,-1,101,103,105,107,109,111,113,115,117,119,-1,-1,-1,-1,-1,-1,-1,-1,-1,-1,-1,-1,-1,-1,-1,-1,-1,-1,-1,-1,-1,-1,-1,-1,-1,-1,-1,-1,-1,-1,-1,-1,-1,-1,-1,-1,-1,-1,-1,-1,-1,-1,-1,-1,-1,-1,-1,-1,-1,-1,-1,-1,-1,-1,-1,-1,-1,-1],"loss_changes":[7.4378345E3,2.9737783E3,8.1380703E3,5.967193E3,9.836035E1,7.4599033E3,6.562538E3,1.3953315E3,7.975613E2,1.5033203E1,1.4740512E2,7.908711E2,2.9721143E2,1.8975298E3,8.40993E3,3.851126E1,7.8400684E2,1.2227043E3,3.1750183E0,1.9213867E1,1.3486272E3,1.1919524E3,2.5616455E0,2.7239746E2,2.1477527E2,3.136383E0,3.8301758E1,2.031544E3,3.3765533E1,1.2285605E3,1.3166546E4,2.1669006E0,6.074555E1,7.614946E2,1.2429927E3,3.0621362E2,1.4412104E3,0E0,6.8402004E0,4.015625E0,3.2666016E0,0E0,3.0862427E-1,2.1009615E2,3.2214368E2,2.6254916E0,6.657715E-1,7.591992E1,7.049978E2,6.5856964E1,5.167241E1,4.0912056E0,0E0,5.2053223E0,9.035593E1,6.007721E0,3.2712695E2,6.9987686E1,1.5404068E1,1.4314264E3,7.3921875E1,2.9056924E3,9.193771E3,0E0,0E0,0E0,0E0,0E0,0E0,0E0,0E0,0E0,0E0,0E0,0E0,0E0,0E0,0E0,0E0,0E0,0E0,0E0,0E0,0E0,0E0,0E0,0E0,0E0,0E0,0E0,0E0,0E0,0E0,0E0,0E0,0E0,0E0,0E0,0E0,0E0,0E0,0E0,0E0,0E0,0E0,0E0,0E0,0E0,0E0,0E0,0E0,0E0,0E0,0E0,0E0,0E0,0E0,0E0,0E0,0E0,0E0],"parents":[2147483647,0,0,1,1,2,2,3,3,4,4,5,5,6,6,7,7,8,8,9,9,10,10,11,11,12,12,13,13,14,14,15,15,16,16,17,17,18,18,19,19,20,20,21,21,22,22,23,23,24,24,25,25,26,26,27,27,28,28,29,29,30,30,31,31,32,32,33,33,34,34,35,35,36,36,38,38,39,39,40,40,42,42,43,43,44,44,45,45,46,46,47,47,48,48,49,49,50,50,51,51,53,53,54,54,55,55,56,56,57,57,58,58,59,59,60,60,61,61,62,62],"right_children":[2,4,6,8,10,12,14,16,18,20,22,24,26,28,30,32,34,36,38,40,42,44,46,48,50,52,54,56,58,60,62,64,66,68,70,72,74,-1,76,78,80,-1,82,84,86,88,90,92,94,96,98,100,-1,102,104,106,108,110,112,114,116,118,120,-1,-1,-1,-1,-1,-1,-1,-1,-1,-1,-1,-1,-1,-1,-1,-1,-1,-1,-1,-1,-1,-1,-1,-1,-1,-1,-1,-1,-1,-1,-1,-1,-1,-1,-1,-1,-1,-1,-1,-1,-1,-1,-1,-1,-1,-1,-1,-1,-1,-1,-1,-1,-1,-1,-1,-1,-1,-1],"split_conditions":[1.930236E-2,1.6938066E-2,8.7077177E-1,1.4835592E-2,1.8481467E-2,7.827265E-1,2.0697095E-2,7.470131E-1,2.76E-1,1.69E-1,3.3E-2,5.3487208E-2,2.1766126E-2,1.5E-1,2.0880416E-2,6.6069096E-1,3.4E-2,2.56E-1,5.57E-1,1E-2,2.24E-1,3E-2,1.113877E-7,1.2033694E-2,1.3E-1,4.3647915E-1,5.148426E-1,8.77193E-3,1.0844044E-5,1.3980766E-5,2.1766126E-2,5E-1,3.81E-1,1.2161136E-2,4.8E-1,6.6815144E-3,2.57E-1,-3.0041552E-1,6.9181096E-6,9E-3,2E-2,5.4359503E0,1.355614E-5,1.8960446E-2,1.5838139E-5,1.9444445E-1,5.01E-1,4.844961E-3,2.1766126E-2,5.667101E-2,7.257169E-2,4.8E-1,-3.08839E-1,1E0,6.153846E-2,7E-3,2E-2,1.9444445E-1,2.0164652E-2,1.3443304E-5,7E-3,2.5E-2,1.49700595E-2,3.129604E-1,7.4981645E-2,-2.949183E-1,5.242599E-1,-3.3809075E-1,6.996488E-1,3.8268402E-2,-3.001828E-1,-3.1067166E-1,3.473296E-1,1.0564194E1,7.6061405E-2,-2.378958E-1,4.1402456E-1,-3.0781066E-1,-2.7739626E-1,-3.4384215E-1,-3.140468E-1,-3.0118287E-1,-1.6413286E-1,-2.9100612E-1,5.464123E-1,2.6301808E0,-5.9973583E-2,6.595905E-2,-2.3885915E-1,-2.9738188E-1,-3.2893308E-2,5.9275603E-1,-3.025959E-1,-3.0395356E-1,-2.9217107E-2,1.7129664E-1,-3.134037E-1,3.0889368E-1,-2.763069E-1,-6.5832925E-1,-2.7859735E-1,3.0565664E-1,-1.8353328E-1,-3.137656E-1,3.1630266E-1,-3.068564E-1,-4.212199E-1,5.6456107E-1,8.7070894E-1,1.934703E-1,-2.9849327E-1,-2.579727E-1,-4.381268E-1,-2.0275795E-1,3.0361184E-1,-3.0691677E-1,-3.8564503E-1,3.0737007E-1,9.169652E-1,-1.3019569E-1,8.091127E-2],"split_indices":[16,16,2,16,16,6,16,2,17,17,17,16,16,17,16,1,17,17,17,17,17,17,0,17,17,3,1,17,0,0,16,12,17,16,17,17,17,0,0,17,17,0,0,16,0,17,17,9,16,16,16,17,0,13,17,17,17,17,16,0,17,17,15,0,0,0,0,0,0,0,0,0,0,0,0,0,0,0,0,0,0,0,0,0,0,0,0,0,0,0,0,0,0,0,0,0,0,0,0,0,0,0,0,0,0,0,0,0,0,0,0,0,0,0,0,0,0,0,0,0,0],"split_type":[0,0,0,0,0,0,0,0,0,0,0,0,0,0,0,0,0,0,0,0,0,0,0,0,0,0,0,0,0,0,0,0,0,0,0,0,0,0,0,0,0,0,0,0,0,0,0,0,0,0,0,0,0,0,0,0,0,0,0,0,0,0,0,0,0,0,0,0,0,0,0,0,0,0,0,0,0,0,0,0,0,0,0,0,0,0,0,0,0,0,0,0,0,0,0,0,0,0,0,0,0,0,0,0,0,0,0,0,0,0,0,0,0,0,0,0,0,0,0,0,0],"sum_hessian":[1.4327864E5,2.296581E4,1.2031283E5,1.1599428E4,1.1366384E4,1.837007E4,1.0194276E5,8.816598E3,2.7828298E3,1.0454425E4,9.119583E2,1.57933E4,2.5767703E3,3.0819841E3,9.886077E4,4.8323337E2,8.333364E3,2.5917666E3,1.9106314E2,9.941795E3,5.1262994E2,3.112566E2,6.007017E2,1.5375439E4,4.1786072E2,6.2634365E1,2.5141357E3,2.7751667E3,3.068173E2,9.950275E3,8.891049E4,4.4885394E2,3.437942E1,4.4204497E3,3.9129146E3,2.5880159E3,3.7508385E0,1.8624554E2,4.8175907E0,7.4220186E3,2.5197764E3,2.717934E0,5.0991202E2,2.8915585E2,2.2100735E1,8.870704E0,5.91831E2,1.1668885E4,3.7065544E3,1.2744486E2,2.9041583E2,1.4602357E1,4.803201E1,2.4245505E3,8.958535E1,2.1397263E2,2.561194E3,1.0932478E2,1.9749251E2,5.140841E3,4.8094346E3,1.0961005E4,7.794949E4,4.4464728E2,4.2066636E0,2.3060287E1,1.1319136E1,4.3567666E3,6.3683327E1,1.8689535E3,2.0439612E3,6.456461E1,2.5234512E3,1.2913437E0,2.4594948E0,3.7196667E0,1.0979239E0,6.893653E3,5.2836566E2,1.917522E3,6.0225446E2,5.045702E2,5.3418174E0,2.6001178E2,2.9144083E1,1.7004398E1,5.0963364E0,3.755236E0,5.115468E0,5.907086E2,1.1223704E0,7.643458E0,1.1661241E4,2.4178464E3,1.2887079E3,3.364726E1,9.379761E1,2.7688455E2,1.3531277E1,7.150178E0,7.452179E0,2.4232012E3,1.3492773E0,3.0013536E1,5.9571815E1,1.3344395E2,8.052866E1,2.1900984E3,3.7109586E2,4.069925E1,6.8625534E1,1.2675099E2,7.074152E1,4.57737E3,5.634705E2,1.6812666E3,3.1281682E3,1.0205776E4,7.552287E2,3.050016E4,4.7449332E4],"tree_param":{"num_deleted":"0","num_feature":"18","num_nodes":"121","size_leaf_vector":"1"}},{"base_weights":[-1.09033555E-1,-4.7737864E-1,8.632425E-3,-1.0592195E0,-2.1467687E-1,5.5249625E-1,-1.5115803E-1,-1.0686207E0,2.9953432E-1,9.648496E-1,-6.553255E-1,1.010976E0,-7.5428957E-1,-9.204369E-1,2.0814866E-2,-1.0257698E0,-1.2335473E0,1.1124018E0,-8.060714E-1,-1.0995594E0,-4.9640527E-1,-7.8407735E-1,1.1272316E0,-7.2431065E-2,-1.0008676E0,1.2288119E0,-1.1177032E0,1.383494E0,-2.1359852E-1,-1.3379306E0,-1.0125784E0,-1.0837177E0,-1.3921269E0,-1.0771407E0,1.189423E0,5.827518E-1,-1.1752257E0,-9.3350893E-1,-1.427753E0,2.1112156E-1,-6.203878E-1,-9.882448E-1,3.9023523E0,1.061324E0,2.0193172E0,2.6095507E0,-1.1403826E0,-1.009013E0,-4.2463532E-1,7.9946685E0,1.1712327E0,2.4455953E0,-1.1343638E0,1.3176489E0,2.9060326E0,-4.82848E-1,6.313029E-1,-3.0209863E-1,-4.1717932E-1,-3.033539E-1,-3.4645155E-1,-2.7593566E-2,-3.2539433E-1,-4.6702188E-1,-3.6734906E-1,5.6856535E-2,-3.255659E-1,2.4618043E-1,4.429345E-1,-2.7673316E-1,2.3613451E-1,-2.5811553E-1,-4.0026823E-1,-3.1955114E-1,2.5993752E-1,-4.6351928E-1,-3.9591503E-1,-2.51806E-1,2.3118779E-1,-1.2764211E-1,-3.074873E-1,5.7883584E-1,-3.0551335E-1,3.043401E0,4.4858733E-1,3.291624E-1,-9.176004E-2,7.771133E-1,-1.627936E-1,9.8282814E-1,-2.5938287E-1,5.347252E-1,-3.481466E-1,-2.5539854E-1,-3.0340675E-1,1.3210621E0,-2.3553458E-1,1.0821872E0,5.0885606E0,3.5247213E-1,-3.0859333E-1,-2.0965293E-1,8.72496E-1,-4.2288545E-1,-2.869266E-1,3.0423304E-1,4.3472844E-1,1.1344581E0,1.8730497E-1,4.0961687E-2,-2.118063E-1,-3.036802E-1,3.2080343E-1],"categories":[],"categories_nodes":[],"categories_segments":[],"categories_sizes":[],"default_left":[0,0,0,0,0,0,0,0,0,0,0,0,0,0,0,0,0,0,0,0,0,0,0,0,0,0,0,0,0,0,0,0,0,0,0,0,0,0,0,0,0,0,0,0,0,0,0,0,0,0,0,0,0,0,0,0,0,0,0,0,0,0,0,0,0,0,0,0,0,0,0,0,0,0,0,0,0,0,0,0,0,0,0,0,0,0,0,0,0,0,0,0,0,0,0,0,0,0,0,0,0,0,0,0,0,0,0,0,0,0,0,0,0],"id":11,"left_children":[1,3,5,7,9,11,13,15,-1,17,19,21,23,25,27,29,31,33,35,37,39,41,43,45,47,49,51,53,55,57,59,61,63,65,67,69,71,73,75,77,79,81,83,85,87,89,91,93,95,97,99,101,103,105,107,109,111,-1,-1,-1,-1,-1,-1,-1,-1,-1,-1,-1,-1,-1,-1,-1,-1,-1,-1,-1,-1,-1,-1,-1,-1,-1,-1,-1,-1,-1,-1,-1,-1,-1,-1,-1,-1,-1,-1,-1,-1,-1,-1,-1,-1,-1,-1,-1,-1,-1,-1,-1,-1,-1,-1,-1,-1],"loss_changes":[5.6167573E3,4.7954688E3,8.535675E3,1.8985547E2,1.1236134E4,1.3364033E4,1.0043211E4,6.739551E1,0E0,1.5372734E3,1.1105337E3,3.4466484E3,9.739973E2,5.8819814E3,1.9819617E4,3.0424805E1,4.597998E1,9.1664453E2,2.3282724E2,2.2460547E2,1.017105E3,9.653813E2,9.096465E2,4.4131436E3,1.9541992E1,4.4507812E2,7.570117E2,9.0915625E2,1.2043572E4,3.9993896E0,3.0615234E-1,8.522949E-1,2.479065E1,2.0985718E0,5.539131E2,3.0179276E1,1.6775726E1,6.540332E2,1.5590576E1,1.01707385E3,7.7747485E2,8.669818E1,6.1822815E2,7.0891504E2,1.5607026E3,1.0189751E3,6.6824585E1,6.879883E-1,1.0968059E2,3.1933075E2,1.0567627E1,8.852222E1,6.1805566E2,3.4689648E2,7.5011597E2,5.5496133E3,9.212209E3,0E0,0E0,0E0,0E0,0E0,0E0,0E0,0E0,0E0,0E0,0E0,0E0,0E0,0E0,0E0,0E0,0E0,0E0,0E0,0E0,0E0,0E0,0E0,0E0,0E0,0E0,0E0,0E0,0E0,0E0,0E0,0E0,0E0,0E0,0E0,0E0,0E0,0E0,0E0,0E0,0E0,0E0,0E0,0E0,0E0,0E0,0E0,0E0,0E0,0E0,0E0,0E0,0E0,0E0,0E0,0E0],"parents":[2147483647,0,0,1,1,2,2,3,3,4,4,5,5,6,6,7,7,9,9,10,10,11,11,12,12,13,13,14,14,15,15,16,16,17,17,18,18,19,19,20,20,21,21,22,22,23,23,24,24,25,25,26,26,27,27,28,28,29,29,30,30,31,31,32,32,33,33,34,34,35,35,36,36,37,37,38,38,39,39,40,40,41,41,42,42,43,43,44,44,45,45,46,46,47,47,48,48,49,49,50,50,51,51,52,52,53,53,54,54,55,55,56,56],"right_children":[2,4,6,8,10,12,14,16,-1,18,20,22,24,26,28,30,32,34,36,38,40,42,44,46,48,50,52,54,56,58,60,62,64,66,68,70,72,74,76,78,80,82,84,86,88,90,92,94,96,98,100,102,104,106,108,110,112,-1,-1,-1,-1,-1,-1,-1,-1,-1,-1,-1,-1,-1,-1,-1,-1,-1,-1,-1,-1,-1,-1,-1,-1,-1,-1,-1,-1,-1,-1,-1,-1,-1,-1,-1,-1,-1,-1,-1,-1,-1,-1,-1,-1,-1,-1,-1,-1,-1,-1,-1,-1,-1,-1,-1,-1],"split_conditions":[2.0924969E-2,9E-3,3.2269437E-2,4.804805E-2,1E-2,4.1E-2,3.4349542E-2,7E-3,2.9953432E-1,1.4364185E-5,1.5E-2,8.040353E-1,1.0344828E-1,9.1068804E-1,3.563922E-2,9.0289256E-4,1.8960446E-2,1.2161136E-2,6.076057E-1,2.0774703E-2,6.894324E-3,2.2605853E-2,2.5E-2,2.1766126E-2,2.861034E-2,7.827557E-1,3.29978E-8,2E-2,1.0344828E-1,1E0,2.0908266E-2,3.29978E-8,1.3980766E-5,9.80946E-1,1.8960446E-2,6.4599486E-3,2.0795962E-2,1.8960446E-2,1.3342057E-5,9.0289256E-4,1.4149618E-5,4.844961E-3,1E0,1.3501775E-3,1.3264312E-5,4.844961E-3,9.1068804E-1,1.31E-1,7.827557E-1,9.550529E-6,9.266326E-1,3.3602443E-2,1.2E-2,9.858109E-1,1E0,2.6946107E-2,1.49700595E-2,-3.0209863E-1,-4.1717932E-1,-3.033539E-1,-3.4645155E-1,-2.7593566E-2,-3.2539433E-1,-4.6702188E-1,-3.6734906E-1,5.6856535E-2,-3.255659E-1,2.4618043E-1,4.429345E-1,-2.7673316E-1,2.3613451E-1,-2.5811553E-1,-4.0026823E-1,-3.1955114E-1,2.5993752E-1,-4.6351928E-1,-3.9591503E-1,-2.51806E-1,2.3118779E-1,-1.2764211E-1,-3.074873E-1,5.7883584E-1,-3.0551335E-1,3.043401E0,4.4858733E-1,3.291624E-1,-9.176004E-2,7.771133E-1,-1.627936E-1,9.8282814E-1,-2.5938287E-1,5.347252E-1,-3.481466E-1,-2.5539854E-1,-3.0340675E-1,1.3210621E0,-2.3553458E-1,1.0821872E0,5.0885606E0,3.5247213E-1,-3.0859333E-1,-2.0965293E-1,8.72496E-1,-4.2288545E-1,-2.869266E-1,3.0423304E-1,4.3472844E-1,1.1344581E0,1.8730497E-1,4.0961687E-2,-2.118063E-1,-3.036802E-1,3.2080343E-1],"split_indices":[16,17,16,14,17,17,16,17,0,0,17,2,17,2,16,16,16,16,3,16,16,16,17,16,16,2,0,17,17,12,16,0,0,2,16,9,16,16,0,16,0,9,13,0,0,9,2,17,2,0,3,16,17,1,12,15,15,0,0,0,0,0,0,0,0,0,0,0,0,0,0,0,0,0,0,0,0,0,0,0,0,0,0,0,0,0,0,0,0,0,0,0,0,0,0,0,0,0,0,0,0,0,0,0,0,0,0,0,0,0,0,0,0],"split_type":[0,0,0,0,0,0,0,0,0,0,0,0,0,0,0,0,0,0,0,0,0,0,0,0,0,0,0,0,0,0,0,0,0,0,0,0,0,0,0,0,0,0,0,0,0,0,0,0,0,0,0,0,0,0,0,0,0,0,0,0,0,0,0,0,0,0,0,0,0,0,0,0,0,0,0,0,0,0,0,0,0,0,0,0,0,0,0,0,0,0,0,0,0,0,0,0,0,0,0,0,0,0,0,0,0,0,0,0,0,0,0,0,0],"sum_hessian":[1.295914E5,3.1374059E4,9.821734E4,9.75821E3,2.1615848E4,2.2303285E4,7.5914055E4,9.714308E3,4.3902588E1,5.8786665E3,1.5737182E4,1.6510781E4,5.792504E3,1.3869203E4,6.2044855E4,7.7166143E3,1.9976927E3,5.426874E3,4.517927E2,4.144903E3,1.1592279E4,1.0039212E3,1.5506859E4,1.5387411E3,4.2537627E3,1.1655132E3,1.270369E4,9.105919E3,5.2938938E4,3.0880115E2,7.4078135E3,1.0312136E3,9.664791E2,1.839719E2,5.242902E3,9.474958E1,3.5704312E2,2.7548987E3,1.3900042E3,1.7283667E3,9.863912E3,9.627667E2,4.1154446E1,1.4442063E4,1.0647959E3,4.3781027E2,1.1009309E3,4.193731E3,6.003173E1,8.671912E0,1.1568412E3,5.8442753E1,1.2645247E4,8.730229E3,3.756905E2,4.014586E4,1.2793076E4,4.515965E1,2.6364148E2,7.343724E3,6.408942E1,1.0597448E0,1.0301539E3,4.834474E2,4.830317E2,1.0236322E0,1.8294826E2,2.296196E3,2.946706E3,1.0906467E1,8.384311E1,1.2196001E2,2.3508311E2,2.5675027E3,1.8739583E2,6.6001996E2,7.299842E2,6.004729E2,1.1278938E3,6.6581787E3,3.2057336E3,9.19718E0,9.535696E2,1.0558407E1,3.0596037E1,1.4072896E4,3.6916635E2,8.70705E2,1.9409088E2,3.6738232E2,7.042794E1,6.9227753E0,1.094008E3,6.673018E1,4.127001E3,3.3914707E0,5.6640263E1,6.7645164E0,1.9073961E0,1.1553773E3,1.4638779E0,7.4315443E0,5.1011208E1,4.962282E3,7.682965E3,2.640778E3,6.08945E3,2.7103534E2,1.0465513E2,1.0633734E4,2.9512125E4,2.6918215E3,1.0101255E4],"tree_param":{"num_deleted":"0","num_feature":"18","num_nodes":"113","size_leaf_vector":"1"}},{"base_weights":[-9.751619E-2,8.413796E-1,-1.4506571E-1,9.873978E-1,-8.852855E-1,-4.3629754E-2,-8.923286E-1,-9.458785E-1,1.0256373E0,-6.281543E-1,-3.0501398E-1,-6.0855454E-1,6.0005013E-2,-4.376619E-2,-1.0540285E0,4.278007E-1,-2.9774842E-1,-2.0511146E-1,1.026313E0,-3.0144712E-1,9.3743396E-1,-2.6744807E-1,-9.828775E-1,1.22643635E-1,-8.8049173E-1,5.1441437E-1,-8.8557446E-1,-9.939765E-1,-1.1105472E0,-1.3855892E-2,1.9658649E-1,-1.3077345E-1,1.0269727E0,-2.7240798E-1,3.5892373E-1,-6.459879E-1,8.1131756E-1,-1.019236E0,-6.340718E-1,3.256491E-1,-1.7876056E-1,-1.0038158E0,8.712949E-1,7.834799E-1,-1.2268323E0,1.0152814E0,-1.0089964E0,-9.977932E-1,5.8290803E-1,-1.1898637E0,-3.088263E-1,3.0817237E-1,-2.7518611E-2,-2.9543987E-1,-9.842504E-2,3.0775237E-1,-1.6731627E-1,5.071605E-1,-3.060936E-1,-6.7317255E-2,-2.8530854E-1,2.7248962E-2,3.3973438E-1,-1.4491081E-1,2.6584974E-1,-3.0141073E-1,2.4043038E-3,3.0989113E-1,-3.1167287E-1,-1.8766151E-1,2.8487203E-1,-3.4543777E-1,-4.1295224E-1,3.2342285E-1,-1.846914E-1,-3.0310723E-1,-8.548205E-3,-3.0012715E-1,3.735027E-1,-2.8207245E0,-3.5000813E-1],"categories":[],"categories_nodes":[],"categories_segments":[],"categories_sizes":[],"default_left":[0,0,0,0,0,0,0,0,0,0,0,0,0,0,0,0,0,0,0,0,0,0,0,0,0,0,0,0,0,0,0,0,0,0,0,0,0,0,0,0,0,0,0,0,0,0,0,0,0,0,0,0,0,0,0,0,0,0,0,0,0,0,0,0,0,0,0,0,0,0,0,0,0,0,0,0,0,0,0,0,0],"id":12,"left_children":[1,3,5,7,9,11,13,15,17,19,-1,21,23,25,27,29,-1,-1,31,-1,33,35,37,39,41,43,45,47,49,-1,-1,-1,51,-1,-1,53,55,57,59,61,63,65,67,69,71,73,75,77,-1,79,-1,-1,-1,-1,-1,-1,-1,-1,-1,-1,-1,-1,-1,-1,-1,-1,-1,-1,-1,-1,-1,-1,-1,-1,-1,-1,-1,-1,-1,-1,-1],"loss_changes":[4.8299497E3,1.3157009E3,7.8051143E3,3.564756E2,1.3120789E1,5.3081113E3,1.6886289E3,6.430626E0,6.149414E0,8.369829E1,0E0,1.7942456E3,4.5134272E3,9.2653015E2,3.3981445E1,4.375453E-1,0E0,0E0,4.9941406E0,0E0,1.4340881E1,3.003892E3,8.433008E1,4.3950366E3,1.0343955E3,5.564776E2,1.8546332E2,5.822754E1,3.298584E1,0E0,0E0,0E0,1.5107422E0,0E0,0E0,5.86147E2,5.617783E2,1.9413086E1,8.226233E1,8.131348E3,9.3678545E3,4.0185547E0,9.8409164E1,2.4108685E2,2.0974731E-1,5.623703E0,9.569702E-1,3.083789E1,0E0,4.9936035E2,0E0,0E0,0E0,0E0,0E0,0E0,0E0,0E0,0E0,0E0,0E0,0E0,0E0,0E0,0E0,0E0,0E0,0E0,0E0,0E0,0E0,0E0,0E0,0E0,0E0,0E0,0E0,0E0,0E0,0E0,0E0],"parents":[2147483647,0,0,1,1,2,2,3,3,4,4,5,5,6,6,7,7,8,8,9,9,11,11,12,12,13,13,14,14,15,15,18,18,20,20,21,21,22,22,23,23,24,24,25,25,26,26,27,27,28,28,32,32,35,35,36,36,37,37,38,38,39,39,40,40,41,41,42,42,43,43,44,44,45,45,46,46,47,47,49,49],"right_children":[2,4,6,8,10,12,14,16,18,20,-1,22,24,26,28,30,-1,-1,32,-1,34,36,38,40,42,44,46,48,50,-1,-1,-1,52,-1,-1,54,56,58,60,62,64,66,68,70,72,74,76,78,-1,80,-1,-1,-1,-1,-1,-1,-1,-1,-1,-1,-1,-1,-1,-1,-1,-1,-1,-1,-1,-1,-1,-1,-1,-1,-1,-1,-1,-1,-1,-1,-1],"split_conditions":[4.9575666E-1,9.1068804E-1,3.1360158E-1,4.9556676E-1,6.517157E-1,1.930236E-2,6.666667E-1,6.369851E-1,3.8922157E-2,7.215893E-2,-3.0501398E-1,1.6938066E-2,1.9444445E-1,3.1296295E-1,8.569624E-1,1.32E-1,-2.9774842E-1,-2.0511146E-1,6.5902275E-1,-3.0144712E-1,9.155989E-1,1.4835592E-2,1.8481467E-2,3.8582798E-2,5.2390777E-2,9.618734E-1,6.894324E-3,5.624861E-1,4.0591206E-2,-1.3855892E-2,1.9658649E-1,-1.3077345E-1,7.257169E-2,-2.7240798E-1,3.5892373E-1,3.4E-2,1E-2,6.076057E-1,3.3E-2,3.4349542E-2,1.0344828E-1,9.31E-1,5.5776265E-2,1.8018018E-2,1.2903226E-2,6.5322435E-1,9.677419E-3,7.827557E-1,5.8290803E-1,5.5370987E-3,-3.088263E-1,3.0817237E-1,-2.7518611E-2,-2.9543987E-1,-9.842504E-2,3.0775237E-1,-1.6731627E-1,5.071605E-1,-3.060936E-1,-6.7317255E-2,-2.8530854E-1,2.7248962E-2,3.3973438E-1,-1.4491081E-1,2.6584974E-1,-3.0141073E-1,2.4043038E-3,3.0989113E-1,-3.1167287E-1,-1.8766151E-1,2.8487203E-1,-3.4543777E-1,-4.1295224E-1,3.2342285E-1,-1.846914E-1,-3.0310723E-1,-8.548205E-3,-3.0012715E-1,3.735027E-1,-2.8207245E0,-3.5000813E-1],"split_indices":[1,2,4,2,6,16,12,5,15,5,0,16,17,17,2,17,0,0,6,0,2,16,16,16,16,2,16,6,16,0,0,0,16,0,0,17,17,3,17,16,17,17,16,14,10,3,10,2,0,9,0,0,0,0,0,0,0,0,0,0,0,0,0,0,0,0,0,0,0,0,0,0,0,0,0,0,0,0,0,0,0],"split_type":[0,0,0,0,0,0,0,0,0,0,0,0,0,0,0,0,0,0,0,0,0,0,0,0,0,0,0,0,0,0,0,0,0,0,0,0,0,0,0,0,0,0,0,0,0,0,0,0,0,0,0,0,0,0,0,0,0,0,0,0,0,0,0,0,0,0,0,0,0,0,0,0,0,0,0,0,0,0,0,0,0],"sum_hessian":[1.08184266E5,5.2139907E3,1.0297027E5,4.8078364E3,4.061543E2,9.0664266E4,1.230601E4,9.279222E1,4.715044E3,1.3933414E2,2.6682016E2,1.4053295E4,7.661097E4,1.9698702E3,1.033614E4,2.77719E0,9.001504E1,1.4639424E0,4.71358E3,1.1260126E2,2.6732882E1,7.3537827E3,6.6995127E3,7.182798E4,4.782991E3,1.1847098E3,7.8516046E2,5.0204326E3,5.3157065E3,1.1590978E0,1.6180923E0,1.8278868E0,4.7117524E3,2.981409E0,2.3751472E1,5.4439106E3,1.9098721E3,6.0653564E3,6.3415625E2,4.2919934E4,2.8908045E4,4.468818E3,3.1417334E2,1.0266215E3,1.5808829E2,4.743131E1,7.377292E2,5.0145767E3,5.8563423E0,2.6809236E3,2.6347832E3,4.7107026E3,1.0494461E0,2.6342837E3,2.8096267E3,1.6513602E3,2.5851187E2,1.7844334E0,6.0635723E3,2.7736163E2,3.5679462E2,3.324505E4,9.67488E3,2.2484281E4,6.4237627E3,4.464912E3,3.9056542E0,2.9008078E2,2.4092564E1,1.0796419E2,9.1865735E2,1.10923E2,4.7165295E1,4.5999195E1,1.4321145E0,7.366762E2,1.0529615E0,5.009255E3,5.3216014E0,6.403552E0,2.67452E3],"tree_param":{"num_deleted":"0","num_feature":"18","num_nodes":"81","size_leaf_vector":"1"}},{"base_weights":[-8.1867754E-2,-1.0076195E0,-4.0201362E-2,2.344589E-1,-3.02583E-1,-3.0382816E-3,-9.9472916E-1,-5.7454383E-1,6.1740063E-2,-9.985246E-1,1.7968873E0,-8.743736E-1,7.6118976E-1,1.423802E-1,-5.0770783E-1,-2.9975125E-1,7.5709894E-2,-9.741901E-1,4.6118323E-2,8.805326E-1,-4.1681635E-1,2.5903722E-2,1.5482037E0,-9.9384767E-1,1.024239E0,-1.1541196E-1,-2.9885238E-1,-2.6195335E-1,5.1125157E-1,-2.8875086E-1,2.732275E-1,-2.0749645E-1,2.3244493E-1,5.303891E-2,-1.8336293E-1,3.3434112E0,3.6686602E-1,-1.6250816E-1,-3.0567032E-1,-7.001906E-1,3.1941867E-1],"categories":[],"categories_nodes":[],"categories_segments":[],"categories_sizes":[],"default_left":[0,0,0,0,0,0,0,0,0,0,0,0,0,0,0,0,0,0,0,0,0,0,0,0,0,0,0,0,0,0,0,0,0,0,0,0,0,0,0,0,0],"id":13,"left_children":[1,3,5,-1,-1,7,9,11,13,15,-1,17,19,21,23,-1,-1,25,27,29,31,33,35,37,39,-1,-1,-1,-1,-1,-1,-1,-1,-1,-1,-1,-1,-1,-1,-1,-1],"loss_changes":[3.683636E3,8.076172E0,3.2417993E3,0E0,0E0,3.2565557E3,9.6765625E1,3.5872554E3,3.6282046E3,3.019287E0,0E0,6.720762E2,2.3124359E2,1.1332666E4,7.3001562E3,0E0,0E0,8.5132324E1,1.09361E3,8.396326E1,5.0234283E1,6.1446143E3,1.6518203E4,8.37334E1,3.2358008E2,0E0,0E0,0E0,0E0,0E0,0E0,0E0,0E0,0E0,0E0,0E0,0E0,0E0,0E0,0E0,0E0],"parents":[2147483647,0,0,1,1,2,2,5,5,6,6,7,7,8,8,9,9,11,11,12,12,13,13,14,14,17,17,18,18,19,19,20,20,21,21,22,22,23,23,24,24],"right_children":[2,4,6,-1,-1,8,10,12,14,16,-1,18,20,22,24,-1,-1,26,28,30,32,34,36,38,40,-1,-1,-1,-1,-1,-1,-1,-1,-1,-1,-1,-1,-1,-1,-1,-1],"split_conditions":[6E-3,2E-3,4.8E-1,2.344589E-1,-3.02583E-1,8.7077177E-1,1E0,5.698025E-1,5.5776265E-2,4.5045044E-2,1.7968873E0,1.0344828E-1,1.4149618E-5,5.321567E-2,7.5E-2,-2.9975125E-1,7.5709894E-2,6E-1,2.1766126E-2,4.9556676E-1,7.1726584E-1,4.0591206E-2,3.726628E-2,5.667101E-2,5.962194E-2,-1.1541196E-1,-2.9885238E-1,-2.6195335E-1,5.1125157E-1,-2.8875086E-1,2.732275E-1,-2.0749645E-1,2.3244493E-1,5.303891E-2,-1.8336293E-1,3.3434112E0,3.6686602E-1,-1.6250816E-1,-3.0567032E-1,-7.001906E-1,3.1941867E-1],"split_indices":[17,17,17,0,0,2,17,6,16,14,0,17,0,16,17,0,0,12,16,2,2,16,4,16,16,0,0,0,0,0,0,0,0,0,0,0,0,0,0,0,0],"split_type":[0,0,0,0,0,0,0,0,0,0,0,0,0,0,0,0,0,0,0,0,0,0,0,0,0,0,0,0,0,0,0,0,0,0,0,0,0,0,0,0,0],"sum_hessian":[9.549848E4,4.112091E3,9.138639E4,1.8391534E0,4.110252E3,8.7962695E4,3.42369E3,8.954443E3,7.900825E4,3.422687E3,1.002943E0,7.313206E3,1.6412372E3,6.9208336E4,9.799917E3,3.421121E3,1.5660312E0,6.5977046E3,7.155016E2,1.4904894E3,1.5074776E2,6.3913906E4,5.29443E3,7.4394673E3,2.36045E3,2.3787584E2,6.3598286E3,4.6059906E2,2.5490256E2,2.355193E1,1.4669375E3,1.2283633E2,2.7911428E1,5.1675832E4,1.2238074E4,1.7250357E2,5.1219263E3,3.9175925E2,7.047708E3,2.7446093E1,2.3330037E3],"tree_param":{"num_deleted":"0","num_feature":"18","num_nodes":"41","size_leaf_vector":"1"}},{"base_weights":[-8.575444E-2,8.2749957E-1,-1.2193449E-1,9.7986263E-1,-8.622595E-1,-4.4841893E-2,-8.6648667E-1,-9.2007214E-1,1.0141238E0,-5.721466E-1,-9.945719E-1,4.90193E-1,-1.5493262E-1,-6.482417E-2,-1.0430695E0,3.749487E-1,-2.948865E-1,-1.9930527E-1,1.0150908E0,-2.9942277E-1,8.8136476E-1,-3.1007314E-1,-7.8817934E-1,-8.8520145E-1,8.031897E-1,-9.912601E-1,-1.0365314E-1,3.1726715E-1,-8.809672E-1,-1.0442504E0,3.0341393E-1,1.865123E-2,1.5924925E-1,-8.277384E-2,1.0159292E0,-2.528639E-1,3.504089E-1,-2.937209E-1,2.1224555E-1,-9.8998207E-1,-1.9788358E-1,1.0499984E0,-5.84673E-1,-1.0221035E0,1.1191139E0,1.198336E-1,-2.924708E-1,-7.4577445E-1,6.278788E-1,1.004086E0,-1.0098186E0,-1.0043862E0,-1.1043869E0,1.4249758E-3,3.0489367E-1,-2.993998E-1,1.46636E-1,-2.1293165E-1,3.91604E-1,3.2626435E-1,-3.0445468E-1,1.7249623E-2,-3.5270742E-1,-3.0218133E-1,-4.052523E-1,4.478204E-2,1.2937222E0,-8.628947E-2,2.3361418E-1,-2.998132E-1,4.7591864E-4,2.9606417E-1,-3.572663E-1,-9.8729E-3,3.2214323E-1,-1.3727799E-1,3.2196897E-1,-1.1692537E-2,-3.0365443E-1,-3.0163127E-1,3.981814E-1,-3.3847225E-1,-3.02389E-1],"categories":[],"categories_nodes":[],"categories_segments":[],"categories_sizes":[],"default_left":[0,0,0,0,0,0,0,0,0,0,0,0,0,0,0,0,0,0,0,0,0,0,0,0,0,0,0,0,0,0,0,0,0,0,0,0,0,0,0,0,0,0,0,0,0,0,0,0,0,0,0,0,0,0,0,0,0,0,0,0,0,0,0,0,0,0,0,0,0,0,0,0,0,0,0,0,0,0,0,0,0,0,0],"id":14,"left_children":[1,3,5,7,9,11,13,15,17,19,21,23,25,27,29,31,-1,-1,33,-1,35,-1,37,39,41,43,45,47,49,51,-1,-1,-1,-1,53,-1,-1,-1,-1,55,57,59,61,63,65,67,69,71,73,75,77,79,81,-1,-1,-1,-1,-1,-1,-1,-1,-1,-1,-1,-1,-1,-1,-1,-1,-1,-1,-1,-1,-1,-1,-1,-1,-1,-1,-1,-1,-1,-1],"loss_changes":[2.897276E3,8.6112427E2,4.841161E3,2.0048145E2,1.0060135E1,4.501968E3,1.1201714E3,4.8332443E0,5.5632324E0,5.603279E1,7.054138E-1,5.615631E3,2.718371E3,4.4606808E2,1.679004E1,1.2607944E-1,0E0,0E0,3.538086E0,0E0,1.1226212E1,0E0,1.0463879E1,1.739718E2,3.6402622E3,2.395061E2,2.5204001E3,3.222162E2,1.1180008E2,1.4429199E1,0E0,0E0,0E0,0E0,1.1604004E0,0E0,0E0,0E0,0E0,2.5363525E1,2.4805612E2,7.00584E2,6.0919543E2,1.6240234E1,1.6419852E2,7.3437046E3,6.7297764E3,1.7145811E2,2.2239938E2,3.491146E0,9.4107056E-1,1.091748E1,4.782959E0,0E0,0E0,0E0,0E0,0E0,0E0,0E0,0E0,0E0,0E0,0E0,0E0,0E0,0E0,0E0,0E0,0E0,0E0,0E0,0E0,0E0,0E0,0E0,0E0,0E0,0E0,0E0,0E0,0E0,0E0],"parents":[2147483647,0,0,1,1,2,2,3,3,4,4,5,5,6,6,7,7,8,8,9,9,10,10,11,11,12,12,13,13,14,14,15,15,18,18,20,20,22,22,23,23,24,24,25,25,26,26,27,27,28,28,29,29,34,34,39,39,40,40,41,41,42,42,43,43,44,44,45,45,46,46,47,47,48,48,49,49,50,50,51,51,52,52],"right_children":[2,4,6,8,10,12,14,16,18,20,22,24,26,28,30,32,-1,-1,34,-1,36,-1,38,40,42,44,46,48,50,52,-1,-1,-1,-1,54,-1,-1,-1,-1,56,58,60,62,64,66,68,70,72,74,76,78,80,82,-1,-1,-1,-1,-1,-1,-1,-1,-1,-1,-1,-1,-1,-1,-1,-1,-1,-1,-1,-1,-1,-1,-1,-1,-1,-1,-1,-1,-1,-1],"split_conditions":[4.9575666E-1,9.1068804E-1,3.1360158E-1,4.9556676E-1,6.517157E-1,9.321149E-1,6.666667E-1,6.369851E-1,3.8922157E-2,7.215893E-2,2.8953853E-1,8.7077177E-1,7E-3,3.1296295E-1,8.641516E-1,1.5E-1,-2.948865E-1,-1.9930527E-1,6.5902275E-1,-2.9942277E-1,9.155989E-1,-3.1007314E-1,7.215893E-2,1.3E-1,8.193982E-5,1.49700595E-2,3.2269437E-2,8.4802106E-2,6.894324E-3,9.44055E-1,3.0341393E-1,1.865123E-2,1.5924925E-1,-8.277384E-2,3.29978E-8,-2.528639E-1,3.504089E-1,-2.937209E-1,2.1224555E-1,1E0,2.4991978E-2,5.667101E-2,3.8283218E-2,2.093358E-2,5.26872E-2,2.0908266E-2,3.4349542E-2,2.7E-2,6.6365063E-1,3.94E-1,3.6204025E-1,5.251924E-1,4.0591206E-2,1.4249758E-3,3.0489367E-1,-2.993998E-1,1.46636E-1,-2.1293165E-1,3.91604E-1,3.2626435E-1,-3.0445468E-1,1.7249623E-2,-3.5270742E-1,-3.0218133E-1,-4.052523E-1,4.478204E-2,1.2937222E0,-8.628947E-2,2.3361418E-1,-2.998132E-1,4.7591864E-4,2.9606417E-1,-3.572663E-1,-9.8729E-3,3.2214323E-1,-1.3727799E-1,3.2196897E-1,-1.1692537E-2,-3.0365443E-1,-3.0163127E-1,3.981814E-1,-3.3847225E-1,-3.02389E-1],"split_indices":[1,2,4,2,6,3,12,5,15,5,3,2,17,17,1,17,0,0,6,0,2,0,5,17,0,15,16,5,16,2,0,0,0,0,0,0,0,0,0,13,16,16,16,16,16,16,16,17,2,17,3,4,16,0,0,0,0,0,0,0,0,0,0,0,0,0,0,0,0,0,0,0,0,0,0,0,0,0,0,0,0,0,0],"split_type":[0,0,0,0,0,0,0,0,0,0,0,0,0,0,0,0,0,0,0,0,0,0,0,0,0,0,0,0,0,0,0,0,0,0,0,0,0,0,0,0,0,0,0,0,0,0,0,0,0,0,0,0,0,0,0,0,0,0,0,0,0,0,0,0,0,0,0,0,0,0,0,0,0,0,0,0,0,0,0,0,0,0,0],"sum_hessian":[8.76817E4,3.3404504E3,8.434125E4,3.0645452E3,2.7590543E2,7.642871E4,7.9125396E3,5.382544E1,3.0107197E3,8.808697E1,1.8781845E2,1.3041975E4,6.338674E4,1.4285372E3,6.4840024E3,2.2627764E0,5.156266E1,1.3387029E0,3.0093809E3,6.836653E1,1.9720434E1,1.5459451E2,3.322393E1,2.4174033E3,1.0624571E4,3.6609656E3,5.9725773E4,9.7342365E2,4.5511365E2,6.480769E3,3.2335138E0,1.2178961E0,1.0448803E0,1.7399218E0,3.007641E3,2.5346446E0,1.718579E1,2.976983E1,3.4541013E0,2.0972415E3,3.2016177E2,9.020641E3,1.6039305E3,3.6087388E3,5.2226685E1,2.7352E4,3.2373773E4,2.1979457E2,7.53629E2,2.8683952E1,4.2642972E2,3.9079258E3,2.5728433E3,1.1440161E0,3.006497E3,2.0862559E3,1.0985603E1,2.3922676E2,8.093503E1,8.859995E3,1.6064601E2,7.69132E2,8.347985E2,3.4568315E3,1.5190718E2,4.0862892E1,1.1363791E1,1.6900775E4,1.0451226E4,9.509871E3,2.2863902E4,4.4674953E1,1.7511961E2,3.040337E2,4.4959537E2,1.0418382E0,2.7642115E1,1.0778528E0,4.2535187E2,3.906733E3,1.1928673E0,2.0540093E3,5.188338E2],"tree_param":{"num_deleted":"0","num_feature":"18","num_nodes":"83","size_leaf_vector":"1"}},{"base_weights":[-7.065422E-2,8.037915E-3,-4.5009735E-1,2.3704906E-1,-1.5137556E-1,-8.211861E-1,1.0887811E-1,-8.9464337E-1,3.7672433E-1,-7.440885E-1,3.1208398E-2,-1.0398891E0,-1.6373818E-1,5.5001074E-1,-7.554737E-1,1.0136342E0,-1.0710593E0,6.426056E-1,-4.0216452E-1,1.0994022E0,-8.8769686E-1,9.123801E-1,-2.5311628E-1,-1.0566194E0,1.1236191E0,-9.9925876E-1,1.0466037E0,-5.021385E-1,9.1057396E-1,-9.0537006E-1,7.8589237E-1,6.2200505E-2,3.0497575E-1,-3.0138943E-1,-1.1784422E0,-1.9065624E-1,8.6629725E-1,-1.1437088E-1,-1.0268471E0,2.3925672E0,1.0805895E0,-3.1071627E-1,-1.037097E0,1.1267061E0,-4.2482093E-1,-5.291753E-1,5.514373E-1,-4.7584366E-2,-1.0661207E0,1.174779E0,-1.8266599E-1,-1.0140907E0,3.289349E0,1.0899659E0,-3.07989E-1,-1.0817963E0,7.342571E-1,1.0764996E0,-1.296131E0,4.3997425E-1,-9.483872E-1,1.017578E0,-6.926414E-1,2.3089744E-1,-3.56414E-1,1.6452467E-1,-2.624791E-1,4.3223113E-1,2.2613816E-1,3.8384143E-2,-2.9458955E-1,-3.126709E-1,8.516868E-1,3.380474E-1,8.5457706E-1,3.2541016E-1,-2.201965E-1,5.72933E-1,-2.969167E-1,-3.279956E-1,1.348901E0,3.4513545E-1,-4.394902E-1,3.4241438E-1,-2.849773E-1,-2.5923878E-1,-2.6372964E-3,-3.025456E-1,3.0927995E-1,-2.2629921E-1,3.474755E-1,-3.289961E-1,-3.013885E-1,3.6340705E-1,1.3413498E-1,4.4639982E-2,-3.0696118E-1,1.1883765E0,3.3164155E-1,9.281955E-1,3.0979154E-1,4.3535832E-1,-3.3185303E-1,3.1492698E-1,-2.9499123E-1,3.3251622E-1,-3.1919903E-1,-6.1068875E-1,-2.9246718E-1,-2.6360053E-1,2.4045147E-1,-3.11988E-1,-1.00767925E-1,3.457963E-1,-1.3962395E-1,-3.108331E-1,2.4665104E-1],"categories":[],"categories_nodes":[],"categories_segments":[],"categories_sizes":[],"default_left":[0,0,0,0,0,0,0,0,0,0,0,0,0,0,0,0,0,0,0,0,0,0,0,0,0,0,0,0,0,0,0,0,0,0,0,0,0,0,0,0,0,0,0,0,0,0,0,0,0,0,0,0,0,0,0,0,0,0,0,0,0,0,0,0,0,0,0,0,0,0,0,0,0,0,0,0,0,0,0,0,0,0,0,0,0,0,0,0,0,0,0,0,0,0,0,0,0,0,0,0,0,0,0,0,0,0,0,0,0,0,0,0,0,0,0,0,0],"id":15,"left_children":[1,3,5,7,9,11,13,15,17,19,21,23,25,27,29,31,33,35,37,39,41,43,45,47,49,51,53,55,57,59,61,-1,-1,-1,63,65,67,69,71,73,75,77,79,81,83,85,87,89,91,93,-1,95,97,99,-1,101,103,105,107,109,111,113,115,-1,-1,-1,-1,-1,-1,-1,-1,-1,-1,-1,-1,-1,-1,-1,-1,-1,-1,-1,-1,-1,-1,-1,-1,-1,-1,-1,-1,-1,-1,-1,-1,-1,-1,-1,-1,-1,-1,-1,-1,-1,-1,-1,-1,-1,-1,-1,-1,-1,-1,-1,-1,-1,-1],"loss_changes":[2.3398545E3,2.3695063E3,2.792111E3,4.2109194E3,4.1412925E3,1.163019E3,2.0484832E3,9.863804E2,4.910781E3,2.3868296E3,7.3300303E3,2.2090479E2,2.044339E3,1.3498325E3,4.2016113E2,3.798523E-1,1.7929932E1,3.2951982E3,1.084849E3,1.3270325E1,7.204292E2,2.0460068E3,4.913203E3,5.7703613E1,4.886898E0,7.940234E1,7.534613E1,6.518813E2,9.714888E2,9.6197266E1,5.6006195E1,0E0,0E0,0E0,1.9967285E1,1.8929727E3,8.996455E2,8.6895435E2,1.1618823E2,1.709053E0,5.6018677E0,2.5969258E3,2.07096E3,3.802578E2,8.125343E2,2.8707046E3,4.2281104E3,4.9656666E1,1.0103516E1,6.842232E-1,0E0,1.2790161E1,2.014553E0,8.977405E1,0E0,3.9825867E1,1.5848671E2,1.6940967E2,4.2138855E1,2.5476067E1,8.961792E1,2.8575363E1,1.2540294E1,0E0,0E0,0E0,0E0,0E0,0E0,0E0,0E0,0E0,0E0,0E0,0E0,0E0,0E0,0E0,0E0,0E0,0E0,0E0,0E0,0E0,0E0,0E0,0E0,0E0,0E0,0E0,0E0,0E0,0E0,0E0,0E0,0E0,0E0,0E0,0E0,0E0,0E0,0E0,0E0,0E0,0E0,0E0,0E0,0E0,0E0,0E0,0E0,0E0,0E0,0E0,0E0,0E0,0E0],"parents":[2147483647,0,0,1,1,2,2,3,3,4,4,5,5,6,6,7,7,8,8,9,9,10,10,11,11,12,12,13,13,14,14,15,15,16,16,17,17,18,18,19,19,20,20,21,21,22,22,23,23,24,24,25,25,26,26,27,27,28,28,29,29,30,30,34,34,35,35,36,36,37,37,38,38,39,39,40,40,41,41,42,42,43,43,44,44,45,45,46,46,47,47,48,48,49,49,51,51,52,52,53,53,55,55,56,56,57,57,58,58,59,59,60,60,61,61,62,62],"right_children":[2,4,6,8,10,12,14,16,18,20,22,24,26,28,30,32,34,36,38,40,42,44,46,48,50,52,54,56,58,60,62,-1,-1,-1,64,66,68,70,72,74,76,78,80,82,84,86,88,90,92,94,-1,96,98,100,-1,102,104,106,108,110,112,114,116,-1,-1,-1,-1,-1,-1,-1,-1,-1,-1,-1,-1,-1,-1,-1,-1,-1,-1,-1,-1,-1,-1,-1,-1,-1,-1,-1,-1,-1,-1,-1,-1,-1,-1,-1,-1,-1,-1,-1,-1,-1,-1,-1,-1,-1,-1,-1,-1,-1,-1,-1,-1,-1,-1],"split_conditions":[1.4364185E-5,3.2269437E-2,3.3981618E-5,9E-3,3.4349542E-2,5.2390777E-2,2.836048E-1,4.7380793E-1,4.1E-2,9.1068804E-1,3.8582798E-2,6.451613E-3,1.0344828E-1,1.1439618E-2,9.677419E-3,8.3057884E-8,6.6815144E-3,1.8960446E-2,2.1132033E-2,7.6354396E-1,3.3602443E-2,3.6337963E-1,1.0344828E-1,9.0289256E-4,1.3E-1,1.6129032E-2,7.257169E-2,3E-2,6.452363E-2,9.1068804E-1,1.875E-1,6.2200505E-2,3.0497575E-1,-3.0138943E-1,3.29978E-8,1E-2,2.0774703E-2,4.8E-1,6.6776663E-1,7.039436E-1,9.266326E-1,3.1E-2,7.265794E-6,4.1E-2,7.1726584E-1,4.3864504E-2,6.006006E-3,3.6337963E-1,2.0917794E-2,2.2580646E-2,-1.8266599E-1,6.6815144E-3,4.9892175E-1,7.598061E-1,-3.07989E-1,8.193982E-5,5.01E-1,5.667101E-2,4.0591206E-2,3.6036037E-2,9.880948E-1,5.622783E-1,3.5E-1,2.3089744E-1,-3.56414E-1,1.6452467E-1,-2.624791E-1,4.3223113E-1,2.2613816E-1,3.8384143E-2,-2.9458955E-1,-3.126709E-1,8.516868E-1,3.380474E-1,8.5457706E-1,3.2541016E-1,-2.201965E-1,5.72933E-1,-2.969167E-1,-3.279956E-1,1.348901E0,3.4513545E-1,-4.394902E-1,3.4241438E-1,-2.849773E-1,-2.5923878E-1,-2.6372964E-3,-3.025456E-1,3.0927995E-1,-2.2629921E-1,3.474755E-1,-3.289961E-1,-3.013885E-1,3.6340705E-1,1.3413498E-1,4.4639982E-2,-3.0696118E-1,1.1883765E0,3.3164155E-1,9.281955E-1,3.0979154E-1,4.3535832E-1,-3.3185303E-1,3.1492698E-1,-2.9499123E-1,3.3251622E-1,-3.1919903E-1,-6.1068875E-1,-2.9246718E-1,-2.6360053E-1,2.4045147E-1,-3.11988E-1,-1.00767925E-1,3.457963E-1,-1.3962395E-1,-3.108331E-1,2.4665104E-1],"split_indices":[0,16,0,17,16,16,4,1,17,2,16,10,17,16,10,0,17,16,16,2,16,5,17,16,8,10,16,17,5,2,8,0,0,0,0,17,16,17,5,1,3,17,0,17,2,4,14,5,16,10,0,17,1,3,0,0,17,16,16,14,2,5,8,0,0,0,0,0,0,0,0,0,0,0,0,0,0,0,0,0,0,0,0,0,0,0,0,0,0,0,0,0,0,0,0,0,0,0,0,0,0,0,0,0,0,0,0,0,0,0,0,0,0,0,0,0,0],"split_type":[0,0,0,0,0,0,0,0,0,0,0,0,0,0,0,0,0,0,0,0,0,0,0,0,0,0,0,0,0,0,0,0,0,0,0,0,0,0,0,0,0,0,0,0,0,0,0,0,0,0,0,0,0,0,0,0,0,0,0,0,0,0,0,0,0,0,0,0,0,0,0,0,0,0,0,0,0,0,0,0,0,0,0,0,0,0,0,0,0,0,0,0,0,0,0,0,0,0,0,0,0,0,0,0,0,0,0,0,0,0,0,0,0,0,0,0,0],"sum_hessian":[7.836183E4,6.4902727E4,1.3459101E4,2.663655E4,3.8266176E4,8.088737E3,5.3703633E3,2.9257566E3,2.3710795E4,9.011037E3,2.9255139E4,6.069206E3,2.0195308E3,3.5559194E3,1.8144438E3,2.4718886E2,2.6785679E3,1.7676816E4,6.033978E3,6.5075006E2,8.360287E3,7.1362983E3,2.2118842E4,6.023141E3,4.6064888E1,1.1948671E3,8.2466364E2,9.0746857E2,2.648451E3,1.654006E3,1.6043793E2,1.1614279E0,2.4602744E2,1.6612567E3,1.01731104E3,3.741119E3,1.3935697E4,4.13168E3,1.9022977E3,7.52192E0,6.4322815E2,1.7201565E3,6.640131E3,6.150635E3,9.856639E2,1.64685E4,5.650342E3,5.6242203E1,5.966899E3,4.505632E1,1.0085685E0,1.1915099E3,3.3572164E0,8.082335E2,1.6430147E1,6.1790295E2,2.895656E2,2.4637126E3,1.8473827E2,5.0961964E1,1.603044E3,1.3897272E2,2.1465206E1,4.6026044E0,1.01270844E3,1.7986398E3,1.9424791E3,2.2802598E3,1.16554375E4,3.2303108E3,9.013694E2,1.8954825E3,6.8151956E0,2.9115548E0,4.6103654E0,6.4217554E2,1.0526353E0,4.0240256E2,1.3177539E3,6.5741377E3,6.599305E1,6.095344E3,5.529038E1,2.4719444E2,7.384694E2,1.0018967E4,6.449533E3,1.3282151E3,4.3221265E3,3.5695393E1,2.054681E1,3.975906E3,1.9909929E3,4.226695E1,2.7893715E0,9.145767E0,1.1823641E3,1.9449552E0,1.4122611E0,2.1004381E1,7.872291E2,5.3327947E0,6.125702E2,2.4495801E2,4.460761E1,2.4280237E3,3.5688953E1,5.4331055E1,1.3040723E2,1.0657932E1,4.030403E1,1.3939408E3,2.0910316E2,1.2757543E2,1.1397289E1,1.7755362E1,3.7098432E0],"tree_param":{"num_deleted":"0","num_feature":"18","num_nodes":"117","size_leaf_vector":"1"}},{"base_weights":[-6.705104E-2,2.8524664E-3,-4.2720765E-1,9.860319E-1,-2.9280016E-2,-7.83028E-1,1.0052933E-1,-2.8197837E-1,1.0037601E0,4.4416863E-2,-8.5654503E-1,-9.890513E-1,-1.5686354E-1,5.14264E-1,-6.8039495E-1,1.0061516E0,-2.1179092E-1,6.795355E-1,-5.294078E-2,1.4784425E-2,-1.018954E0,-1.0235382E0,1.0798289E0,-9.749288E-1,1.029675E0,-4.8248476E-1,8.504301E-1,-8.144716E-1,7.1874475E-1,-5.6241035E-2,1.0074505E0,-8.82121E-1,1.0218865E0,-4.8396623E-1,5.88722E-2,-8.4081274E-1,6.896401E-1,-1.0361165E0,1.7188448E0,-5.8507513E-2,-1.0350473E0,1.1356448E0,-2.3235855E-1,-9.9270016E-1,1.7945571E0,1.0718529E0,-2.9644576E-1,-1.0518162E0,6.6142225E-1,1.008439E0,-1.1388739E0,-9.287345E-1,-1.5405314E-1,1.1315122E0,-1.13384806E-1,3.0328718E-1,1.9402324E-1,-3.005432E-1,-1.3797206E-1,3.1943658E-1,-3.185049E-1,3.0694428E-1,-1.9844379E-1,1.2884727E-1,-5.428195E-2,2.1536982E-1,-2.97065E-1,3.3561325E-1,-1.00962624E-1,-7.518925E-2,-3.1169105E-1,1.4910659E-1,1.1891307E0,-2.6988614E-1,2.1680397E-1,-2.5232363E-1,-3.163846E-1,3.471093E-1,1.1404379E-1,1.01983145E-1,-3.02217E-1,5.879302E-1,1.5131372E-1,8.119896E-1,3.0482155E-1,3.5042948E-1,-3.2337818E-1,2.8123495E-1,-2.924188E-1,3.162667E-1,-2.5848532E-1,-3.8883606E-1,3.274547E-2,-2.9705867E-1,5.791554E-2,2.8039774E-1,-2.5962076E-1,3.2891756E-1,5.722729E-1,-2.7013E-1,3.571325E-1],"categories":[],"categories_nodes":[],"categories_segments":[],"categories_sizes":[],"default_left":[0,0,0,0,0,0,0,0,0,0,0,0,0,0,0,0,0,0,0,0,0,0,0,0,0,0,0,0,0,0,0,0,0,0,0,0,0,0,0,0,0,0,0,0,0,0,0,0,0,0,0,0,0,0,0,0,0,0,0,0,0,0,0,0,0,0,0,0,0,0,0,0,0,0,0,0,0,0,0,0,0,0,0,0,0,0,0,0,0,0,0,0,0,0,0,0,0,0,0,0,0],"id":16,"left_children":[1,3,5,7,9,11,13,-1,15,17,19,21,23,25,27,29,-1,31,33,35,37,39,41,43,45,47,49,51,53,-1,55,57,59,61,63,65,67,69,71,73,75,77,-1,79,81,83,-1,85,87,89,91,93,95,97,99,-1,-1,-1,-1,-1,-1,-1,-1,-1,-1,-1,-1,-1,-1,-1,-1,-1,-1,-1,-1,-1,-1,-1,-1,-1,-1,-1,-1,-1,-1,-1,-1,-1,-1,-1,-1,-1,-1,-1,-1,-1,-1,-1,-1,-1,-1],"loss_changes":[1.6379165E3,1.721296E3,1.9858052E3,5.981909E1,3.216706E3,8.146741E2,1.3765715E3,0E0,7.6983643E0,2.9956382E3,6.1075024E2,3.4018457E2,1.5199994E3,9.3355927E2,2.7739215E2,2.8356934E0,0E0,3.443589E3,2.0245636E3,3.926564E2,1.7270947E2,5.1862793E1,8.994949E0,4.739569E1,5.5452393E1,4.585349E2,6.558644E2,1.0150403E2,4.463163E1,0E0,1.5031738E0,5.807672E1,4.732827E2,2.3155833E3,2.96472E3,7.0544174E1,1.6776335E2,7.843994E0,6.1220917E1,3.7549007E1,1.664746E1,7.9652405E-1,0E0,1.8382507E1,3.4698296E-1,5.438086E1,0E0,2.8489197E1,1.06697815E2,1.6616418E2,3.0312408E1,7.935065E1,1.5560556E2,2.7155304E-1,4.6089497E1,0E0,0E0,0E0,0E0,0E0,0E0,0E0,0E0,0E0,0E0,0E0,0E0,0E0,0E0,0E0,0E0,0E0,0E0,0E0,0E0,0E0,0E0,0E0,0E0,0E0,0E0,0E0,0E0,0E0,0E0,0E0,0E0,0E0,0E0,0E0,0E0,0E0,0E0,0E0,0E0,0E0,0E0,0E0,0E0,0E0,0E0],"parents":[2147483647,0,0,1,1,2,2,3,3,4,4,5,5,6,6,8,8,9,9,10,10,11,11,12,12,13,13,14,14,15,15,17,17,18,18,19,19,20,20,21,21,22,22,23,23,24,24,25,25,26,26,27,27,28,28,30,30,31,31,32,32,33,33,34,34,35,35,36,36,37,37,38,38,39,39,40,40,41,41,43,43,44,44,45,45,47,47,48,48,49,49,50,50,51,51,52,52,53,53,54,54],"right_children":[2,4,6,8,10,12,14,-1,16,18,20,22,24,26,28,30,-1,32,34,36,38,40,42,44,46,48,50,52,54,-1,56,58,60,62,64,66,68,70,72,74,76,78,-1,80,82,84,-1,86,88,90,92,94,96,98,100,-1,-1,-1,-1,-1,-1,-1,-1,-1,-1,-1,-1,-1,-1,-1,-1,-1,-1,-1,-1,-1,-1,-1,-1,-1,-1,-1,-1,-1,-1,-1,-1,-1,-1,-1,-1,-1,-1,-1,-1,-1,-1,-1,-1,-1,-1],"split_conditions":[1.4149618E-5,4.9575666E-1,3.3981618E-5,4.9556676E-1,3.1360158E-1,5.2390777E-2,2.836048E-1,-2.8197837E-1,9.1068804E-1,9.321149E-1,7.70947E-1,6.451613E-3,1.0344828E-1,1.1439618E-2,9.677419E-3,3.29978E-8,-2.1179092E-1,8.7077177E-1,9E-3,2.1132033E-2,1.6129032E-2,9.0289256E-4,1.3E-1,1.6129032E-2,7.257169E-2,3E-2,6.452363E-2,1.0344828E-1,1.2903226E-2,-5.6241035E-2,3.9589494E-1,1.2E-2,5.667101E-2,3.29978E-8,1.2033694E-2,1.6210474E-2,5.5776265E-2,3.6140618E-1,5.314824E-2,6.153846E-2,1.5333033E-5,2.2580646E-2,-2.3235855E-1,6.6815144E-3,9.648621E-1,7.748079E-1,-2.9644576E-1,8.193982E-5,5.01E-1,3.1296295E-1,1.3E-1,1E0,3.1360158E-1,7.5E-2,6.153846E-2,3.0328718E-1,1.9402324E-1,-3.005432E-1,-1.3797206E-1,3.1943658E-1,-3.185049E-1,3.0694428E-1,-1.9844379E-1,1.2884727E-1,-5.428195E-2,2.1536982E-1,-2.97065E-1,3.3561325E-1,-1.00962624E-1,-7.518925E-2,-3.1169105E-1,1.4910659E-1,1.1891307E0,-2.6988614E-1,2.1680397E-1,-2.5232363E-1,-3.163846E-1,3.471093E-1,1.1404379E-1,1.01983145E-1,-3.02217E-1,5.879302E-1,1.5131372E-1,8.119896E-1,3.0482155E-1,3.5042948E-1,-3.2337818E-1,2.8123495E-1,-2.924188E-1,3.162667E-1,-2.5848532E-1,-3.8883606E-1,3.274547E-2,-2.9705867E-1,5.791554E-2,2.8039774E-1,-2.5962076E-1,3.2891756E-1,5.722729E-1,-2.7013E-1,3.571325E-1],"split_indices":[0,1,0,2,4,16,4,0,2,3,2,10,17,16,10,0,0,2,17,16,10,16,8,10,16,17,5,17,10,0,3,17,16,0,17,16,16,4,16,17,0,10,0,17,1,3,0,0,17,17,17,13,4,17,17,0,0,0,0,0,0,0,0,0,0,0,0,0,0,0,0,0,0,0,0,0,0,0,0,0,0,0,0,0,0,0,0,0,0,0,0,0,0,0,0,0,0,0,0,0,0],"split_type":[0,0,0,0,0,0,0,0,0,0,0,0,0,0,0,0,0,0,0,0,0,0,0,0,0,0,0,0,0,0,0,0,0,0,0,0,0,0,0,0,0,0,0,0,0,0,0,0,0,0,0,0,0,0,0,0,0,0,0,0,0,0,0,0,0,0,0,0,0,0,0,0,0,0,0,0,0,0,0,0,0,0,0,0,0,0,0,0,0,0,0,0,0,0,0,0,0,0,0,0,0],"sum_hessian":[6.5057055E4,5.4483277E4,1.0573774E4,1.7233416E3,5.2759938E4,6.315285E3,4.2584893E3,1.5243993E1,1.7080975E3,4.844515E4,4.3147886E3,4.751385E3,1.5639003E3,2.7839111E3,1.4745782E3,1.7061226E3,1.974959E0,6.438329E3,4.200682E4,6.780326E2,3.6367559E3,4.673978E3,7.740707E1,9.257887E2,6.381115E2,7.020029E2,2.0819082E3,1.3460106E3,1.2856754E2,1.6987318E0,1.7044238E3,1.1573633E3,5.280966E3,8.651811E3,3.3355008E4,2.9887115E2,3.7916147E2,3.6147178E3,2.2038033E1,5.515696E1,4.618821E3,7.5521454E1,1.8856094E0,9.2052344E2,5.265294E0,6.255056E2,1.2605893E1,4.6877197E2,2.3323096E2,1.9291688E3,1.5273936E2,1.1471323E3,1.9887831E2,8.569823E1,4.2869312E1,1.6862277E3,1.8196163E1,9.006685E2,2.566948E2,5.1749E3,1.060657E2,9.111593E2,7.740652E3,1.3103441E4,2.0251568E4,2.5808554E1,2.730626E2,2.673049E2,1.1185656E2,1.3406085E1,3.6013118E3,1.506186E1,6.976173E0,2.6486767E1,2.8670195E1,4.2729044E2,4.191531E3,7.292565E1,2.5958076E0,9.794969E0,9.1072845E2,4.2075224E0,1.0577718E0,1.9070957E1,6.064347E2,4.941238E0,4.6383072E2,1.9992892E2,3.330204E1,1.8834929E3,