{"learner":{"attributes":{"scikit_learn":"{\"_estimator_type\": \"classifier\"}"},"feature_names":[],"feature_types":[],"gradient_booster":{"model":{"cats":{"enc":[],"feature_segments":[],"sorted_idx":[]},"gbtree_model_param":{"num_parallel_tree":"1","num_trees":"1200"},"iteration_indptr":[0,6,12,18,24,30,36,42,48,54,60,66,72,78,84,90,96,102,108,114,120,126,132,138,144,150,156,162,168,174,180,186,192,198,204,210,216,222,228,234,240,246,252,258,264,270,276,282,288,294,300,306,312,318,324,330,336,342,348,354,360,366,372,378,384,390,396,402,408,414,420,426,432,438,444,450,456,462,468,474,480,486,492,498,504,510,516,522,528,534,540,546,552,558,564,570,576,582,588,594,600,606,612,618,624,630,636,642,648,654,660,666,672,678,684,690,696,702,708,714,720,726,732,738,744,750,756,762,768,774,780,786,792,798,804,810,816,822,828,834,840,846,852,858,864,870,876,882,888,894,900,906,912,918,924,930,936,942,948,954,960,966,972,978,984,990,996,1002,1008,1014,1020,1026,1032,1038,1044,1050,1056,1062,1068,1074,1080,1086,1092,1098,1104,1110,1116,1122,1128,1134,1140,1146,1152,1158,1164,1170,1176,1182,1188,1194,1200],"tree_info":[0,1,2,3,4,5,0,1,2,3,4,5,0,1,2,3,4,5,0,1,2,3,4,5,0,1,2,3,4,5,0,1,2,3,4,5,0,1,2,3,4,5,0,1,2,3,4,5,0,1,2,3,4,5,0,1,2,3,4,5,0,1,2,3,4,5,0,1,2,3,4,5,0,1,2,3,4,5,0,1,2,3,4,5,0,1,2,3,4,5,0,1,2,3,4,5,0,1,2,3,4,5,0,1,2,3,4,5,0,1,2,3,4,5,0,1,2,3,4,5,0,1,2,3,4,5,0,1,2,3,4,5,0,1,2,3,4,5,0,1,2,3,4,5,0,1,2,3,4,5,0,1,2,3,4,5,0,1,2,3,4,5,0,1,2,3,4,5,0,1,2,3,4,5,0,1,2,3,4,5,0,1,2,3,4,5,0,1,2,3,4,5,0,1,2,3,4,5,0,1,2,3,4,5,0,1,2,3,4,5,0,1,2,3,4,5,0,1,2,3,4,5,0,1,2,3,4,5,0,1,2,3,4,5,0,1,2,3,4,5,0,1,2,3,4,5,0,1,2,3,4,5,0,1,2,3,4,5,0,1,2,3,4,5,0,1,2,3,4,5,0,1,2,3,4,5,0,1,2,3,4,5,0,1,2,3,4,5,0,1,2,3,4,5,0,1,2,3,4,5,0,1,2,3,4,5,0,1,2,3,4,5,0,1,2,3,4,5,0,1,2,3,4,5,0,1,2,3,4,5,0,1,2,3,4,5,0,1,2,3,4,5,0,1,2,3,4,5,0,1,2,3,4,5,0,1,2,3,4,5,0,1,2,3,4,5,0,1,2,3,4,5,0,1,2,3,4,5,0,1,2,3,4,5,0,1,2,3,4,5,0,1,2,3,4,5,0,1,2,3,4,5,0,1,2,3,4,5,0,1,2,3,4,5,0,1,2,3,4,5,0,1,2,3,4,5,0,1,2,3,4,5,0,1,2,3,4,5,0,1,2,3,4,5,0,1,2,3,4,5,0,1,2,3,4,5,0,1,2,3,4,5,0,1,2,3,4,5,0,1,2,3,4,5,0,1,2,3,4,5,0,1,2,3,4,5,0,1,2,3,4,5,0,1,2,3,4,5,0,1,2,3,4,5,0,1,2,3,4,5,0,1,2,3,4,5,0,1,2,3,4,5,0,1,2,3,4,5,0,1,2,3,4,5,0,1,2,3,4,5,0,1,2,3,4,5,0,1,2,3,4,5,0,1,2,3,4,5,0,1,2,3,4,5,0,1,2,3,4,5,0,1,2,3,4,5,0,1,2,3,4,5,0,1,2,3,4,5,0,1,2,3,4,5,0,1,2,3,4,5,0,1,2,3,4,5,0,1,2,3,4,5,0,1,2,3,4,5,0,1,2,3,4,5,0,1,2,3,4,5,0,1,2,3,4,5,0,1,2,3,4,5,0,1,2,3,4,5,0,1,2,3,4,5,0,1,2,3,4,5,0,1,2,3,4,5,0,1,2,3,4,5,0,1,2,3,4,5,0,1,2,3,4,5,0,1,2,3,4,5,0,1,2,3,4,5,0,1,2,3,4,5,0,1,2,3,4,5,0,1,2,3,4,5,0,1,2,3,4,5,0,1,2,3,4,5,0,1,2,3,4,5,0,1,2,3,4,5,0,1,2,3,4,5,0,1,2,3,4,5,0,1,2,3,4,5,0,1,2,3,4,5,0,1,2,3,4,5,0,1,2,3,4,5,0,1,2,3,4,5,0,1,2,3,4,5,0,1,2,3,4,5,0,1,2,3,4,5,0,1,2,3,4,5,0,1,2,3,4,5,0,1,2,3,4,5,0,1,2,3,4,5,0,1,2,3,4,5,0,1,2,3,4,5,0,1,2,3,4,5,0,1,2,3,4,5,0,1,2,3,4,5,0,1,2,3,4,5,0,1,2,3,4,5,0,1,2,3,4,5,0,1,2,3,4,5,0,1,2,3,4,5,0,1,2,3,4,5,0,1,2,3,4,5,0,1,2,3,4,5,0,1,2,3,4,5,0,1,2,3,4,5,0,1,2,3,4,5,0,1,2,3,4,5,0,1,2,3,4,5,0,1,2,3,4,5,0,1,2,3,4,5,0,1,2,3,4,5,0,1,2,3,4,5,0,1,2,3,4,5,0,1,2,3,4,5,0,1,2,3,4,5,0,1,2,3,4,5,0,1,2,3,4,5,0,1,2,3,4,5,0,1,2,3,4,5,0,1,2,3,4,5,0,1,2,3,4,5,0,1,2,3,4,5,0,1,2,3,4,5,0,1,2,3,4,5,0,1,2,3,4,5,0,1,2,3,4,5,0,1,2,3,4,5,0,1,2,3,4,5,0,1,2,3,4,5,0,1,2,3,4,5,0,1,2,3,4,5,0,1,2,3,4,5,0,1,2,3,4,5,0,1,2,3,4,5,0,1,2,3,4,5,0,1,2,3,4,5,0,1,2,3,4,5,0,1,2,3,4,5,0,1,2,3,4,5,0,1,2,3,4,5,0,1,2,3,4,5,0,1,2,3,4,5,0,1,2,3,4,5,0,1,2,3,4,5,0,1,2,3,4,5,0,1,2,3,4,5,0,1,2,3,4,5,0,1,2,3,4,5,0,1,2,3,4,5,0,1,2,3,4,5,0,1,2,3,4,5,0,1,2,3,4,5,0,1,2,3,4,5],"trees":[{"base_weights":[1.4736427E-3,2.5244493E0,-1.0291518E-1,-1.632837E-1,5.052804E-1,-1.848062E-1,5.0526893E-1,-7.0929505E-2,1.3149223E-1,-2.4248604E-1,2.1662621E0,1.3963099E-1,-5.309124E-1,2.4546895E0,-5.8304507E-1,6.084444E-1,-5.668784E-1,-5.9149086E-1,-3.6186874E-1,5.0524896E-1,-5.551618E-1,-1.245194E-1,-8.229127E-3,-3.0830272E-3,4.9913308E-1,4.064839E-1,-1.2460704E-1,-1.2093897E-1,-8.391164E-2,7.320648E-2,-1.0853672E-1,3.8635418E-1,-1.2155781E-1,4.630254E-1,-1.21970035E-1],"categories":[],"categories_nodes":[],"categories_segments":[],"categories_sizes":[],"default_left":[0,0,0,0,0,0,0,0,0,0,0,0,0,0,0,0,0,0,0,0,0,0,0,0,0,0,0,0,0,0,0,0,0,0,0],"id":0,"left_children":[1,3,5,7,-1,9,-1,-1,-1,11,13,15,17,19,21,23,25,27,29,-1,31,-1,33,-1,-1,-1,-1,-1,-1,-1,-1,-1,-1,-1,-1],"loss_changes":[1.0823475E5,8.609375E1,8.496978E4,2.2420886E0,0E0,5.189997E4,0E0,0E0,0E0,4.1169945E4,7.2686836E3,5.322052E4,2.1796758E3,1.7878125E3,1.9796326E1,1.13718445E5,9.356691E3,3.5551172E2,7.391982E3,0E0,2.6490757E1,0E0,8.120351E1,0E0,0E0,0E0,0E0,0E0,0E0,0E0,0E0,0E0,0E0,0E0,0E0],"parents":[2147483647,0,0,1,1,2,2,3,3,5,5,9,9,10,10,11,11,12,12,13,13,14,14,15,15,16,16,17,17,18,18,20,20,22,22],"right_children":[2,4,6,8,-1,10,-1,-1,-1,12,14,16,18,20,22,24,26,28,30,-1,32,-1,34,-1,-1,-1,-1,-1,-1,-1,-1,-1,-1,-1,-1],"split_conditions":[6E-3,2E-3,1E0,9.701492E-3,5.052804E-1,4.7761194E-2,5.0526893E-1,-7.0929505E-2,1.3149223E-1,3.3333334E-1,5.970149E-2,1.29E-1,3.6440432E-2,1.1457293E-7,8.634717E-3,4.1603222E-2,3.814539E-2,8.2E-2,5.3245086E-2,5.0524896E-1,1.3E-2,-1.245194E-1,8.2E-2,-3.0830272E-3,4.9913308E-1,4.064839E-1,-1.2460704E-1,-1.2093897E-1,-8.391164E-2,7.320648E-2,-1.0853672E-1,3.8635418E-1,-1.2155781E-1,4.630254E-1,-1.21970035E-1],"split_indices":[8,8,10,6,0,6,0,0,0,10,6,8,7,0,7,7,7,8,7,0,8,0,8,0,0,0,0,0,0,0,0,0,0,0,0],"split_type":[0,0,0,0,0,0,0,0,0,0,0,0,0,0,0,0,0,0,0,0,0,0,0,0,0,0,0,0,0,0,0,0,0,0,0],"sum_hessian":[4.1095806E5,1.6327012E4,3.9463106E5,1.1790722E1,1.6315221E4,3.8271203E5,1.1919031E4,1.0021919E1,1.7688025E0,3.735485E5,9.163542E3,1.606777E5,2.1287078E5,8.293578E3,8.699645E2,9.658657E4,6.4091133E4,1.5670977E5,5.6161023E4,8.1011445E3,1.9243333E2,8.1387994E2,5.608454E1,7.259109E4,2.3995482E4,1.3546381E3,6.2736492E4,1.4553086E5,1.11788955E4,1.1174628E4,4.49864E4,3.2478442E0,1.8918549E2,1.0949875E1,4.5134666E1],"tree_param":{"num_deleted":"0","num_feature":"13","num_nodes":"35","size_leaf_vector":"1"}},{"base_weights":[-2.3855774E-3,-5.361865E-1,1.0399861E0,1.4034371E0,-5.926539E-1,-5.841902E-1,1.6110494E0,-4.5768604E-1,2.2288759E0,-6.121382E-1,1.7480589E0,-6.0054237E-1,5.0481893E-2,2.4285545E0,-6.216899E-1,-5.0091165E-1,4.926672E-1,2.4950001E0,-5.998164E-1,-6.206919E-1,-1.3095374E-1,2.3855796E0,-2.2398017E-1,-6.042247E-1,1.19528465E-1,5.0094277E-1,-6.114126E-1,-1.24700606E-1,2.4925992E0,-3.0434087E-1,-1.2477634E-1,-1.8649915E-1,-5.590555E-1,-1.2217345E-1,1.4145828E0,2.5032866E0,-1.1582816E-1,-3.0854579E-2,-1.2449886E-1,-6.227295E-1,-5.108163E-1,-5.879253E-1,5.022665E-1,5.784766E-2,2.5130715E0,3.249833E-1,-1.2172818E-1,-6.159639E-1,-5.137827E-1,4.6897662E-1,-1.2266066E-1,2.6451057E-2,-1.2460438E-1,2.495622E0,-1.2306533E-1,-1.24035254E-1,1.7847992E0,1.620567E-1,-1.226032E-1,-1.1513393E-1,6.443596E-2,4.901536E-1,-1.1858054E-1,2.9465908E-1,5.0343204E-1,-1.16657116E-1,3.8723287E-1,-1.2471347E-1,-1.2019731E-1,-1.23280756E-1,5.0037956E-1,-1.2472476E-1,-1.0812624E-1,4.4479623E-1,-8.790204E-2,5.0321513E-1,-7.4845895E-2,2.5345263E-1,-1.236585E-1,-1.2426698E-1,-1.1835631E-1,4.9499264E-1,-1.1155065E-1,-5.314846E-3,4.8337308E-1,2.5314912E-1,-1.123865E-1,4.9934626E-1,-1.202096E-1,4.0119368E-1,-8.5041195E-2],"categories":[],"categories_nodes":[],"categories_segments":[],"categories_sizes":[],"default_left":[0,0,0,0,0,0,0,0,0,0,0,0,0,0,0,0,0,0,0,0,0,0,0,0,0,0,0,0,0,0,0,0,0,0,0,0,0,0,0,0,0,0,0,0,0,0,0,0,0,0,0,0,0,0,0,0,0,0,0,0,0,0,0,0,0,0,0,0,0,0,0,0,0,0,0,0,0,0,0,0,0,0,0,0,0,0,0,0,0,0,0],"id":1,"left_children":[1,3,5,7,9,11,13,15,17,19,21,23,25,27,29,31,33,35,37,39,41,43,45,47,49,-1,51,-1,53,55,-1,57,59,-1,61,63,-1,65,-1,67,69,71,-1,73,75,77,-1,79,81,83,-1,85,-1,87,-1,-1,89,-1,-1,-1,-1,-1,-1,-1,-1,-1,-1,-1,-1,-1,-1,-1,-1,-1,-1,-1,-1,-1,-1,-1,-1,-1,-1,-1,-1,-1,-1,-1,-1,-1,-1],"loss_changes":[2.2931566E5,2.985229E4,1.294577E5,1.184627E4,1.2079828E4,3.768584E2,1.8849147E5,9.76001E1,4.0226172E3,1.081E3,2.7496162E3,9.3930664E1,1.4845286E3,1.4777E4,1.9061523E1,4.1343872E1,1.06268524E2,1.2582031E2,5.917862E0,5.7453125E1,5.5422217E3,4.902705E2,1.131953E2,3.7075195E1,4.662179E1,0E0,5.3468323E0,0E0,6.9703125E2,1.276591E2,0E0,1.515702E2,2.8192505E1,0E0,1.1949877E2,6.587695E1,0E0,2.1438116E1,0E0,4.25E0,1.497963E3,6.269165E0,0E0,9.452754E1,1.4530273E1,1.9732498E2,0E0,3.680664E0,5.338845E2,1.1886946E2,0E0,1.0792916E1,0E0,2.55625E2,0E0,0E0,1.3290443E1,0E0,0E0,0E0,0E0,0E0,0E0,0E0,0E0,0E0,0E0,0E0,0E0,0E0,0E0,0E0,0E0,0E0,0E0,0E0,0E0,0E0,0E0,0E0,0E0,0E0,0E0,0E0,0E0,0E0,0E0,0E0,0E0,0E0,0E0],"parents":[2147483647,0,0,1,1,2,2,3,3,4,4,5,5,6,6,7,7,8,8,9,9,10,10,11,11,12,12,13,13,14,14,15,15,16,16,17,17,18,18,19,19,20,20,21,21,22,22,23,23,24,24,26,26,28,28,29,29,31,31,32,32,34,34,35,35,37,37,39,39,40,40,41,41,43,43,44,44,45,45,47,47,48,48,49,49,51,51,53,53,56,56],"right_children":[2,4,6,8,10,12,14,16,18,20,22,24,26,28,30,32,34,36,38,40,42,44,46,48,50,-1,52,-1,54,56,-1,58,60,-1,62,64,-1,66,-1,68,70,72,-1,74,76,78,-1,80,82,84,-1,86,-1,88,-1,-1,90,-1,-1,-1,-1,-1,-1,-1,-1,-1,-1,-1,-1,-1,-1,-1,-1,-1,-1,-1,-1,-1,-1,-1,-1,-1,-1,-1,-1,-1,-1,-1,-1,-1,-1],"split_conditions":[2.2031054E-8,1.1094756E-10,3.472827E-2,3.48592E-2,6.451613E-3,3.9039038E-2,3.6440432E-2,3.472827E-2,3.6440432E-2,2.1278176E-8,7.2580646E-3,3.464287E-2,2.3618332E-8,3.3333334E-1,3.7888706E-2,3.3333334E-1,1.2686567E-2,7.5075077E-4,3.7888706E-2,2.036981E-8,1E0,3.4486245E-2,3.0612245E-2,1E0,1E0,5.0094277E-1,9.154818E-7,-1.24700606E-1,4.7761194E-2,3.3333334E-1,-1.2477634E-1,1.48960315E-2,3.4486245E-2,-1.2217345E-1,7.5075077E-4,1.2686567E-2,-1.1582816E-1,3.3333334E-1,-1.2449886E-1,1.8502867E-8,1E0,1.2762763E-2,5.022665E-1,1.48960315E-2,3.7888706E-2,3.6440432E-2,-1.2172818E-1,2.1220362E-2,2.3961434E-8,3.880597E-2,-1.2266066E-1,4.8266454E-3,-1.2460438E-1,1E0,-1.2306533E-1,-1.24035254E-1,6.666667E-1,1.620567E-1,-1.226032E-1,-1.1513393E-1,6.443596E-2,4.901536E-1,-1.1858054E-1,2.9465908E-1,5.0343204E-1,-1.16657116E-1,3.8723287E-1,-1.2471347E-1,-1.2019731E-1,-1.23280756E-1,5.0037956E-1,-1.2472476E-1,-1.0812624E-1,4.4479623E-1,-8.790204E-2,5.0321513E-1,-7.4845895E-2,2.5345263E-1,-1.236585E-1,-1.2426698E-1,-1.1835631E-1,4.9499264E-1,-1.1155065E-1,-5.314846E-3,4.8337308E-1,2.5314912E-1,-1.123865E-1,4.9934626E-1,-1.202096E-1,4.0119368E-1,-8.5041195E-2],"split_indices":[0,0,7,7,2,5,7,7,7,0,2,7,0,10,7,10,6,5,7,0,9,7,1,9,11,0,0,0,6,10,0,7,7,0,5,6,0,10,0,0,9,5,0,7,7,7,0,7,0,6,0,7,0,11,0,0,10,0,0,0,0,0,0,0,0,0,0,0,0,0,0,0,0,0,0,0,0,0,0,0,0,0,0,0,0,0,0,0,0,0,0],"split_type":[0,0,0,0,0,0,0,0,0,0,0,0,0,0,0,0,0,0,0,0,0,0,0,0,0,0,0,0,0,0,0,0,0,0,0,0,0,0,0,0,0,0,0,0,0,0,0,0,0,0,0,0,0,0,0,0,0,0,0,0,0,0,0,0,0,0,0,0,0,0,0,0,0,0,0,0,0,0,0,0,0,0,0,0,0,0,0,0,0,0,0],"sum_hessian":[4.1212566E5,2.7255175E5,1.3957389E5,7.7095317E3,2.6484222E5,3.630834E4,1.0326555E5,2.3688691E3,5.3406626E3,2.626566E5,2.1856428E3,3.5396414E4,9.119268E2,7.558898E4,2.7676574E4,2.266264E3,1.0260525E2,4.881525E3,4.591376E2,2.5806878E5,4.5878E3,1.6515273E3,5.341155E2,3.521648E4,1.7993156E2,1.9311043E2,7.188164E2,1.5533878E3,7.4035586E4,1.907968E2,2.7485777E4,3.543461E2,1.9119177E3,4.685597E1,5.574928E1,4.8685874E3,1.2937769E1,1.768948E1,4.4144812E2,2.5336561E5,4.7031753E3,3.9120122E3,6.7578754E2,8.583403E1,1.5656934E3,2.2012383E2,3.1399164E2,3.1165463E4,4.0510176E3,1.2207879E2,5.785278E1,1.2826001E1,7.059904E2,7.396385E4,7.173507E1,1.6635104E2,2.4445744E1,1.0591645E2,2.4842967E2,1.8768792E3,3.5038597E1,3.662439E1,1.9124886E1,6.613066E1,4.8024565E3,1.435999E1,3.3294902E0,2.4393736E5,9.428241E3,4.5446914E3,1.5848373E2,2.222356E3,1.6896564E3,1.5379665E1,7.045437E1,1.5641945E3,1.4988669E0,1.0994822E2,1.101756E2,2.5481227E4,5.684237E3,5.793313E1,3.9930842E3,9.810646E1,2.3972328E1,3.758455E0,9.067546E0,7.3937555E4,2.6296719E1,2.2305788E1,2.1399567E0],"tree_param":{"num_deleted":"0","num_feature":"13","num_nodes":"91","size_leaf_vector":"1"}},{"base_weights":[7.110215E-5,-5.3996384E-1,1.0127612E0,1.3934569E0,-1.2474866E-1,1.4638054E0,-5.628616E-1,2.2284663E0,-1.2471717E-1,1.7176614E0,6.5556186E-1,-6.2368286E-1,1.6452763E0,1.2670641E0,2.4883726E0,1.0381763E0,1.9709378E0,1.7731171E0,1.3081582E-1,-1.2475137E-1,8.9639485E-2,2.0828514E0,1.5445558E0,-4.7848698E-1,2.0941443E0,2.3075645E0,2.517879E0,7.3913664E-1,1.8786315E0,2.5030124E0,1.7406801E0,1.1334417E0,2.0478022E0,-5.6584126E-1,1.8832772E0,-7.085792E-2,8.5552484E-2,7.075317E-1,2.1362164E0,1.2998137E0,1.862547E0,-1.1835672E-1,4.7960153E-1,-6.801356E-2,5.023885E-1,4.8360544E-1,-9.460473E-2,5.0380147E-1,-8.190329E-2,1.9868052E-1,-7.216974E-2,4.2095008E-1,3.463448E-1,5.0091153E-1,-7.140581E-2,3.68861E-1,2.9706877E-1,3.2357857E-1,8.286645E-2,-3.811566E-2,4.2678103E-1,-1.7570715E-2,-1.2207427E-1,4.9409413E-1,3.4679818E-1,7.73581E-2,2.0058194E-1,4.308395E-1,2.354E-2,3.031611E-1,4.5788053E-2,4.0975013E-1,3.4365723E-1],"categories":[],"categories_nodes":[],"categories_segments":[],"categories_sizes":[],"default_left":[0,0,0,0,0,0,0,0,0,0,0,0,0,0,0,0,0,0,0,0,0,0,0,0,0,0,0,0,0,0,0,0,0,0,0,0,0,0,0,0,0,0,0,0,0,0,0,0,0,0,0,0,0,0,0,0,0,0,0,0,0,0,0,0,0,0,0,0,0,0,0,0,0],"id":2,"left_children":[1,3,5,7,-1,9,11,13,-1,15,17,19,21,23,25,27,29,31,33,-1,35,37,39,41,43,45,47,49,51,53,55,57,59,61,63,-1,-1,65,67,69,71,-1,-1,-1,-1,-1,-1,-1,-1,-1,-1,-1,-1,-1,-1,-1,-1,-1,-1,-1,-1,-1,-1,-1,-1,-1,-1,-1,-1,-1,-1,-1,-1],"loss_changes":[2.2507422E5,4.3479227E4,1.0172541E5,1.8777965E4,0E0,2.2831469E4,4.2794395E3,1.9670039E3,0E0,1.4571781E4,1.5598604E4,1.6914062E0,3.443091E1,2.426373E3,2.7296875E1,5.778334E3,7.553297E3,1.4910293E3,2.2100629E4,0E0,7.652561E-1,1.0008728E1,5.1921387E1,1.7769885E2,1.1602944E3,2.7223633E2,1.8613281E1,4.7447783E3,1.9680664E2,8.324219E1,1.1365625E3,8.8957544E2,1.1461055E3,2.7565576E2,4.470996E2,0E0,0E0,3.0920124E-1,5.2126465E0,9.168329E1,4.5751953E0,0E0,0E0,0E0,0E0,0E0,0E0,0E0,0E0,0E0,0E0,0E0,0E0,0E0,0E0,0E0,0E0,0E0,0E0,0E0,0E0,0E0,0E0,0E0,0E0,0E0,0E0,0E0,0E0,0E0,0E0,0E0,0E0],"parents":[2147483647,0,0,1,1,2,2,3,3,5,5,6,6,7,7,9,9,10,10,11,11,12,12,13,13,14,14,15,15,16,16,17,17,18,18,20,20,21,21,22,22,23,23,24,24,25,25,26,26,27,27,28,28,29,29,30,30,31,31,32,32,33,33,34,34,37,37,38,38,39,39,40,40],"right_children":[2,4,6,8,-1,10,12,14,-1,16,18,20,22,24,26,28,30,32,34,-1,36,38,40,42,44,46,48,50,52,54,56,58,60,62,64,-1,-1,66,68,70,72,-1,-1,-1,-1,-1,-1,-1,-1,-1,-1,-1,-1,-1,-1,-1,-1,-1,-1,-1,-1,-1,-1,-1,-1,-1,-1,-1,-1,-1,-1,-1,-1],"split_conditions":[4.4301845E-2,8.634717E-3,2.1021022E-2,6.666667E-1,-1.2474866E-1,3.3333334E-1,2.8403304E-7,1.8018018E-2,-1.2471717E-1,1.2762763E-2,5.3081013E-2,7.017623E-2,5.2772377E-2,3.3333334E-1,3.3333334E-1,5.4640315E-2,5E-1,1.2762763E-2,6.884636E-2,-1.2475137E-1,3.3033032E-2,5.255597E-2,6.884636E-2,2E-1,4.6640835E-4,4.8266454E-3,1E0,5.3047806E-2,6.9663525E-2,4.6708113E-8,6.9723435E-2,5.298483E-2,5.27024E-2,5.3245086E-2,2.5E-1,-7.085792E-2,8.5552484E-2,3.3033032E-2,2.857143E-1,5.2995283E-2,6.983405E-2,-1.1835672E-1,4.7960153E-1,-6.801356E-2,5.023885E-1,4.8360544E-1,-9.460473E-2,5.0380147E-1,-8.190329E-2,1.9868052E-1,-7.216974E-2,4.2095008E-1,3.463448E-1,5.0091153E-1,-7.140581E-2,3.68861E-1,2.9706877E-1,3.2357857E-1,8.286645E-2,-3.811566E-2,4.2678103E-1,-1.7570715E-2,-1.2207427E-1,4.9409413E-1,3.4679818E-1,7.73581E-2,2.0058194E-1,4.308395E-1,2.354E-2,3.031611E-1,4.5788053E-2,4.0975013E-1,3.4365723E-1],"split_indices":[7,7,5,10,0,10,0,5,0,5,7,7,7,10,10,7,4,5,7,0,5,7,7,4,7,7,11,7,7,0,7,7,7,7,4,0,0,5,1,7,7,0,0,0,0,0,0,0,0,0,0,0,0,0,0,0,0,0,0,0,0,0,0,0,0,0,0,0,0,0,0,0,0],"split_type":[0,0,0,0,0,0,0,0,0,0,0,0,0,0,0,0,0,0,0,0,0,0,0,0,0,0,0,0,0,0,0,0,0,0,0,0,0,0,0,0,0,0,0,0,0,0,0,0,0,0,0,0,0,0,0,0,0,0,0,0,0,0,0,0,0,0,0,0,0,0,0,0,0],"sum_hessian":[4.1155244E5,2.6841556E5,1.4313689E5,1.114733E4,2.5726823E5,1.11281164E5,3.1855725E4,7.8835967E3,3.263733E3,8.4682625E4,2.659854E4,3.1002504E4,8.5321985E2,1.6789559E3,6.204641E3,2.2995596E4,6.1687027E4,8.497973E3,1.8100566E4,3.0999416E4,3.0885653E0,1.5596364E2,6.9725616E2,5.399063E2,1.1390496E3,8.8160266E2,5.323038E3,1.6962205E4,6.0333896E3,1.8629195E4,4.3057832E4,2.5544363E3,5.943536E3,1.2952306E4,5.148261E3,1.31468E0,1.7738854E0,6.3582244E0,1.4960541E2,3.9688275E2,3.0037344E2,5.2021106E2,1.9695301E1,1.6688943E2,9.721601E2,8.480434E2,3.3559273E1,5.321127E3,1.9113016E0,1.3777563E4,3.184642E3,2.3708564E3,3.6625334E3,1.861926E4,9.934856E0,3.0623486E4,1.2434345E4,1.5254908E3,1.0289453E3,2.2011403E2,5.723422E3,1.1040769E3,1.1848229E4,1.0404135E3,4.1078477E3,4.1554427E0,2.202782E0,1.4821786E2,1.3875501E0,3.2992282E2,6.695992E1,1.25361824E2,1.7501161E2],"tree_param":{"num_deleted":"0","num_feature":"13","num_nodes":"73","size_leaf_vector":"1"}},{"base_weights":[1.5889824E-3,-2.0531277E-1,5.0439185E-1,5.482712E-1,-6.0738707E-1,-1.24716125E-1,1.0087858E0,-6.229366E-1,6.539062E-1,2.0918732E0,-5.269028E-1,-6.229489E-1,1.880807E-1,1.551709E0,-5.911468E-1,1.0127726E0,2.496E0,4.6796525E-1,-5.8649486E-1,-6.148677E-1,-6.235688E-1,-1.24258935E-1,1.9384295E0,2.0815924E-1,-1.2291872E-1,3.2047018E-1,4.1266624E-3,5.0266576E-1,-1.17575526E-1,-1.2461119E-1,2.966946E-1,-1.0508019E-1,-1.246961E-1,-1.24720335E-1,9.4894715E-2,-1.247164E-1,-6.3912496E-2,4.9694043E-1,3.3026108E-1,-1.16392754E-1,1.4307547E-1],"categories":[],"categories_nodes":[],"categories_segments":[],"categories_sizes":[],"default_left":[0,0,0,0,0,0,0,0,0,0,0,0,0,0,0,0,0,0,0,0,0,0,0,0,0,0,0,0,0,0,0,0,0,0,0,0,0,0,0,0,0],"id":3,"left_children":[1,3,-1,5,7,-1,9,11,13,15,17,19,-1,21,23,25,27,29,31,33,35,-1,37,39,-1,-1,-1,-1,-1,-1,-1,-1,-1,-1,-1,-1,-1,-1,-1,-1,-1],"loss_changes":[2.1479492E5,1.15337516E5,0E0,7.1471016E4,4.8686016E3,0E0,1.581381E5,5.28125E0,3.3804253E3,2.431125E4,2.3315557E3,8.515625E-1,0E0,1.4776089E3,2.3880829E1,8.886768E3,2.1690938E3,2.4636963E3,8.350586E1,1.6718896E2,7.109375E-1,0E0,2.2986963E2,1.5190858E1,0E0,0E0,0E0,0E0,0E0,0E0,0E0,0E0,0E0,0E0,0E0,0E0,0E0,0E0,0E0,0E0,0E0],"parents":[2147483647,0,0,1,1,3,3,4,4,6,6,7,7,8,8,9,9,10,10,11,11,13,13,14,14,15,15,16,16,17,17,18,18,19,19,20,20,22,22,23,23],"right_children":[2,4,-1,6,8,-1,10,12,14,16,18,20,-1,22,24,26,28,30,32,34,36,-1,38,40,-1,-1,-1,-1,-1,-1,-1,-1,-1,-1,-1,-1,-1,-1,-1,-1,-1],"split_conditions":[1E0,2E-1,5.0439185E-1,9E-3,2.8403304E-7,-1.24716125E-1,4.8E-2,1.1904762E-1,1.29E-1,3.3333334E-1,1.29E-1,4.44978E-9,1.880807E-1,9E-3,2.2630848E-6,1.3E-2,5.102041E-2,3.3333334E-1,3.0612245E-2,1E0,2.2580646E-2,-1.24258935E-1,2.2630848E-6,1E0,-1.2291872E-1,3.2047018E-1,4.1266624E-3,5.0266576E-1,-1.17575526E-1,-1.2461119E-1,2.966946E-1,-1.0508019E-1,-1.246961E-1,-1.24720335E-1,9.4894715E-2,-1.247164E-1,-6.3912496E-2,4.9694043E-1,3.3026108E-1,-1.16392754E-1,1.4307547E-1],"split_indices":[11,4,0,8,0,0,8,1,8,10,8,0,0,8,0,8,1,10,1,9,2,0,0,9,0,0,0,0,0,0,0,0,0,0,0,0,0,0,0,0,0],"split_type":[0,0,0,0,0,0,0,0,0,0,0,0,0,0,0,0,0,0,0,0,0,0,0,0,0,0,0,0,0,0,0,0,0,0,0,0,0,0,0,0,0],"sum_hessian":[4.119015E5,3.8065388E5,3.1247645E4,1.324362E5,2.4821766E5,3.7362105E4,9.507409E4,2.4519534E5,3.0223237E3,5.575263E4,3.9321465E4,2.4519402E5,1.3194814E0,1.7559028E3,1.2664208E3,1.5191568E4,4.0561062E4,2.2218376E3,3.709963E4,1.7540271E4,2.2765375E5,2.6518835E2,1.4907145E3,3.586586E1,1.2305549E3,9.528591E3,5.662977E3,4.03346E4,2.2646043E2,1.0712817E3,1.1505559E3,1.3995943E4,2.3103684E4,1.7401182E4,1.3908972E2,2.2764281E5,1.0930488E1,5.109481E2,9.7976636E2,1.3964767E1,2.1901093E1],"tree_param":{"num_deleted":"0","num_feature":"13","num_nodes":"41","size_leaf_vector":"1"}},{"base_weights":[-1.313985E-3,-4.8811743E-1,1.0483248E0,-6.1856955E-1,6.2047526E-2,-2.5410908E-1,2.3382134E0,-5.790323E-1,-6.199122E-1,2.4501696E0,-5.9793156E-1,2.4500513E0,-6.026314E-1,2.3823478E0,-6.1762315E-1,-1.24693036E-1,6.910801E-1,-6.206525E-1,-5.56031E-1,-1.24108486E-1,2.501128E0,8.57153E-1,-1.2475645E-1,-6.091614E-1,5.037925E-1,-2.1463114E-1,-6.184426E-1,4.8595294E-1,2.4154618E0,9.48543E-2,-1.2462938E-1,2.3544295E0,-5.58406E-1,-6.2301844E-1,-6.154619E-1,1.3686782E0,-5.6973064E-1,1.6320298E0,2.5139482E0,-1.2438505E-1,2.0670226E0,8.2249604E-2,-1.23994045E-1,-6.0940224E-1,1.8798027E0,-5.3836465E-1,-6.229691E-1,2.4972255E0,-3.9291984E-1,2.4998388E0,1.9989593E0,2.6768816E-1,-2.883823E-1,4.9793506E-1,-1.0301395E-1,-8.371921E-2,-1.2034555E-1,-1.247163E-1,-1.2201046E-1,-1.2344869E-1,-3.0063798E-3,-1.0495827E-1,4.3758926E-1,-1.2469604E-1,-7.522526E-2,4.852484E-1,-5.2628297E-2,4.3852817E-2,5.036325E-1,-6.008489E-2,4.4920644E-1,-1.24501966E-1,3.317554E-2,-1.2251129E-1,4.658343E-1,1.542296E-1,-1.24714695E-1,-1.2475701E-1,-1.1958029E-1,5.013594E-1,6.005886E-2,-1.24585174E-1,4.7775012E-1,3.6150596E-1,5.008902E-1,5.0307554E-1,-1.0060307E-1,-9.9774115E-2,2.6649838E-2],"categories":[],"categories_nodes":[],"categories_segments":[],"categories_sizes":[],"default_left":[0,0,0,0,0,0,0,0,0,0,0,0,0,0,0,0,0,0,0,0,0,0,0,0,0,0,0,0,0,0,0,0,0,0,0,0,0,0,0,0,0,0,0,0,0,0,0,0,0,0,0,0,0,0,0,0,0,0,0,0,0,0,0,0,0,0,0,0,0,0,0,0,0,0,0,0,0,0,0,0,0,0,0,0,0,0,0,0,0],"id":4,"left_children":[1,3,5,7,9,11,13,15,17,19,21,23,25,27,29,-1,31,33,35,-1,37,39,-1,41,-1,43,45,47,49,51,-1,53,55,57,59,61,63,65,67,-1,69,-1,-1,71,73,75,77,79,81,83,85,-1,87,-1,-1,-1,-1,-1,-1,-1,-1,-1,-1,-1,-1,-1,-1,-1,-1,-1,-1,-1,-1,-1,-1,-1,-1,-1,-1,-1,-1,-1,-1,-1,-1,-1,-1,-1,-1],"loss_changes":[2.1070266E5,2.0218312E4,2.1949417E5,1.17265625E1,8.510399E4,6.1271227E4,8.5646875E3,4.2336548E2,1.00703125E1,1.8309844E3,1.591833E3,1.5662812E3,3.5316016E2,4.0603438E3,3.8628235E0,0E0,5.2876654E2,2.28125E0,6.755444E1,0E0,1.24046875E2,1.323507E3,0E0,2.0672836E0,0E0,1.8668143E3,1.9722656E1,1.9652297E3,2.2289062E3,4.343267E0,0E0,4.360547E1,6.3077545E-1,7.2265625E-1,7.2990234E1,2.9368374E1,2.5939453E1,2.5656982E2,1.0902344E2,0E0,1.7301514E2,0E0,0E0,1.9404358E1,4.024944E2,3.31633E2,6.9921875E-1,6.3554688E0,4.9680203E2,1.6421875E2,1.3843453E4,0E0,7.028046E-1,0E0,0E0,0E0,0E0,0E0,0E0,0E0,0E0,0E0,0E0,0E0,0E0,0E0,0E0,0E0,0E0,0E0,0E0,0E0,0E0,0E0,0E0,0E0,0E0,0E0,0E0,0E0,0E0,0E0,0E0,0E0,0E0,0E0,0E0,0E0,0E0],"parents":[2147483647,0,0,1,1,2,2,3,3,4,4,5,5,6,6,7,7,8,8,9,9,10,10,11,11,12,12,13,13,14,14,16,16,17,17,18,18,20,20,21,21,23,23,25,25,26,26,27,27,28,28,29,29,31,31,32,32,33,33,34,34,35,35,36,36,37,37,38,38,40,40,43,43,44,44,45,45,46,46,47,47,48,48,49,49,50,50,52,52],"right_children":[2,4,6,8,10,12,14,16,18,20,22,24,26,28,30,-1,32,34,36,-1,38,40,-1,42,-1,44,46,48,50,52,-1,54,56,58,60,62,64,66,68,-1,70,-1,-1,72,74,76,78,80,82,84,86,-1,88,-1,-1,-1,-1,-1,-1,-1,-1,-1,-1,-1,-1,-1,-1,-1,-1,-1,-1,-1,-1,-1,-1,-1,-1,-1,-1,-1,-1,-1,-1,-1,-1,-1,-1,-1,-1],"split_conditions":[2.1021022E-2,5.3245086E-2,3.6440432E-2,1.1094756E-10,5.5451427E-2,6.960557E-3,1.3630272E-7,3.6440432E-2,5.310455E-2,3.3333334E-1,6.884636E-2,2.1006444E-2,1.2001773E-8,9.083663E-9,2.8403304E-7,-1.24693036E-1,4.0980347E-2,3.6130805E-2,7.168459E-3,-1.24108486E-1,9.615995E-9,3.3333334E-1,-1.2475645E-1,1.1094756E-10,5.037925E-1,1.127022E-8,3.3333334E-1,2.4024025E-2,1.2895022E-8,3.3333334E-1,-1.2462938E-1,3.3333334E-1,1E-2,8.928572E-2,1.1457293E-7,1.2762763E-2,1.2762763E-2,2E-1,1.2762763E-2,-1.2438505E-1,1.0850186E-8,8.2249604E-2,-1.23994045E-1,1.1048326E-8,2.1176456E-2,2.4024025E-2,3.9E-2,6.884636E-2,3.3033032E-2,9.9545066E-9,2.4024025E-2,2.6768816E-1,1.3746997E-7,4.9793506E-1,-1.0301395E-1,-8.371921E-2,-1.2034555E-1,-1.247163E-1,-1.2201046E-1,-1.2344869E-1,-3.0063798E-3,-1.0495827E-1,4.3758926E-1,-1.2469604E-1,-7.522526E-2,4.852484E-1,-5.2628297E-2,4.3852817E-2,5.036325E-1,-6.008489E-2,4.4920644E-1,-1.24501966E-1,3.317554E-2,-1.2251129E-1,4.658343E-1,1.542296E-1,-1.24714695E-1,-1.2475701E-1,-1.1958029E-1,5.013594E-1,6.005886E-2,-1.24585174E-1,4.7775012E-1,3.6150596E-1,5.008902E-1,5.0307554E-1,-1.0060307E-1,-9.9774115E-2,2.6649838E-2],"split_indices":[5,7,7,0,7,8,0,7,7,10,7,7,0,0,0,0,7,7,8,0,0,10,0,0,0,0,10,5,0,10,0,10,8,1,0,5,5,4,5,0,0,0,0,0,7,5,8,7,5,0,5,0,0,0,0,0,0,0,0,0,0,0,0,0,0,0,0,0,0,0,0,0,0,0,0,0,0,0,0,0,0,0,0,0,0,0,0,0,0],"split_type":[0,0,0,0,0,0,0,0,0,0,0,0,0,0,0,0,0,0,0,0,0,0,0,0,0,0,0,0,0,0,0,0,0,0,0,0,0,0,0,0,0,0,0,0,0,0,0,0,0,0,0,0,0,0,0,0,0,0,0,0,0,0,0,0,0,0,0,0,0,0,0,0,0,0,0,0,0,0,0,0,0,0,0,0,0,0,0,0,0],"sum_hessian":[4.1235794E5,2.817076E5,1.3065034E5,2.2771333E5,5.3994277E4,6.500944E4,6.564091E4,7.4932197E3,2.2022011E5,1.1690328E4,4.230395E4,7.4213857E3,5.7588055E4,6.4675414E4,9.654882E2,7.2404336E3,2.5278613E2,2.1768867E5,2.5314324E3,1.9065099E2,1.1499678E4,7.378809E2,4.1566066E4,1.6331743E2,7.2580684E3,2.2554333E3,5.533262E4,1.1102186E3,6.3565195E4,7.3033667E0,9.581848E2,1.0805547E2,1.4473065E2,1.4944939E5,6.82393E4,1.7191776E1,2.5142405E3,1.6903505E2,1.1330643E4,3.3222202E2,4.056589E2,1.3235127E0,1.6199393E2,1.8983335E3,3.570999E2,2.9667905E3,5.2365832E4,3.3704968E2,7.7316895E2,5.285298E4,1.0712218E4,1.1333213E0,6.1700454E0,1.0331822E2,4.737249E0,3.675986E1,1.07970795E2,1.4318492E5,6.2644556E3,6.803738E4,2.019069E2,5.300605E0,1.1891171E1,1.9661626E3,5.48078E2,1.1891918E2,5.0115864E1,2.0867012E1,1.1309775E4,2.8469128E1,3.771898E2,1.866966E3,3.1367502E1,5.4493935E1,3.02606E2,1.8076067E2,2.7860298E3,5.0691996E4,1.6738347E3,3.354472E2,1.6024919E0,7.148377E2,5.8331223E1,3.5236053E2,5.2500617E4,8.879454E3,1.8327635E3,3.9933043E0,2.1767414E0],"tree_param":{"num_deleted":"0","num_feature":"13","num_nodes":"89","size_leaf_vector":"1"}},{"base_weights":[-6.1291396E-3,-1.00838915E-1,1.1886367E1],"categories":[],"categories_nodes":[],"categories_segments":[],"categories_sizes":[],"default_left":[0,0,0],"id":5,"left_children":[1,-1,-1],"loss_changes":[6.3590425E5,0E0,0E0],"parents":[2147483647,0,0],"right_children":[2,-1,-1],"split_conditions":[1.4285715E-1,-1.00838915E-1,1.1886367E1],"split_indices":[12,0,0],"split_type":[0,0,0],"sum_hessian":[2.1478342E4,2.1300842E4,1.7750069E2],"tree_param":{"num_deleted":"0","num_feature":"13","num_nodes":"3","size_leaf_vector":"1"}},{"base_weights":[1.05620595E-2,5.807413E-1,-3.0558246E-1,1.1474632E0,1.2451603E-2,-3.8954297E-1,1.4207131E0,1.482516E0,-5.23038E-1,-4.4758967E-1,1.5853053E0,-2.2684446E-1,-5.878254E-1,3.1802806E-1,-5.549228E-1,1.7382079E0,1.2020223E0,1.1365129E0,-6.093621E-1,-6.009492E-1,1.0815156E0,-7.706646E-2,3.17148E-1,4.4248712E-1,-4.783549E-1,3.1433472E-1,-5.915898E-1,-1.2013898E-1,-9.96176E-2,1.6302612E0,2.3459835E0,4.720521E-1,1.7170534E0,1.6336393E0,2.3945482E-1,-6.096832E-1,2.0740663E-1,-1.2043698E-1,4.2476293E-1,2.3785083E0,-5.1216626E-1,1.7321051E0,-3.2268745E-1,-4.9451637E-1,1.9282918E0,-5.937942E-1,3.136319E-1,3.6605632E-1,-1.1996348E-1,3.336467E-1,1.6342634E-1,4.7432294E-1,-1.2154414E-1,2.469734E-1,-1.2466412E-1,4.5874688E-1,3.3189717E-1,2.0921682E-1,3.3858168E-1,-4.091168E-2,2.8697994E-1,-7.571926E-2,-1.2206359E-1,5.749177E-1,4.587953E-1,-1.2326272E-1,4.8856393E-1,-1.3525098E-2,3.4761345E-1,-8.157914E-2,5.5747575E-1,-7.036258E-2,-1.135804E-1,3.3771583E-1,4.8718578E-1,-5.0392147E-2,-1.1970829E-1],"categories":[],"categories_nodes":[],"categories_segments":[],"categories_sizes":[],"default_left":[0,0,0,0,0,0,0,0,0,0,0,0,0,0,0,0,0,0,0,0,0,0,0,0,0,0,0,0,0,0,0,0,0,0,0,0,0,0,0,0,0,0,0,0,0,0,0,0,0,0,0,0,0,0,0,0,0,0,0,0,0,0,0,0,0,0,0,0,0,0,0,0,0,0,0,0,0],"id":6,"left_children":[1,3,5,7,9,11,13,15,17,19,21,23,25,-1,27,29,31,33,35,37,39,-1,-1,41,43,-1,45,-1,47,49,51,53,55,57,59,61,-1,-1,-1,63,65,67,69,71,73,75,-1,-1,-1,-1,-1,-1,-1,-1,-1,-1,-1,-1,-1,-1,-1,-1,-1,-1,-1,-1,-1,-1,-1,-1,-1,-1,-1,-1,-1,-1,-1],"loss_changes":[7.208834E4,4.5941035E4,3.7289242E4,3.9975977E4,5.1538066E4,7.9145117E3,3.9949922E3,4.264547E3,1.7101528E3,1.2923697E4,1.4417969E1,2.2686637E4,8.998242E2,0E0,1.9597198E1,2.0377969E3,1.0666008E4,2.628777E2,6.6279297E0,1.6990625E2,1.0384902E4,0E0,0E0,3.632236E4,3.810914E3,0E0,5.2647266E2,0E0,8.5429306E1,8.1465625E2,3.565918E2,9.809032E3,5.484453E2,1.1450867E1,1.1264919E2,1.4321289E0,0E0,0E0,0E0,1.09555664E2,6.954306E2,1.4719922E2,6.1233174E3,1.0187871E3,7.542383E1,1.7879297E2,0E0,0E0,0E0,0E0,0E0,0E0,0E0,0E0,0E0,0E0,0E0,0E0,0E0,0E0,0E0,0E0,0E0,0E0,0E0,0E0,0E0,0E0,0E0,0E0,0E0,0E0,0E0,0E0,0E0,0E0,0E0],"parents":[2147483647,0,0,1,1,2,2,3,3,4,4,5,5,6,6,7,7,8,8,9,9,10,10,11,11,12,12,14,14,15,15,16,16,17,17,18,18,19,19,20,20,23,23,24,24,26,26,28,28,29,29,30,30,31,31,32,32,33,33,34,34,35,35,39,39,40,40,41,41,42,42,43,43,44,44,45,45],"right_children":[2,4,6,8,10,12,14,16,18,20,22,24,26,-1,28,30,32,34,36,38,40,-1,-1,42,44,-1,46,-1,48,50,52,54,56,58,60,62,-1,-1,-1,64,66,68,70,72,74,76,-1,-1,-1,-1,-1,-1,-1,-1,-1,-1,-1,-1,-1,-1,-1,-1,-1,-1,-1,-1,-1,-1,-1,-1,-1,-1,-1,-1,-1,-1,-1],"split_conditions":[1.8018018E-2,3.3333334E-1,4.7761194E-2,1.29E-1,6.666667E-1,1E0,3.3033032E-2,2.0913804E-2,1.7910447E-2,7.5075077E-4,4.8266454E-3,1.0526316E-2,6E-3,3.1802806E-1,5.255597E-2,1E-2,7.5075077E-4,2.51E-1,8.064516E-4,4.99E-1,1.16E-1,-7.706646E-2,3.17148E-1,3.3333334E-1,4.99E-1,3.1433472E-1,6.666667E-1,-1.2013898E-1,8.2E-2,9E-3,1.2686567E-2,3.4486245E-2,4.1603222E-2,8.634717E-3,4.72E-1,3.814539E-2,2.0740663E-1,-1.2043698E-1,4.2476293E-1,3.6130805E-2,4.72E-1,6.960557E-3,6.884636E-2,1.29E-1,3.3333334E-1,2.113336E-2,3.136319E-1,3.6605632E-1,-1.1996348E-1,3.336467E-1,1.6342634E-1,4.7432294E-1,-1.2154414E-1,2.469734E-1,-1.2466412E-1,4.5874688E-1,3.3189717E-1,2.0921682E-1,3.3858168E-1,-4.091168E-2,2.8697994E-1,-7.571926E-2,-1.2206359E-1,5.749177E-1,4.587953E-1,-1.2326272E-1,4.8856393E-1,-1.3525098E-2,3.4761345E-1,-8.157914E-2,5.5747575E-1,-7.036258E-2,-1.135804E-1,3.3771583E-1,4.8718578E-1,-5.0392147E-2,-1.1970829E-1],"split_indices":[5,10,6,8,10,9,5,7,6,5,7,8,8,0,7,8,5,8,2,8,8,0,0,10,8,0,10,0,8,8,6,7,7,7,8,7,0,0,0,7,8,8,7,8,10,7,0,0,0,0,0,0,0,0,0,0,0,0,0,0,0,0,0,0,0,0,0,0,0,0,0,0,0,0,0,0,0],"split_type":[0,0,0,0,0,0,0,0,0,0,0,0,0,0,0,0,0,0,0,0,0,0,0,0,0,0,0,0,0,0,0,0,0,0,0,0,0,0,0,0,0,0,0,0,0,0,0,0,0,0,0,0,0,0,0,0,0,0,0,0,0,0,0,0,0,0,0,0,0,0,0,0,0,0,0,0,0],"sum_hessian":[3.9991325E5,1.4264552E5,2.5726772E5,7.142077E4,7.122475E4,2.4533627E5,1.1931456E4,5.9489137E4,1.1931637E4,5.5107246E4,1.6117507E4,1.347614E5,1.1057486E5,1.0989232E4,9.422239E2,3.1117713E4,2.8371422E4,5.8935345E2,1.1342283E4,5.0084676E4,5.022569E3,3.3582344E0,1.6114148E4,3.68073E4,9.79541E4,1.916922E2,1.1038317E5,8.5586414E2,8.635977E1,2.6427602E4,4.690112E3,1.1737459E4,1.6633963E4,3.7867844E2,2.1067499E2,1.1340701E4,1.5817951E0,5.0062754E4,2.1923468E1,2.768763E3,2.2538062E3,1.3706027E4,2.3101273E4,9.7301484E4,6.5261914E2,1.1027134E5,1.1182719E2,1.722854E1,6.913123E1,2.5247514E4,1.1800878E3,4.649958E3,4.0153637E1,6.9189746E3,4.8184844E3,1.5062573E3,1.5127705E4,3.6407524E1,3.4227094E2,1.5422243E2,5.645255E1,3.2702312E1,1.1307999E4,3.9830112E2,2.3704617E3,2.1778403E3,7.596567E1,4.5221436E1,1.3660806E4,2.2486078E4,6.151951E2,3.304634E4,6.425515E4,4.4622998E2,2.0638914E2,1.5111528E3,1.0876019E5],"tree_param":{"num_deleted":"0","num_feature":"13","num_nodes":"77","size_leaf_vector":"1"}},{"base_weights":[1.7507278E-3,8.3702016E-1,-5.405689E-1,-2.2512339E-1,1.3257803E0,-1.8415503E-1,-5.9435534E-1,1.3308327E0,-5.62467E-1,-1.2048712E-1,1.482875E0,7.841147E-1,-1.1987809E-1,-5.948477E-1,2.9942375E-1,-6.018671E-1,1.4890641E0,-5.74988E-1,5.90928E-2,1.5817109E0,-5.8546346E-1,-5.5713576E-1,1.232911E0,-6.007628E-1,-5.356062E-1,-1.1861805E-1,3.4911743E-1,-1.20996736E-1,1.2058876E-1,1.5746013E0,-1.1878512E-1,1.2849478E-1,-5.8571297E-1,-1.206612E-1,1.1728895E0,-1.218905E-1,1.5833473E0,-9.9651136E-2,-1.19929366E-1,-6.014365E-1,-3.526665E-1,1.3175772E0,-1.1994451E-1,-5.067899E-1,-6.0187215E-1,-1.7042242E-1,-1.20304145E-1,1.1874389E-1,3.1592587E-1,-1.20573595E-1,1.6718078E-1,-1.1807195E-1,-7.864476E-2,3.588109E-1,-1.18161105E-1,3.7642685E-1,3.1653818E-1,3.4019002E-1,-6.689699E-2,-1.7576212E-2,-1.2171334E-1,3.0412716E-1,-1.0794162E-1,1.2489591E-1,3.1363574E-1,-7.513108E-2,-1.16511084E-1,-1.18763864E-1,-1.2078281E-1,1.7081295E-1,-1.2094585E-1],"categories":[],"categories_nodes":[],"categories_segments":[],"categories_sizes":[],"default_left":[0,0,0,0,0,0,0,0,0,0,0,0,0,0,0,0,0,0,0,0,0,0,0,0,0,0,0,0,0,0,0,0,0,0,0,0,0,0,0,0,0,0,0,0,0,0,0,0,0,0,0,0,0,0,0,0,0,0,0,0,0,0,0,0,0,0,0,0,0,0,0],"id":7,"left_children":[1,3,5,7,9,11,13,15,17,-1,19,21,-1,23,25,27,29,31,33,35,37,39,41,43,45,-1,-1,-1,-1,47,-1,49,51,-1,53,-1,55,57,-1,59,61,63,-1,65,67,69,-1,-1,-1,-1,-1,-1,-1,-1,-1,-1,-1,-1,-1,-1,-1,-1,-1,-1,-1,-1,-1,-1,-1,-1,-1],"loss_changes":[1.8193789E5,8.208383E4,4.668383E3,2.6156377E4,3.280236E4,1.2839605E4,9.327344E1,2.716209E3,3.1875E2,0E0,2.0470016E4,5.770176E3,0E0,7.378906E1,1.5224806E2,2.890442E0,1.4632637E3,3.029541E2,5.980021E2,3.4359375E2,3.14104E1,2.156128E1,1.1151582E3,1.9742188E1,4.6224902E2,0E0,0E0,0E0,0E0,3.7945312E1,0E0,3.1281274E2,3.5134766E1,0E0,3.3219925E2,0E0,1.575E1,5.585879E1,0E0,7.1758423E0,1.5165237E2,1.1914307E3,0E0,2.2131836E1,2.7578125E0,1.3078717E3,0E0,0E0,0E0,0E0,0E0,0E0,0E0,0E0,0E0,0E0,0E0,0E0,0E0,0E0,0E0,0E0,0E0,0E0,0E0,0E0,0E0,0E0,0E0,0E0,0E0],"parents":[2147483647,0,0,1,1,2,2,3,3,4,4,5,5,6,6,7,7,8,8,10,10,11,11,13,13,14,14,15,15,16,16,17,17,18,18,19,19,20,20,21,21,22,22,23,23,24,24,29,29,31,31,32,32,34,34,36,36,37,37,39,39,40,40,41,41,43,43,44,44,45,45],"right_children":[2,4,6,8,10,12,14,16,18,-1,20,22,-1,24,26,28,30,32,34,36,38,40,42,44,46,-1,-1,-1,-1,48,-1,50,52,-1,54,-1,56,58,-1,60,62,64,-1,66,68,70,-1,-1,-1,-1,-1,-1,-1,-1,-1,-1,-1,-1,-1,-1,-1,-1,-1,-1,-1,-1,-1,-1,-1,-1,-1],"split_conditions":[7.168459E-3,2.0983666E-8,8.264462E-3,2.0075839E-9,7E-3,3.6440432E-2,1.1175916E-4,7E-3,1.942689E-8,-1.2048712E-1,3.6440432E-2,3.4486245E-2,-1.1987809E-1,1E0,3.4486245E-2,3.8086824E-2,3.7888706E-2,2.9629208E-9,2.3536397E-2,2.108785E-2,3.7888706E-2,2E-1,4.7761194E-2,1.1094756E-10,3.6440432E-2,-1.1861805E-1,3.4911743E-1,-1.20996736E-1,1.2058876E-1,3.403919E-2,-1.1878512E-1,3.4486245E-2,1.7075127E-8,-1.206612E-1,3.6440432E-2,-1.218905E-1,3.472827E-2,2.4602285E-8,-1.19929366E-1,1.1094756E-10,8E-3,1.2762763E-2,-1.1994451E-1,1.8416481E-2,1.1E-2,2.8403304E-7,-1.20304145E-1,1.1874389E-1,3.1592587E-1,-1.20573595E-1,1.6718078E-1,-1.1807195E-1,-7.864476E-2,3.588109E-1,-1.18161105E-1,3.7642685E-1,3.1653818E-1,3.4019002E-1,-6.689699E-2,-1.7576212E-2,-1.2171334E-1,3.0412716E-1,-1.0794162E-1,1.2489591E-1,3.1363574E-1,-7.513108E-2,-1.16511084E-1,-1.18763864E-1,-1.2078281E-1,1.7081295E-1,-1.2094585E-1],"split_indices":[8,0,8,0,8,7,0,8,0,0,7,7,0,9,7,7,7,0,7,7,7,4,6,0,7,0,0,0,0,7,0,7,0,0,7,0,7,0,0,0,8,5,0,7,8,0,0,0,0,0,0,0,0,0,0,0,0,0,0,0,0,0,0,0,0,0,0,0,0,0,0],"split_type":[0,0,0,0,0,0,0,0,0,0,0,0,0,0,0,0,0,0,0,0,0,0,0,0,0,0,0,0,0,0,0,0,0,0,0,0,0,0,0,0,0,0,0,0,0,0,0,0,0,0,0,0,0,0,0,0,0,0,0,0,0,0,0,0,0,0,0,0,0,0,0],"sum_hessian":[4.01642E5,1.581154E5,2.4352661E5,4.982951E4,1.0828589E5,3.1932389E4,2.1159422E5,8.877978E3,4.095153E4,8.157393E3,1.001285E5,9.583693E3,2.2348695E4,2.1147806E5,1.1615373E2,6.7162915E2,8.206349E3,4.0142945E4,8.085861E2,9.556227E4,4.5662256E3,2.4027402E3,7.180953E3,1.9227119E5,1.9206879E4,7.219052E1,4.3963207E1,6.703928E2,1.2363122E0,7.882885E3,3.2346365E2,6.026438E2,3.95403E4,5.0732648E2,3.0125964E2,7.103666E1,9.549124E4,1.2975769E2,4.4364683E3,1.9732667E3,4.2947354E2,6.864117E3,3.1683594E2,2.24859E3,1.900226E5,2.9372615E3,1.6269617E4,4.080881E1,7.8420757E3,2.9637796E2,3.0626587E2,3.860626E4,9.3403955E2,2.2278026E2,7.847938E1,2.0309381E2,9.528815E4,1.4250209E1,1.15507484E2,2.7204056E1,1.9460626E3,3.8341087E1,3.9113245E2,1.8237086E3,5.0404087E3,8.2560126E2,1.4229889E3,3.8495707E4,1.5152689E5,8.74183E2,2.0630784E3],"tree_param":{"num_deleted":"0","num_feature":"13","num_nodes":"71","size_leaf_vector":"1"}},{"base_weights":[6.6322107E-3,-5.130657E-1,7.6797867E-1,1.4672239E0,-6.0246843E-1,1.0438497E0,-5.356855E-1,2.0575942E-1,1.577698E0,-6.041331E-1,-1.20254315E-1,1.1874567E0,5.188825E-1,-6.0113907E-1,1.1647638E0,-5.955227E-1,1.2666525E0,1.4815025E0,1.5916417E0,-1.2159679E-1,-1.2037473E-1,7.9366E-1,1.3185941E0,1.2248843E0,1.0616064E-1,-1.2025274E-1,2.4730162E-1,1.3815107E0,1.0776151E0,-3.1534836E-1,-1.2085302E-1,-1.2153437E-1,1.5564138E0,1.5525976E0,-4.8607948E-1,3.184202E-1,-7.665276E-2,5.979301E-1,1.2701373E0,1.5712266E0,1.2003808E0,1.6766026E0,1.0583684E0,-5.3897905E-1,1.2370317E0,1.5151786E0,1.1870847E0,9.004885E-1,1.2458626E0,-1.1371777E-1,1.3113438E-1,3.144632E-2,3.193491E-1,1.6154753E-2,3.1535545E-1,-6.030487E-2,-1.098791E-1,1.5749393E-1,-5.114475E-2,2.7902088E-1,2.4038506E-1,3.145344E-1,2.3642226E-1,5.0777372E-2,2.4304557E-1,-6.7743245E-3,3.430642E-1,2.6301476E-1,1.5527403E-1,-1.0963744E-1,3.5913694E-1,2.8216E-1,2.1117263E-1,-4.1532945E-2,3.0965424E-1,2.636808E-1,5.838832E-2,1.9573294E-1,-5.31972E-2,2.818732E-1,2.4040401E-1],"categories":[],"categories_nodes":[],"categories_segments":[],"categories_sizes":[],"default_left":[0,0,0,0,0,0,0,0,0,0,0,0,0,0,0,0,0,0,0,0,0,0,0,0,0,0,0,0,0,0,0,0,0,0,0,0,0,0,0,0,0,0,0,0,0,0,0,0,0,0,0,0,0,0,0,0,0,0,0,0,0,0,0,0,0,0,0,0,0,0,0,0,0,0,0,0,0,0,0,0,0],"id":8,"left_children":[1,3,5,7,9,11,13,15,17,19,-1,21,23,25,27,29,31,33,35,-1,-1,37,39,41,43,-1,-1,45,47,49,-1,-1,51,53,55,-1,-1,57,59,61,63,65,67,69,71,73,75,77,79,-1,-1,-1,-1,-1,-1,-1,-1,-1,-1,-1,-1,-1,-1,-1,-1,-1,-1,-1,-1,-1,-1,-1,-1,-1,-1,-1,-1,-1,-1,-1,-1],"loss_changes":[1.587736E5,4.2223273E4,5.854742E4,1.4353496E3,9.375E-2,1.0128641E4,3.1652793E3,7.069175E2,1.0347656E1,4.6484375E-1,0E0,5.4470625E3,8.40966E3,7.0146484E0,1.8424438E1,9.7032166E-1,1.9525177E2,1.7052612E2,8.1015625E0,0E0,0E0,2.4574062E3,2.3616719E3,7.991211E2,1.3289837E4,0E0,0E0,5.9659424E0,2.1420776E1,4.4135814E0,0E0,0E0,1.7250977E1,4.1566162E1,3.3780766E-1,0E0,0E0,3.0234658E3,6.3737305E1,1.2328125E1,7.5739844E2,1.8987354E2,5.623574E2,2.5034033E2,2.0682129E2,1.0209442E1,1.4466217E1,3.4192505E1,1.0681152E0,0E0,0E0,0E0,0E0,0E0,0E0,0E0,0E0,0E0,0E0,0E0,0E0,0E0,0E0,0E0,0E0,0E0,0E0,0E0,0E0,0E0,0E0,0E0,0E0,0E0,0E0,0E0,0E0,0E0,0E0,0E0,0E0],"parents":[2147483647,0,0,1,1,2,2,3,3,4,4,5,5,6,6,7,7,8,8,9,9,11,11,12,12,13,13,14,14,15,15,16,16,17,17,18,18,21,21,22,22,23,23,24,24,27,27,28,28,29,29,32,32,33,33,34,34,37,37,38,38,39,39,40,40,41,41,42,42,43,43,44,44,45,45,46,46,47,47,48,48],"right_children":[2,4,6,8,10,12,14,16,18,20,-1,22,24,26,28,30,32,34,36,-1,-1,38,40,42,44,-1,-1,46,48,50,-1,-1,52,54,56,-1,-1,58,60,62,64,66,68,70,72,74,76,78,80,-1,-1,-1,-1,-1,-1,-1,-1,-1,-1,-1,-1,-1,-1,-1,-1,-1,-1,-1,-1,-1,-1,-1,-1,-1,-1,-1,-1,-1,-1,-1,-1],"split_conditions":[4.4301845E-2,8.634717E-3,2.1021022E-2,1.7910447E-2,1.2762763E-2,3.3333334E-1,2.8403304E-7,6.451613E-3,3.3333334E-1,3.3333334E-1,-1.20254315E-1,3.880597E-2,5.3081013E-2,4.2042043E-2,5.2824076E-2,1.5170931E-10,4.8784216E-4,4.8266454E-3,1E0,-1.2159679E-1,-1.2037473E-1,5.424214E-2,2.5E-1,2.5E-1,6.884636E-2,-1.2025274E-1,2.4730162E-1,2.4024025E-2,5.424214E-2,5.042495E-3,-1.2085302E-1,-1.2153437E-1,3.3333334E-1,2.9850746E-2,2E-1,3.184202E-1,-7.665276E-2,5.3033035E-2,6.964832E-2,2.3961434E-8,5.255597E-2,5.2670356E-2,5.2955914E-2,5.1785713E-1,7.0057385E-2,5.255597E-2,5.2772377E-2,5.306357E-2,6.9723435E-2,-1.1371777E-1,1.3113438E-1,3.144632E-2,3.193491E-1,1.6154753E-2,3.1535545E-1,-6.030487E-2,-1.098791E-1,1.5749393E-1,-5.114475E-2,2.7902088E-1,2.4038506E-1,3.145344E-1,2.3642226E-1,5.0777372E-2,2.4304557E-1,-6.7743245E-3,3.430642E-1,2.6301476E-1,1.5527403E-1,-1.0963744E-1,3.5913694E-1,2.8216E-1,2.1117263E-1,-4.1532945E-2,3.0965424E-1,2.636808E-1,5.838832E-2,1.9573294E-1,-5.31972E-2,2.818732E-1,2.4040401E-1],"split_indices":[7,7,5,6,5,10,0,2,10,10,0,6,7,5,7,0,7,7,11,0,0,7,4,4,7,0,0,5,7,7,0,0,10,6,4,0,0,7,7,0,7,7,7,1,7,7,7,7,7,0,0,0,0,0,0,0,0,0,0,0,0,0,0,0,0,0,0,0,0,0,0,0,0,0,0,0,0,0,0,0,0],"split_type":[0,0,0,0,0,0,0,0,0,0,0,0,0,0,0,0,0,0,0,0,0,0,0,0,0,0,0,0,0,0,0,0,0,0,0,0,0,0,0,0,0,0,0,0,0,0,0,0,0,0,0,0,0,0,0,0,0,0,0,0,0,0,0,0,0,0,0,0,0,0,0,0,0,0,0,0,0,0,0,0,0],"sum_hessian":[4.0127566E5,2.3848516E5,1.6279052E5,1.0300978E4,2.2818417E5,1.3435878E5,2.843174E4,8.297072E2,9.4712705E3,9.523143E4,1.3295275E5,1.0549808E5,2.8860701E4,2.7378533E4,1.0532068E3,4.729394E2,3.5676782E2,1.2126442E3,8.258626E3,3.5115996E4,6.0115434E4,2.6356951E4,7.9141125E4,1.0646624E4,1.8214076E4,2.737735E4,1.1839806E0,2.977705E2,7.554362E2,1.5432478E1,4.5750693E2,4.7622692E1,3.0914514E2,1.170559E3,4.208519E1,8.256899E3,1.7264019E0,1.8684064E4,7.6728857E3,2.5223637E4,5.391749E4,2.8651318E3,7.781492E3,1.1598107E4,6.6159688E3,1.7243112E2,1.2533938E2,3.711018E2,3.8433444E2,1.2568956E1,2.8635218E0,8.798753E0,3.0034637E2,1.8989656E1,1.1515692E3,1.2222109E1,2.9863081E1,1.528939E4,3.3946753E3,2.7024502E3,4.9704355E3,2.5127264E4,9.637208E1,8.3299194E2,5.3084496E4,6.3422405E1,2.8017092E3,4.0715046E3,3.7099873E3,1.1553306E4,4.4802074E1,3.373488E3,3.242481E3,3.1502478E0,1.6928087E2,1.0889189E2,1.6447485E1,3.4794388E2,2.3157927E1,7.468048E1,3.0965396E2],"tree_param":{"num_deleted":"0","num_feature":"13","num_nodes":"81","size_leaf_vector":"1"}},{"base_weights":[3.113783E-3,9.1100836E-1,-6.022061E-1,-6.03771E-1,1.2277793E0,-6.023422E-1,3.0180964E-1,-1.2046119E-1,-1.2287225E-1,1.4045966E0,-4.2802018E-1,-6.0236084E-1,6.676224E-1,9.817765E-1,1.5605491E0,3.5800683E-1,-5.4176104E-1,-6.006179E-1,-1.2100748E-1,4.6256244E-2,1.6738722E-1,2.6747224E-1,1.6916448E0,1.5740216E0,-1.201517E-1,-6.0653764E-1,1.3373076E0,-3.1141293E-1,-5.9834737E-1,-5.977046E-1,-1.2045201E-1,7.994902E-3,3.2241043E-1,3.4031865E-1,-1.2224364E-1,-1.092958E-1,3.1484658E-1,-1.2162437E-1,-6.904166E-2,4.1918135E-1,-5.1983804E-2,1.2331486E-1,-1.20592706E-1,-1.1973273E-1,1.8040095E-1,3.3973163E-1,-1.1959093E-1],"categories":[],"categories_nodes":[],"categories_segments":[],"categories_sizes":[],"default_left":[0,0,0,0,0,0,0,0,0,0,0,0,0,0,0,0,0,0,0,0,0,0,0,0,0,0,0,0,0,0,0,0,0,0,0,0,0,0,0,0,0,0,0,0,0,0,0],"id":9,"left_children":[1,3,5,7,9,11,-1,-1,-1,13,15,17,19,21,23,25,27,29,-1,-1,-1,31,33,35,-1,37,39,41,43,45,-1,-1,-1,-1,-1,-1,-1,-1,-1,-1,-1,-1,-1,-1,-1,-1,-1],"loss_changes":[2.2035758E5,7.696458E4,7.002344E1,6.1523438E-2,3.8838547E4,6.09375E0,0E0,0E0,0E0,7.9017656E3,1.1445383E3,7.734375E-1,1.02397084E-1,1.637685E4,2.5505E3,1.5297456E3,1.4556812E2,3.28125E-1,0E0,0E0,0E0,4.9247783E3,3.7217188E2,3.984375E1,0E0,1.279602E-1,9.740957E2,5.9757245E2,4.7990723E0,3.127539E1,0E0,0E0,0E0,0E0,0E0,0E0,0E0,0E0,0E0,0E0,0E0,0E0,0E0,0E0,0E0,0E0,0E0],"parents":[2147483647,0,0,1,1,2,2,3,3,4,4,5,5,9,9,10,10,11,11,12,12,13,13,14,14,15,15,16,16,17,17,21,21,22,22,23,23,25,25,26,26,27,27,28,28,29,29],"right_children":[2,4,6,8,10,12,-1,-1,-1,14,16,18,20,22,24,26,28,30,-1,-1,-1,32,34,36,-1,38,40,42,44,46,-1,-1,-1,-1,-1,-1,-1,-1,-1,-1,-1,-1,-1,-1,-1,-1,-1],"split_conditions":[3.498358E-2,9E-3,1E0,7.168459E-3,8.2E-2,9.650146E-1,3.0180964E-1,-1.2046119E-1,-1.2287225E-1,3.3333334E-1,2.25E-1,4.8E-2,8.064516E-4,3.403919E-2,5.3731345E-2,3.3333334E-1,1.2686567E-2,3.3333334E-1,-1.2100748E-1,4.6256244E-2,1.6738722E-1,1E0,4.8E-2,4.6640835E-4,-1.201517E-1,9.154818E-7,7.5075077E-4,6.666667E-1,1E0,3.5028514E-2,-1.2045201E-1,7.994902E-3,3.2241043E-1,3.4031865E-1,-1.2224364E-1,-1.092958E-1,3.1484658E-1,-1.2162437E-1,-6.904166E-2,4.1918135E-1,-5.1983804E-2,1.2331486E-1,-1.20592706E-1,-1.1973273E-1,1.8040095E-1,3.3973163E-1,-1.1959093E-1],"split_indices":[7,8,11,8,8,8,0,0,0,10,8,8,2,7,6,10,6,10,0,0,0,11,8,7,0,0,5,10,11,7,0,0,0,0,0,0,0,0,0,0,0,0,0,0,0,0,0],"split_type":[0,0,0,0,0,0,0,0,0,0,0,0,0,0,0,0,0,0,0,0,0,0,0,0,0,0,0,0,0,0,0,0,0,0,0,0,0,0,0,0,0,0,0,0,0,0,0],"sum_hessian":[4.0096406E5,1.6039447E5,2.4056961E5,2.774044E4,1.3265403E5,2.4055481E5,1.4788496E1,2.4420166E4,3.3202737E3,1.19855234E5,1.2798788E4,2.4055181E5,3.0061011E0,3.2297436E4,8.75578E4,1.617641E3,1.1181147E4,1.4582017E5,9.473163E4,1.5017943E0,1.5043069E0,1.60991045E4,1.6198332E4,8.7015664E4,5.421365E2,8.151522E2,8.024887E2,2.2063157E3,8.974832E3,5.269737E4,9.3122805E4,1.3770259E4,2.328845E3,1.6128915E4,6.9416855E1,8.412993E0,8.700725E4,8.089212E2,6.2310376E0,5.4386774E2,2.5862094E2,5.271896E2,1.6791261E3,8.973541E3,1.2903845E0,4.9976387E0,5.269237E4],"tree_param":{"num_deleted":"0","num_feature":"13","num_nodes":"47","size_leaf_vector":"1"}},{"base_weights":[2.5764867E-3,-4.6554327E-1,8.7175775E-1,-5.978462E-1,4.528123E-2,-1.9653346E-1,1.5826596E0,-6.0257524E-1,-5.877087E-1,1.5057948E0,-6.038474E-1,1.5817848E0,-5.768658E-1,1.5887054E0,-5.966092E-1,-6.0319287E-1,-5.7811284E-1,-9.0655E-2,-5.9448564E-1,-1.19478E-1,1.5687572E0,-1.18667595E-1,-1.212559E-1,-1.1974931E-1,3.2251006E-1,4.5774326E-2,-5.950254E-1,1.5901195E0,-1.181671E-1,-1.2052673E-1,-2.356537E-1,-6.063794E-1,-1.2031447E-1,-1.2069269E-1,4.395764E-1,-5.2270126E-1,1.6995589E0,-6.03832E-1,-5.7076824E-1,9.7634983E-1,1.5766363E0,-1.21113025E-1,1.6712475E0,-6.017477E-1,-1.9893864E-1,3.2323033E-1,1.559774E0,9.248226E-2,-1.0522451E-1,-1.2163333E-1,-1.20175496E-1,-1.1071982E-1,3.5299256E-1,5.0852556E-2,-1.1691487E-1,3.5755047E-1,1.4188811E-3,7.764122E-2,-1.2080248E-1,-8.3931416E-2,-1.182365E-1,3.3088008E-1,-1.287533E-1,3.1560656E-1,-1.1175517E-1,3.8199708E-1,3.170261E-1,-1.2038749E-1,-8.96896E-2,-1.1559852E-1,2.7331877E-1,8.9318685E-2,3.1719783E-1],"categories":[],"categories_nodes":[],"categories_segments":[],"categories_sizes":[],"default_left":[0,0,0,0,0,0,0,0,0,0,0,0,0,0,0,0,0,0,0,0,0,0,0,0,0,0,0,0,0,0,0,0,0,0,0,0,0,0,0,0,0,0,0,0,0,0,0,0,0,0,0,0,0,0,0,0,0,0,0,0,0,0,0,0,0,0,0,0,0,0,0,0,0],"id":10,"left_children":[1,3,5,7,9,11,13,15,17,19,21,23,25,27,29,31,33,35,37,-1,39,-1,-1,-1,-1,41,43,45,-1,-1,47,49,-1,-1,51,53,55,57,59,61,63,-1,65,67,69,-1,71,-1,-1,-1,-1,-1,-1,-1,-1,-1,-1,-1,-1,-1,-1,-1,-1,-1,-1,-1,-1,-1,-1,-1,-1,-1,-1],"loss_changes":[1.6331175E5,1.7630844E4,1.06703445E5,9.578125E0,5.0880977E4,3.797122E4,1.1124375E3,1.7890625E0,2.2211133E2,2.1876836E3,5.917969E-1,6.645371E2,5.2296387E2,2.6025E2,3.6709595E-1,3.4765625E-1,9.063342E1,6.8794696E2,1.4078125E1,0E0,7.330078E1,0E0,0E0,0E0,0E0,1.3896364E3,1.1953418E2,6.3890625E1,0E0,0E0,1.3555641E0,8.984375E-2,0E0,0E0,1.13802956E2,3.4586426E1,2.5800415E1,8.582031E0,5.65459E1,2.3513771E2,4.8058594E1,0E0,4.6920166E0,1.0146484E0,4.4671558E2,0E0,1.1330078E3,0E0,0E0,0E0,0E0,0E0,0E0,0E0,0E0,0E0,0E0,0E0,0E0,0E0,0E0,0E0,0E0,0E0,0E0,0E0,0E0,0E0,0E0,0E0,0E0,0E0,0E0],"parents":[2147483647,0,0,1,1,2,2,3,3,4,4,5,5,6,6,7,7,8,8,9,9,10,10,11,11,12,12,13,13,14,14,15,15,16,16,17,17,18,18,20,20,25,25,26,26,27,27,30,30,31,31,34,34,35,35,36,36,37,37,38,38,39,39,40,40,42,42,43,43,44,44,46,46],"right_children":[2,4,6,8,10,12,14,16,18,20,22,24,26,28,30,32,34,36,38,-1,40,-1,-1,-1,-1,42,44,46,-1,-1,48,50,-1,-1,52,54,56,58,60,62,64,-1,66,68,70,-1,72,-1,-1,-1,-1,-1,-1,-1,-1,-1,-1,-1,-1,-1,-1,-1,-1,-1,-1,-1,-1,-1,-1,-1,-1,-1,-1],"split_conditions":[1E0,5.3245086E-2,3.6440432E-2,3.6130805E-2,6.884636E-2,6.960557E-3,6.884636E-2,1.1904762E-1,3.8779024E-2,3.3333334E-1,1.29E-1,2.1006444E-2,3.3333334E-1,6.666667E-1,1.99E-1,3.3333334E-1,2.1220362E-2,3.7888706E-2,3.3333334E-1,-1.19478E-1,1.2762763E-2,-1.18667595E-1,-1.212559E-1,-1.1974931E-1,3.2251006E-1,2.1220362E-2,3.6E-2,3.3333334E-1,-1.181671E-1,-1.2052673E-1,9.650146E-1,1.2762763E-2,-1.2031447E-1,-1.2069269E-1,3.9E-2,3.3333334E-1,7.5075077E-4,7.5075077E-4,1E-2,7.5075077E-4,2.1021022E-2,-1.21113025E-1,2.4024025E-2,2.1E-2,2.4434185E-2,3.2323033E-1,5.3081013E-2,9.248226E-2,-1.0522451E-1,-1.2163333E-1,-1.20175496E-1,-1.1071982E-1,3.5299256E-1,5.0852556E-2,-1.1691487E-1,3.5755047E-1,1.4188811E-3,7.764122E-2,-1.2080248E-1,-8.3931416E-2,-1.182365E-1,3.3088008E-1,-1.287533E-1,3.1560656E-1,-1.1175517E-1,3.8199708E-1,3.170261E-1,-1.2038749E-1,-8.96896E-2,-1.1559852E-1,2.7331877E-1,8.9318685E-2,3.1719783E-1],"split_indices":[9,7,7,7,7,8,7,1,7,10,8,7,10,10,8,10,7,7,10,0,5,0,0,0,0,7,8,10,0,0,8,5,0,0,8,10,5,5,8,5,5,0,5,8,7,0,7,0,0,0,0,0,0,0,0,0,0,0,0,0,0,0,0,0,0,0,0,0,0,0,0,0,0],"split_type":[0,0,0,0,0,0,0,0,0,0,0,0,0,0,0,0,0,0,0,0,0,0,0,0,0,0,0,0,0,0,0,0,0,0,0,0,0,0,0,0,0,0,0,0,0,0,0,0,0,0,0,0,0,0,0,0,0,0,0,0,0,0,0,0,0,0,0,0,0,0,0,0,0],"sum_hessian":[4.013728E5,2.608733E5,1.4049952E5,2.0720681E5,5.3666492E4,5.6138863E4,8.436065E4,1.412552E5,6.595161E4,1.6512562E4,3.715393E4,9.890541E3,4.624832E4,8.412753E4,2.3311816E2,1.3775344E5,3.501763E3,8.872979E2,6.506431E4,4.7971646E2,1.6032847E4,7.0283115E3,3.0125617E4,1.3734828E2,9.753193E3,1.3105885E3,4.4937734E4,8.407325E4,5.4279427E1,2.2863264E2,4.4855275E0,4.631321E4,9.144023E4,3.4170513E3,8.4711716E1,7.1536206E2,1.7193587E2,4.6654605E4,1.8409705E4,2.120799E2,1.5820767E4,9.361097E2,3.7447882E2,4.4187285E4,7.504487E2,4.5224715E4,3.8848535E4,1.1440818E0,3.3414457E0,3.4874934E4,1.1438278E4,4.875761E1,3.59541E1,5.253614E1,6.628259E2,1.6336662E2,8.569249E0,8.090217E0,4.664651E4,2.1936116E3,1.6216093E4,1.49493E2,6.2586906E1,1.5810688E4,1.007792E1,9.36575E1,2.8082132E2,4.412973E4,5.755352E1,6.046732E2,1.4577548E2,8.9423944E2,3.7954297E4],"tree_param":{"num_deleted":"0","num_feature":"13","num_nodes":"73","size_leaf_vector":"1"}},{"base_weights":[-5.0126445E-1,1.6294489E0,-5.033143E-1,2.3095944E0,7.282077E-2,-1.00735284E-1,8.715462E-2,-8.758814E-2,9.019098E-2],"categories":[],"categories_nodes":[],"categories_segments":[],"categories_sizes":[],"default_left":[0,0,0,0,0,0,0,0,0],"id":11,"left_children":[1,3,5,-1,7,-1,-1,-1,-1],"loss_changes":[8.2609375E1,2.806842E2,6.5805664E0,0E0,3.435806E0,0E0,0E0,0E0,0E0],"parents":[2147483647,0,0,1,1,2,2,4,4],"right_children":[2,4,6,-1,8,-1,-1,-1,-1],"split_conditions":[9.701492E-3,3.3333334E-1,1.4285715E-1,2.3095944E0,1.4285715E-1,-1.00735284E-1,8.715462E-2,-8.758814E-2,9.019098E-2],"split_indices":[6,10,12,0,12,0,0,0,0],"split_type":[0,0,0,0,0,0,0,0,0],"sum_hessian":[1.872491E4,1.723414E1,1.8707676E4,1.4671531E0,1.5766988E1,1.870093E4,6.746717E0,6.6399584E0,9.127029E0],"tree_param":{"num_deleted":"0","num_feature":"13","num_nodes":"9","size_leaf_vector":"1"}},{"base_weights":[1.27392905E-2,2.1336113E-1,-5.678768E-1,5.6698006E-1,-9.09145E-2,1.1878735E0,-5.7180285E-1,1.2332453E0,-2.9230192E-1,-2.640893E-1,1.2011471E0,5.4298523E-3,2.3930608E-1,-5.741239E-1,2.3954077E-1,1.2483685E0,-1.19507626E-1,-4.9028742E-1,6.750362E-1,4.1578302E-1,-4.0407363E-1,-7.194658E-2,2.4027757E-1,-5.7522064E-1,7.0339066E-1,1.154669E0,1.333221E0,-5.367644E-1,2.394568E-1,1.6655772E0,-1.0545212E-1,1.253371E0,-2.2560869E-1,-1.4904381E-1,-5.8037657E-1,-5.7691455E-1,1.9653638E-1,-5.36786E-1,2.0892327E0,2.4221666E-1,3.2259987E-3,3.6268243E-1,2.6084188E-1,-1.1184668E-1,-6.337815E-2,3.598764E-1,2.719437E-1,-1.1089982E-1,3.7530902E-1,2.6372436E-1,-1.1949704E-1,-8.513035E-2,2.2918585E-1,-8.3244674E-2,2.5242975E-1,2.4533872E-1,-1.18664816E-1,-7.529107E-2,-1.1621674E-1,6.446201E-1,-1.1804249E-1,-1.12215094E-1,-5.630585E-2,4.533402E-1,2.7351115E-2],"categories":[],"categories_nodes":[],"categories_segments":[],"categories_sizes":[],"default_left":[0,0,0,0,0,0,0,0,0,0,0,0,0,0,0,0,0,0,0,0,0,0,0,0,0,0,0,0,0,0,0,0,0,0,0,0,0,0,0,0,0,0,0,0,0,0,0,0,0,0,0,0,0,0,0,0,0,0,0,0,0,0,0,0,0],"id":12,"left_children":[1,3,5,7,9,11,13,15,17,19,21,-1,-1,23,-1,25,-1,27,29,31,33,-1,-1,35,37,39,41,43,-1,45,47,49,51,53,55,57,59,61,63,-1,-1,-1,-1,-1,-1,-1,-1,-1,-1,-1,-1,-1,-1,-1,-1,-1,-1,-1,-1,-1,-1,-1,-1,-1,-1],"loss_changes":[4.467866E4,3.0671982E4,6.796406E2,7.548051E4,3.4284043E4,2.179016E0,4.0433398E2,2.0568203E3,1.1028133E4,1.2859106E4,7.2402344E0,0E0,0E0,1.3792383E2,0E0,5.8403906E2,0E0,3.7496318E3,7.5636577E3,1.2394041E4,5.037705E3,0E0,0E0,1.283125E2,1.4659058E2,2.248625E3,5.36E2,2.296377E2,0E0,1.7400293E2,4.8718267E3,1.2090859E3,3.585386E3,1.7268404E4,1.5507109E3,8.15625E1,5.150838E2,1.23913765E-1,1.3611359E1,0E0,0E0,0E0,0E0,0E0,0E0,0E0,0E0,0E0,0E0,0E0,0E0,0E0,0E0,0E0,0E0,0E0,0E0,0E0,0E0,0E0,0E0,0E0,0E0,0E0,0E0],"parents":[2147483647,0,0,1,1,2,2,3,3,4,4,5,5,6,6,7,7,8,8,9,9,10,10,13,13,15,15,17,17,18,18,19,19,20,20,23,23,24,24,25,25,26,26,27,27,29,29,30,30,31,31,32,32,33,33,34,34,35,35,36,36,37,37,38,38],"right_children":[2,4,6,8,10,12,14,16,18,20,22,-1,-1,24,-1,26,-1,28,30,32,34,-1,-1,36,38,40,42,44,-1,46,48,50,52,54,56,58,60,62,64,-1,-1,-1,-1,-1,-1,-1,-1,-1,-1,-1,-1,-1,-1,-1,-1,-1,-1,-1,-1,-1,-1,-1,-1,-1,-1],"split_conditions":[1E0,1.2E-2,6E-3,3.3333334E-1,6.666667E-1,2E-1,6.666667E-1,1E0,3.7888706E-2,2.105803E-2,4.8266454E-3,5.4298523E-3,2.3930608E-1,4.72E-1,2.3954077E-1,3.3579502E-2,-1.19507626E-1,4.477612E-2,5.3245086E-2,3.3333334E-1,1.29E-1,-7.194658E-2,2.4027757E-1,6.884636E-2,1.9623859E-2,2.1026565E-2,3.403919E-2,3.5857067E-2,2.394568E-1,5.3081013E-2,6.884636E-2,1E0,5.3731345E-2,3.5028514E-2,4.4301845E-2,2.1146959E-2,8.2E-2,8.634717E-3,4.423342E-2,2.4221666E-1,3.2259987E-3,3.6268243E-1,2.6084188E-1,-1.1184668E-1,-6.337815E-2,3.598764E-1,2.719437E-1,-1.1089982E-1,3.7530902E-1,2.6372436E-1,-1.1949704E-1,-8.513035E-2,2.2918585E-1,-8.3244674E-2,2.5242975E-1,2.4533872E-1,-1.18664816E-1,-7.529107E-2,-1.1621674E-1,6.446201E-1,-1.1804249E-1,-1.12215094E-1,-5.630585E-2,4.533402E-1,2.7351115E-2],"split_indices":[9,8,8,10,10,4,10,11,7,7,7,0,0,8,0,7,0,6,7,10,8,0,0,7,7,7,7,7,0,7,7,11,6,7,7,7,8,7,7,0,0,0,0,0,0,0,0,0,0,0,0,0,0,0,0,0,0,0,0,0,0,0,0,0,0],"split_type":[0,0,0,0,0,0,0,0,0,0,0,0,0,0,0,0,0,0,0,0,0,0,0,0,0,0,0,0,0,0,0,0,0,0,0,0,0,0,0,0,0,0,0,0,0,0,0,0,0,0,0,0,0,0,0,0,0,0,0,0,0,0,0,0,0],"sum_hessian":[3.8355753E5,2.8506044E5,9.849707E4,1.318398E5,1.5322066E5,2.1908578E2,9.8277984E4,7.426003E4,5.7579758E4,1.3511236E5,1.8108291E4,1.6524943E0,2.1743329E2,9.8149914E4,1.2806718E2,7.365195E4,6.080828E2,4.7797516E4,9.782244E3,2.3069084E4,1.1204328E5,2.5634694E0,1.8105727E4,9.806627E4,8.363958E1,3.5008266E4,3.8643688E4,4.6517082E4,1.2804321E3,4.310511E3,5.4717324E3,1.0003995E4,1.3065088E4,4.579732E4,6.624596E4,9.785176E4,2.145187E2,4.4462856E1,3.917672E1,3.3355445E4,1.6528169E3,2.1982078E3,3.644548E4,4.2202812E4,4.3142705E3,2.9952769E3,1.3152345E3,4.4616157E3,1.01011633E3,9.6636E3,3.403959E2,1.1402664E4,1.6624241E3,3.850745E4,7.2898687E3,4.706036E2,6.577536E4,1.9955323E3,9.585623E4,4.3619812E1,1.7089891E2,3.950555E1,4.957306E0,3.5764965E1,3.411755E0],"tree_param":{"num_deleted":"0","num_feature":"13","num_nodes":"65","size_leaf_vector":"1"}},{"base_weights":[-1.1416386E-3,6.8615127E-1,-5.217599E-1,-5.8332133E-1,1.1675919E0,-1.658012E-1,-5.772874E-1,7.106311E-2,-1.1667311E-1,1.2033651E0,-1.17362656E-1,6.299625E-1,-5.809533E-1,-5.77833E-1,3.285301E-1,-7.466576E-2,1.0139461E-1,-1.0807848E-1,1.2035038E0,-6.038976E-1,1.1411264E0,-1.151574E-1,-1.1692589E-1,-5.838149E-1,-5.179842E-1,-1.1478968E-1,1.2756875E0,1.4732237E0,1.2030429E0,-1.2236363E-1,-1.17127076E-1,1.166898E0,-1.15840435E-1,-5.8459234E-1,-3.974017E-1,-1.7526153E-1,-1.1685077E-1,2.59676E-1,6.5565E-2,3.5786667E-1,2.4810453E-1,2.4058333E-1,3.2395092E-1,-1.216531E-1,2.3533764E-1,-9.406113E-2,-1.1717831E-1,4.919527E-2,-9.797946E-2,1.3547197E-1,-1.1746134E-1],"categories":[],"categories_nodes":[],"categories_segments":[],"categories_sizes":[],"default_left":[0,0,0,0,0,0,0,0,0,0,0,0,0,0,0,0,0,0,0,0,0,0,0,0,0,0,0,0,0,0,0,0,0,0,0,0,0,0,0,0,0,0,0,0,0,0,0,0,0,0,0],"id":13,"left_children":[1,3,5,7,9,11,13,15,-1,17,-1,19,21,23,25,-1,-1,-1,27,29,31,-1,-1,33,35,-1,37,39,41,-1,-1,43,-1,45,47,49,-1,-1,-1,-1,-1,-1,-1,-1,-1,-1,-1,-1,-1,-1,-1],"loss_changes":[1.3646278E5,1.0046307E5,4.2890156E3,1.3486328E0,7.4804062E3,9.674778E3,9.296875E1,9.532288E-1,0E0,2.8921875E1,0E0,6.333161E3,2.8320312E-2,6.686328E1,9.787604E1,0E0,0E0,0E0,1.275E1,6.713867E-2,3.1544043E2,0E0,0E0,2.4480469E1,3.8727734E2,0E0,7.737427E-1,1.2109467E1,4.171875E0,0E0,0E0,1.2228711E2,0E0,2.4941406E1,4.2457756E1,9.71813E2,0E0,0E0,0E0,0E0,0E0,0E0,0E0,0E0,0E0,0E0,0E0,0E0,0E0,0E0,0E0],"parents":[2147483647,0,0,1,1,2,2,3,3,4,4,5,5,6,6,7,7,9,9,11,11,12,12,13,13,14,14,18,18,19,19,20,20,23,23,24,24,26,26,27,27,28,28,31,31,33,33,34,34,35,35],"right_children":[2,4,6,8,10,12,14,16,-1,18,-1,20,22,24,26,-1,-1,-1,28,30,32,-1,-1,34,36,-1,38,40,42,-1,-1,44,-1,46,48,50,-1,-1,-1,-1,-1,-1,-1,-1,-1,-1,-1,-1,-1,-1,-1],"split_conditions":[7.168459E-3,3.3333334E-1,8.264462E-3,2E-3,3.7888706E-2,3.6440432E-2,1.1175916E-4,4.6640835E-4,-1.1667311E-1,2.1116504E-2,-1.17362656E-1,3.3333334E-1,3.3333334E-1,1E0,3.4486245E-2,-7.466576E-2,1.0139461E-1,-1.0807848E-1,3.464287E-2,4.477612E-2,4.7761194E-2,-1.151574E-1,-1.1692589E-1,6.451613E-3,3.6440432E-2,-1.1478968E-1,3.5912007E-2,1E0,3.2258064E-2,-1.2236363E-1,-1.17127076E-1,2.1146959E-2,-1.15840435E-1,1.1094756E-10,1.2E-2,2.8403304E-7,-1.1685077E-1,2.59676E-1,6.5565E-2,3.5786667E-1,2.4810453E-1,2.4058333E-1,3.2395092E-1,-1.216531E-1,2.3533764E-1,-9.406113E-2,-1.1717831E-1,4.919527E-2,-9.797946E-2,1.3547197E-1,-1.1746134E-1],"split_indices":[8,10,8,8,7,7,0,7,0,7,0,10,10,9,7,0,0,0,7,6,6,0,0,2,7,0,7,9,2,0,0,7,0,0,8,0,0,0,0,0,0,0,0,0,0,0,0,0,0,0,0],"split_type":[0,0,0,0,0,0,0,0,0,0,0,0,0,0,0,0,0,0,0,0,0,0,0,0,0,0,0,0,0,0,0,0,0,0,0,0,0,0,0,0,0,0,0,0,0,0,0,0,0,0,0],"sum_hessian":[3.8137366E5,1.6437461E5,2.1699903E5,4.519728E4,1.1917733E5,2.9283188E4,1.8771584E5,2.9437408E0,4.5194336E4,1.1679611E5,2.381212E3,1.00393125E4,1.9243875E4,1.876032E5,1.12646576E2,1.528779E0,1.4149619E0,8.984379E0,1.16787125E5,2.9407283E3,7.0985845E3,8.065901E3,1.1177975E4,1.705481E5,1.7055117E4,5.7885574E1,5.4760998E1,1.9379889E2,1.1659333E5,2.0284583E3,9.1227E2,6.99413E3,1.044548E2,1.6983766E5,7.104352E2,2.7640554E3,1.42910625E4,5.3119476E1,1.641521E0,7.9336235E1,1.1446266E2,1.165619E5,3.1433746E1,3.8026524E1,6.956103E3,1.9130892E3,1.6792456E5,8.908955E1,6.213456E2,9.0035626E2,1.8636992E3],"tree_param":{"num_deleted":"0","num_feature":"13","num_nodes":"51","size_leaf_vector":"1"}},{"base_weights":[7.112806E-3,-5.483531E-1,3.1332418E-1,-5.707455E-1,-1.593242E-1,5.209396E-1,-5.207376E-1,-2.8395692E-1,-5.851363E-1,4.6527106E-1,-5.4090047E-1,6.7183954E-1,-1.1652712E-1,-5.697415E-1,1.2224877E0,-1.1625022E-1,-2.3260301E-1,-1.1708027E-1,1.2118913E-1,5.892489E-1,-1.1677688E-1,-5.445605E-1,1.6867694E-1,8.6398536E-1,2.2931816E-1,-5.8271325E-1,3.2948654E-2,2.4468015E-1,2.224925E-2,-8.9128636E-2,-4.532686E-2,4.9295387E-1,-1.9461865E-2,5.1552176E-1,1.0452253E0,-1.10868655E-1,-1.034143E-1,-2.5877383E-1,3.4688547E-1,5.6934124E-1,9.610425E-1,5.1296395E-1,-3.0386356E-1,-5.8309567E-1,4.8351812E-1,-2.0358479E-1,5.749367E-1,5.408702E-2,1.2604137E-1,-4.4021875E-2,2.6361886E-2,-9.2320055E-2,1.2400589E-1,-9.356235E-2,2.3698044E-1,-8.103915E-2,-2.6709286E-2,-7.1730316E-2,8.671548E-2,1.1951172E-1,-1.2521249E-1,2.3071542E-1,1.7427488E-1,7.359841E-2,2.454466E-1,-1.056022E-1,1.1971623E-1,-1.1664533E-1,1.7301285E-1,-7.135869E-2,1.8516202E-1,-1.1411079E-1,-1.4279935E-3,1.0451297E-1,2.3764156E-1],"categories":[],"categories_nodes":[],"categories_segments":[],"categories_sizes":[],"default_left":[0,0,0,0,0,0,0,0,0,0,0,0,0,0,0,0,0,0,0,0,0,0,0,0,0,0,0,0,0,0,0,0,0,0,0,0,0,0,0,0,0,0,0,0,0,0,0,0,0,0,0,0,0,0,0,0,0,0,0,0,0,0,0,0,0,0,0,0,0,0,0,0,0,0,0],"id":14,"left_children":[1,3,5,7,9,11,13,15,17,19,21,23,-1,25,27,-1,29,-1,31,33,-1,35,37,39,41,43,45,-1,-1,-1,-1,47,49,51,53,-1,-1,55,57,59,61,63,65,67,69,71,73,-1,-1,-1,-1,-1,-1,-1,-1,-1,-1,-1,-1,-1,-1,-1,-1,-1,-1,-1,-1,-1,-1,-1,-1,-1,-1,-1,-1],"loss_changes":[6.548042E4,1.1916797E3,4.2974016E4,5.3371875E2,1.7752014E3,3.3090848E4,4.2260264E3,9.4261536E1,2.3132812E1,3.6778015E2,1.2099365E1,1.48631875E4,0E0,3.7614746E2,1.2363281E0,0E0,6.605194E0,0E0,2.4689984E0,8.440765E1,0E0,9.505615E-1,1.9552591E0,3.4849453E3,8.0040312E3,1.9486328E1,1.3018971E2,0E0,0E0,0E0,0E0,2.2503066E-1,1.0939621E0,2.226051E2,7.4675354E1,0E0,0E0,8.851433E-2,1.2387841E0,1.01914746E3,1.5817812E3,3.576754E3,3.7179268E3,9.430664E0,6.8096986E0,5.0969707E1,9.288422E0,0E0,0E0,0E0,0E0,0E0,0E0,0E0,0E0,0E0,0E0,0E0,0E0,0E0,0E0,0E0,0E0,0E0,0E0,0E0,0E0,0E0,0E0,0E0,0E0,0E0,0E0,0E0,0E0],"parents":[2147483647,0,0,1,1,2,2,3,3,4,4,5,5,6,6,7,7,8,8,9,9,10,10,11,11,13,13,14,14,16,16,18,18,19,19,21,21,22,22,23,23,24,24,25,25,26,26,31,31,32,32,33,33,34,34,37,37,38,38,39,39,40,40,41,41,42,42,43,43,44,44,45,45,46,46],"right_children":[2,4,6,8,10,12,14,16,18,20,22,24,-1,26,28,-1,30,-1,32,34,-1,36,38,40,42,44,46,-1,-1,-1,-1,48,50,52,54,-1,-1,56,58,60,62,64,66,68,70,72,74,-1,-1,-1,-1,-1,-1,-1,-1,-1,-1,-1,-1,-1,-1,-1,-1,-1,-1,-1,-1,-1,-1,-1,-1,-1,-1,-1,-1],"split_conditions":[2.9850746E-2,2.8403304E-7,2.1021022E-2,1.1094756E-10,4.5749657E-6,1E0,4.804805E-2,1.7910447E-2,2.5806451E-2,3.0612245E-2,2.2580646E-2,3.3333334E-1,-1.1652712E-1,2.2630848E-6,4.5238096E-1,-1.1625022E-1,3.3333334E-1,-1.1708027E-1,2.635747E-9,6.451613E-3,-1.1677688E-1,6.0170074E-4,2.9694327E-4,1.2762763E-2,2.2437591E-8,4.2042043E-2,5.102041E-2,2.4468015E-1,2.224925E-2,-8.9128636E-2,-4.532686E-2,1.0814013E-9,8.5540295E-9,2.2630848E-6,3.3333334E-1,-1.10868655E-1,-1.034143E-1,1.1175916E-4,3.3333334E-1,3.535151E-8,5E-1,4.7619048E-1,2.3420194E-8,2.2580646E-2,8.064516E-4,3.3033032E-2,1.3709677E-2,5.408702E-2,1.2604137E-1,-4.4021875E-2,2.6361886E-2,-9.2320055E-2,1.2400589E-1,-9.356235E-2,2.3698044E-1,-8.103915E-2,-2.6709286E-2,-7.1730316E-2,8.671548E-2,1.1951172E-1,-1.2521249E-1,2.3071542E-1,1.7427488E-1,7.359841E-2,2.454466E-1,-1.056022E-1,1.1971623E-1,-1.1664533E-1,1.7301285E-1,-7.135869E-2,1.8516202E-1,-1.1411079E-1,-1.4279935E-3,1.0451297E-1,2.3764156E-1],"split_indices":[6,0,5,0,0,11,5,6,2,1,2,10,0,0,1,0,10,0,0,2,0,0,0,5,0,5,1,0,0,0,0,0,0,0,10,0,0,0,10,0,4,1,0,2,2,5,2,0,0,0,0,0,0,0,0,0,0,0,0,0,0,0,0,0,0,0,0,0,0,0,0,0,0,0,0],"split_type":[0,0,0,0,0,0,0,0,0,0,0,0,0,0,0,0,0,0,0,0,0,0,0,0,0,0,0,0,0,0,0,0,0,0,0,0,0,0,0,0,0,0,0,0,0,0,0,0,0,0,0,0,0,0,0,0,0,0,0,0,0,0,0,0,0,0,0,0,0,0,0,0,0,0,0],"sum_hessian":[3.8497316E5,1.3680634E5,2.481668E5,1.2935993E5,7.446423E3,1.9870528E5,4.9461516E4,6.18197E3,1.2317796E5,2.823867E3,4.6225557E3,1.748035E5,2.3901783E4,4.8109773E4,1.3517441E3,9.0904956E2,5.2729204E3,1.2313192E5,4.6034763E1,2.52583E3,2.9803683E2,4.5990664E3,2.3489468E1,1.2188099E5,5.292251E4,4.7096152E4,1.0136208E3,1.3505336E3,1.2106391E0,1.4169713E2,5.1312236E3,1.194837E1,3.4086395E1,2.176105E3,3.497252E2,3.3778062E3,1.2212603E3,6.7784944E0,1.6710974E1,3.0201803E4,9.167919E4,3.4545035E4,1.8377477E4,4.707972E4,1.6433466E1,7.0609326E2,3.0752756E2,5.6914897E0,6.2568803E0,1.4456332E1,1.9630062E1,2.0992638E2,1.9661786E3,2.9358025E1,3.2036716E2,2.0941885E0,4.684306E0,1.4853626E0,1.5225611E1,2.9505822E4,6.959806E2,2.9126707E4,6.255248E4,2.8717824E4,5.8272124E3,1.4721415E4,3.6560613E3,4.707606E4,3.658524E0,5.733564E0,1.0699903E1,2.455286E2,4.6056467E2,2.850381E2,2.2489466E1],"tree_param":{"num_deleted":"0","num_feature":"13","num_nodes":"75","size_leaf_vector":"1"}},{"base_weights":[2.8623366E-3,7.396044E-1,-5.8539546E-1,-5.864662E-1,9.623438E-1,-5.8541596E-1,4.1554487E-1,-1.1693509E-1,-1.1980361E-1,1.0757304E0,-4.8218894E-1,-5.82576E-1,-5.8965445E-1,7.9337054E-1,-6.939139E-2,7.672464E-1,1.1859411E0,-1.4499108E-1,-5.7887065E-1,-5.4679626E-1,-5.8293134E-1,-1.1699649E-1,-5.9271944E-1,5.7676263E-2,1.9097504E-1,-2.927941E-1,1.0354332E0,1.194919E0,-1.1670705E-1,6.408794E-1,-1.1705448E-1,-4.7539628E-1,-5.840188E-1,-1.1675087E-1,2.5233555E-1,-5.7977617E-1,-1.1694093E-1,-1.16840236E-1,-1.1877831E-1,1.2495341E-1,-1.24305345E-1,1.2808299E-1,2.5563702E-1,2.3981677E-1,2.1050072E-1,2.663153E-1,-1.19884215E-1,2.2890475E-2,-1.1896765E-1,-1.1703068E-1,-1.0329894E-1,-1.16586745E-1,-1.1483236E-1],"categories":[],"categories_nodes":[],"categories_segments":[],"categories_sizes":[],"default_left":[0,0,0,0,0,0,0,0,0,0,0,0,0,0,0,0,0,0,0,0,0,0,0,0,0,0,0,0,0,0,0,0,0,0,0,0,0,0,0,0,0,0,0,0,0,0,0,0,0,0,0,0,0],"id":15,"left_children":[1,3,5,7,9,11,13,-1,-1,15,17,19,21,23,-1,25,27,29,31,33,35,-1,37,-1,-1,39,41,43,-1,45,-1,47,49,-1,-1,51,-1,-1,-1,-1,-1,-1,-1,-1,-1,-1,-1,-1,-1,-1,-1,-1,-1],"loss_changes":[1.6558777E5,5.0103203E4,4.609375E0,1.9824219E-1,2.3788406E4,2.2109375E0,1.6982636E0,0E0,0E0,4.577422E3,3.4453662E2,1.296875E0,8.7109375E-1,1.8817663E-2,0E0,1.0078217E4,1.5768438E3,8.1585657E2,4.098633E0,8.5470215E1,3.671875E-1,0E0,1.6601562E-1,0E0,0E0,2.1596287E3,2.7121484E3,5.728125E1,0E0,7.2619946E2,0E0,2.7877846E1,2.96875E-1,0E0,0E0,4.716797E-1,0E0,0E0,0E0,0E0,0E0,0E0,0E0,0E0,0E0,0E0,0E0,0E0,0E0,0E0,0E0,0E0,0E0],"parents":[2147483647,0,0,1,1,2,2,3,3,4,4,5,5,6,6,9,9,10,10,11,11,12,12,13,13,15,15,16,16,17,17,18,18,19,19,20,20,22,22,25,25,26,26,27,27,29,29,31,31,32,32,35,35],"right_children":[2,4,6,8,10,12,14,-1,-1,16,18,20,22,24,-1,26,28,30,32,34,36,-1,38,-1,-1,40,42,44,-1,46,-1,48,50,-1,-1,52,-1,-1,-1,-1,-1,-1,-1,-1,-1,-1,-1,-1,-1,-1,-1,-1,-1],"split_conditions":[3.498358E-2,9E-3,9.650146E-1,7.168459E-3,1.51E-1,4.8E-2,4.7761194E-2,-1.1693509E-1,-1.1980361E-1,3.3333334E-1,1.2686567E-2,3.5028514E-2,1E0,8.064516E-4,-6.939139E-2,2.0960972E-2,5.3731345E-2,2.079463E-2,2.99E-1,8.264462E-3,3.3333334E-1,-1.1699649E-1,2.9850746E-2,5.7676263E-2,1.9097504E-1,1E-2,3.4486245E-2,2.3618332E-8,-1.1670705E-1,2.5527386E-8,-1.1705448E-1,2.0712925E-2,9.677419E-3,-1.1675087E-1,2.5233555E-1,4.4301845E-2,-1.1694093E-1,-1.16840236E-1,-1.1877831E-1,1.2495341E-1,-1.24305345E-1,1.2808299E-1,2.5563702E-1,2.3981677E-1,2.1050072E-1,2.663153E-1,-1.19884215E-1,2.2890475E-2,-1.1896765E-1,-1.1703068E-1,-1.0329894E-1,-1.16586745E-1,-1.1483236E-1],"split_indices":[7,8,8,8,8,8,6,0,0,10,6,7,4,2,0,7,6,7,8,8,10,0,6,0,0,8,7,0,0,0,0,7,2,0,0,7,0,0,0,0,0,0,0,0,0,0,0,0,0,0,0,0,0],"split_type":[0,0,0,0,0,0,0,0,0,0,0,0,0,0,0,0,0,0,0,0,0,0,0,0,0,0,0,0,0,0,0,0,0,0,0,0,0,0,0,0,0,0,0,0,0,0,0,0,0,0,0,0,0],"sum_hessian":[3.820699E5,1.6962677E5,2.1244314E5,2.4394338E4,1.4523242E5,2.124392E5,3.939375E0,2.1390176E4,3.004162E3,1.3466253E5,1.0569897E4,1.2728894E5,8.515026E4,2.6070683E0,1.3323066E0,3.544857E4,9.921395E4,2.355855E3,8.214042E3,1.2667523E3,1.2602219E5,3.3807844E4,5.1342418E4,1.3067479E0,1.3003204E0,7.157519E3,2.8291053E4,9.871343E4,5.0052206E2,8.4576666E2,1.5100883E3,3.9372955E2,7.8203125E3,1.242047E3,2.4705338E1,4.5462492E4,8.0559695E4,6.270698E3,4.507172E4,1.8876881E3,5.269831E3,1.0769696E4,1.7521355E4,9.5901516E4,2.8119165E3,5.4319775E2,3.0256894E2,6.630967E1,3.274199E2,7.6835405E3,1.3677191E2,2.9031896E4,1.6430596E4],"tree_param":{"num_deleted":"0","num_feature":"13","num_nodes":"53","size_leaf_vector":"1"}},{"base_weights":[2.3439823E-4,-4.448928E-1,7.0969826E-1,-4.9432883E-1,1.0214913E-1,1.2011054E0,-8.0308184E-2,-5.8468914E-1,-4.0911677E-1,8.6045367E-1,-5.732867E-1,1.2110817E0,-1.16471805E-1,1.1371676E0,-3.6094275E-1,-5.8583444E-1,7.5281894E-1,-5.795092E-1,-2.2641353E-1,1.1008297E0,-1.18252926E-1,2.800228E-1,-5.770502E-1,6.751813E-1,1.2117978E0,1.1992742E0,-5.7869977E-1,-5.669293E-1,3.654852E-1,-9.6321315E-2,-5.8846927E-1,3.2545525E-1,-5.284037E-1,-5.8007985E-1,8.543342E-2,1.04550034E-1,-5.7099414E-1,-1.16972916E-1,1.1801522E0,-1.0785903E-1,7.0065206E-1,-3.581882E-1,-5.810614E-1,2.4074633E-1,2.0520452E-1,1.2118921E0,6.047831E-1,-2.612376E-1,1.2126968E0,-3.3636352E-1,-1.19582854E-1,-5.8383113E-1,-5.033361E-1,7.160036E-1,-1.1830842E-1,1.110118E-1,-1.1669963E-1,-1.167232E-1,-1.1852944E-1,1.7719656E-2,-1.1467018E-1,-1.0653571E-1,-1.17000036E-1,-1.01482645E-1,1.1074467E-1,-1.0971588E-1,1.6116399E-1,-1.1566176E-1,-5.4369285E-3,2.4134277E-1,-1.13110304E-1,-1.2008884E-1,2.288558E-1,-1.1338168E-1,4.0839273E-3,-1.1138179E-1,-1.1655624E-1,-3.91265E-2,2.071228E-1,2.0239878E-1,2.4242298E-1,2.9826468E-2,2.0956829E-1,2.8539345E-1,-1.1509039E-1,2.4344948E-1,1.3278994E-1,2.0876813E-1,-1.21723235E-1,-1.16863586E-1,-1.1197996E-1,-7.1240105E-2,-1.1521689E-1,-1.1565395E-1,2.2600524E-1],"categories":[],"categories_nodes":[],"categories_segments":[],"categories_sizes":[],"default_left":[0,0,0,0,0,0,0,0,0,0,0,0,0,0,0,0,0,0,0,0,0,0,0,0,0,0,0,0,0,0,0,0,0,0,0,0,0,0,0,0,0,0,0,0,0,0,0,0,0,0,0,0,0,0,0,0,0,0,0,0,0,0,0,0,0,0,0,0,0,0,0,0,0,0,0,0,0,0,0,0,0,0,0,0,0,0,0,0,0,0,0,0,0,0,0],"id":16,"left_children":[1,3,5,7,9,11,13,15,17,19,21,23,-1,25,27,29,31,33,35,37,-1,39,41,43,45,47,49,51,53,55,57,-1,59,61,63,65,67,-1,69,-1,71,73,75,-1,77,79,81,83,85,87,-1,89,91,93,-1,-1,-1,-1,-1,-1,-1,-1,-1,-1,-1,-1,-1,-1,-1,-1,-1,-1,-1,-1,-1,-1,-1,-1,-1,-1,-1,-1,-1,-1,-1,-1,-1,-1,-1,-1,-1,-1,-1,-1,-1],"loss_changes":[1.2040202E5,6.335625E3,5.7062133E4,1.6541094E3,9.945776E3,1.6130391E3,1.9259521E4,1.6017188E2,3.4424102E3,3.1928906E3,3.314453E1,3.378125E1,0E0,1.1259824E3,6.8549272E3,1.3432422E2,1.0130073E2,2.1761719E1,6.085962E3,1.0501709E3,0E0,1.6152225E1,8.768799E0,3.0188023E1,4.40625E0,2.0009766E2,1.5195465E0,3.8067383E1,3.395499E3,1.7771068E2,1.7539062E0,0E0,1.080267E0,1.3021484E1,1.4143196E1,1.2468219E4,1.03981445E2,0E0,3.4827734E2,0E0,1.8395405E1,1.4760904E1,9.301758E-2,0E0,2.2191133E1,2.78125E0,3.0666528E0,5.0486668E1,2.4410156E1,1.1695176E1,0E0,1.953125E-3,8.008667E1,3.9703596E3,0E0,0E0,0E0,0E0,0E0,0E0,0E0,0E0,0E0,0E0,0E0,0E0,0E0,0E0,0E0,0E0,0E0,0E0,0E0,0E0,0E0,0E0,0E0,0E0,0E0,0E0,0E0,0E0,0E0,0E0,0E0,0E0,0E0,0E0,0E0,0E0,0E0,0E0,0E0,0E0,0E0],"parents":[2147483647,0,0,1,1,2,2,3,3,4,4,5,5,6,6,7,7,8,8,9,9,10,10,11,11,13,13,14,14,15,15,16,16,17,17,18,18,19,19,21,21,22,22,23,23,24,24,25,25,26,26,27,27,28,28,29,29,30,30,32,32,33,33,34,34,35,35,36,36,38,38,40,40,41,41,42,42,44,44,45,45,46,46,47,47,48,48,49,49,51,51,52,52,53,53],"right_children":[2,4,6,8,10,12,14,16,18,20,22,24,-1,26,28,30,32,34,36,38,-1,40,42,44,46,48,50,52,54,56,58,-1,60,62,64,66,68,-1,70,-1,72,74,76,-1,78,80,82,84,86,88,-1,90,92,94,-1,-1,-1,-1,-1,-1,-1,-1,-1,-1,-1,-1,-1,-1,-1,-1,-1,-1,-1,-1,-1,-1,-1,-1,-1,-1,-1,-1,-1,-1,-1,-1,-1,-1,-1,-1,-1,-1,-1,-1,-1],"split_conditions":[1E0,8.928572E-2,1.7920865E-8,3.3333334E-1,4.642857E-1,4.2042043E-2,3.3333334E-1,2.8403304E-7,3.880597E-2,3.4183672E-1,1.29E-1,3.4555712E-9,-1.16471805E-1,1.3630272E-7,8E-3,1.1094756E-10,7.168459E-3,3.2258064E-2,1.2486055E-8,3.3333334E-1,-1.18252926E-1,3.3333334E-1,4.857143E-1,8.264462E-3,1.6792224E-8,2.3300338E-8,2.8403304E-7,1.1457293E-7,1.3630272E-7,8.264462E-3,1.3E-2,3.2545525E-1,8.264462E-3,1.1094756E-10,7.168459E-3,1.1299645E-8,2.2580646E-2,-1.16972916E-1,1.5252185E-8,-1.0785903E-1,1.0850186E-8,1.78E-1,5.1785713E-1,2.4074633E-1,3.0612245E-2,4.6274042E-9,8.264462E-3,8.264462E-3,1E-2,7.168459E-3,-1.19582854E-1,3.811089E-8,1.2593493E-7,2.8903594E-8,-1.1830842E-1,1.110118E-1,-1.1669963E-1,-1.167232E-1,-1.1852944E-1,1.7719656E-2,-1.1467018E-1,-1.0653571E-1,-1.17000036E-1,-1.01482645E-1,1.1074467E-1,-1.0971588E-1,1.6116399E-1,-1.1566176E-1,-5.4369285E-3,2.4134277E-1,-1.13110304E-1,-1.2008884E-1,2.288558E-1,-1.1338168E-1,4.0839273E-3,-1.1138179E-1,-1.1655624E-1,-3.91265E-2,2.071228E-1,2.0239878E-1,2.4242298E-1,2.9826468E-2,2.0956829E-1,2.8539345E-1,-1.1509039E-1,2.4344948E-1,1.3278994E-1,2.0876813E-1,-1.21723235E-1,-1.16863586E-1,-1.1197996E-1,-7.1240105E-2,-1.1521689E-1,-1.1565395E-1,2.2600524E-1],"split_indices":[9,1,0,10,1,5,10,0,6,8,8,0,0,0,8,0,8,2,0,10,0,10,1,8,0,0,0,0,0,8,8,0,8,0,8,0,2,0,0,0,0,8,1,0,1,0,8,8,8,8,0,0,0,0,0,0,0,0,0,0,0,0,0,0,0,0,0,0,0,0,0,0,0,0,0,0,0,0,0,0,0,0,0,0,0,0,0,0,0,0,0,0,0,0,0],"split_type":[0,0,0,0,0,0,0,0,0,0,0,0,0,0,0,0,0,0,0,0,0,0,0,0,0,0,0,0,0,0,0,0,0,0,0,0,0,0,0,0,0,0,0,0,0,0,0,0,0,0,0,0,0,0,0,0,0,0,0,0,0,0,0,0,0,0,0,0,0,0,0,0,0,0,0,0,0,0,0,0,0,0,0,0,0,0,0,0,0,0,0,0,0,0,0],"sum_hessian":[3.8125638E5,2.342716E5,1.4698478E5,2.1485527E5,1.9416326E4,9.0617516E4,5.636727E4,1.0427471E5,1.10580555E5,9.146912E3,1.0269414E4,9.011376E4,5.0375644E2,1.0558467E4,4.5808805E4,1.0418606E5,8.864938E1,5.721687E4,5.3363688E4,7.8477246E3,1.2991874E3,4.477202E1,1.0224642E4,1.2152116E2,8.9992234E4,1.0189938E4,3.6852835E2,3.5689016E4,1.0119787E4,5.579849E2,1.0362808E5,5.2527996E1,3.6121384E1,5.7167938E4,4.893165E1,2.7220027E4,2.614366E4,3.524021E2,7.4953228E3,1.509238E1,2.9679638E1,1.8564581E2,1.0038996E4,5.646153E1,6.505962E1,8.997727E4,1.4964543E1,9.262756E1,1.0097311E4,2.8433023E1,3.4009534E2,2.8188803E4,7.500213E3,7.4071245E3,2.712663E3,2.3869635E2,3.1928857E2,4.8004645E4,5.562343E4,2.3867445E0,3.373464E1,5.3863506E3,5.178159E4,2.1557144E1,2.7374502E1,1.4093878E4,1.3126149E4,2.579661E4,3.4705075E2,7.3832915E3,1.1203124E2,7.4566965E0,2.2222942E1,1.19351814E2,6.6294E1,6.8889105E2,9.3501045E3,4.439477E1,2.0664854E1,1.0525395E2,8.9872016E4,8.036366E0,6.9281764E0,1.3979171E1,7.864839E1,1.0013056E4,8.425467E1,4.217585E0,2.4215439E1,2.7603848E4,5.8495404E2,2.4833882E3,5.0168247E3,1.7950947E3,5.61203E3],"tree_param":{"num_deleted":"0","num_feature":"13","num_nodes":"95","size_leaf_vector":"1"}},{"base_weights":[-5.0063396E-1,9.894822E-1,-5.024064E-1,-1.0064522E-1,9.310633E-2],"categories":[],"categories_nodes":[],"categories_segments":[],"categories_sizes":[],"default_left":[0,0,0,0,0],"id":17,"left_children":[1,-1,3,-1,-1],"loss_changes":[1.6082422E2,0E0,1.3239746E1,0E0,0E0],"parents":[2147483647,0,0,2,2],"right_children":[2,-1,4,-1,-1],"split_conditions":[2E-3,9.894822E-1,1.4285715E-1,-1.0064522E-1,9.310633E-2],"split_indices":[8,0,12,0,0],"split_type":[0,0,0,0,0],"sum_hessian":[1.6395701E4,4.425084E0,1.6391275E4,1.6377887E4,1.3389331E1],"tree_param":{"num_deleted":"0","num_feature":"13","num_nodes":"5","size_leaf_vector":"1"}},{"base_weights":[1.6425274E-2,1.9380178E-1,-5.503037E-1,4.471618E-1,-1.3613504E-1,-5.729551E-1,2.5187096E-1,9.5737803E-1,1.7106852E-1,-3.4544057E-1,9.905679E-1,-5.729951E-1,2.323414E-1,-5.5240816E-1,4.5429373E-1,9.027269E-1,1.4399452E0,-5.0247556E-1,3.1417978E-1,-3.9959854E-1,9.609026E-1,-6.964071E-2,1.9815022E-1,-1.3779953E-1,-5.730205E-1,1.0679549E-1,-6.648915E-2,-1.16587535E-1,-2.9058447E-1,1.1780875E0,3.0002677E-1,9.7955877E-1,-4.9989045E-1,1.526401E0,-1.175152E-1,5.7929057E-1,-5.4132193E-1,-1.16642855E-1,3.803581E-1,-5.2701885E-1,-8.429903E-2,1.9803725E-1,-1.17054425E-1,6.297042E-2,-8.848712E-2,-5.779331E-1,-5.701296E-1,1.8130575E-1,-1.14292644E-1,-1.15412466E-1,1.3143821E0,-8.167458E-2,6.6041774E-1,2.0309749E-1,1.3298813E-1,-1.0296469E-1,2.050732E-1,3.1460688E-1,-1.1919536E-1,1.9671611E-1,-1.2509029E-1,-1.10266045E-1,1.3401869E-2,2.0676343E-1,6.095271E-2,-1.1063645E-1,-3.4232926E-2,-1.1143885E-1,2.2176677E-2,-1.156173E-1,-9.494379E-2,-1.14067845E-1,-1.0663358E-1,-1.102004E-1,2.7448937E-1,2.900194E-2,-7.622307E-2,3.2633206E-1,8.352345E-2],"categories":[],"categories_nodes":[],"categories_segments":[],"categories_sizes":[],"default_left":[0,0,0,0,0,0,0,0,0,0,0,0,0,0,0,0,0,0,0,0,0,0,0,0,0,0,0,0,0,0,0,0,0,0,0,0,0,0,0,0,0,0,0,0,0,0,0,0,0,0,0,0,0,0,0,0,0,0,0,0,0,0,0,0,0,0,0,0,0,0,0,0,0,0,0,0,0,0,0],"id":18,"left_children":[1,3,5,7,9,11,13,15,17,19,21,23,25,27,29,31,33,35,37,39,41,-1,-1,43,45,-1,-1,-1,47,49,51,53,55,57,-1,59,61,-1,63,65,67,-1,-1,-1,-1,69,71,-1,-1,-1,73,75,77,-1,-1,-1,-1,-1,-1,-1,-1,-1,-1,-1,-1,-1,-1,-1,-1,-1,-1,-1,-1,-1,-1,-1,-1,-1,-1],"loss_changes":[3.6203656E4,2.2929355E4,1.5600781E3,2.1855986E4,2.8097543E4,2.8242188E0,3.841959E2,1.4354492E3,9.704571E3,7.1091826E3,4.921875E0,8.457031E-1,1.00627E0,3.624649E0,2.1008386E2,5.274426E3,9.720801E2,7.4172217E2,4.931495E3,3.8761006E3,1.8169531E2,0E0,0E0,9.919122E-1,8.5546875E-1,0E0,0E0,0E0,1.7854847E1,7.988605E1,2.1394756E2,5.237969E2,5.8430664E1,5.268916E2,0E0,2.987403E2,1.0373291E2,0E0,3.819753E3,6.396328E2,2.5631992E3,0E0,0E0,0E0,0E0,2.1386719E-1,1.03515625E-1,0E0,0E0,0E0,3.4035034E1,5.1372124E1,1.8794525E2,0E0,0E0,0E0,0E0,0E0,0E0,0E0,0E0,0E0,0E0,0E0,0E0,0E0,0E0,0E0,0E0,0E0,0E0,0E0,0E0,0E0,0E0,0E0,0E0,0E0,0E0],"parents":[2147483647,0,0,1,1,2,2,3,3,4,4,5,5,6,6,7,7,8,8,9,9,10,10,11,11,12,12,13,13,14,14,15,15,16,16,17,17,18,18,19,19,20,20,23,23,24,24,28,28,29,29,30,30,31,31,32,32,33,33,35,35,36,36,38,38,39,39,40,40,45,45,46,46,50,50,51,51,52,52],"right_children":[2,4,6,8,10,12,14,16,18,20,22,24,26,28,30,32,34,36,38,40,42,-1,-1,44,46,-1,-1,-1,48,50,52,54,56,58,-1,60,62,-1,64,66,68,-1,-1,-1,-1,70,72,-1,-1,-1,74,76,78,-1,-1,-1,-1,-1,-1,-1,-1,-1,-1,-1,-1,-1,-1,-1,-1,-1,-1,-1,-1,-1,-1,-1,-1,-1,-1],"split_conditions":[1E0,3.3333334E-1,2.2630848E-6,3.403919E-2,6.666667E-1,6.9755875E-2,8.634717E-3,3.3579502E-2,2.5E-1,4.477612E-2,4.8266454E-3,4.6640835E-4,3.0612245E-2,5.0683892E-3,3.3333334E-1,2.105803E-2,1.2686567E-2,3.4486245E-2,3.5028514E-2,3.5857067E-2,1.1457293E-7,-6.964071E-2,1.9815022E-1,3.3333334E-1,3.3333334E-1,1.0679549E-1,-6.648915E-2,-1.16587535E-1,3.3333334E-1,2.9850746E-2,3.2151945E-2,2.098208E-2,4.477612E-2,1.1863561E-8,-1.175152E-1,1.1497784E-8,2.298882E-8,-1.16642855E-1,5.255597E-2,2.3961434E-8,1E0,1.9803725E-1,-1.17054425E-1,6.297042E-2,-8.848712E-2,1.3746997E-7,9.154818E-7,1.8130575E-1,-1.14292644E-1,-1.15412466E-1,1E0,2.113336E-2,5.255597E-2,2.0309749E-1,1.3298813E-1,-1.0296469E-1,2.050732E-1,3.1460688E-1,-1.1919536E-1,1.9671611E-1,-1.2509029E-1,-1.10266045E-1,1.3401869E-2,2.0676343E-1,6.095271E-2,-1.1063645E-1,-3.4232926E-2,-1.1143885E-1,2.2176677E-2,-1.156173E-1,-9.494379E-2,-1.14067845E-1,-1.0663358E-1,-1.102004E-1,2.7448937E-1,2.900194E-2,-7.622307E-2,3.2633206E-1,8.352345E-2],"split_indices":[9,10,0,7,10,7,7,7,4,6,7,7,1,7,10,7,6,7,7,7,0,0,0,10,10,0,0,0,10,6,7,7,6,0,0,0,0,0,7,0,4,0,0,0,0,0,0,0,0,0,4,7,7,0,0,0,0,0,0,0,0,0,0,0,0,0,0,0,0,0,0,0,0,0,0,0,0,0,0],"split_type":[0,0,0,0,0,0,0,0,0,0,0,0,0,0,0,0,0,0,0,0,0,0,0,0,0,0,0,0,0,0,0,0,0,0,0,0,0,0,0,0,0,0,0,0,0,0,0,0,0,0,0,0,0,0,0,0,0,0,0,0,0,0,0,0,0,0,0,0,0,0,0,0,0,0,0,0,0,0,0],"sum_hessian":[3.6014588E5,2.7429644E5,8.584945E4,1.551532E5,1.1914322E5,8.349213E4,2.3573198E3,5.447737E4,1.00675836E5,1.0047826E5,1.8664965E4,8.3488266E4,3.8647025E0,4.736509E2,1.8836691E3,4.8937977E4,5.5393955E3,1.7642062E4,8.303377E4,9.647915E4,3.9991099E3,2.2930727E0,1.8662672E4,5.183085E0,8.348308E4,2.554807E0,1.3098955E0,4.230907E2,5.056022E1,3.2977682E2,1.5538922E3,4.639678E4,2.5411968E3,5.3130864E3,2.2630894E2,6.1108466E2,1.7030979E4,5.702239E3,7.733153E4,6.871076E4,2.7768389E4,3.9251296E3,7.3980225E1,2.0715227E0,3.1115623E0,3.0853826E4,5.2629254E4,9.185192E0,4.1375027E1,2.3530178E1,3.0624664E2,7.550104E2,7.9888184E2,4.163943E4,4.757352E3,2.5172146E3,2.3982302E1,5.1991094E3,1.13977394E2,4.576792E2,1.5340544E2,1.6755412E4,2.755662E2,8.0170835E3,6.9314445E4,6.400443E4,4.706331E3,8.1121396E3,1.9656248E4,3.0803438E4,5.0388313E1,5.2318066E4,3.1118988E2,8.988651E0,2.97258E2,4.3000293E2,3.2500745E2,1.5862701E2,6.402548E2],"tree_param":{"num_deleted":"0","num_feature":"13","num_nodes":"79","size_leaf_vector":"1"}},{"base_weights":[-3.3133144E-3,5.9544235E-1,-5.0610214E-1,-5.689094E-1,9.678546E-1,-1.4987114E-1,-5.6299406E-1,-1.1379255E-1,-2.3925674E-1,9.942903E-1,-1.1452552E-1,5.43295E-1,-5.663567E-1,-4.6478423E-1,-5.669601E-1,8.8356584E-2,-9.394864E-2,-1.05503656E-1,9.944016E-1,-1.1726934E-1,9.401088E-1,-1.1215031E-1,-1.14041984E-1,-1.4212918E-1,-5.664704E-1,-5.354192E-1,-5.7470447E-1,9.940188E-1,2.2180712E-1,-1.167464E-1,9.574463E-1,-3.7217024E-1,8.917482E-1,-3.9868167E-1,-1.1495081E-1,-5.440402E-1,-2.0480427E-1,5.2335507E-1,-5.7503706E-1,2.2530381E-1,1.9873877E-1,2.0380953E-1,1.451265E-1,-8.373123E-2,9.335734E-2,-1.1127929E-1,2.5863612E-1,-1.1346876E-1,3.7100896E-1,-1.12611726E-1,-9.478655E-2,1.0272588E-1,-1.1373069E-1,3.3650237E-1,-1.1193068E-1,-1.1562578E-1,-1.1432345E-1],"categories":[],"categories_nodes":[],"categories_segments":[],"categories_sizes":[],"default_left":[0,0,0,0,0,0,0,0,0,0,0,0,0,0,0,0,0,0,0,0,0,0,0,0,0,0,0,0,0,0,0,0,0,0,0,0,0,0,0,0,0,0,0,0,0,0,0,0,0,0,0,0,0,0,0,0,0],"id":19,"left_children":[1,3,5,7,9,11,13,-1,15,17,-1,19,21,23,25,-1,-1,-1,27,-1,29,-1,-1,31,33,35,37,39,-1,-1,41,43,45,47,-1,49,51,53,55,-1,-1,-1,-1,-1,-1,-1,-1,-1,-1,-1,-1,-1,-1,-1,-1,-1,-1],"loss_changes":[1.0658007E5,7.007061E4,3.8999727E3,5.5371094E-1,4.986539E3,7.651323E3,6.436328E1,0E0,1.4736183E0,2.0898438E1,0E0,4.4596255E3,3.7597656E-2,2.1142554E2,3.8652344E1,0E0,0E0,0E0,4.1875E0,0E0,1.9506055E2,0E0,0E0,3.6805298E2,6.583374E0,8.9543945E1,4.7054688E1,4.046875E0,0E0,0E0,1.0321289E2,4.954657E1,1.6447993E2,8.994665E1,0E0,4.0606445E1,2.09668E2,5.0263638E1,1.0234375E0,0E0,0E0,0E0,0E0,0E0,0E0,0E0,0E0,0E0,0E0,0E0,0E0,0E0,0E0,0E0,0E0,0E0,0E0],"parents":[2147483647,0,0,1,1,2,2,3,3,4,4,5,5,6,6,8,8,9,9,11,11,12,12,13,13,14,14,18,18,20,20,23,23,24,24,25,25,26,26,27,27,30,30,31,31,32,32,33,33,35,35,36,36,37,37,38,38],"right_children":[2,4,6,8,10,12,14,-1,16,18,-1,20,22,24,26,-1,-1,-1,28,-1,30,-1,-1,32,34,36,38,40,-1,-1,42,44,46,48,-1,50,52,54,56,-1,-1,-1,-1,-1,-1,-1,-1,-1,-1,-1,-1,-1,-1,-1,-1,-1,-1],"split_conditions":[7.168459E-3,3.3333334E-1,8.264462E-3,7.017623E-2,3.7888706E-2,3.6440432E-2,1.48960315E-2,-1.1379255E-1,2E-1,2.1116504E-2,-1.1452552E-1,3.3333334E-1,3.3333334E-1,3.3333334E-1,1.1E-2,8.8356584E-2,-9.394864E-2,-1.05503656E-1,7.2580646E-3,-1.1726934E-1,2.1146959E-2,-1.1215031E-1,-1.14041984E-1,2E-1,1.3E-2,3.9039038E-2,1.5353379E-2,3.472827E-2,2.2180712E-1,-1.167464E-1,3.5779536E-2,6.451613E-3,2.1021022E-2,1E-2,-1.1495081E-1,1.2762763E-2,3.6130805E-2,1.2E-2,3.3333334E-1,2.2530381E-1,1.9873877E-1,2.0380953E-1,1.451265E-1,-8.373123E-2,9.335734E-2,-1.1127929E-1,2.5863612E-1,-1.1346876E-1,3.7100896E-1,-1.12611726E-1,-9.478655E-2,1.0272588E-1,-1.1373069E-1,3.3650237E-1,-1.1193068E-1,-1.1562578E-1,-1.1432345E-1],"split_indices":[8,10,8,7,7,7,7,0,4,7,0,10,10,10,8,0,0,0,2,0,7,0,0,4,8,5,7,7,0,0,7,2,5,8,0,5,7,8,10,0,0,0,0,0,0,0,0,0,0,0,0,0,0,0,0,0,0],"split_type":[0,0,0,0,0,0,0,0,0,0,0,0,0,0,0,0,0,0,0,0,0,0,0,0,0,0,0,0,0,0,0,0,0,0,0,0,0,0,0,0,0,0,0,0,0,0,0,0,0,0,0,0,0,0,0,0,0],"sum_hessian":[3.5402853E5,1.6159266E5,1.9243588E5,3.915949E4,1.2243317E5,2.650119E4,1.6593469E5,3.915242E4,7.0658116E0,1.2036793E5,2.0652388E3,9.946577E3,1.6554611E4,6.4454775E3,1.5948922E5,1.5548401E0,5.5109715E0,8.451434E0,1.20359484E5,2.5855645E3,7.361012E3,6.8038086E3,9.750804E3,1.5451234E3,4.900354E3,3.1454277E4,1.2803494E5,1.1996857E5,3.9090915E2,8.244043E1,7.278572E3,1.2644248E3,2.8069858E2,2.3285934E2,4.6674946E3,3.0654303E4,7.999744E2,3.828862E1,1.2799665E5,2.850455E2,1.1968352E5,5.747783E3,1.5307888E3,1.198517E3,6.5907845E1,6.083907E1,2.1985953E2,2.1734236E2,1.5516985E1,2.410749E4,6.5468135E3,2.6880243E2,5.31172E2,1.8226757E1,2.0061865E1,6.713355E4,6.0863098E4],"tree_param":{"num_deleted":"0","num_feature":"13","num_nodes":"57","size_leaf_vector":"1"}},{"base_weights":[8.143022E-3,-5.3146183E-1,2.7424413E-1,-5.547879E-1,-1.5089373E-1,4.4200742E-1,-5.031053E-1,-2.5572136E-1,-5.707391E-1,3.743987E-1,-5.25532E-1,5.5847245E-1,-1.1364951E-1,-5.5438143E-1,2.029806E-1,-1.129023E-1,-2.050085E-1,-1.1420938E-1,1.14930876E-1,4.486084E-1,-1.1414053E-1,-5.2922297E-1,1.4137019E-1,7.057076E-1,2.0037635E-1,-5.681822E-1,7.0207417E-3,-4.2864355E-1,-1.9919676E-1,5.374412E-1,-5.4706093E-2,3.8283882E-1,8.6128485E-1,-1.07815325E-1,-1.00195765E-1,-2.582066E-1,3.2419595E-1,9.4663644E-1,6.308882E-1,7.7045304E-1,-5.5537666E-3,-5.686565E-1,5.142337E-1,1.6642569E-1,-5.1881474E-1,-8.662631E-2,-3.9989877E-2,-3.9908003E-2,1.1640378E-1,6.284057E-2,1.9588917E-1,-4.3414768E-2,4.8931587E-2,-1.1438159E-1,9.6553944E-2,-8.716904E-2,1.929171E-1,-8.346739E-2,-2.2020875E-2,-7.388073E-2,8.641701E-2,1.9377378E-1,-2.18806E-2,9.4409466E-2,1.4123656E-1,1.9690706E-1,1.1627442E-1,4.1753385E-2,-5.6714576E-2,-1.13759175E-1,1.2730122E-1,1.828565E-1,-1.0316819E-1,5.231753E-2,-6.4394556E-2,-1.1534267E-1,4.6151917E-2],"categories":[],"categories_nodes":[],"categories_segments":[],"categories_sizes":[],"default_left":[0,0,0,0,0,0,0,0,0,0,0,0,0,0,0,0,0,0,0,0,0,0,0,0,0,0,0,0,0,0,0,0,0,0,0,0,0,0,0,0,0,0,0,0,0,0,0,0,0,0,0,0,0,0,0,0,0,0,0,0,0,0,0,0,0,0,0,0,0,0,0,0,0,0,0,0,0],"id":20,"left_children":[1,3,5,7,9,11,13,15,17,19,21,23,-1,25,-1,-1,27,-1,29,31,-1,33,35,37,39,41,43,45,47,49,51,53,55,-1,-1,57,59,61,63,65,67,69,71,73,75,-1,-1,-1,-1,-1,-1,-1,-1,-1,-1,-1,-1,-1,-1,-1,-1,-1,-1,-1,-1,-1,-1,-1,-1,-1,-1,-1,-1,-1,-1,-1,-1],"loss_changes":[5.2257547E4,1.0669258E3,3.1786447E4,5.401406E2,1.3665688E3,2.3588047E4,3.3682607E3,8.971756E1,2.2753906E1,2.0301755E2,1.0051758E1,9.477207E3,0E0,3.2426855E2,0E0,0E0,6.3208466E0,0E0,3.5467868E0,7.243884E1,0E0,8.5180664E-1,1.7710804E0,2.2955508E3,6.1485977E3,2.1263672E1,8.433883E1,4.06456E-2,1.4048462E0,1.0886016E0,1.7992626E0,2.2108237E2,4.9697296E1,0E0,0E0,1.3805246E-1,1.3786579E0,7.087207E2,1.1621484E3,5.620342E2,2.292723E3,7.2197266E0,8.061245E0,3.5968292E1,1.0291424E1,0E0,0E0,0E0,0E0,0E0,0E0,0E0,0E0,0E0,0E0,0E0,0E0,0E0,0E0,0E0,0E0,0E0,0E0,0E0,0E0,0E0,0E0,0E0,0E0,0E0,0E0,0E0,0E0,0E0,0E0,0E0,0E0],"parents":[2147483647,0,0,1,1,2,2,3,3,4,4,5,5,6,6,7,7,8,8,9,9,10,10,11,11,13,13,16,16,18,18,19,19,21,21,22,22,23,23,24,24,25,25,26,26,27,27,28,28,29,29,30,30,31,31,32,32,35,35,36,36,37,37,38,38,39,39,40,40,41,41,42,42,43,43,44,44],"right_children":[2,4,6,8,10,12,14,16,18,20,22,24,-1,26,-1,-1,28,-1,30,32,-1,34,36,38,40,42,44,46,48,50,52,54,56,-1,-1,58,60,62,64,66,68,70,72,74,76,-1,-1,-1,-1,-1,-1,-1,-1,-1,-1,-1,-1,-1,-1,-1,-1,-1,-1,-1,-1,-1,-1,-1,-1,-1,-1,-1,-1,-1,-1,-1,-1],"split_conditions":[2.9850746E-2,2.8403304E-7,2.1021022E-2,1.1094756E-10,4.5749657E-6,1E0,4.804805E-2,1.7910447E-2,2.5806451E-2,7.2580646E-3,2.2580646E-2,3.3333334E-1,-1.1364951E-1,2.2630848E-6,2.029806E-1,-1.129023E-1,3.3333334E-1,-1.1420938E-1,2.635747E-9,6.451613E-3,-1.1414053E-1,6.0170074E-4,2.9694327E-4,5E-1,1.1342836E-8,4.2042043E-2,1E0,2.1021022E-2,7.5075077E-4,2.0075839E-9,1.26922926E-8,1E0,3.3333334E-1,-1.07815325E-1,-1.00195765E-1,1.1175916E-4,3.3333334E-1,2.2968575E-8,1.2762763E-2,6E-1,2.2507507E-8,2.2580646E-2,1E0,4.2042043E-2,3.3033032E-2,-8.662631E-2,-3.9989877E-2,-3.9908003E-2,1.1640378E-1,6.284057E-2,1.9588917E-1,-4.3414768E-2,4.8931587E-2,-1.1438159E-1,9.6553944E-2,-8.716904E-2,1.929171E-1,-8.346739E-2,-2.2020875E-2,-7.388073E-2,8.641701E-2,1.9377378E-1,-2.18806E-2,9.4409466E-2,1.4123656E-1,1.9690706E-1,1.1627442E-1,4.1753385E-2,-5.6714576E-2,-1.13759175E-1,1.2730122E-1,1.828565E-1,-1.0316819E-1,5.231753E-2,-6.4394556E-2,-1.1534267E-1,4.6151917E-2],"split_indices":[6,0,5,0,0,11,5,6,2,2,2,10,0,0,0,0,10,0,0,2,0,0,0,4,0,5,4,5,5,0,0,4,10,0,0,0,10,0,5,4,0,2,9,5,5,0,0,0,0,0,0,0,0,0,0,0,0,0,0,0,0,0,0,0,0,0,0,0,0,0,0,0,0,0,0,0,0],"split_type":[0,0,0,0,0,0,0,0,0,0,0,0,0,0,0,0,0,0,0,0,0,0,0,0,0,0,0,0,0,0,0,0,0,0,0,0,0,0,0,0,0,0,0,0,0,0,0,0,0,0,0,0,0,0,0,0,0,0,0,0,0,0,0,0,0,0,0,0,0,0,0,0,0,0,0,0,0],"sum_hessian":[3.639352E5,1.2019682E5,2.4373838E5,1.1325469E5,6.9421357E3,2.0047367E5,4.32647E4,5.73562E3,1.0751906E5,2.889989E3,4.0521465E3,1.7975183E5,2.0721848E4,4.1851645E4,1.4130532E3,8.0765936E2,4.927961E3,1.0747099E5,4.8075207E1,2.680074E3,2.0991505E2,4.0300486E3,2.2097921E1,1.27378E5,5.237383E4,4.0847496E4,1.0041504E3,1.2297938E2,4.8049814E3,1.3151336E1,3.492387E1,2.3133203E3,3.667537E2,2.9743079E3,1.0557406E3,6.807471E0,1.5290451E1,3.0180604E4,9.71974E4,1.3897795E4,3.847603E4,4.083008E4,1.741783E1,7.7108307E2,2.3306728E2,1.19735695E2,3.2436857E0,4.803615E3,1.3659816E0,9.874826E0,3.2765088E0,2.2821129E1,1.210274E1,2.1874002E2,2.0945803E3,2.681555E1,3.3993814E2,2.4052367E0,4.402234E0,1.7319746E0,1.3558476E1,2.9558402E4,6.221997E2,3.1259607E4,6.593779E4,6.5160044E3,7.381791E3,2.1727152E4,1.674888E4,4.0825887E4,4.1924243E0,1.2626503E1,4.791327E0,6.457302E2,1.2535287E2,2.1656964E2,1.6497648E1],"tree_param":{"num_deleted":"0","num_feature":"13","num_nodes":"77","size_leaf_vector":"1"}},{"base_weights":[-2.500864E-4,6.29142E-1,-5.717195E-1,-5.7188123E-1,8.020471E-1,-5.718859E-1,1.9319788E-1,-6.372594E-2,-5.7195383E-1,8.895873E-1,-4.6513373E-1,-5.719087E-1,5.0056195E-1,-1.1404973E-1,-1.1672647E-1,6.33469E-1,9.8115563E-1,-1.2754364E-1,-5.662471E-1,-5.682344E-1,-5.7736725E-1,1.5235401E-2,1.6185686E-1,-2.6418224E-1,8.3609647E-1,9.8788375E-1,-1.1382868E-1,5.2046144E-1,-5.692679E-1,-5.678927E-1,2.341334E-1,-5.647898E-1,-1.1402392E-1,-1.1409724E-1,-5.817213E-1,1.06697574E-1,-1.19489565E-1,9.428691E-2,2.0530081E-1,-1.12382405E-1,1.9760762E-1,1.9568332E-1,-1.1831899E-1,-1.1407816E-1,7.826549E-2,-9.528324E-2,-1.1449372E-1,1.887992E-1,-1.1299639E-1,-1.1665379E-1,-1.1401866E-1],"categories":[],"categories_nodes":[],"categories_segments":[],"categories_sizes":[],"default_left":[0,0,0,0,0,0,0,0,0,0,0,0,0,0,0,0,0,0,0,0,0,0,0,0,0,0,0,0,0,0,0,0,0,0,0,0,0,0,0,0,0,0,0,0,0,0,0,0,0,0,0],"id":21,"left_children":[1,3,5,7,9,11,-1,-1,13,15,17,19,21,-1,-1,23,25,27,29,31,33,-1,-1,35,37,39,-1,41,43,45,-1,47,-1,-1,49,-1,-1,-1,-1,-1,-1,-1,-1,-1,-1,-1,-1,-1,-1,-1,-1],"loss_changes":[1.2781961E5,3.5119484E4,4.8203125E1,2.0898438E-1,1.6399438E4,4.84375E0,0E0,0E0,9.082031E-2,3.2423828E3,3.2603296E2,3.40625E0,5.274528E-1,0E0,0E0,6.6248047E3,1.0630312E3,6.3093567E2,2.1676025E1,4.0234375E-1,1.9101562E0,0E0,0E0,1.7835647E3,2.0626895E3,2.48125E1,0E0,4.556588E2,1.6368408E0,2.8017578E0,0E0,1.1984375E1,0E0,0E0,4.9121094E-1,0E0,0E0,0E0,0E0,0E0,0E0,0E0,0E0,0E0,0E0,0E0,0E0,0E0,0E0,0E0,0E0],"parents":[2147483647,0,0,1,1,2,2,3,3,4,4,5,5,8,8,9,9,10,10,11,11,12,12,15,15,16,16,17,17,18,18,19,19,20,20,23,23,24,24,25,25,27,27,28,28,29,29,31,31,34,34],"right_children":[2,4,6,8,10,12,-1,-1,14,16,18,20,22,-1,-1,24,26,28,30,32,34,-1,-1,36,38,40,-1,42,44,46,-1,48,-1,-1,50,-1,-1,-1,-1,-1,-1,-1,-1,-1,-1,-1,-1,-1,-1,-1,-1],"split_conditions":[3.498358E-2,9E-3,1E0,4.6640835E-4,1.51E-1,9.650146E-1,1.9319788E-1,-6.372594E-2,7.168459E-3,3.3333334E-1,1.2686567E-2,8.2E-2,8.064516E-4,-1.1404973E-1,-1.1672647E-1,2.0960972E-2,5.3731345E-2,2.079463E-2,1E0,3.3333334E-1,1E0,1.5235401E-2,1.6185686E-1,1E-2,3.403919E-2,4.6640835E-4,-1.1382868E-1,8.064516E-4,4.67E-1,3.01E-1,2.341334E-1,3.5028514E-2,-1.1402392E-1,-1.1409724E-1,2.1021022E-2,1.06697574E-1,-1.19489565E-1,9.428691E-2,2.0530081E-1,-1.12382405E-1,1.9760762E-1,1.9568332E-1,-1.1831899E-1,-1.1407816E-1,7.826549E-2,-9.528324E-2,-1.1449372E-1,1.887992E-1,-1.1299639E-1,-1.1665379E-1,-1.1401866E-1],"split_indices":[7,8,11,7,8,8,0,0,8,10,6,8,2,0,0,7,6,7,11,10,4,0,0,8,7,7,0,2,8,8,0,7,0,0,5,0,0,0,0,0,0,0,0,0,0,0,0,0,0,0,0],"split_type":[0,0,0,0,0,0,0,0,0,0,0,0,0,0,0,0,0,0,0,0,0,0,0,0,0,0,0,0,0,0,0,0,0,0,0,0,0,0,0,0,0,0,0,0,0,0,0,0,0,0,0],"sum_hessian":[3.5537E5,1.6911445E5,1.8625555E5,2.1282297E4,1.4783216E5,1.8623603E5,1.952211E1,7.359125E0,2.127494E4,1.3827972E5,9.552431E3,1.8623253E5,3.496372E0,1.8607861E4,2.6670781E3,3.6420066E4,1.0185966E5,2.2021873E3,7.350243E3,1.1137082E5,7.486172E4,1.9973986E0,1.4989734E0,6.707069E3,2.9712998E4,1.0141987E5,4.397888E2,8.925894E2,1.309598E3,7.3439585E3,6.2845826E0,3.949833E4,7.187249E4,2.9062871E4,4.5798844E4,1.9762706E3,4.730798E3,1.0193754E4,1.9519244E4,9.73938E0,1.0141013E5,6.32316E2,2.602734E2,1.3084747E3,1.1232635E0,3.5487146E2,6.989087E3,4.4039435E0,3.9493926E4,4.037587E4,5.422972E3],"tree_param":{"num_deleted":"0","num_feature":"13","num_nodes":"51","size_leaf_vector":"1"}},{"base_weights":[-1.3214573E-3,-4.2156485E-1,5.657146E-1,-5.662593E-1,4.5108233E-2,-1.9707526E-1,9.537856E-1,-5.6726307E-1,-4.7794834E-1,1.0186225E0,-5.7605153E-1,9.8385704E-1,-5.4361457E-1,9.5725214E-1,-5.706176E-1,-5.63606E-1,-5.764282E-1,2.3082876E-1,-5.3309596E-1,-1.12998605E-1,1.047347E0,-1.1139604E-1,-5.7977444E-1,-5.5428916E-1,1.9984424E-1,-3.4331143E-1,-5.624267E-1,9.915344E-1,8.774433E-1,-1.15319334E-1,-2.1576992E-1,-5.6473583E-1,4.282373E-1,-5.6616074E-1,-5.871872E-1,-1.12400725E-1,1.364888E0,-4.130772E-1,-1.14698045E-1,1.053423E0,8.717351E-1,-1.1420615E-1,-1.1648748E-1,7.636159E-2,-1.13833524E-1,-1.142859E-1,2.7288854E-1,-1.1406708E-1,-3.8784927E-1,1.0003319E0,9.6541E-1,-2.9361507E-2,9.890777E-1,8.892683E-2,-1.01449005E-1,-1.14232875E-1,-1.01445556E-1,-1.1477194E-1,3.2469824E-1,-1.1437272E-1,-1.1051108E-1,-1.1859881E-1,-1.1683774E-1,-1.003951E-1,3.54022E-1,-1.13425516E-1,4.4021092E-2,2.1474612E-1,2.0557244E-1,-8.225839E-2,1.8088554E-1,2.1083705E-1,-9.9516235E-2,-1.1464658E-1,1.6240169E-1,2.0014809E-1,-1.2214506E-1,-1.1575625E-1,1.9752596E-1,1.5749459E-1,-9.486702E-2,-1.1149011E-1,1.9814086E-1],"categories":[],"categories_nodes":[],"categories_segments":[],"categories_sizes":[],"default_left":[0,0,0,0,0,0,0,0,0,0,0,0,0,0,0,0,0,0,0,0,0,0,0,0,0,0,0,0,0,0,0,0,0,0,0,0,0,0,0,0,0,0,0,0,0,0,0,0,0,0,0,0,0,0,0,0,0,0,0,0,0,0,0,0,0,0,0,0,0,0,0,0,0,0,0,0,0,0,0,0,0,0,0],"id":22,"left_children":[1,3,5,7,9,11,13,15,17,19,21,23,25,27,29,31,33,35,37,-1,39,-1,41,43,-1,45,47,49,51,-1,53,55,57,59,61,-1,63,65,-1,67,69,-1,-1,-1,-1,-1,71,-1,73,75,77,79,81,-1,-1,-1,-1,-1,-1,-1,-1,-1,-1,-1,-1,-1,-1,-1,-1,-1,-1,-1,-1,-1,-1,-1,-1,-1,-1,-1,-1,-1,-1],"loss_changes":[8.449905E4,1.3752328E4,4.4680594E4,1.3511719E1,2.914896E4,2.0829803E4,5.292031E2,4.828125E0,6.866089E1,8.5469727E2,1.7666016E0,2.7344922E2,1.4808594E2,2.7222656E2,3.5850525E-1,1.2340625E2,4.506836E0,1.1520627E2,7.6517334E0,0E0,1.8759766E1,0E0,2.4023438E-1,1.8168755E0,0E0,4.7541602E2,4.944336E1,1.50859375E1,3.0371016E3,0E0,1.2591329E0,4.030078E1,1.5140108E2,1.4243164E0,2.5390625E-2,0E0,4.0726746E1,4.044094E1,0E0,8.146484E0,2.6484924E1,0E0,0E0,0E0,0E0,0E0,5.5082104E2,0E0,3.4792166E2,3.4964844E1,6.050215E2,1.1960184E3,6.774805E1,0E0,0E0,0E0,0E0,0E0,0E0,0E0,0E0,0E0,0E0,0E0,0E0,0E0,0E0,0E0,0E0,0E0,0E0,0E0,0E0,0E0,0E0,0E0,0E0,0E0,0E0,0E0,0E0,0E0,0E0],"parents":[2147483647,0,0,1,1,2,2,3,3,4,4,5,5,6,6,7,7,8,8,9,9,10,10,11,11,12,12,13,13,14,14,15,15,16,16,17,17,18,18,20,20,22,22,23,23,25,25,26,26,27,27,28,28,30,30,31,31,32,32,33,33,34,34,36,36,37,37,39,39,40,40,46,46,48,48,49,49,50,50,51,51,52,52],"right_children":[2,4,6,8,10,12,14,16,18,20,22,24,26,28,30,32,34,36,38,-1,40,-1,42,44,-1,46,48,50,52,-1,54,56,58,60,62,-1,64,66,-1,68,70,-1,-1,-1,-1,-1,72,-1,74,76,78,80,82,-1,-1,-1,-1,-1,-1,-1,-1,-1,-1,-1,-1,-1,-1,-1,-1,-1,-1,-1,-1,-1,-1,-1,-1,-1,-1,-1,-1,-1,-1],"split_conditions":[2.1021022E-2,5.3245086E-2,3.6440432E-2,5.310455E-2,6.884636E-2,6.960557E-3,6.884636E-2,1.62E-1,8.264462E-3,3.3333334E-1,1.29E-1,2.1006444E-2,3.3333334E-1,8.264462E-3,1.99E-1,1.44E-1,3.3333334E-1,1.2762763E-2,1E-2,-1.12998605E-1,5.5451427E-2,-1.1139604E-1,2.5E-1,2E-1,1.9984424E-1,2.1220362E-2,2.1E-2,4.0980347E-2,5.3245086E-2,-1.15319334E-1,9.650146E-1,3.6440432E-2,2.1146959E-2,1.0357143E-1,1.2762763E-2,-1.12400725E-1,3.3333334E-1,1.2762763E-2,-1.14698045E-1,1.29E-1,1.2762763E-2,-1.1420615E-1,-1.1648748E-1,7.636159E-2,-1.13833524E-1,-1.142859E-1,3.550546E-2,-1.1406708E-1,2.1220362E-2,3.3333334E-1,3.3333334E-1,5.2716162E-2,3.3333334E-1,8.892683E-2,-1.01449005E-1,-1.14232875E-1,-1.01445556E-1,-1.1477194E-1,3.2469824E-1,-1.1437272E-1,-1.1051108E-1,-1.1859881E-1,-1.1683774E-1,-1.003951E-1,3.54022E-1,-1.13425516E-1,4.4021092E-2,2.1474612E-1,2.0557244E-1,-8.225839E-2,1.8088554E-1,2.1083705E-1,-9.9516235E-2,-1.1464658E-1,1.6240169E-1,2.0014809E-1,-1.2214506E-1,-1.1575625E-1,1.9752596E-1,1.5749459E-1,-9.486702E-2,-1.1149011E-1,1.9814086E-1],"split_indices":[5,7,7,7,7,8,7,8,8,10,8,7,10,8,8,8,4,5,8,0,7,0,4,4,0,7,8,7,7,0,8,7,7,1,5,0,10,5,0,8,5,0,0,0,0,0,7,0,7,10,10,7,10,0,0,0,0,0,0,0,0,0,0,0,0,0,0,0,0,0,0,0,0,0,0,0,0,0,0,0,0,0,0],"split_type":[0,0,0,0,0,0,0,0,0,0,0,0,0,0,0,0,0,0,0,0,0,0,0,0,0,0,0,0,0,0,0,0,0,0,0,0,0,0,0,0,0,0,0,0,0,0,0,0,0,0,0,0,0,0,0,0,0,0,0,0,0,0,0,0,0,0,0,0,0,0,0,0,0,0,0,0,0,0,0,0,0,0,0],"sum_hessian":[3.5459925E5,2.0366139E5,1.5093786E5,1.5545998E5,4.8201402E4,5.0896504E4,1.0004135E5,1.5370753E5,1.7524528E3,1.8775232E4,2.9426172E4,1.1546533E4,3.934997E4,9.981474E4,2.2660892E2,1.099132E5,4.379433E4,1.2627928E2,1.6261735E3,3.3415564E2,1.8441076E4,4.830682E3,2.459549E4,1.1384809E2,1.1432686E4,3.3800369E3,3.5969934E4,6.981425E4,3.0000494E4,2.2223935E2,4.369564E0,1.0978858E5,1.2462564E2,2.2436555E4,2.1357771E4,7.4617714E1,5.1661575E1,4.1232053E2,1.213853E3,1.7819531E4,6.2154443E2,5.792284E3,1.8803205E4,1.3953559E0,1.12452736E2,2.4668706E3,9.131663E2,3.4408867E4,1.5610642E3,5.2198758E4,1.7615488E4,3.2885305E3,2.6711963E4,1.1771032E0,3.192461E0,9.874179E4,1.1046787E4,6.807319E1,5.6552452E1,1.5780831E4,6.6557246E3,7.2059424E3,1.4151829E4,9.17116E0,4.2490414E1,3.3171915E2,8.060138E1,9.907363E3,7.9121685E3,1.51561775E1,6.0638824E2,4.5321463E2,4.599517E2,1.3526029E3,2.0846126E2,5.2185906E4,1.2852029E1,2.4952304E2,1.7365965E4,1.159421E3,2.1291096E3,2.7706554E1,2.6684256E4],"tree_param":{"num_deleted":"0","num_feature":"13","num_nodes":"83","size_leaf_vector":"1"}},{"base_weights":[-5.0004697E-1,4.6705756E-1,-5.020299E-1,-1.00561395E-1,9.175058E-2],"categories":[],"categories_nodes":[],"categories_segments":[],"categories_sizes":[],"default_left":[0,0,0,0,0],"id":23,"left_children":[1,-1,3,-1,-1],"loss_changes":[8.14541E1,0E0,1.088501E1,0E0,0E0],"parents":[2147483647,0,0,2,2],"right_children":[2,-1,4,-1,-1],"split_conditions":[2E-3,4.6705756E-1,1.4285715E-1,-1.00561395E-1,9.175058E-2],"split_indices":[8,0,12,0,0],"split_type":[0,0,0,0,0],"sum_hessian":[1.4278339E4,9.156327E0,1.4269183E4,1.4258127E4,1.1055308E1],"tree_param":{"num_deleted":"0","num_feature":"13","num_nodes":"5","size_leaf_vector":"1"}},{"base_weights":[2.0942127E-2,1.7850468E-1,-5.355613E-1,4.8916513E-1,-1.0193359E-1,-5.601231E-1,2.3060896E-1,9.241548E-1,-2.3400913E-1,-2.4748427E-1,8.5900056E-1,-5.6019145E-1,-9.458263E-2,7.8697765E-1,-1.5785348E-1,8.094049E-1,1.0916096E0,-4.5035627E-1,5.809412E-1,3.2061648E-1,-3.7570566E-1,-6.530795E-2,1.7182826E-1,-8.4644556E-2,-5.6022346E-1,1.9136024E-1,-9.254948E-2,1.8553056E-1,2.4295723E0,-2.6185873E-1,1.763478E-1,8.9216036E-1,5.199094E-1,-3.883082E-1,1.0949131E0,-4.973888E-1,1.7232461E-1,1.2312406E0,-6.5432616E-2,8.3607256E-1,-1.9332542E-1,-8.3331175E-2,-5.695593E-1,6.652794E-2,-8.5322015E-2,-5.6416595E-1,-5.579007E-1,-1.5324208E-1,1.22011594E-1,9.222189E-1,-1.966484E-1,2.6045682E0,3.525897E-1,1.5225562E0,-3.323692E-1,1.6964827E-1,1.9764325E-1,7.4486755E-2,2.2053824E-1,2.1079242E-2,-1.3101977E-1,2.2294202E-1,1.8354361E-1,-1.1179241E-1,-7.668065E-2,2.5696132E-1,1.6946529E-1,-1.0580706E-1,2.777527E-1,1.763349E-1,-1.20032325E-1,-7.930343E-2,1.696918E-1,-7.233834E-2,2.0421953E-1,1.8445878E-1,-1.163787E-1,-1.1286705E-1,-7.8188196E-2,-1.11586E-1,-3.0442511E-3,1.5762677E-2,-6.29845E-2,1.6616893E-1,3.185527E-1,-7.470439E-2,2.6660863E-1,4.449134E-1,5.59908E-1,3.685714E-1,-9.61597E-2,-7.9805665E-2,1.3610749E-1],"categories":[],"categories_nodes":[],"categories_segments":[],"categories_sizes":[],"default_left":[0,0,0,0,0,0,0,0,0,0,0,0,0,0,0,0,0,0,0,0,0,0,0,0,0,0,0,0,0,0,0,0,0,0,0,0,0,0,0,0,0,0,0,0,0,0,0,0,0,0,0,0,0,0,0,0,0,0,0,0,0,0,0,0,0,0,0,0,0,0,0,0,0,0,0,0,0,0,0,0,0,0,0,0,0,0,0,0,0,0,0,0,0],"id":24,"left_children":[1,3,5,7,9,11,13,15,17,19,21,23,25,27,29,31,33,35,37,39,41,-1,-1,43,45,47,-1,49,51,53,-1,55,57,59,61,63,-1,65,67,69,71,73,75,-1,-1,77,79,81,-1,83,85,87,-1,89,91,-1,-1,-1,-1,-1,-1,-1,-1,-1,-1,-1,-1,-1,-1,-1,-1,-1,-1,-1,-1,-1,-1,-1,-1,-1,-1,-1,-1,-1,-1,-1,-1,-1,-1,-1,-1,-1,-1],"loss_changes":[2.9584564E4,2.2908566E4,1.4011484E3,3.924425E4,1.9329246E4,2.2441406E0,5.0008313E2,1.4959531E3,8.261596E3,8.74269E3,3.3134766E0,1.0507812E0,1.3303772E0,9.3931934E2,1.476029E2,1.1070078E3,1.5526562E2,2.2852227E3,4.131997E3,5.8550664E3,5.549837E3,0E0,0E0,1.0021122E0,3.4375E-1,1.153528E0,0E0,1.9652579E2,2.5140747E1,1.5649936E2,0E0,1.5081836E2,8.83042E2,9.457825E0,1.0983594E2,2.506709E2,0E0,9.968262E1,3.324954E3,7.232339E2,2.3431526E3,1.2002621E4,1.0839785E3,0E0,0E0,5.605469E-1,7.138672E-1,2.060089E-1,0E0,1.32825775E1,1.2495479E2,8.573853E0,0E0,3.1242287E1,8.085651E1,0E0,0E0,0E0,0E0,0E0,0E0,0E0,0E0,0E0,0E0,0E0,0E0,0E0,0E0,0E0,0E0,0E0,0E0,0E0,0E0,0E0,0E0,0E0,0E0,0E0,0E0,0E0,0E0,0E0,0E0,0E0,0E0,0E0,0E0,0E0,0E0,0E0,0E0],"parents":[2147483647,0,0,1,1,2,2,3,3,4,4,5,5,6,6,7,7,8,8,9,9,10,10,11,11,12,12,13,13,14,14,15,15,16,16,17,17,18,18,19,19,20,20,23,23,24,24,25,25,27,27,28,28,29,29,31,31,32,32,33,33,34,34,35,35,37,37,38,38,39,39,40,40,41,41,42,42,45,45,46,46,47,47,49,49,50,50,51,51,53,53,54,54],"right_children":[2,4,6,8,10,12,14,16,18,20,22,24,26,28,30,32,34,36,38,40,42,-1,-1,44,46,48,-1,50,52,54,-1,56,58,60,62,64,-1,66,68,70,72,74,76,-1,-1,78,80,82,-1,84,86,88,-1,90,92,-1,-1,-1,-1,-1,-1,-1,-1,-1,-1,-1,-1,-1,-1,-1,-1,-1,-1,-1,-1,-1,-1,-1,-1,-1,-1,-1,-1,-1,-1,-1,-1,-1,-1,-1,-1,-1,-1],"split_conditions":[1E0,1.2E-2,2.2630848E-6,3.3333334E-1,6.666667E-1,4.72E-1,1.3E-2,4.4301845E-2,3.7888706E-2,2.105803E-2,4.8266454E-3,4.6640835E-4,3.0612245E-2,3.1873483E-2,6.666667E-1,9E-3,6.960557E-3,4.477612E-2,5.3245086E-2,3.3333334E-1,1.29E-1,-6.530795E-2,1.7182826E-1,3.3333334E-1,3.3333334E-1,2.034055E-2,-9.254948E-2,8E-3,6.884636E-2,3.3333334E-1,1.763478E-1,6E-3,2.3300338E-8,5.255597E-2,4.477612E-2,2.0895522E-2,1.7232461E-1,4.477612E-2,6.884636E-2,1E0,2.3618332E-8,3.5028514E-2,4.4301845E-2,6.652794E-2,-8.5322015E-2,1.62E-1,3.4183672E-1,2.8403304E-7,1.22011594E-1,6E-3,1E-2,5.255597E-2,3.525897E-1,3.0612245E-2,4.72E-1,1.6964827E-1,1.9764325E-1,7.4486755E-2,2.2053824E-1,2.1079242E-2,-1.3101977E-1,2.2294202E-1,1.8354361E-1,-1.1179241E-1,-7.668065E-2,2.5696132E-1,1.6946529E-1,-1.0580706E-1,2.777527E-1,1.763349E-1,-1.20032325E-1,-7.930343E-2,1.696918E-1,-7.233834E-2,2.0421953E-1,1.8445878E-1,-1.163787E-1,-1.1286705E-1,-7.8188196E-2,-1.11586E-1,-3.0442511E-3,1.5762677E-2,-6.29845E-2,1.6616893E-1,3.185527E-1,-7.470439E-2,2.6660863E-1,4.449134E-1,5.59908E-1,3.685714E-1,-9.61597E-2,-7.9805665E-2,1.3610749E-1],"split_indices":[9,8,0,10,10,8,8,7,7,7,7,7,1,7,10,8,8,6,7,10,8,0,0,10,10,7,0,8,7,10,0,8,0,7,6,6,0,6,7,11,0,7,7,0,0,8,8,0,0,8,8,7,0,1,8,0,0,0,0,0,0,0,0,0,0,0,0,0,0,0,0,0,0,0,0,0,0,0,0,0,0,0,0,0,0,0,0,0,0,0,0,0,0],"split_type":[0,0,0,0,0,0,0,0,0,0,0,0,0,0,0,0,0,0,0,0,0,0,0,0,0,0,0,0,0,0,0,0,0,0,0,0,0,0,0,0,0,0,0,0,0,0,0,0,0,0,0,0,0,0,0,0,0,0,0,0,0,0,0,0,0,0,0,0,0,0,0,0,0,0,0,0,0,0,0,0,0,0,0,0,0,0,0,0,0,0,0,0,0],"sum_hessian":[3.3739738E5,2.6294934E5,7.444804E4,1.24752164E5,1.3819717E5,7.213579E4,2.3122505E3,7.7896875E4,4.685529E4,1.200189E5,1.817827E4,7.212499E4,1.079612E1,9.5024805E2,1.3620023E3,4.6225953E4,3.1670922E4,3.702627E4,9.8290205E3,2.2100113E4,9.791879E4,1.8820088E0,1.8176387E4,5.028198E0,7.211996E4,6.3468995E0,4.44922E0,6.963777E2,2.5387039E2,1.2388142E3,1.2318812E2,3.5947805E4,1.027815E4,