{"learner":{"attributes":{"scikit_learn":"{\"_estimator_type\": \"classifier\"}"},"feature_names":[],"feature_types":[],"gradient_booster":{"model":{"cats":{"enc":[],"feature_segments":[],"sorted_idx":[]},"gbtree_model_param":{"num_parallel_tree":"1","num_trees":"100"},"iteration_indptr":[0,1,2,3,4,5,6,7,8,9,10,11,12,13,14,15,16,17,18,19,20,21,22,23,24,25,26,27,28,29,30,31,32,33,34,35,36,37,38,39,40,41,42,43,44,45,46,47,48,49,50,51,52,53,54,55,56,57,58,59,60,61,62,63,64,65,66,67,68,69,70,71,72,73,74,75,76,77,78,79,80,81,82,83,84,85,86,87,88,89,90,91,92,93,94,95,96,97,98,99,100],"tree_info":[0,0,0,0,0,0,0,0,0,0,0,0,0,0,0,0,0,0,0,0,0,0,0,0,0,0,0,0,0,0,0,0,0,0,0,0,0,0,0,0,0,0,0,0,0,0,0,0,0,0,0,0,0,0,0,0,0,0,0,0,0,0,0,0,0,0,0,0,0,0,0,0,0,0,0,0,0,0,0,0,0,0,0,0,0,0,0,0,0,0,0,0,0,0,0,0,0,0,0,0],"trees":[{"base_weights":[-5.0316615E-8,-3.9499748E-1,3.2321012E0,-9.230275E-1,5.069648E-1,-7.6243234E-1,-1.1012602E0,4.4877744E0,-6.131529E-1,-9.4426537E-1,1.0449403E1,-1.101707E0,-1.23905085E-1,8.709862E0,-6.825742E-1,1.2364454E0,-3.30682E-1,-1.0651778E0,-2.114881E-1,3.2292192E0,-9.174656E-1,-3.3065158E-1,-8.521521E-1,2.0992255E0,-9.3706036E-1,3.2316692E0,-3.304619E-1,-1.0906773E0,4.162228E0,1.0630281E1,-3.3065316E-1,-3.1972432E-1,1.8475926E0,2.8402069E0,-2.085868E-1,-3.1789058E-1,2.2229655E-1,1.3672142E0,-3.27527E-1,2.8149927E-1,-3.168047E-1,-3.304939E-1,2.3301477E0,2.1427174E0,-2.6823097E-1,-3.1863683E-1,3.230982E0],"categories":[],"categories_nodes":[],"categories_segments":[],"categories_sizes":[],"default_left":[0,0,0,0,0,0,0,0,0,0,0,0,0,0,0,0,0,0,0,0,0,0,0,0,0,0,0,0,0,0,0,0,0,0,0,0,0,0,0,0,0,0,0,0,0,0,0],"id":0,"left_children":[1,3,-1,5,7,9,11,13,15,17,19,21,23,25,27,29,-1,31,33,-1,35,-1,37,-1,39,-1,-1,41,43,45,-1,-1,-1,-1,-1,-1,-1,-1,-1,-1,-1,-1,-1,-1,-1,-1,-1],"loss_changes":[8.252034E5,8.908706E4,0E0,3.3762344E3,3.0798762E5,1.26542266E5,2.428125E1,3.3110603E5,4.8767336E4,5.4112383E3,3.552961E3,5.546875E0,1.6104655E2,1.6896069E5,1.3486909E4,2.47687E5,0E0,2.2241406E2,4.0519727E4,0E0,7.293894E0,0E0,1.4540735E2,0E0,6.5293694E0,0E0,0E0,6.1970654E2,7.9925146E3,3.6812344E3,0E0,0E0,0E0,0E0,0E0,0E0,0E0,0E0,0E0,0E0,0E0,0E0,0E0,0E0,0E0,0E0,0E0],"parents":[2147483647,0,0,1,1,3,3,4,4,5,5,6,6,7,7,8,8,9,9,10,10,11,11,12,12,13,13,14,14,15,15,17,17,18,18,20,20,22,22,24,24,27,27,28,28,29,29],"right_children":[2,4,-1,6,8,10,12,14,16,18,20,22,24,26,28,30,-1,32,34,-1,36,-1,38,-1,40,-1,-1,42,44,46,-1,-1,-1,-1,-1,-1,-1,-1,-1,-1,-1,-1,-1,-1,-1,-1,-1],"split_conditions":[1E0,3.3333334E-1,3.2321012E0,2.7272728E-1,2.2870585E-2,3.4599442E-2,1.6666667E-1,3.125E-2,3.5686444E-2,2.091549E-2,3.5686444E-2,4.0625E-1,2.2222222E-1,6.666667E-1,1E0,4.6E-2,-3.30682E-1,2.1875E-1,2.1170126E-2,3.2292192E0,7.2E-1,-3.3065158E-1,4.375E-1,2.0992255E0,2.0923594E-2,3.2316692E0,-3.304619E-1,3.888889E-1,1E-1,1.056338E-2,-3.3065316E-1,-3.1972432E-1,1.8475926E0,2.8402069E0,-2.085868E-1,-3.1789058E-1,2.2229655E-1,1.3672142E0,-3.27527E-1,2.8149927E-1,-3.168047E-1,-3.304939E-1,2.3301477E0,2.1427174E0,-2.6823097E-1,-3.1863683E-1,3.230982E0],"split_indices":[11,10,0,6,7,7,2,5,7,7,7,5,2,10,9,8,0,5,7,0,8,0,5,0,7,0,0,2,8,8,0,0,0,0,0,0,0,0,0,0,0,0,0,0,0,0,0],"split_type":[0,0,0,0,0,0,0,0,0,0,0,0,0,0,0,0,0,0,0,0,0,0,0,0,0,0,0,0,0,0,0,0,0,0,0,0,0,0,0,0,0,0,0,0,0,0,0],"sum_hessian":[1.9390925E5,1.8705228E5,6.856975E3,1.1798251E5,6.906977E4,6.2064785E4,5.5917723E4,1.5166439E4,5.3903332E4,6.1075188E4,9.895988E2,5.5892043E4,2.5678717E1,8.348445E3,6.817994E3,1.1273041E4,4.263029E4,5.2424406E4,8.650781E3,9.6299396E2,2.6604836E1,5.5784695E4,1.0734546E2,1.8522353E0,2.382648E1,6.8983135E3,1.4501318E3,6.289012E3,5.2898157E2,2.2463406E3,9.0267E3,5.242112E4,3.283508E0,4.1094366E2,8.239837E3,2.4836792E1,1.7680428E0,3.7886631E0,1.0355679E2,1.0103102E0,2.2816172E1,6.282109E3,6.903786E0,3.3256042E2,1.9642114E2,2.643645E1,2.219904E3],"tree_param":{"num_deleted":"0","num_feature":"12","num_nodes":"47","size_leaf_vector":"1"}},{"base_weights":[-4.571203E-1,-6.446829E-1,4.1573638E-1,-3.1931305E-1,-1.0562476E0,-8.0963546E-1,3.101526E-1,-1.0725585E0,-1.6343224E-1,-9.4324964E-1,1.590327E0,1.3101674E0,-1.0661222E0,-1.0733031E0,-3.5527036E-1,-9.8713195E-1,3.5351953E-1,-1.0275427E0,-5.015871E-1,1.7325445E0,-1.0462581E0,1.3676418E0,-3.2144907E-1,2.4132529E-1,-1.0715215E0,-1.0733281E0,1.1198644E-2,5.4711676E-1,-1.0584223E0,-3.1395113E-1,-2.1835506E-1,7.868406E-1,-1.0580236E0,-3.175345E-1,-2.5844982E-1,-2.2154938E-1,7.0467955E-1,1.699793E0,4.115567E-1,-3.223986E-1,1.563768E-1,4.1703263E-1,1.404251E-1,-3.1231242E-1,4.1541004E-1,-2.4087276E-1,-3.220295E-1,-3.2200268E-1,-9.2218526E-2,-3.22859E-1,-3.3192676E-2,-3.1083006E-1,6.5982854E-1,3.735599E-1,-3.1935784E-1,1.3611312E-1,-3.206425E-1],"categories":[],"categories_nodes":[],"categories_segments":[],"categories_sizes":[],"default_left":[0,0,0,0,0,0,0,0,0,0,0,0,0,0,0,0,0,0,0,0,0,0,0,0,0,0,0,0,0,0,0,0,0,0,0,0,0,0,0,0,0,0,0,0,0,0,0,0,0,0,0,0,0,0,0,0,0],"id":1,"left_children":[1,3,-1,5,7,9,11,13,15,17,19,21,23,25,27,29,31,33,35,37,39,41,-1,43,45,47,-1,-1,49,-1,51,53,55,-1,-1,-1,-1,-1,-1,-1,-1,-1,-1,-1,-1,-1,-1,-1,-1,-1,-1,-1,-1,-1,-1,-1,-1],"loss_changes":[6.1232402E4,2.1529906E4,0E0,2.7714537E4,1.0335938E3,1.6187723E4,5.4116117E4,3.684375E1,5.4316943E2,1.7795977E3,1.0001167E3,3.1187227E3,1.17072266E2,1.96875E0,1.14969696E2,2.221988E1,4.8034772E2,2.05125E2,5.1781245E3,3.576664E3,6.6546173E0,4.487578E2,0E0,1.02418945E2,7.591797E0,4.296875E-1,0E0,0E0,8.31234E-1,0E0,7.448999E1,5.1082208E2,3.4940186E0,0E0,0E0,0E0,0E0,0E0,0E0,0E0,0E0,0E0,0E0,0E0,0E0,0E0,0E0,0E0,0E0,0E0,0E0,0E0,0E0,0E0,0E0,0E0,0E0],"parents":[2147483647,0,0,1,1,3,3,4,4,5,5,6,6,7,7,8,8,9,9,10,10,11,11,12,12,13,13,14,14,15,15,16,16,17,17,18,18,19,19,20,20,21,21,23,23,24,24,25,25,28,28,30,30,31,31,32,32],"right_children":[2,4,-1,6,8,10,12,14,16,18,20,22,24,26,28,30,32,34,36,38,40,42,-1,44,46,48,-1,-1,50,-1,52,54,56,-1,-1,-1,-1,-1,-1,-1,-1,-1,-1,-1,-1,-1,-1,-1,-1,-1,-1,-1,-1,-1,-1,-1,-1],"split_conditions":[1E0,2.7272728E-1,4.1573638E-1,3.3333334E-1,4.2241337E-4,3.40381E-2,2.2975709E-1,3.888889E-1,3.3333334E-1,2.0923594E-2,4E-2,3.5686444E-2,1.5209265E-2,5.81E-1,1.43877705E-5,6.4367816E-2,2.2975709E-1,1.9332537E-2,8.150078E-6,3.4599442E-2,7.2E-1,1E0,-3.2144907E-1,8.214384E-3,6.666667E-1,4.375E-1,1.1198644E-2,5.4711676E-1,3.8E-2,-3.1395113E-1,1E0,3.5686444E-2,1.5209265E-2,-3.175345E-1,-2.5844982E-1,-2.2154938E-1,7.0467955E-1,1.699793E0,4.115567E-1,-3.223986E-1,1.563768E-1,4.1703263E-1,1.404251E-1,-3.1231242E-1,4.1541004E-1,-2.4087276E-1,-3.220295E-1,-3.2200268E-1,-9.2218526E-2,-3.22859E-1,-3.3192676E-2,-3.1083006E-1,6.5982854E-1,3.735599E-1,-3.1935784E-1,1.3611312E-1,-3.206425E-1],"split_indices":[11,6,0,10,0,7,8,2,10,7,8,7,7,8,0,1,8,7,0,7,8,4,0,7,10,5,0,0,8,0,9,7,7,0,0,0,0,0,0,0,0,0,0,0,0,0,0,0,0,0,0,0,0,0,0,0,0],"split_type":[0,0,0,0,0,0,0,0,0,0,0,0,0,0,0,0,0,0,0,0,0,0,0,0,0,0,0,0,0,0,0,0,0,0,0,0,0,0,0,0,0,0,0,0,0,0,0,0,0,0,0,0,0,0,0,0,0],"sum_hessian":[1.771424E5,1.6077964E5,1.6362753E4,8.979353E4,7.098612E4,5.0475414E4,3.931812E4,6.971233E4,1.273786E3,4.7814047E4,2.6613662E3,2.277189E4,1.6546232E4,6.963955E4,7.277768E1,4.9081787E2,7.829681E2,4.014994E4,7.6641045E3,2.5254841E3,1.3588185E2,2.2235723E4,5.361668E2,6.786894E1,1.6478363E4,6.9638016E4,1.5365753E0,1.7366648E1,5.541103E1,4.5529465E2,3.5523212E1,5.994034E2,1.8356467E2,3.384501E4,6.3049326E3,7.076691E3,5.874134E2,2.1089503E2,2.314589E3,1.3377228E2,2.1095803E0,2.1693375E4,5.4234875E2,3.2032257E1,3.583669E1,1.1932366E2,1.6359039E4,6.963633E4,1.6882526E0,5.4258007E1,1.1530223E0,2.6972137E1,8.551076E0,4.8071585E2,1.1868757E2,1.0093658E0,1.8255531E2],"tree_param":{"num_deleted":"0","num_feature":"12","num_nodes":"57","size_leaf_vector":"1"}},{"base_weights":[-4.416531E-1,-6.215863E-1,3.7635735E-1,-3.085402E-1,-1.034702E0,-7.6719403E-1,2.8157723E-1,-1.0522062E0,-1.6353352E-1,-8.9417917E-1,1.0318791E0,1.1789172E0,-1.0448655E0,-1.0529914E0,-3.393118E-1,-4.4001296E-1,1.1291554E0,-9.9273676E-1,-4.2983323E-1,1.3493971E0,7.359526E-2,1.2289177E0,-3.1520686E-1,2.1867552E-1,-1.0503122E0,-1.0530239E0,9.113567E-3,4.2825958E-1,-1.0263034E0,-1.0466164E0,1.0661394E-1,1.6406953E0,-3.2103598E-1,-3.09919E-1,-2.3634456E-1,3.6594316E-1,-2.1636288E-1,8.5827366E-2,4.6270365E-1,-2.509782E-1,3.6013728E-1,3.7547842E-1,3.0049186E-2,-3.03661E-1,3.7490353E-1,-2.0766014E-1,-3.1595287E-1,-3.1591272E-1,-7.928815E-2,-3.1465596E-1,-2.8365346E-2,2.4829822E-2,-3.1542024E-1,1.05852E-1,-2.8116187E-1,5.401483E-1,3.7156284E-1],"categories":[],"categories_nodes":[],"categories_segments":[],"categories_sizes":[],"default_left":[0,0,0,0,0,0,0,0,0,0,0,0,0,0,0,0,0,0,0,0,0,0,0,0,0,0,0,0,0,0,0,0,0,0,0,0,0,0,0,0,0,0,0,0,0,0,0,0,0,0,0,0,0,0,0,0,0],"id":2,"left_children":[1,3,-1,5,7,9,11,13,15,17,19,21,23,25,27,29,31,33,35,37,39,41,-1,43,45,47,-1,-1,49,51,53,55,-1,-1,-1,-1,-1,-1,-1,-1,-1,-1,-1,-1,-1,-1,-1,-1,-1,-1,-1,-1,-1,-1,-1,-1,-1],"loss_changes":[4.1926312E4,1.6061359E4,0E0,1.912434E4,8.1627344E2,9.083732E3,3.6781773E4,2.9023438E1,3.7783224E2,1.6991328E3,7.9760376E2,2.0561562E3,8.604492E1,1.8828125E0,7.334732E1,2.8874738E2,2.1134901E2,2.5233789E2,3.1271226E3,4.0355444E2,6.713056E2,4.613418E2,0E0,7.023546E1,1.2005859E1,4.8046875E-1,0E0,0E0,8.089638E-1,2.316986E0,1.1824398E2,7.5085754E0,0E0,0E0,0E0,0E0,0E0,0E0,0E0,0E0,0E0,0E0,0E0,0E0,0E0,0E0,0E0,0E0,0E0,0E0,0E0,0E0,0E0,0E0,0E0,0E0,0E0],"parents":[2147483647,0,0,1,1,3,3,4,4,5,5,6,6,7,7,8,8,9,9,10,10,11,11,12,12,13,13,14,14,15,15,16,16,17,17,18,18,19,19,20,20,21,21,23,23,24,24,25,25,28,28,29,29,30,30,31,31],"right_children":[2,4,-1,6,8,10,12,14,16,18,20,22,24,26,28,30,32,34,36,38,40,42,-1,44,46,48,-1,-1,50,52,54,56,-1,-1,-1,-1,-1,-1,-1,-1,-1,-1,-1,-1,-1,-1,-1,-1,-1,-1,-1,-1,-1,-1,-1,-1,-1],"split_conditions":[1E0,2.7272728E-1,3.7635735E-1,3.3333334E-1,4.2241337E-4,3.40381E-2,2.2975709E-1,3.888889E-1,1.6666667E-1,2.0923594E-2,1.3E-2,3.5686444E-2,1.5209265E-2,5.81E-1,1.43877705E-5,4.0625E-1,2.2222222E-1,1.9332537E-2,2.1170126E-2,1.2E-2,3.4599442E-2,1.5719958E-3,-3.1520686E-1,8.214384E-3,6.666667E-1,4.375E-1,9.113567E-3,4.2825958E-1,3.8E-2,8.214384E-3,4.6E-2,2.2870585E-2,-3.2103598E-1,-3.09919E-1,-2.3634456E-1,3.6594316E-1,-2.1636288E-1,8.5827366E-2,4.6270365E-1,-2.509782E-1,3.6013728E-1,3.7547842E-1,3.0049186E-2,-3.03661E-1,3.7490353E-1,-2.0766014E-1,-3.1595287E-1,-3.1591272E-1,-7.928815E-2,-3.1465596E-1,-2.8365346E-2,2.4829822E-2,-3.1542024E-1,1.05852E-1,-2.8116187E-1,5.401483E-1,3.7156284E-1],"split_indices":[11,6,0,10,0,7,8,2,2,7,8,7,7,8,0,5,2,7,7,8,7,0,0,7,10,5,0,0,8,7,8,7,0,0,0,0,0,0,0,0,0,0,0,0,0,0,0,0,0,0,0,0,0,0,0,0,0],"split_type":[0,0,0,0,0,0,0,0,0,0,0,0,0,0,0,0,0,0,0,0,0,0,0,0,0,0,0,0,0,0,0,0,0,0,0,0,0,0,0,0,0,0,0,0,0,0,0,0,0,0,0,0,0,0,0,0,0],"sum_hessian":[1.3737027E5,1.24195984E5,1.3174276E4,7.065647E4,5.353952E4,3.9756465E4,3.0900006E4,5.2484746E4,1.0547733E3,3.713579E4,2.6206753E3,1.8431314E4,1.2468691E4,5.2426523E4,5.82205E1,8.69471E2,1.8530228E2,3.0632822E4,6.5029653E3,1.9681425E3,6.5253296E2,1.8027482E4,4.0383102E2,5.3348606E1,1.2415343E4,5.2424977E4,1.5483136E0,1.5998E1,4.22225E1,4.1169247E2,4.5777856E2,1.5054117E2,3.476111E1,2.5592436E4,5.0403857E3,9.757148E2,5.5272505E3,3.0266882E2,1.6654736E3,3.6111264E2,2.9142032E2,1.7672334E4,3.5514923E2,2.4325483E1,2.9023123E1,1.0042979E2,1.2314913E4,5.2423418E4,1.5601687E0,4.1102093E1,1.1204064E0,1.6679199E0,4.1002457E2,3.709398E2,8.683877E1,1.0524426E2,4.5296906E1],"tree_param":{"num_deleted":"0","num_feature":"12","num_nodes":"57","size_leaf_vector":"1"}},{"base_weights":[-4.2721784E-1,-6.0089135E-1,3.523938E-1,-2.9521528E-1,-1.017781E0,-7.259546E-1,2.6261154E-1,-1.0376353E0,-1.5149221E-1,-8.49514E-1,9.082285E-1,1.0928981E0,-1.0290183E0,-1.0384601E0,-3.235457E-1,-9.224403E-1,2.0818262E-1,-1.0117366E0,-5.198423E-1,1.1916475E0,6.930125E-2,1.1381897E0,-3.1063938E-1,-2.0909755E-1,-3.1161666E-1,-1.0385029E0,7.41928E-3,1.2184958E0,-9.962874E-1,-9.921515E-1,-1.6837339E-1,5.100056E-1,-3.129277E-1,-1.1905158E-1,-3.0595177E-1,-3.1918636E-1,-5.1355757E-2,6.0912315E-2,4.243483E-1,-2.0732616E-1,3.2539967E-1,3.5294193E-1,4.968949E-2,3.9879945E-1,-3.1109294E-1,-2.6182872E-1,-3.1163102E-1,3.776589E-1,1.06742956E-1,-3.0749252E-1,-2.4235386E-2,-3.034197E-1,-2.1459168E-1,4.118041E-1,-2.9652795E-1,2.3712064E-1,-3.024128E-1],"categories":[],"categories_nodes":[],"categories_segments":[],"categories_sizes":[],"default_left":[0,0,0,0,0,0,0,0,0,0,0,0,0,0,0,0,0,0,0,0,0,0,0,0,0,0,0,0,0,0,0,0,0,0,0,0,0,0,0,0,0,0,0,0,0,0,0,0,0,0,0,0,0,0,0,0,0],"id":3,"left_children":[1,3,-1,5,7,9,11,13,15,17,19,21,23,25,27,29,31,33,35,37,39,41,-1,43,-1,45,-1,47,49,51,53,55,-1,-1,-1,-1,-1,-1,-1,-1,-1,-1,-1,-1,-1,-1,-1,-1,-1,-1,-1,-1,-1,-1,-1,-1,-1],"loss_changes":[2.9335693E4,1.2122648E4,0E0,1.3188658E4,6.9202344E2,6.254718E3,2.5650021E4,2.2835938E1,2.5054642E2,1.5394863E3,5.177008E2,1.4046035E3,7.424609E1,1.8125E0,4.9805668E1,1.4940796E1,2.3334518E2,9.574219E1,1.8018018E3,3.583086E2,4.2614417E2,5.305918E2,0E0,1.4239638E2,0E0,8.359375E-1,0E0,6.3215256E-2,7.8816986E-1,6.773071E-1,3.3614506E1,2.1248735E2,0E0,0E0,0E0,0E0,0E0,0E0,0E0,0E0,0E0,0E0,0E0,0E0,0E0,0E0,0E0,0E0,0E0,0E0,0E0,0E0,0E0,0E0,0E0,0E0,0E0],"parents":[2147483647,0,0,1,1,3,3,4,4,5,5,6,6,7,7,8,8,9,9,10,10,11,11,12,12,13,13,14,14,15,15,16,16,17,17,18,18,19,19,20,20,21,21,23,23,25,25,27,27,28,28,29,29,30,30,31,31],"right_children":[2,4,-1,6,8,10,12,14,16,18,20,22,24,26,28,30,32,34,36,38,40,42,-1,44,-1,46,-1,48,50,52,54,56,-1,-1,-1,-1,-1,-1,-1,-1,-1,-1,-1,-1,-1,-1,-1,-1,-1,-1,-1,-1,-1,-1,-1,-1,-1],"split_conditions":[1E0,2.7272728E-1,3.523938E-1,3.3333334E-1,4.2241337E-4,3.40381E-2,2.2975709E-1,3.888889E-1,3.3333334E-1,1.9332537E-2,1.3E-2,3.5686444E-2,6.666667E-1,5.81E-1,1.43877705E-5,6.4367816E-2,3.5686444E-2,8.214384E-3,9E-3,1.2E-2,3.4599442E-2,1E0,-3.1063938E-1,1.6607692E-2,-3.1161666E-1,1.6607692E-2,7.41928E-3,2.7E-2,3.8E-2,2.0923594E-2,7.816092E-2,2.51E-1,-3.129277E-1,-1.1905158E-1,-3.0595177E-1,-3.1918636E-1,-5.1355757E-2,6.0912315E-2,4.243483E-1,-2.0732616E-1,3.2539967E-1,3.5294193E-1,4.968949E-2,3.9879945E-1,-3.1109294E-1,-2.6182872E-1,-3.1163102E-1,3.776589E-1,1.06742956E-1,-3.0749252E-1,-2.4235386E-2,-3.034197E-1,-2.1459168E-1,4.118041E-1,-2.9652795E-1,2.3712064E-1,-3.024128E-1],"split_indices":[11,6,0,10,0,7,8,2,10,7,8,7,10,8,0,1,7,7,8,8,7,4,0,7,0,7,0,8,8,7,1,8,0,0,0,0,0,0,0,0,0,0,0,0,0,0,0,0,0,0,0,0,0,0,0,0,0],"split_type":[0,0,0,0,0,0,0,0,0,0,0,0,0,0,0,0,0,0,0,0,0,0,0,0,0,0,0,0,0,0,0,0,0,0,0,0,0,0,0,0,0,0,0,0,0,0,0,0,0,0,0,0,0,0,0,0,0],"sum_hessian":[1.0544417E5,9.513076E4,1.0313418E4,5.488738E4,4.024338E4,3.0971607E4,2.3915771E4,3.934152E4,9.018592E2,2.8794926E4,2.176683E3,1.4557841E4,9.35793E3,3.929568E4,4.584008E1,2.8640256E2,6.1545667E2,1.9297213E4,9.497712E3,1.6267048E3,5.4997833E2,1.4254961E4,3.0287994E2,1.09720985E2,9.248209E3,3.929412E4,1.5579131E0,1.3677537E1,3.2162544E1,2.6187708E2,2.4525473E1,4.963285E2,1.1912817E2,2.5162175E2,1.9045592E4,3.708378E3,5.789334E3,2.9958374E2,1.3271211E3,3.1465677E2,2.3532153E2,1.3714885E4,5.400767E2,3.8175182E1,7.15458E1,6.848711E1,3.9225633E4,1.2627434E1,1.0501032E0,3.1069395E1,1.093147E0,2.4237299E2,1.9504099E1,8.284065E0,1.6241407E1,4.1935025E2,7.697826E1],"tree_param":{"num_deleted":"0","num_feature":"12","num_nodes":"57","size_leaf_vector":"1"}},{"base_weights":[-4.1192222E-1,-5.783563E-1,3.368146E-1,-2.9347003E-1,-1.0284419E0,-7.104433E-1,3.912718E-1,-3.0857873E-1,2.3655026E-1,-8.145084E-1,6.8734133E-1,9.216621E-1,-9.987501E-1,-1.0341938E0,-6.2161577E-1,-1.082518E0,8.5571384E-1,1.1013178E0,-5.6352437E-1,-4.2905658E-1,-1.0180937E0,-3.0894554E-1,-3.3172736E-1,4.7880206E-1,-2.580882E-1,-4.3642226E-1,-3.0644414E-1,3.386929E-1,2.4022808E-2,3.3488274E-1,-1.5182719E-1,-2.4518318E-1,3.7760597E-1,2.4278589E-1,-3.0570328E-1,-1.4696638E-1,-3.0852026E-1],"categories":[],"categories_nodes":[],"categories_segments":[],"categories_sizes":[],"default_left":[0,0,0,0,0,0,0,0,0,0,0,0,0,0,0,0,0,0,0,0,0,0,0,0,0,0,0,0,0,0,0,0,0,0,0,0,0],"id":4,"left_children":[1,3,-1,5,7,9,11,-1,-1,13,15,17,19,21,23,25,27,29,31,33,35,-1,-1,-1,-1,-1,-1,-1,-1,-1,-1,-1,-1,-1,-1,-1,-1],"loss_changes":[2.0719896E4,9.383518E3,0E0,1.2796625E4,8.738281E0,4.0524648E3,1.2507068E4,0E0,0E0,1.0979902E3,5.762661E2,3.2768477E3,5.119629E1,2.6552734E0,7.309561E3,2.3345184E0,3.736964E2,2.6394043E2,6.140088E2,1.1449797E2,2.4163574E1,0E0,0E0,0E0,0E0,0E0,0E0,0E0,0E0,0E0,0E0,0E0,0E0,0E0,0E0,0E0,0E0],"parents":[2147483647,0,0,1,1,3,3,4,4,5,5,6,6,9,9,10,10,11,11,12,12,13,13,14,14,15,15,16,16,17,17,18,18,19,19,20,20],"right_children":[2,4,-1,6,8,10,12,-1,-1,14,16,18,20,22,24,26,28,30,32,34,36,-1,-1,-1,-1,-1,-1,-1,-1,-1,-1,-1,-1,-1,-1,-1,-1],"split_conditions":[1E0,3.5686444E-2,3.368146E-1,3.3333334E-1,8.66E-1,3.40381E-2,1.6666667E-1,-3.0857873E-1,2.3655026E-1,9E-3,1.1E-2,1E0,1.6607692E-2,2.091549E-2,9.52381E-3,2E-1,1.3E-2,7.356322E-2,2.1134092E-2,6.666667E-1,2.2975709E-1,-3.0894554E-1,-3.3172736E-1,4.7880206E-1,-2.580882E-1,-4.3642226E-1,-3.0644414E-1,3.386929E-1,2.4022808E-2,3.3488274E-1,-1.5182719E-1,-2.4518318E-1,3.7760597E-1,2.4278589E-1,-3.0570328E-1,-1.4696638E-1,-3.0852026E-1],"split_indices":[11,7,0,10,8,7,8,0,0,8,8,4,7,7,8,4,8,1,7,10,8,0,0,0,0,0,0,0,0,0,0,0,0,0,0,0,0],"split_type":[0,0,0,0,0,0,0,0,0,0,0,0,0,0,0,0,0,0,0,0,0,0,0,0,0,0,0,0,0,0,0,0,0,0,0,0,0],"sum_hessian":[8.111862E4,7.318248E4,7.936142E3,4.4816844E4,2.836563E4,2.78547E4,1.6962146E4,2.8363664E4,1.9667709E0,2.5925E4,1.929699E3,1.2277689E4,4.6844575E3,1.2118679E4,1.380632E4,1.6715965E2,1.7625393E3,1.0953016E4,1.324674E3,1.5459627E2,4.5298613E3,1.1434951E4,6.837277E2,1.3410043E3,1.2465316E4,2.0332602E1,1.4682704E2,1.3030208E3,4.5951855E2,1.0852333E4,1.0068251E2,1.1632382E3,1.614358E2,4.9765106E1,1.04831154E2,8.762996E1,4.4422314E3],"tree_param":{"num_deleted":"0","num_feature":"12","num_nodes":"37","size_leaf_vector":"1"}},{"base_weights":[-3.9839393E-1,-5.576518E-1,3.2626343E-1,-2.5554445E-1,-9.969203E-1,7.702429E-2,-9.499316E-1,-1.0200764E0,-1.6190548E-1,-1.0297102E0,8.101738E-1,-9.4280285E-1,-3.4842758E0,-1.0212238E0,-3.921183E-1,-3.877302E-1,8.9045787E-1,-1.0266343E0,-1.414121E0,1.0581118E0,2.2420646E-1,2.9043376E-1,-9.567383E-1,-1.309535E0,-2.7705967E-1,-3.0637938E-1,-2.2445267E-2,1.1544037E0,-9.669647E-1,-1.005889E0,-5.3270325E-2,1.236593E0,-3.104132E-1,-3.0665475E-1,-3.3093888E-1,-5.7790715E-1,-2.989716E-1,3.5123783E-1,-4.3368153E-2,-1.5645589E-1,3.196807E-1,6.966243E-1,-3.0416062E-1,-1.6871797E-1,-2.9756197E-1,2.2849834E-1,8.040493E-1,-2.963627E-1,-6.338118E-2,-2.7995402E-2,-3.0506083E-1,-1.6965958E-1,1.5795532E-1,3.6124668E-1,6.2070847E-1],"categories":[],"categories_nodes":[],"categories_segments":[],"categories_sizes":[],"default_left":[0,0,0,0,0,0,0,0,0,0,0,0,0,0,0,0,0,0,0,0,0,0,0,0,0,0,0,0,0,0,0,0,0,0,0,0,0,0,0,0,0,0,0,0,0,0,0,0,0,0,0,0,0,0,0],"id":5,"left_children":[1,3,-1,5,7,9,11,13,15,17,19,21,23,25,27,29,31,33,35,37,39,41,43,-1,-1,-1,-1,45,47,49,51,53,-1,-1,-1,-1,-1,-1,-1,-1,-1,-1,-1,-1,-1,-1,-1,-1,-1,-1,-1,-1,-1,-1,-1],"loss_changes":[1.4764794E4,7.4777754E3,0E0,7.710673E3,4.4382422E2,1.8320125E4,1.9206738E2,1.5699219E1,1.4787271E2,9.186523E0,1.9729131E3,1.8560547E2,6.3544037E1,7.832031E-1,3.8785652E1,1.0576022E2,7.456642E1,1.9130859E0,1.2788345E1,1.2934277E3,2.53502E3,3.2368402E2,1.4718945E2,0E0,0E0,0E0,0E0,5.112118E0,2.880268E-1,1.7051086E0,9.924847E1,3.7979126E-2,0E0,0E0,0E0,0E0,0E0,0E0,0E0,0E0,0E0,0E0,0E0,0E0,0E0,0E0,0E0,0E0,0E0,0E0,0E0,0E0,0E0,0E0,0E0],"parents":[2147483647,0,0,1,1,3,3,4,4,5,5,6,6,7,7,8,8,9,9,10,10,11,11,12,12,13,13,14,14,15,15,16,16,17,17,18,18,19,19,20,20,21,21,22,22,27,27,28,28,29,29,30,30,31,31],"right_children":[2,4,-1,6,8,10,12,14,16,18,20,22,24,26,28,30,32,34,36,38,40,42,44,-1,-1,-1,-1,46,48,50,52,54,-1,-1,-1,-1,-1,-1,-1,-1,-1,-1,-1,-1,-1,-1,-1,-1,-1,-1,-1,-1,-1,-1,-1],"split_conditions":[1E0,2.7272728E-1,3.2626343E-1,4E-2,4.2241337E-4,9E-3,2.8045976E-1,1.6666667E-1,1.6666667E-1,3.125E-2,1.3E-2,8.214384E-3,3.3333334E-1,5.81E-1,2.2870585E-2,4.0625E-1,2.2222222E-1,2.091549E-2,2.1134092E-2,1.6334638E-5,3.3333334E-1,3.71E-1,1E-1,-1.309535E0,-2.7705967E-1,-3.0637938E-1,-2.2445267E-2,3.1E-2,5.9857134E-2,8.400371E-3,1.3E-2,6.5E-2,-3.104132E-1,-3.0665475E-1,-3.3093888E-1,-5.7790715E-1,-2.989716E-1,3.5123783E-1,-4.3368153E-2,-1.5645589E-1,3.196807E-1,6.966243E-1,-3.0416062E-1,-1.6871797E-1,-2.9756197E-1,2.2849834E-1,8.040493E-1,-2.963627E-1,-6.338118E-2,-2.7995402E-2,-3.0506083E-1,-1.6965958E-1,1.5795532E-1,3.6124668E-1,6.2070847E-1],"split_indices":[11,6,0,8,0,8,1,2,2,5,8,7,10,8,7,5,2,7,7,0,10,8,8,0,0,0,0,8,7,7,8,8,0,0,0,0,0,0,0,0,0,0,0,0,0,0,0,0,0,0,0,0,0,0,0],"split_type":[0,0,0,0,0,0,0,0,0,0,0,0,0,0,0,0,0,0,0,0,0,0,0,0,0,0,0,0,0,0,0,0,0,0,0,0,0,0,0,0,0,0,0,0,0,0,0,0,0,0,0,0,0,0,0],"sum_hessian":[6.238796E4,5.634926E4,6.038698E3,3.3388125E4,2.2961137E4,2.2576338E4,1.0811788E4,2.234136E4,6.197771E2,8.995967E3,1.3580372E4,1.0782829E4,2.8958826E1,2.2299986E4,4.137216E1,5.1079758E2,1.0897955E2,8.9282E3,6.77668E1,9.542068E3,4.0383035E3,1.20261894E2,1.0662567E4,2.1022804E1,7.9360213E0,2.2298947E4,1.0402179E0,1.0937789E1,3.0434372E1,1.7863376E2,3.321638E2,9.267479E1,1.6304768E1,8.450744E3,4.7745584E2,2.8810055E1,3.8956745E1,8.724663E3,8.17405E2,2.1410652E3,1.8972383E3,4.6715366E1,7.3546524E1,8.7367505E2,9.788892E3,9.890976E0,1.0468128E0,2.9315922E1,1.1184496E0,2.236772E0,1.7639699E2,1.7636455E2,1.5579924E2,9.1553764E1,1.1210233E0],"tree_param":{"num_deleted":"0","num_feature":"12","num_nodes":"55","size_leaf_vector":"1"}},{"base_weights":[-3.8254246E-1,-5.3304714E-1,3.1892118E-1,-2.4069636E-1,-9.860346E-1,-1.0224391E0,2.2453241E-2,-1.0140593E0,-1.3465114E-1,-1.0165533E0,-1.1096601E0,8.312543E-1,-7.5227416E-1,-1.0153599E0,-3.529239E-1,-5.3135926E-1,3.4428072E-1,-1.0158869E0,-6.665431E-1,-4.5357117E-1,-3.0773306E-1,1.0396031E0,2.7842151E-3,-1.4006174E-1,-9.406893E-1,-1.0154145E0,-1.9221967E-2,9.6532106E-1,-9.4442207E-1,-1.6188301E-1,-1.2358665E0,8.054827E-1,-3.0239743E-1,-3.048095E-1,-1.7546576E-2,2.8230286E-1,1.1224437E0,-2.5851488E-1,1.9450699E-1,-1.8998307E-1,2.9804003E-1,6.551734E-2,-2.880182E-1,-2.5167918E-1,-3.0472648E-1,3.842784E-1,-4.2207573E-2,-2.9158118E-1,-5.476715E-2,-2.7773944E-1,2.8329375E-1,1.8273708E-1,-4.468014E-1,3.3409494E-1,-2.9793245E-1],"categories":[],"categories_nodes":[],"categories_segments":[],"categories_sizes":[],"default_left":[0,0,0,0,0,0,0,0,0,0,0,0,0,0,0,0,0,0,0,0,0,0,0,0,0,0,0,0,0,0,0,0,0,0,0,0,0,0,0,0,0,0,0,0,0,0,0,0,0,0,0,0,0,0,0],"id":6,"left_children":[1,3,-1,5,7,9,11,13,15,17,19,21,23,25,27,29,31,33,-1,-1,-1,35,37,39,41,43,-1,45,47,49,51,53,-1,-1,-1,-1,-1,-1,-1,-1,-1,-1,-1,-1,-1,-1,-1,-1,-1,-1,-1,-1,-1,-1,-1],"loss_changes":[1.05239E4,5.801199E3,0E0,5.4773174E3,4.0983594E2,2.3139648E0,1.2483189E4,1.3943359E1,1.0443817E2,2.7983398E0,1.2383636E1,1.6823818E3,1.1736016E3,7.988281E-1,2.757148E1,7.802425E1,1.5623396E2,8.129883E-1,0E0,0E0,0E0,2.0711328E3,1.0942078E3,1.3400549E3,1.7490625E2,1.4453125E-1,0E0,4.0493565E0,3.2790565E-1,1.6843115E2,4.918506E1,1.0441202E2,0E0,0E0,0E0,0E0,0E0,0E0,0E0,0E0,0E0,0E0,0E0,0E0,0E0,0E0,0E0,0E0,0E0,0E0,0E0,0E0,0E0,0E0,0E0],"parents":[2147483647,0,0,1,1,3,3,4,4,5,5,6,6,7,7,8,8,9,9,10,10,11,11,12,12,13,13,14,14,15,15,16,16,17,17,21,21,22,22,23,23,24,24,25,25,27,27,28,28,29,29,30,30,31,31],"right_children":[2,4,-1,6,8,10,12,14,16,18,20,22,24,26,28,30,32,34,-1,-1,-1,36,38,40,42,44,-1,46,48,50,52,54,-1,-1,-1,-1,-1,-1,-1,-1,-1,-1,-1,-1,-1,-1,-1,-1,-1,-1,-1,-1,-1,-1,-1],"split_conditions":[1E0,2.7272728E-1,3.1892118E-1,9E-3,4.2241337E-4,2.091549E-2,1.6736401E-2,1.6666667E-1,2.1037895E-2,3.3333334E-1,2.1170126E-2,3.3830334E-2,7.654921E-2,5.81E-1,2.2870585E-2,2.0932265E-2,3.5686444E-2,1.5151516E-1,-6.665431E-1,-4.5357117E-1,-3.0773306E-1,3.213547E-2,1.2E-2,3.3333334E-1,8.214384E-3,1.6607692E-2,-1.9221967E-2,1.43877705E-5,5.9857134E-2,3.3333334E-1,1.5719958E-3,7.654921E-2,-3.0239743E-1,-3.048095E-1,-1.7546576E-2,2.8230286E-1,1.1224437E0,-2.5851488E-1,1.9450699E-1,-1.8998307E-1,2.9804003E-1,6.551734E-2,-2.880182E-1,-2.5167918E-1,-3.0472648E-1,3.842784E-1,-4.2207573E-2,-2.9158118E-1,-5.476715E-2,-2.7773944E-1,2.8329375E-1,1.8273708E-1,-4.468014E-1,3.3409494E-1,-2.9793245E-1],"split_indices":[11,6,0,8,0,7,8,2,7,10,7,7,8,8,7,7,7,6,0,0,0,7,8,10,7,7,0,0,7,10,0,8,0,0,0,0,0,0,0,0,0,0,0,0,0,0,0,0,0,0,0,0,0,0,0],"split_type":[0,0,0,0,0,0,0,0,0,0,0,0,0,0,0,0,0,0,0,0,0,0,0,0,0,0,0,0,0,0,0,0,0,0,0,0,0,0,0,0,0,0,0,0,0,0,0,0,0,0,0,0,0,0,0],"sum_hessian":[4.8366254E4,4.3806168E4,4.5600864E3,2.6624607E4,1.7181559E4,6.7045137E3,1.9920094E4,1.6633836E4,5.4772284E2,6.2925366E3,4.1197742E2,9.745695E3,1.0174398E4,1.6600645E4,3.3190662E1,2.995175E2,2.4820535E2,6.290901E3,1.6355857E0,6.815091E1,3.438265E2,7.7870938E3,1.9586014E3,2.394796E3,7.7796025E3,1.6599623E4,1.0212704E0,1.0084285E1,2.3106379E1,1.9728294E2,1.0223454E2,1.8538339E2,6.2821964E1,6.289888E3,1.0125177E0,7.514241E3,2.7285248E2,8.3718005E2,1.1214214E3,1.6690212E3,7.257747E2,1.2771173E2,7.651891E3,3.6708324E1,1.6562916E4,7.7224827E0,2.3618023E0,2.2034843E1,1.0715361E0,1.1679197E2,8.049097E1,1.2179343E1,9.00552E1,1.5859146E2,2.679193E1],"tree_param":{"num_deleted":"0","num_feature":"12","num_nodes":"55","size_leaf_vector":"1"}},{"base_weights":[-3.6612055E-1,-5.0503916E-1,3.1371364E-1,-2.4610093E-1,-1.0111717E0,-5.6740355E-1,3.5899428E-1,-3.0346593E-1,3.102702E-1,-9.390594E-1,-2.389016E-1,7.947087E-1,-9.6543264E-1,-1.6289106E-1,-9.6102047E-1,3.3722054E-2,-1.0437806E0,1.0199482E0,-3.6428568E-1,-1.5622641E-1,-3.0335635E-1,-3.0642837E-1,2.418929E-1,-2.435957E-1,-3.042747E-1,2.221582E0,-1.4579947E-2,-3.0957502E-1,-4.870058E-1,3.1202307E-1,-8.9821495E-2,4.5628795E-1,-1.7538838E-1,2.862682E-1,-3.0220312E-1],"categories":[],"categories_nodes":[],"categories_segments":[],"categories_sizes":[],"default_left":[0,0,0,0,0,0,0,0,0,0,0,0,0,0,0,0,0,0,0,0,0,0,0,0,0,0,0,0,0,0,0,0,0,0,0],"id":7,"left_children":[1,3,-1,5,7,9,11,-1,-1,13,15,17,19,21,23,25,27,29,31,33,-1,-1,-1,-1,-1,-1,-1,-1,-1,-1,-1,-1,-1,-1,-1],"loss_changes":[7.5014395E3,4.5630635E3,0E0,4.478837E3,1.0240234E1,1.8368379E3,4.6116865E3,0E0,0E0,1.2017334E2,1.7529341E3,1.5700237E3,7.309241E1,1.6345409E2,5.3635742E1,3.6221199E3,1.22229E1,1.340166E2,4.076184E2,1.0214694E2,0E0,0E0,0E0,0E0,0E0,0E0,0E0,0E0,0E0,0E0,0E0,0E0,0E0,0E0,0E0],"parents":[2147483647,0,0,1,1,3,3,4,4,5,5,6,6,9,9,10,10,11,11,12,12,13,13,14,14,15,15,16,16,17,17,18,18,19,19],"right_children":[2,4,-1,6,8,10,12,-1,-1,14,16,18,20,22,24,26,28,30,32,34,-1,-1,-1,-1,-1,-1,-1,-1,-1,-1,-1,-1,-1,-1,-1],"split_conditions":[1E0,3.5686444E-2,3.1371364E-1,3.3333334E-1,8.66E-1,1.9332537E-2,2.2975709E-1,-3.0346593E-1,3.102702E-1,8.214384E-3,4E-2,6E-1,1.6607692E-2,2.48E-1,1.6607692E-2,2.0571493E-2,4.2241337E-4,7.356322E-2,2.0771721E-2,6.666667E-1,-3.0335635E-1,-3.0642837E-1,2.418929E-1,-2.435957E-1,-3.042747E-1,2.221582E0,-1.4579947E-2,-3.0957502E-1,-4.870058E-1,3.1202307E-1,-8.9821495E-2,4.5628795E-1,-1.7538838E-1,2.862682E-1,-3.0220312E-1],"split_indices":[11,7,0,10,8,7,8,0,0,7,8,4,7,8,7,7,0,1,7,10,0,0,0,0,0,0,0,0,0,0,0,0,0,0,0],"split_type":[0,0,0,0,0,0,0,0,0,0,0,0,0,0,0,0,0,0,0,0,0,0,0,0,0,0,0,0,0,0,0,0,0,0,0],"sum_hessian":[3.8243625E4,3.481829E4,3.425336E3,2.3035023E4,1.1783268E4,1.5045825E4,7.989198E3,1.1781576E4,1.691486E0,7.0583696E3,7.987455E3,6.011812E3,1.9773862E3,1.9444716E2,6.863923E3,5.96723E3,2.0202253E3,5.0336836E3,9.7812836E2,1.0606052E2,1.8713258E3,1.030816E2,9.136556E1,1.8106173E3,5.053305E3,6.49207E1,5.902309E3,1.9824255E3,3.7799744E1,4.95825E3,7.5433624E1,1.01739944E2,8.763884E2,4.596664E1,6.0093876E1],"tree_param":{"num_deleted":"0","num_feature":"12","num_nodes":"35","size_leaf_vector":"1"}},{"base_weights":[-3.4513372E-1,-7.814142E-2,-1.0080011E0,-1.0183342E0,1.4612585E-1,-3.025452E-1,2.213481E-1,-1.0162829E0,-5.3481257E-1,5.2306736E-1,-8.260638E-1,-3.0428633E-1,-1.1571807E0,6.706497E-1,-4.0497383E-1,-5.473926E-1,-9.9872607E-1,-4.1364038E-1,-2.9352784E-1,9.0333045E-1,1.6908696E-1,-1.0120463E0,3.4543887E-1,-2.145007E-1,-9.637032E-1,-9.5269233E-1,-1.0145303E0,-1.8848717E-2,3.3078682E-1,-2.0143181E-1,2.4463461E-1,-2.8913838E-1,-1.0539267E0,2.7744234E-1,-1.392385E-1,-1.9551116E-1,1.3072062E-1,-2.983156E-1,7.216677E-2,-5.3777006E-2,-2.9639608E-1,-3.0301306E-1,-3.9502558E-1],"categories":[],"categories_nodes":[],"categories_segments":[],"categories_sizes":[],"default_left":[0,0,0,0,0,0,0,0,0,0,0,0,0,0,0,0,0,0,0,0,0,0,0,0,0,0,0,0,0,0,0,0,0,0,0,0,0,0,0,0,0,0,0],"id":8,"left_children":[1,3,5,7,9,-1,-1,11,-1,13,15,-1,17,19,21,23,25,-1,-1,27,29,31,33,35,37,39,41,-1,-1,-1,-1,-1,-1,-1,-1,-1,-1,-1,-1,-1,-1,-1,-1],"loss_changes":[5.395327E3,4.5827534E3,8.121094E0,4.7509766E0,6.4312847E3,0E0,0E0,4.8828125E-4,0E0,1.7323318E3,2.353855E2,0E0,6.802902E-1,1.2732598E3,7.9108685E2,2.6006702E2,1.2353516E0,0E0,0E0,1.43521E3,1.8798003E3,1.12440125E2,3.6486572E2,2.973255E2,3.1061829E1,2.1384583E1,1.7038574E0,0E0,0E0,0E0,0E0,0E0,0E0,0E0,0E0,0E0,0E0,0E0,0E0,0E0,0E0,0E0,0E0],"parents":[2147483647,0,0,1,1,2,2,3,3,4,4,7,7,9,9,10,10,12,12,13,13,14,14,15,15,16,16,19,19,20,20,21,21,22,22,23,23,24,24,25,25,26,26],"right_children":[2,4,6,8,10,-1,-1,12,-1,14,16,-1,18,20,22,24,26,-1,-1,28,30,32,34,36,38,40,42,-1,-1,-1,-1,-1,-1,-1,-1,-1,-1,-1,-1,-1,-1,-1,-1],"split_conditions":[3.5686444E-2,9E-3,8.66E-1,3.75E-1,4E-2,-3.025452E-1,2.213481E-1,3.3333334E-1,-5.3481257E-1,1.6334638E-5,3.4971097E-1,-3.0428633E-1,2.7272728E-1,3.359238E-2,1E0,2.1104617E-2,1.8363139E-2,-4.1364038E-1,-2.9352784E-1,1.9291911E-2,3.40381E-2,9.195402E-3,9.52381E-3,3.3333334E-1,2.5E-1,4.58E-1,1.1111111E-1,-1.8848717E-2,3.3078682E-1,-2.0143181E-1,2.4463461E-1,-2.8913838E-1,-1.0539267E0,2.7744234E-1,-1.392385E-1,-1.9551116E-1,1.3072062E-1,-2.983156E-1,7.216677E-2,-5.3777006E-2,-2.9639608E-1,-3.0301306E-1,-3.9502558E-1],"split_indices":[7,8,8,5,8,0,0,10,0,0,8,0,6,7,9,7,7,0,0,7,7,1,8,10,4,8,2,0,0,0,0,0,0,0,0,0,0,0,0,0,0,0,0],"split_type":[0,0,0,0,0,0,0,0,0,0,0,0,0,0,0,0,0,0,0,0,0,0,0,0,0,0,0,0,0,0,0,0,0,0,0,0,0,0,0,0,0,0,0],"sum_hessian":[3.0484879E4,2.1732496E4,8.752381E3,4.184853E3,1.7547645E4,8.750384E3,1.9972559E0,4.1759766E3,8.87649E0,1.2645239E4,4.9024043E3,4.125751E3,5.022574E1,1.0910473E4,1.7347671E3,1.8770607E3,3.0253438E3,1.9426868E1,3.0798872E1,7.4524116E3,3.458061E3,9.5878E2,7.7598706E2,1.0438713E3,8.3318933E2,7.888625E2,2.2364812E3,1.2744799E3,6.1779316E3,1.503229E3,1.954832E3,9.419918E2,1.6788185E1,4.522155E2,3.2377158E2,6.241832E2,4.196881E2,8.126587E2,2.0530626E1,3.4692757E1,7.5416974E2,2.208043E3,2.843826E1],"tree_param":{"num_deleted":"0","num_feature":"12","num_nodes":"43","size_leaf_vector":"1"}},{"base_weights":[-3.2463458E-1,-7.6018184E-2,-1.0055922E0,-1.0139617E0,1.2279954E-1,-3.0186096E-1,1.6306908E-1,-3.032179E-1,-1.2012178E0,4.365912E-1,-8.000601E-1,-4.99483E-1,-3.1652248E-1,1.3852899E-1,7.952005E-1,-5.072523E-1,-9.897087E-1,-3.557119E-2,9.8748505E-1,9.759951E-1,-4.5267087E-3,5.259141E-1,-6.954166E-1,-9.9454427E-1,-7.467182E-1,1.8200348E-1,-7.8739055E-2,-2.9419297E-1,3.1491172E-1,2.9869956E-1,-9.458588E-2,-1.2368168E-1,2.777355E-1,-1.21395744E-1,9.9044126E-1,-3.102695E-1,-7.51718E-2,-2.8401533E-1,-3.032786E-1,-2.7030855E-1,3.823913E-1],"categories":[],"categories_nodes":[],"categories_segments":[],"categories_sizes":[],"default_left":[0,0,0,0,0,0,0,0,0,0,0,0,0,0,0,0,0,0,0,0,0,0,0,0,0,0,0,0,0,0,0,0,0,0,0,0,0,0,0,0,0],"id":9,"left_children":[1,3,5,7,9,-1,-1,-1,11,13,15,-1,-1,17,19,21,23,25,27,29,31,33,35,37,39,-1,-1,-1,-1,-1,-1,-1,-1,-1,-1,-1,-1,-1,-1,-1,-1],"loss_changes":[4.1132363E3,3.3193452E3,6.6972656E0,6.7211914E-1,4.2535435E3,0E0,0E0,0E0,1.4672394E0,1.1714937E3,2.0646729E2,0E0,0E0,8.8494257E2,7.1932056E2,2.8558585E2,1.9140625E0,7.242734E2,1.25801025E2,1.0337695E2,3.4872647E2,5.8662024E2,1.8686536E2,7.775879E-1,1.6160723E1,0E0,0E0,0E0,0E0,0E0,0E0,0E0,0E0,0E0,0E0,0E0,0E0,0E0,0E0,0E0,0E0],"parents":[2147483647,0,0,1,1,2,2,3,3,4,4,8,8,9,9,10,10,13,13,14,14,15,15,16,16,17,17,18,18,19,19,20,20,21,21,22,22,23,23,24,24],"right_children":[2,4,6,8,10,-1,-1,-1,12,14,16,-1,-1,18,20,22,24,26,28,30,32,34,36,38,40,-1,-1,-1,-1,-1,-1,-1,-1,-1,-1,-1,-1,-1,-1,-1,-1],"split_conditions":[3.5686444E-2,9E-3,8.66E-1,3.3333334E-1,4.6E-2,-3.0186096E-1,1.6306908E-1,-3.032179E-1,1E0,3.3333334E-1,3.4971097E-1,-4.99483E-1,-3.1652248E-1,3.4599442E-2,2.1875E-1,1.7056106E-2,1E0,9.52381E-3,1.056338E-2,1.7468014E-5,2.1104617E-2,2.638298E-1,3.3333334E-1,1.8363139E-2,6.0344826E-2,1.8200348E-1,-7.8739055E-2,-2.9419297E-1,3.1491172E-1,2.9869956E-1,-9.458588E-2,-1.2368168E-1,2.777355E-1,-1.21395744E-1,9.9044126E-1,-3.102695E-1,-7.51718E-2,-2.8401533E-1,-3.032786E-1,-2.7030855E-1,3.823913E-1],"split_indices":[7,8,8,10,8,0,0,0,4,10,8,0,0,7,5,7,9,8,8,0,7,8,10,7,1,0,0,0,0,0,0,0,0,0,0,0,0,0,0,0,0],"split_type":[0,0,0,0,0,0,0,0,0,0,0,0,0,0,0,0,0,0,0,0,0,0,0,0,0,0,0,0,0,0,0,0,0,0,0,0,0,0,0,0,0],"sum_hessian":[2.4295395E4,1.779836E4,6.497036E3,3.1121875E3,1.4686171E4,6.494825E3,2.2112317E0,3.0656167E3,4.65707E1,1.0960051E4,3.7261204E3,8.6693735E0,3.7901325E1,5.9860576E3,4.973993E3,1.4661436E3,2.2599768E3,4.968166E3,1.01789154E3,4.0566782E3,9.17315E2,2.256049E2,1.2405387E3,2.2128477E3,4.712911E1,1.2965192E3,3.6716467E3,3.0741257E1,9.8715027E2,3.996036E3,6.0642345E1,6.381692E2,2.791458E2,1.6959773E2,5.600717E1,7.034396E2,5.370991E2,5.7963776E2,1.63321E3,4.4301388E1,2.8277214E0],"tree_param":{"num_deleted":"0","num_feature":"12","num_nodes":"41","size_leaf_vector":"1"}},{"base_weights":[-2.9737955E-1,-6.956695E-2,-1.003719E0,-3.0313286E-1,1.02693506E-1,-3.013486E-1,1.22567594E-1,3.7187865E-1,-7.2820544E-1,4.544663E-1,-3.0575633E-1,-4.2457014E-1,-9.79923E-1,2.004324E-1,8.042919E-1,-1.33206E-1,-9.4931066E-1,-9.0408117E-1,-3.020671E-1,-2.199325E-1,1.17949985E-1,2.8967813E-1,5.035502E-2,7.194636E-2,-2.49981E-1,-2.9095048E-1,2.5718144E-1,3.5634775E-2,-2.8943092E-1],"categories":[],"categories_nodes":[],"categories_segments":[],"categories_sizes":[],"default_left":[0,0,0,0,0,0,0,0,0,0,0,0,0,0,0,0,0,0,0,0,0,0,0,0,0,0,0,0,0],"id":10,"left_children":[1,3,5,-1,7,-1,-1,9,11,13,-1,15,17,19,21,23,25,27,-1,-1,-1,-1,-1,-1,-1,-1,-1,-1,-1],"loss_changes":[3.1815015E3,2.4233389E3,5.6972656E0,0E0,2.8270513E3,0E0,0E0,1.0972146E3,2.359751E2,8.0073083E2,0E0,2.144771E2,2.5466309E0,9.39902E2,3.8901465E2,2.3618927E2,1.9406464E1,2.824472E1,0E0,0E0,0E0,0E0,0E0,0E0,0E0,0E0,0E0,0E0,0E0],"parents":[2147483647,0,0,1,1,2,2,4,4,7,7,8,8,9,9,11,11,12,12,13,13,14,14,15,15,16,16,17,17],"right_children":[2,4,6,-1,8,-1,-1,10,12,14,-1,16,18,20,22,24,26,28,-1,-1,-1,-1,-1,-1,-1,-1,-1,-1,-1],"split_conditions":[3.5686444E-2,9E-3,8.66E-1,-3.0313286E-1,4E-2,-3.013486E-1,1.22567594E-1,4.848485E-1,3.4971097E-1,3.3333334E-1,-3.0575633E-1,2.1170126E-2,1.8363139E-2,1.9332537E-2,1.6594931E-5,1.6334638E-5,1E0,4.58E-1,-3.020671E-1,-2.199325E-1,1.17949985E-1,2.8967813E-1,5.035502E-2,7.194636E-2,-2.49981E-1,-2.9095048E-1,2.5718144E-1,3.5634775E-2,-2.8943092E-1],"split_indices":[7,8,8,0,8,0,0,6,8,10,0,7,7,7,0,0,11,8,0,0,0,0,0,0,0,0,0,0,0],"split_type":[0,0,0,0,0,0,0,0,0,0,0,0,0,0,0,0,0,0,0,0,0,0,0,0,0,0,0,0,0],"sum_hessian":[1.9770996E4,1.4950254E4,4.820742E3,2.3128337E3,1.263742E4,4.8183823E3,2.3597863E0,9.545522E3,3.091897E3,9.011201E3,5.3432196E2,1.4026416E3,1.6892554E3,5.221246E3,3.789955E3,9.026793E2,4.9996225E2,4.5215533E2,1.2371001E3,8.9300775E2,4.3282383E3,3.0232227E3,7.6673224E2,5.8931946E2,3.1335986E2,4.9480405E2,5.1582103E0,2.527111E1,4.2688422E2],"tree_param":{"num_deleted":"0","num_feature":"12","num_nodes":"29","size_leaf_vector":"1"}},{"base_weights":[-2.702533E-1,-6.66736E-2,-1.0022086E0,-3.023556E-1,7.8429185E-2,-3.0096018E-1,9.329746E-2,2.9004106E-1,-6.840067E-1,1.725938E-1,3.0466783E-1,-3.7193158E-1,-9.681551E-1,3.3335555E-1,-6.5024483E-1,-1.0288023E-1,-9.890936E-1,-9.718023E-1,-1.1354801E-1,1.9565183E-1,-7.012409E-2,3.5430738E-4,-3.0315566E-1,4.2648006E-2,-2.728307E-1,-2.9992744E-1,-3.633685E-2,-2.621741E-1,-2.9960012E-1,6.9475394E-1,-2.9968187E-1],"categories":[],"categories_nodes":[],"categories_segments":[],"categories_sizes":[],"default_left":[0,0,0,0,0,0,0,0,0,0,0,0,0,0,0,0,0,0,0,0,0,0,0,0,0,0,0,0,0,0,0],"id":11,"left_children":[1,3,5,-1,7,-1,-1,9,11,13,-1,15,17,19,21,23,25,27,29,-1,-1,-1,-1,-1,-1,-1,-1,-1,-1,-1,-1],"loss_changes":[2.4493308E3,1.7565809E3,4.9711914E0,0E0,1.7982831E3,0E0,0E0,7.432137E2,2.1436572E2,9.936312E2,0E0,1.9179216E2,3.8382568E0,1.1361517E3,2.8814868E2,1.5940924E2,3.1254578E0,2.4440918E0,1.6328568E1,0E0,0E0,0E0,0E0,0E0,0E0,0E0,0E0,0E0,0E0,0E0,0E0],"parents":[2147483647,0,0,1,1,2,2,4,4,7,7,8,8,9,9,11,11,12,12,13,13,14,14,15,15,16,16,17,17,18,18],"right_children":[2,4,6,-1,8,-1,-1,10,12,14,-1,16,18,20,22,24,26,28,30,-1,-1,-1,-1,-1,-1,-1,-1,-1,-1,-1,-1],"split_conditions":[3.5686444E-2,9E-3,8.66E-1,-3.023556E-1,4.6E-2,-3.0096018E-1,9.329746E-2,1E0,3.4971097E-1,1E0,3.0466783E-1,2.1170126E-2,1.6666667E-1,3.359238E-2,2.7272728E-1,3.6363637E-1,5E-1,1.4945138E-2,2.0109603E-2,1.9565183E-1,-7.012409E-2,3.5430738E-4,-3.0315566E-1,4.2648006E-2,-2.728307E-1,-2.9992744E-1,-3.633685E-2,-2.621741E-1,-2.9960012E-1,6.9475394E-1,-2.9968187E-1],"split_indices":[7,8,8,0,8,0,0,11,8,4,0,7,2,7,6,6,4,7,7,0,0,0,0,0,0,0,0,0,0,0,0],"split_type":[0,0,0,0,0,0,0,0,0,0,0,0,0,0,0,0,0,0,0,0,0,0,0,0,0,0,0,0,0,0,0],"sum_hessian":[1.643667E4,1.2860776E4,3.575894E3,1.717117E3,1.1143659E4,3.573431E3,2.4631665E0,8.723184E3,2.420475E3,7.508881E3,1.2143031E3,1.1546512E3,1.2658237E3,6.282111E3,1.2267699E3,8.049155E2,3.4973566E2,1.260308E3,5.515761E0,4.0212627E3,2.2608484E3,4.3721698E2,7.895529E2,6.179879E2,1.8692766E2,3.4534073E2,4.39495E0,2.7861896E2,9.816891E2,1.0417424E0,4.4740186E0],"tree_param":{"num_deleted":"0","num_feature":"12","num_nodes":"31","size_leaf_vector":"1"}},{"base_weights":[-2.4033886E-1,-6.312074E-2,-1.000923E0,-3.0168268E-1,5.5752553E-2,-3.0065972E-1,7.159468E-2,2.9054052E-1,-4.4485337E-1,7.916059E-3,6.807246E-1,-2.3222367E-1,-9.538371E-1,5.511056E-1,-8.469418E-1,-7.7038497E-1,9.476343E-1,-4.804192E-1,3.419474E-1,-8.3093846E-1,-3.0013198E-1,2.2235194E-1,-3.4858373E-1,-2.875275E-1,3.0034393E-1,-3.1120634E-1,2.6151714E-1,4.012979E-1,1.14935055E-1,-1.8708484E-1,3.179946E-1,2.2755542E-1,-2.164728E-1,1.1006902E-1,-2.7940473E-1],"categories":[],"categories_nodes":[],"categories_segments":[],"categories_sizes":[],"default_left":[0,0,0,0,0,0,0,0,0,0,0,0,0,0,0,0,0,0,0,0,0,0,0,0,0,0,0,0,0,0,0,0,0,0,0],"id":12,"left_children":[1,3,5,-1,7,-1,-1,9,11,13,15,17,19,21,23,25,27,29,31,33,-1,-1,-1,-1,-1,-1,-1,-1,-1,-1,-1,-1,-1,-1,-1],"loss_changes":[1.8923333E3,1.2758882E3,4.4350586E0,0E0,1.1887914E3,0E0,0E0,7.592363E2,3.4925928E2,1.854998E3,1.1208942E3,3.249389E2,4.616516E0,7.9618994E2,3.2074646E2,1.9812378E2,5.374341E2,3.5173907E2,3.055332E2,3.250615E1,0E0,0E0,0E0,0E0,0E0,0E0,0E0,0E0,0E0,0E0,0E0,0E0,0E0,0E0,0E0],"parents":[2147483647,0,0,1,1,2,2,4,4,7,7,8,8,9,9,10,10,11,11,12,12,13,13,14,14,15,15,16,16,17,17,18,18,19,19],"right_children":[2,4,6,-1,8,-1,-1,10,12,14,16,18,20,22,24,26,28,30,32,34,-1,-1,-1,-1,-1,-1,-1,-1,-1,-1,-1,-1,-1,-1,-1],"split_conditions":[3.5686444E-2,9E-3,8.66E-1,-3.0168268E-1,1.6736401E-2,-3.0065972E-1,7.159468E-2,1.2E-2,3.4971097E-1,9.52381E-3,2.0900635E-2,3.3333334E-1,1.8363139E-2,2.2870585E-2,3.4599442E-2,3.3333334E-1,1.3E-2,3.4599442E-2,2.2975709E-1,4.58E-1,-3.0013198E-1,2.2235194E-1,-3.4858373E-1,-2.875275E-1,3.0034393E-1,-3.1120634E-1,2.6151714E-1,4.012979E-1,1.14935055E-1,-1.8708484E-1,3.179946E-1,2.2755542E-1,-2.164728E-1,1.1006902E-1,-2.7940473E-1],"split_indices":[7,8,8,0,8,0,0,8,8,8,7,10,7,7,7,10,8,7,8,8,0,0,0,0,0,0,0,0,0,0,0,0,0,0,0],"split_type":[0,0,0,0,0,0,0,0,0,0,0,0,0,0,0,0,0,0,0,0,0,0,0,0,0,0,0,0,0,0,0,0,0,0,0],"sum_hessian":[1.4038661E4,1.1386629E4,2.6520317E3,1.2744756E3,1.0112153E4,2.649496E3,2.535656E0,6.883949E3,3.2282046E3,3.992823E3,2.891126E3,2.2780132E3,9.501916E2,2.4416912E3,1.551132E3,4.4886926E2,2.4422568E3,1.5906082E3,6.8740497E2,2.6642307E2,6.837685E2,2.1983462E3,2.4334485E2,1.4633396E3,8.7792404E1,3.8641522E2,6.2454037E1,1.443543E3,9.9871387E2,1.4558649E3,1.3474321E2,4.9414175E2,1.9326321E2,2.0400785E1,2.4602226E2],"tree_param":{"num_deleted":"0","num_feature":"12","num_nodes":"35","size_leaf_vector":"1"}},{"base_weights":[-2.1964024E-1,-6.2099427E-2,-9.9974644E-1,-3.0107534E-1,3.9208286E-2,-3.0041957E-1,5.5230957E-2,1.9160861E-1,-5.7273895E-1,3.9664093E-1,-2.3988989E-1,-1.00402E0,7.2703E-2,6.3208055E-1,-4.8390638E-2,-3.3421454E-1,3.013184E-1,-1.0345234E0,4.097048E-1,-2.048024E-1,1.0204992E0,6.987226E-2,3.8839278E-1,-1.278718E-1,4.3158194E-1,-5.301249E-2,-2.7918822E-1,-3.0252627E-1,-5.771053E-1,3.1870213E-1,-2.6613626E-1,3.222809E-1,-1.8946965E-1,3.2455343E-1,-2.4912234E-1],"categories":[],"categories_nodes":[],"categories_segments":[],"categories_sizes":[],"default_left":[0,0,0,0,0,0,0,0,0,0,0,0,0,0,0,0,0,0,0,0,0,0,0,0,0,0,0,0,0,0,0,0,0,0,0],"id":13,"left_children":[1,3,5,-1,7,-1,-1,9,11,13,15,17,19,21,23,25,-1,27,29,31,33,-1,-1,-1,-1,-1,-1,-1,-1,-1,-1,-1,-1,-1,-1],"loss_changes":[1.4392947E3,9.295179E2,4.032959E0,0E0,8.207376E2,0E0,0E0,6.234242E2,4.8852405E2,5.0050305E2,2.6676538E2,4.5786377E1,1.8531566E2,8.2590466E2,9.2969006E2,1.9812653E2,0E0,2.1965576E1,2.035264E1,2.9829245E2,1.9015366E1,0E0,0E0,0E0,0E0,0E0,0E0,0E0,0E0,0E0,0E0,0E0,0E0,0E0,0E0],"parents":[2147483647,0,0,1,1,2,2,4,4,7,7,8,8,9,9,10,10,11,11,12,12,13,13,14,14,15,15,17,17,18,18,19,19,20,20],"right_children":[2,4,6,-1,8,-1,-1,10,12,14,16,18,20,22,24,26,-1,28,30,32,34,-1,-1,-1,-1,-1,-1,-1,-1,-1,-1,-1,-1,-1,-1],"split_conditions":[3.5686444E-2,9E-3,8.66E-1,-3.0107534E-1,1.6334638E-5,-3.0041957E-1,5.5230957E-2,1.6E-2,1E0,3.359238E-2,1E0,2.6605556E-2,2.1134092E-2,2.1069497E-2,8.072308E-6,3.71E-1,3.013184E-1,1.1111111E-1,3.4873616E-2,2.0900635E-2,7.654921E-2,6.987226E-2,3.8839278E-1,-1.278718E-1,4.3158194E-1,-5.301249E-2,-2.7918822E-1,-3.0252627E-1,-5.771053E-1,3.1870213E-1,-2.6613626E-1,3.222809E-1,-1.8946965E-1,3.2455343E-1,-2.4912234E-1],"split_indices":[7,8,8,0,0,0,0,8,9,7,11,7,7,7,0,8,0,2,7,7,8,0,0,0,0,0,0,0,0,0,0,0,0,0,0],"split_type":[0,0,0,0,0,0,0,0,0,0,0,0,0,0,0,0,0,0,0,0,0,0,0,0,0,0,0,0,0,0,0,0,0,0,0],"sum_hessian":[1.1710745E4,9.744037E3,1.9667084E3,9.457717E2,8.798266E3,1.9641213E3,2.587007E0,7.044563E3,1.7537023E3,4.7755005E3,2.2690625E3,1.0509244E3,7.027779E2,3.1229263E3,1.652574E3,2.1098538E3,1.5920886E2,1.0289905E3,2.1933907E1,5.4421967E2,1.5855823E2,1.9496653E3,1.1732611E3,1.3183038E3,3.3427005E2,1.6700957E3,4.397581E2,1.0017178E3,2.7272694E1,1.4711212E1,7.222695E0,1.357724E2,4.0844727E2,1.5387383E2,4.684406E0],"tree_param":{"num_deleted":"0","num_feature":"12","num_nodes":"35","size_leaf_vector":"1"}},{"base_weights":[-1.8739621E-1,-5.165229E-2,-9.985732E-1,-3.0049723E-1,3.1589378E-2,-3.0021784E-1,4.275634E-2,-4.1717004E-2,3.019691E-1,7.556244E-2,-8.223076E-1,6.6031283E-1,-1.3902624E-1,-1.0075588E0,1.2143676E-2,2.544784E-1,-3.3161014E-1,-1.4498363E-1,7.3889494E-2,-3.031423E-1,4.812378E-2,-1.07255526E-1,2.3846628E-1],"categories":[],"categories_nodes":[],"categories_segments":[],"categories_sizes":[],"default_left":[0,0,0,0,0,0,0,0,0,0,0,0,0,0,0,0,0,0,0,0,0,0,0],"id":14,"left_children":[1,3,5,-1,7,-1,-1,9,-1,11,13,15,17,19,21,-1,-1,-1,-1,-1,-1,-1,-1],"loss_changes":[1.1210691E3,6.898544E2,3.7280273E0,0E0,5.7333954E2,0E0,0E0,6.831268E2,0E0,8.141681E2,1.5068152E2,5.7897723E2,6.297798E2,2.8780518E0,5.180605E1,0E0,0E0,0E0,0E0,0E0,0E0,0E0,0E0],"parents":[2147483647,0,0,1,1,2,2,4,4,7,7,9,9,10,10,11,11,12,12,13,13,14,14],"right_children":[2,4,6,-1,8,-1,-1,10,-1,12,14,16,18,20,22,-1,-1,-1,-1,-1,-1,-1,-1],"split_conditions":[3.5686444E-2,9E-3,8.66E-1,-3.0049723E-1,1E0,-3.0021784E-1,4.275634E-2,3.6363637E-1,3.019691E-1,9.52381E-3,4.0625E-1,2.2870585E-2,2.6605556E-2,3.888889E-1,2.1046966E-2,2.544784E-1,-3.3161014E-1,-1.4498363E-1,7.3889494E-2,-3.031423E-1,4.812378E-2,-1.07255526E-1,2.3846628E-1],"split_indices":[7,8,8,0,11,0,0,6,0,8,5,7,7,2,7,0,0,0,0,0,0,0,0],"split_type":[0,0,0,0,0,0,0,0,0,0,0,0,0,0,0,0,0,0,0,0,0,0,0],"sum_hessian":[1.0180607E4,8.722099E3,1.4585092E3,7.017913E2,8.020307E3,1.4558854E3,2.6238015E0,7.4603364E3,5.599707E2,6.4866553E3,9.736811E2,1.7408346E3,4.745821E3,7.966209E2,1.7706023E2,1.5738275E3,1.6700706E2,2.5063608E3,2.23946E3,7.9477185E2,1.8490657E0,1.20632866E2,5.642736E1],"tree_param":{"num_deleted":"0","num_feature":"12","num_nodes":"23","size_leaf_vector":"1"}},{"base_weights":[-1.6026378E-1,-4.5767963E-2,-9.972992E-1,-2.999121E-1,2.1533621E-2,-3.0003607E-1,3.317716E-2,1.3438278E-1,-5.014086E-1,-6.552958E-2,5.1546484E-1,-9.7637826E-1,1.5318242E-2,-2.5555748E-1,6.624935E-1,1.4713866E-1,1.5316092E0,-1.0096889E0,4.3259642E-1,-1.8055522E-1,8.7251955E-1,-1.09094225E-1,3.0554813E-1,2.4838422E-1,-2.6963937E-1,-6.303125E-2,2.7891013E-1,-3.139096E-1,4.83215E-1,-2.9714224E-1,-5.92439E-1,-2.433602E-1,2.819427E-1,2.553704E-1,-1.4328668E-1,2.7820763E-1,-2.3192456E-1],"categories":[],"categories_nodes":[],"categories_segments":[],"categories_sizes":[],"default_left":[0,0,0,0,0,0,0,0,0,0,0,0,0,0,0,0,0,0,0,0,0,0,0,0,0,0,0,0,0,0,0,0,0,0,0,0,0],"id":15,"left_children":[1,3,5,-1,7,-1,-1,9,11,13,15,17,19,21,23,25,27,29,31,33,35,-1,-1,-1,-1,-1,-1,-1,-1,-1,-1,-1,-1,-1,-1,-1,-1],"loss_changes":[8.6236694E2,5.0830472E2,3.494629E0,0E0,4.36545E2,0E0,0E0,4.6354846E2,3.2226318E2,5.5238776E2,7.8335657E2,3.2546753E1,1.0590954E2,4.3638184E2,2.1424817E2,4.300907E2,1.1525403E2,1.0443787E1,1.1172425E1,1.578051E2,1.1304535E1,0E0,0E0,0E0,0E0,0E0,0E0,0E0,0E0,0E0,0E0,0E0,0E0,0E0,0E0,0E0,0E0],"parents":[2147483647,0,0,1,1,2,2,4,4,7,7,8,8,9,9,10,10,11,11,12,12,13,13,14,14,15,15,16,16,17,17,18,18,19,19,20,20],"right_children":[2,4,6,-1,8,-1,-1,10,12,14,16,18,20,22,24,26,28,30,32,34,36,-1,-1,-1,-1,-1,-1,-1,-1,-1,-1,-1,-1,-1,-1,-1,-1],"split_conditions":[3.5686444E-2,9E-3,8.66E-1,-2.999121E-1,1.6334638E-5,-3.0003607E-1,3.317716E-2,8.300183E-6,1E0,3.3333334E-1,2.6605556E-2,2.6605556E-2,2.1134092E-2,3.4599442E-2,2.57E-1,1.5557314E-5,1.056338E-2,2.2222222E-1,1.1764706E-2,2.0900635E-2,7.654921E-2,-1.09094225E-1,3.0554813E-1,2.4838422E-1,-2.6963937E-1,-6.303125E-2,2.7891013E-1,-3.139096E-1,4.83215E-1,-2.9714224E-1,-5.92439E-1,-2.433602E-1,2.819427E-1,2.553704E-1,-1.4328668E-1,2.7820763E-1,-2.3192456E-1],"split_indices":[7,8,8,0,0,0,0,0,9,10,7,7,7,7,8,0,8,2,8,7,8,0,0,0,0,0,0,0,0,0,0,0,0,0,0,0,0],"split_type":[0,0,0,0,0,0,0,0,0,0,0,0,0,0,0,0,0,0,0,0,0,0,0,0,0,0,0,0,0,0,0,0,0,0,0,0,0],"sum_hessian":[8.997739E3,7.9159873E3,1.0817518E3,5.207648E2,7.395222E3,1.0791014E3,2.650473E0,6.0832256E3,1.3119966E3,3.9906125E3,2.092613E3,6.8315674E2,6.288399E2,3.1651082E3,8.255045E2,1.536732E3,5.55881E2,6.6765564E2,1.5501118E1,5.125173E2,1.1632262E2,2.9182405E3,2.4686763E2,7.4683075E2,7.867378E1,1.0555846E3,4.8114746E2,1.618583E1,5.396952E2,6.566092E2,1.1046447E1,4.31658E0,1.1184538E1,1.14156624E2,3.9836066E2,1.1299359E2,3.3290195E0],"tree_param":{"num_deleted":"0","num_feature":"12","num_nodes":"37","size_leaf_vector":"1"}},{"base_weights":[-1.3399746E-1,-3.5334993E-2,-9.95812E-1,-9.976031E-1,2.0881163E-2,-2.9985783E-1,2.5785586E-2,-1.2189967E-1,-2.9985297E-1,7.839346E-2,-8.7930155E-1,1.2284954E-1,-3.0197662E-1,-8.919736E-1,9.7438604E-1,-2.2787718E-2,4.7368833E-1,-6.4671177E-1,-9.7501916E-1,-1.6604237E-1,6.3707626E-1,5.753428E-2,-1.1670174E-1,2.4352103E-1,2.4854789E-2,3.6232328E-1,-2.743013E-1,-2.995446E-1,-1.22794285E-1],"categories":[],"categories_nodes":[],"categories_segments":[],"categories_sizes":[],"default_left":[0,0,0,0,0,0,0,0,0,0,0,0,0,0,0,0,0,0,0,0,0,0,0,0,0,0,0,0,0],"id":16,"left_children":[1,3,5,7,9,-1,-1,-1,-1,11,13,15,-1,17,19,21,23,25,27,-1,-1,-1,-1,-1,-1,-1,-1,-1,-1],"loss_changes":[6.6508887E2,3.7975977E2,3.314087E0,3.0700684E-2,3.434886E2,0E0,0E0,0E0,0E0,3.009078E2,1.0228363E1,3.0614087E2,0E0,7.440277E0,6.7644486E0,3.328407E2,2.3214667E2,5.2323322E1,3.4942322E0,0E0,0E0,0E0,0E0,0E0,0E0,0E0,0E0,0E0,0E0],"parents":[2147483647,0,0,1,1,2,2,3,3,4,4,9,9,10,10,11,11,13,13,14,14,15,15,16,16,17,17,18,18],"right_children":[2,4,6,8,10,-1,-1,-1,-1,12,14,16,-1,18,20,22,24,26,28,-1,-1,-1,-1,-1,-1,-1,-1,-1,-1],"split_conditions":[3.5686444E-2,9E-3,8.66E-1,6.671329E-8,3.4971097E-1,-2.9985783E-1,2.5785586E-2,-1.2189967E-1,-2.9985297E-1,4.848485E-1,1.6666667E-1,3.3333334E-1,-3.0197662E-1,1.4945138E-2,2.1875E-1,1.3E-2,2E-1,4.76E-1,5.02E-1,-1.6604237E-1,6.3707626E-1,5.753428E-2,-1.1670174E-1,2.4352103E-1,2.4854789E-2,3.6232328E-1,-2.743013E-1,-2.995446E-1,-1.22794285E-1],"split_indices":[7,8,8,0,8,0,0,0,0,6,2,10,0,7,5,8,4,8,8,0,0,0,0,0,0,0,0,0,0],"split_type":[0,0,0,0,0,0,0,0,0,0,0,0,0,0,0,0,0,0,0,0,0,0,0,0,0,0,0,0,0],"sum_hessian":[7.8213438E3,7.0188506E3,8.0249286E2,3.864875E2,6.6323633E3,7.998228E2,2.670023E0,1.930572E0,3.8455692E2,6.234929E3,3.9743408E2,5.9903667E3,2.4456264E2,3.9525092E2,2.1831844E0,4.2338013E3,1.7565651E3,1.02201706E2,2.930492E2,1.1597211E0,1.0234632E0,2.6699458E3,1.5638557E3,9.4131586E2,8.152492E2,1.2446125E1,8.975558E1,2.8064432E2,1.2404874E1],"tree_param":{"num_deleted":"0","num_feature":"12","num_nodes":"29","size_leaf_vector":"1"}},{"base_weights":[-1.11661755E-1,-3.1256076E-2,-9.9398166E-1,-8.481572E-2,3.0078515E-1,-2.99667E-1,2.00632E-2,-9.909662E-3,-7.4689674E-1,-4.0046743E-1,1.21707216E-1,-1.0000042E0,-1.9529803E-2,2.9814652E-1,-9.734717E-1,1.2681253E0,1.9099109E-2,-3.0110896E-1,4.0837176E-2,-3.706907E-1,6.4647686E-1,-1.3750724E-1,5.57115E-1,-3.0612475E-1,4.4964764E-2,5.4603E-1,7.46377E-2,7.7267766E-2,-8.7914154E-2,7.41686E-2,-4.0613094E-1,3.3588544E-1,-1.9765664E-2],"categories":[],"categories_nodes":[],"categories_segments":[],"categories_sizes":[],"default_left":[0,0,0,0,0,0,0,0,0,0,0,0,0,0,0,0,0,0,0,0,0,0,0,0,0,0,0,0,0,0,0,0,0],"id":17,"left_children":[1,3,5,7,-1,-1,-1,9,11,13,15,17,19,21,23,25,27,-1,-1,29,31,-1,-1,-1,-1,-1,-1,-1,-1,-1,-1,-1,-1],"loss_changes":[5.0670834E2,3.6263586E2,3.1729126E0,3.087527E2,0E0,0E0,0E0,2.8760306E2,1.1647336E2,5.6481854E2,4.922384E2,2.105713E0,3.86809E1,7.511686E2,4.1022522E1,1.929657E2,2.8605325E2,0E0,0E0,6.60969E1,1.9322336E1,0E0,0E0,0E0,0E0,0E0,0E0,0E0,0E0,0E0,0E0,0E0,0E0],"parents":[2147483647,0,0,1,1,2,2,3,3,7,7,8,8,9,9,10,10,11,11,12,12,13,13,14,14,15,15,16,16,19,19,20,20],"right_children":[2,4,6,8,-1,-1,-1,10,12,14,16,18,20,22,24,26,28,-1,-1,30,32,-1,-1,-1,-1,-1,-1,-1,-1,-1,-1,-1,-1],"split_conditions":[3.5686444E-2,1E0,8.66E-1,3.6363637E-1,3.0078515E-1,-2.99667E-1,2.00632E-2,1.9332537E-2,4.0625E-1,1.6607692E-2,2.0796245E-2,3.888889E-1,1.3E-2,1.227481E-2,3.3333334E-1,9.52381E-3,3.359238E-2,-3.0110896E-1,4.0837176E-2,9.52381E-3,2.6E-2,-1.3750724E-1,5.57115E-1,-3.0612475E-1,4.4964764E-2,5.4603E-1,7.46377E-2,7.7267766E-2,-8.7914154E-2,7.41686E-2,-4.0613094E-1,3.3588544E-1,-1.9765664E-2],"split_indices":[7,11,8,6,0,0,0,7,5,7,7,2,8,7,10,8,7,0,0,8,8,0,0,0,0,0,0,0,0,0,0,0,0],"split_type":[0,0,0,0,0,0,0,0,0,0,0,0,0,0,0,0,0,0,0,0,0,0,0,0,0,0,0,0,0,0,0,0,0],"sum_hessian":[7.1418555E3,6.546325E3,5.955302E2,6.22477E3,3.2155533E2,5.9284576E2,2.6845007E0,5.5930073E3,6.3176276E2,1.4092322E3,4.183775E3,4.6839645E2,1.6336633E2,6.3523065E2,7.740015E2,3.4276602E2,3.841009E3,4.6699533E2,1.4011106E0,1.07257034E2,5.610929E1,4.2815958E2,2.0707112E2,7.43042E2,3.0959532E1,2.2184831E2,1.2091772E2,2.1776196E3,1.6633895E3,6.631986E1,4.0937172E1,3.3372227E1,2.2737064E1],"tree_param":{"num_deleted":"0","num_feature":"12","num_nodes":"33","size_leaf_vector":"1"}},{"base_weights":[-9.442258E-2,-2.8081933E-2,-9.916497E-1,7.9169475E-2,-5.072537E-1,-2.9944643E-1,1.56230545E-2,-7.197214E-2,3.8240752E-1,-9.4531274E-1,-9.743158E-2,2.0150325E-1,-4.0813836E-1,3.146323E-2,1.5102196E0,-9.773758E-1,3.0870852E-1,-2.3899586E-1,1.1731695E0,-5.6505024E-2,1.6397973E0,-6.148573E-1,1.0076556E0,-2.161065E-1,5.7856315E-1,-3.0670595E-1,1.5936179E0,-4.0282732E-1,-1.0159262E0,9.1887736E-1,-2.456099E-1,-5.069914E-1,3.9185673E-1,1.0612986E0,7.143598E-1,1.327897E-1,-1.2462121E-1,-3.8982973E-1,6.4336896E-1,-3.0838215E-1,-1.2578027E-1,-1.64697E-1,3.0617768E-1,6.129067E-1,-8.182027E-2,2.9896456E-1,-2.974224E-1,4.1956297E-1,7.6816684E-1,-8.885838E-4,-2.226633E-1,-2.9490352E-1,-4.3999162E-1,-2.0586528E-1,3.7319165E-1,1.24865554E-1,-2.3368372E-1,2.770249E-1,-8.049076E-2,1.9354768E-2,3.2403135E-1],"categories":[],"categories_nodes":[],"categories_segments":[],"categories_sizes":[],"default_left":[0,0,0,0,0,0,0,0,0,0,0,0,0,0,0,0,0,0,0,0,0,0,0,0,0,0,0,0,0,0,0,0,0,0,0,0,0,0,0,0,0,0,0,0,0,0,0,0,0,0,0,0,0,0,0,0,0,0,0,0,0],"id":18,"left_children":[1,3,5,7,9,-1,-1,11,13,15,17,19,21,23,25,27,29,31,33,35,37,39,41,43,45,-1,47,49,51,53,-1,55,57,59,-1,-1,-1,-1,-1,-1,-1,-1,-1,-1,-1,-1,-1,-1,-1,-1,-1,-1,-1,-1,-1,-1,-1,-1,-1,-1,-1],"loss_changes":[3.831294E2,3.0813458E2,3.060791E0,2.245781E2,1.9677042E2,0E0,0E0,3.0075586E2,6.450549E2,2.1608215E1,1.0238593E2,6.69584E2,4.3010144E2,1.6863078E2,8.3323364E1,1.1040436E1,1.0363058E1,8.668976E1,5.186104E0,2.743885E2,4.0995148E2,1.0307623E2,4.3329163E0,1.10222626E2,2.5550609E2,0E0,6.712451E1,4.63372E0,5.7350464E0,5.829649E0,0E0,9.05812E1,5.3970825E1,9.433365E-1,0E0,0E0,0E0,0E0,0E0,0E0,0E0,0E0,0E0,0E0,0E0,0E0,0E0,0E0,0E0,0E0,0E0,0E0,0E0,0E0,0E0,0E0,0E0,0E0,0E0,0E0,0E0],"parents":[2147483647,0,0,1,1,2,2,3,3,4,4,7,7,8,8,9,9,10,10,11,11,12,12,13,13,14,14,15,15,16,16,17,17,18,18,19,19,20,20,21,21,22,22,23,23,24,24,26,26,27,27,28,28,29,29,31,31,32,32,33,33],"right_children":[2,4,6,8,10,-1,-1,12,14,16,18,20,22,24,26,28,30,32,34,36,38,40,42,44,46,-1,48,50,52,54,-1,56,58,60,-1,-1,-1,-1,-1,-1,-1,-1,-1,-1,-1,-1,-1,-1,-1,-1,-1,-1,-1,-1,-1,-1,-1,-1,-1,-1,-1],"split_conditions":[3.5686444E-2,1.61523E-5,8.66E-1,8.502946E-6,1E0,-2.9944643E-1,1.56230545E-2,3.359238E-2,2.6605556E-2,2.6605556E-2,1.1111111E-1,3.1638533E-2,3.4599442E-2,1.5557314E-5,1.056338E-2,1.6594931E-5,3.4873616E-2,2.1085799E-2,1E-1,9.52381E-3,1.056338E-2,1.2E-2,1.056338E-2,8.214384E-3,6.666667E-1,-3.0670595E-1,1.8E-2,2.0771721E-2,1.7624521E-1,1.056338E-2,-2.456099E-1,2.091549E-2,9.52381E-3,1.4945138E-2,7.143598E-1,1.327897E-1,-1.2462121E-1,-3.8982973E-1,6.4336896E-1,-3.0838215E-1,-1.2578027E-1,-1.64697E-1,3.0617768E-1,6.129067E-1,-8.182027E-2,2.9896456E-1,-2.974224E-1,4.1956297E-1,7.6816684E-1,-8.885838E-4,-2.226633E-1,-2.9490352E-1,-4.3999162E-1,-2.0586528E-1,3.7319165E-1,1.24865554E-1,-2.3368372E-1,2.770249E-1,-8.049076E-2,1.9354768E-2,3.2403135E-1],"split_indices":[7,0,8,0,9,0,0,7,7,7,2,7,7,0,8,0,7,7,8,8,8,8,8,7,10,0,8,7,1,8,0,7,8,7,0,0,0,0,0,0,0,0,0,0,0,0,0,0,0,0,0,0,0,0,0,0,0,0,0,0,0],"split_type":[0,0,0,0,0,0,0,0,0,0,0,0,0,0,0,0,0,0,0,0,0,0,0,0,0,0,0,0,0,0,0,0,0,0,0,0,0,0,0,0,0,0,0,0,0,0,0,0,0,0,0,0,0,0,0,0,0,0,0,0,0],"sum_hessian":[6.4361694E3,5.994006E3,4.421633E2,4.8984395E3,1.0955664E3,4.39468E2,2.69532E0,3.2695664E3,1.628873E3,5.289089E2,5.666576E2,1.8031127E3,1.4664539E3,1.2430863E3,3.8578665E2,5.1593787E2,1.2970989E1,5.105828E2,5.6074783E1,1.5296731E3,2.7343958E2,1.2801116E3,1.8634235E2,8.562344E2,3.8685202E2,1.1940126E1,3.7384653E2,3.3161034E1,4.8277686E2,8.536099E0,4.4348903E0,3.5848807E2,1.5209471E2,5.304137E1,3.0334146E0,6.397333E2,8.8993976E2,3.984566E1,2.3359392E2,4.0998102E2,8.701305E2,1.1943159E0,1.8514804E2,2.0079926E1,8.361544E2,3.0580142E2,8.105058E1,3.131221E2,6.0724407E1,1.568708E1,1.7473953E1,4.5288474E2,2.989213E1,1.2506125E0,7.285487E0,8.145167E1,2.770364E2,8.40328E1,6.8061905E1,1.0642174E0,5.1977154E1],"tree_param":{"num_deleted":"0","num_feature":"12","num_nodes":"61","size_leaf_vector":"1"}},{"base_weights":[-7.765119E-2,-9.9632233E-1,-1.6467422E-2,-4.2470488E-1,-2.9955003E-1,2.4262471E-2,-2.9974005E-1,-3.2866057E-2,-1.5715641E-1,-1.28523195E-2,2.9985654E-1,1.070868E-1,-6.6869843E-1,-2.7385624E-2,7.4765784E-1,-2.4272235E-1,-9.8464334E-1,1.2036855E-2,-2.7690646E-1,2.9710475E-1,-3.2578208E-2,-1.2068837E-1,2.7405113E-1,-3.0175614E-1,-1.1290643E-1],"categories":[],"categories_nodes":[],"categories_segments":[],"categories_sizes":[],"default_left":[0,0,0,0,0,0,0,0,0,0,0,0,0,0,0,0,0,0,0,0,0,0,0,0,0],"id":19,"left_children":[1,3,5,7,-1,9,-1,-1,-1,11,-1,13,15,17,19,21,23,-1,-1,-1,-1,-1,-1,-1,-1],"loss_changes":[3.2271857E2,2.218628E-2,2.1552522E2,3.9502144E-2,0E0,1.871851E2,0E0,0E0,0E0,3.9199603E2,0E0,3.6292242E2,1.034501E2,2.1062816E2,1.5201282E2,6.1145096E1,5.3244324E0,0E0,0E0,0E0,0E0,0E0,0E0,0E0,0E0],"parents":[2147483647,0,0,1,1,2,2,3,3,5,5,9,9,11,11,12,12,13,13,14,14,15,15,16,16],"right_children":[2,4,6,8,-1,10,-1,-1,-1,12,-1,14,16,18,20,22,24,-1,-1,-1,-1,-1,-1,-1,-1],"split_conditions":[9E-3,8.214384E-3,6.666667E-1,1.4092246E-6,-2.9955003E-1,1E0,-2.9974005E-1,-3.2866057E-2,-1.5715641E-1,1E0,2.9985654E-1,3.3333334E-1,2.7272728E-1,1.6594931E-5,3.6363637E-1,2.1170126E-2,3.9087055E-5,1.2036855E-2,-2.7690646E-1,2.9710475E-1,-3.2578208E-2,-1.2068837E-1,2.7405113E-1,-3.0175614E-1,-1.1290643E-1],"split_indices":[8,7,10,0,0,11,0,0,0,4,0,10,6,0,6,7,0,0,0,0,0,0,0,0,0],"split_type":[0,0,0,0,0,0,0,0,0,0,0,0,0,0,0,0,0,0,0,0,0,0,0,0,0],"sum_hessian":[5.7408223E3,3.5751212E2,5.3833105E3,2.100833E0,3.554113E2,5.1699976E3,2.1331262E2,1.0065153E0,1.0943177E0,4.98141E3,1.8858737E2,4.211974E3,7.6943616E2,3.4819749E3,7.299993E2,3.2841516E2,4.41021E2,3.2388054E3,2.4316946E2,5.6866376E2,1.6133556E2,2.8915988E2,3.9255257E1,4.255296E2,1.5491376E1],"tree_param":{"num_deleted":"0","num_feature":"12","num_nodes":"25","size_leaf_vector":"1"}},{"base_weights":[-6.2927715E-2,-9.942339E-1,-1.32267475E-2,-1.1466585E-1,-2.9915944E-1,1.9177454E-2,-2.9897046E-1,-1.0181917E-2,2.9894102E-1,8.153398E-2,-5.766757E-1,-2.1569548E-2,6.802876E-1,-3.0087265E-1,-1.9311158E-1,4.9055275E-2,-9.74509E-2,2.885306E-1,-2.2928113E-2,1.9843936E-1,-9.9032626E-2],"categories":[],"categories_nodes":[],"categories_segments":[],"categories_sizes":[],"default_left":[0,0,0,0,0,0,0,0,0,0,0,0,0,0,0,0,0,0,0,0,0],"id":20,"left_children":[1,3,5,-1,-1,7,-1,9,-1,11,13,15,17,-1,19,-1,-1,-1,-1,-1,-1],"loss_changes":[2.4348763E2,1.0232544E-1,1.5918758E2,0E0,0E0,1.387912E2,0E0,2.4407265E2,0E0,2.4961339E2,1.0682103E2,1.9371454E2,1.26590576E2,0E0,4.0699223E1,0E0,0E0,0E0,0E0,0E0,0E0],"parents":[2147483647,0,0,1,1,2,2,5,5,7,7,9,9,10,10,11,11,12,12,14,14],"right_children":[2,4,6,-1,-1,8,-1,10,-1,12,14,16,18,-1,20,-1,-1,-1,-1,-1,-1],"split_conditions":[9E-3,6.671329E-8,6.666667E-1,-1.1466585E-1,-2.9915944E-1,1E0,-2.9897046E-1,1E0,2.9894102E-1,3.3333334E-1,1E0,1.3E-2,3.6363637E-1,-3.0087265E-1,2.091549E-2,4.9055275E-2,-9.74509E-2,2.885306E-1,-2.2928113E-2,1.9843936E-1,-9.9032626E-2],"split_indices":[8,0,10,0,0,11,0,4,0,10,9,8,6,0,7,0,0,0,0,0,0],"split_type":[0,0,0,0,0,0,0,0,0,0,0,0,0,0,0,0,0,0,0,0,0],"sum_hessian":[5.259693E3,2.655101E2,4.9941826E3,1.9061027E0,2.63604E2,4.835808E3,1.5837463E2,4.6957305E3,1.400774E2,4.0421575E3,6.5357324E2,3.4491829E3,5.9297473E2,3.088031E2,3.447701E2,2.1422217E3,1.3069612E3,4.3200684E2,1.609679E2,4.7105003E1,2.9766513E2],"tree_param":{"num_deleted":"0","num_feature":"12","num_nodes":"21","size_leaf_vector":"1"}},{"base_weights":[-5.048506E-2,-9.914991E-1,-1.0577492E-2,-8.74915E-2,-2.986939E-1,-1.8053101E-1,1.3815528E-1,2.1299405E-1,-7.885287E-1,7.0419955E-1,-1.0947788E-1,3.5822698E-1,-3.116659E-1,-1.0442188E0,-4.3541378E-1,-1.0784959E0,9.350745E-1,-3.5328463E-1,2.2179379E-1,-1.1709461E0,4.5525384E-1,-1.0727389E0,-8.856048E-1,-8.7980205E-1,-1.4831021E-1,-9.951458E-1,-1.5311824E0,1.5696421E0,6.145975E-1,1.5840762E0,-4.2656356E-1,3.1595293E-2,1.3412789E0,-7.959522E-1,-3.3334893E-1,7.1748674E-1,8.0756284E-2,-3.1206954E-1,-3.5826337E-1,-3.070626E-1,2.8803125E-1,-3.13314E-1,-1.6305241E-1,5.469387E-1,-1.6761406E-1,-3.092811E-1,1.728591E-1,-6.431178E-1,-2.828507E-1,5.282136E-1,3.6652455E-1,3.540891E-2,3.43438E-1,-1.8096071E-1,9.1757315E-1,-1.7731023E-1,1.2608573E-1,4.9133856E-2,-2.9668602E-1,6.153848E-1,-2.2705035E-1],"categories":[],"categories_nodes":[],"categories_segments":[],"categories_sizes":[],"default_left":[0,0,0,0,0,0,0,0,0,0,0,0,0,0,0,0,0,0,0,0,0,0,0,0,0,0,0,0,0,0,0,0,0,0,0,0,0,0,0,0,0,0,0,0,0,0,0,0,0,0,0,0,0,0,0,0,0,0,0,0,0],"id":21,"left_children":[1,3,5,-1,-1,7,9,11,13,15,17,19,-1,21,23,25,27,29,31,33,35,37,39,41,43,45,47,49,51,53,55,57,59,-1,-1,-1,-1,-1,-1,-1,-1,-1,-1,-1,-1,-1,-1,-1,-1,-1,-1,-1,-1,-1,-1,-1,-1,-1,-1,-1,-1],"loss_changes":[1.8302061E2,2.8511047E-1,1.1823814E2,0E0,0E0,5.224836E2,3.497434E2,2.4146577E2,7.701074E1,3.1353146E2,1.4030783E2,1.769374E2,0E0,1.2979736E0,4.6062614E1,1.7788162E0,1.3585828E2,1.4271991E2,1.5681885E2,3.3626556E0,4.0242438E2,4.022522E-1,2.1723377E1,7.2861023E0,1.799521E2,4.91185E0,2.2146626E0,1.2813171E1,1.1799129E2,1.2013474E2,1.3463594E2,8.524858E1,1.6089165E2,0E0,0E0,0E0,0E0,0E0,0E0,0E0,0E0,0E0,0E0,0E0,0E0,0E0,0E0,0E0,0E0,0E0,0E0,0E0,0E0,0E0,0E0,0E0,0E0,0E0,0E0,0E0,0E0],"parents":[2147483647,0,0,1,1,2,2,5,5,6,6,7,7,8,8,9,9,10,10,11,11,13,13,14,14,15,15,16,16,17,17,18,18,19,19,20,20,21,21,22,22,23,23,24,24,25,25,26,26,27,27,28,28,29,29,30,30,31,31,32,32],"right_children":[2,4,6,-1,-1,8,10,12,14,16,18,20,-1,22,24,26,28,30,32,34,36,38,40,42,44,46,48,50,52,54,56,58,60,-1,-1,-1,-1,-1,-1,-1,-1,-1,-1,-1,-1,-1,-1,-1,-1,-1,-1,-1,-1,-1,-1,-1,-1,-1,-1,-1,-1],"split_conditions":[9E-3,8.214384E-3,1.2E-2,-8.74915E-2,-2.986939E-1,9.52381E-3,1.3E-2,2.2870585E-2,1.1E-2,2.1170126E-2,8.226349E-6,1.1521577E-2,-3.116659E-1,1.056338E-2,2.1170126E-2,1.5151516E-1,3.359238E-2,8.214384E-3,3.1638533E-2,2.0913492E-7,1.6607692E-2,3.9087055E-5,3.3333334E-1,3.3333334E-1,3.3830334E-2,3.3333334E-1,2.7272728E-1,8.150078E-6,3.398484E-2,2.638298E-1,3.3333334E-1,6.666667E-1,3.4873616E-2,-7.959522E-1,-3.3334893E-1,7.1748674E-1,8.0756284E-2,-3.1206954E-1,-3.5826337E-1,-3.070626E-1,2.8803125E-1,-3.13314E-1,-1.6305241E-1,5.469387E-1,-1.6761406E-1,-3.092811E-1,1.728591E-1,-6.431178E-1,-2.828507E-1,5.282136E-1,3.6652455E-1,3.540891E-2,3.43438E-1,-1.8096071E-1,9.1757315E-1,-1.7731023E-1,1.2608573E-1,4.9133856E-2,-2.9668602E-1,6.153848E-1,-2.2705035E-1],"split_indices":[8,7,8,0,0,8,8,7,8,7,0,7,0,8,7,6,7,7,7,0,7,0,10,10,7,10,6,0,7,8,10,10,7,0,0,0,0,0,0,0,0,0,0,0,0,0,0,0,0,0,0,0,0,0,0,0,0,0,0,0,0],"split_type":[0,0,0,0,0,0,0,0,0,0,0,0,0,0,0,0,0,0,0,0,0,0,0,0,0,0,0,0,0,0,0,0,0,0,0,0,0,0,0,0,0,0,0,0,0,0,0,0,0,0,0,0,0,0,0,0,0,0,0,0,0],"sum_hessian":[4.872865E3,1.972763E2,4.675589E3,1.5822467E0,1.9569406E2,2.1820251E3,2.4935637E3,1.3250435E3,8.569816E2,7.583256E2,1.735238E3,1.187942E3,1.3710147E2,4.959254E2,3.6105618E2,8.6528275E1,6.7179736E2,9.9953876E2,7.356992E2,7.021791E1,1.1177241E3,4.1545905E2,8.046638E1,1.4090085E2,2.2015535E2,7.577471E1,1.0753564E1,2.2412196E2,4.4767538E2,3.5677372E1,9.638614E2,6.297364E2,1.05962845E2,1.04049E0,6.917742E1,9.694769E1,1.0207764E3,3.3529428E2,8.0164764E1,7.5285446E1,5.1809316E0,9.318956E1,4.771128E1,3.7340736E1,1.828146E2,7.442345E1,1.3512623E0,3.9732563E0,6.7803073E0,1.4204626E2,8.20757E1,2.3180003E2,2.1587537E2,1.4604269E1,2.1073101E1,8.07362E2,1.5649939E2,5.582676E2,7.14688E1,7.91879E1,2.6774944E1],"tree_param":{"num_deleted":"0","num_feature":"12","num_nodes":"61","size_leaf_vector":"1"}},{"base_weights":[-4.7908477E-2,-9.8800296E-1,-1.520408E-2,-7.256752E-2,-2.9811215E-1,1.816592E-2,-7.714068E-1,-1.5330021E-1,1.7870098E-1,-9.5239955E-1,-3.673034E-1,1.5425123E-1,-7.019445E-1,5.8856297E-1,-8.632726E-3,-9.858906E-1,3.457929E-1,1.3712275E0,-8.3995163E-1,2.59671E-1,-3.077509E-1,-9.95558E-1,-3.5198027E-1,-1.0469632E0,7.730038E-1,1.864562E-1,-3.388113E-1,-2.9794464E-1,-3.3927787E-2,-5.3252216E-2,2.4538176E-1,5.0782804E0,-1.9679967E-1,-8.9777523E-1,2.1510877E-1,2.745245E-1,3.069328E-2,-3.153546E-1,-2.3951103E-1,-1.411311E-1,1.7843294E-1,-5.356944E-1,-3.0208945E-1,4.1631088E-1,1.4777854E-1,2.109261E-2,1.2321696E0,-1.56658E-1,2.750648E-1,-1.9226731E-1,3.1190388E0,-2.654294E-1,7.8284043E-1,-2.8573164E-1,-9.572428E-2],"categories":[],"categories_nodes":[],"categories_segments":[],"categories_sizes":[],"default_left":[0,0,0,0,0,0,0,0,0,0,0,0,0,0,0,0,0,0,0,0,0,0,0,0,0,0,0,0,0,0,0,0,0,0,0,0,0,0,0,0,0,0,0,0,0,0,0,0,0,0,0,0,0,0,0],"id":22,"left_children":[1,3,5,-1,-1,7,9,11,13,15,17,19,21,23,25,27,29,31,33,35,-1,37,39,41,43,45,47,-1,-1,-1,-1,49,51,53,-1,-1,-1,-1,-1,-1,-1,-1,-1,-1,-1,-1,-1,-1,-1,-1,-1,-1,-1,-1,-1],"loss_changes":[1.3506403E2,3.8816833E-1,1.0718002E2,0E0,0E0,1.12012764E2,1.277932E1,3.3213318E2,1.6136688E2,5.703949E0,4.8117874E1,1.572298E2,7.229654E1,1.9967987E2,9.303393E1,6.5110016E-1,1.0945846E0,7.42242E1,4.745426E0,1.1944519E2,0E0,3.371582E0,3.6626816E1,1.8848419E-1,1.01533966E2,4.1316193E2,1.2400093E2,0E0,0E0,0E0,0E0,1.2169801E2,2.125849E1,1.0997276E0,0E0,0E0,0E0,0E0,0E0,0E0,0E0,0E0,0E0,0E0,0E0,0E0,0E0,0E0,0E0,0E0,0E0,0E0,0E0,0E0,0E0],"parents":[2147483647,0,0,1,1,2,2,5,5,6,6,7,7,8,8,9,9,10,10,11,11,12,12,13,13,14,14,15,15,16,16,17,17,18,18,19,19,21,21,22,22,23,23,24,24,25,25,26,26,31,31,32,32,33,33],"right_children":[2,4,6,-1,-1,8,10,12,14,16,18,20,22,24,26,28,30,32,34,36,-1,38,40,42,44,46,48,-1,-1,-1,-1,50,52,54,-1,-1,-1,-1,-1,-1,-1,-1,-1,-1,-1,-1,-1,-1,-1,-1,-1,-1,-1,-1,-1],"split_conditions":[9E-3,6.671329E-8,3.71E-1,-7.256752E-2,-2.9811215E-1,1.2E-2,1.5359987E-5,9.52381E-3,1.3E-2,1E0,1.6334638E-5,2.2870585E-2,1.1E-2,2.1170126E-2,3.359238E-2,4.1497223E-2,2.5E-1,1.4945138E-2,1.6666667E-1,2.472702E-6,-3.077509E-1,3.3333334E-1,3.4599442E-2,8.214384E-3,3.359238E-2,3.187573E-2,8.0462605E-6,-2.9794464E-1,-3.3927787E-2,-5.3252216E-2,2.4538176E-1,8.448438E-3,4.99E-1,5E-1,2.1510877E-1,2.745245E-1,3.069328E-2,-3.153546E-1,-2.3951103E-1,-1.411311E-1,1.7843294E-1,-5.356944E-1,-3.0208945E-1,4.1631088E-1,1.4777854E-1,2.109261E-2,1.2321696E0,-1.56658E-1,2.750648E-1,-1.9226731E-1,3.1190388E0,-2.654294E-1,7.8284043E-1,-2.8573164E-1,-9.572428E-2],"split_indices":[8,0,8,0,0,8,0,8,8,9,0,7,8,7,7,7,5,7,2,0,0,10,7,7,7,7,0,0,0,0,0,7,8,4,0,0,0,0,0,0,0,0,0,0,0,0,0,0,0,0,0,0,0,0,0],"split_type":[0,0,0,0,0,0,0,0,0,0,0,0,0,0,0,0,0,0,0,0,0,0,0,0,0,0,0,0,0,0,0,0,0,0,0,0,0,0,0,0,0,0,0,0,0,0,0,0,0,0,0,0,0,0,0],"sum_hessian":[4.3924966E3,1.4668877E2,4.245808E3,1.4422833E0,1.4524649E2,4.0673005E3,1.785074E2,1.9667146E3,2.100586E3,1.223511E2,5.6156307E1,1.2607177E3,7.0599695E2,6.5825885E2,1.4423271E3,1.1950855E2,2.8425465E0,1.1597251E1,4.4559055E1,1.1580468E3,1.0267086E2,3.829033E2,3.2309363E2,6.623598E1,5.920229E2,9.0690796E2,5.3541925E2,1.1838617E2,1.1223795E0,1.6442235E0,1.198323E0,2.7818632E0,8.815388E0,4.3371693E1,1.1873639E0,2.2327649E2,9.347703E2,2.9527863E2,8.762466E1,2.8761127E2,3.548237E1,1.16053E0,6.507545E1,1.8422484E2,4.0779803E2,8.8180365E2,2.5104269E1,4.677003E2,6.771897E1,1.7642287E0,1.0176344E0,7.6296697E0,1.1857182E0,3.903829E1,4.3334017E0],"tree_param":{"num_deleted":"0","num_feature":"12","num_nodes":"55","size_leaf_vector":"1"}},{"base_weights":[-4.6535794E-2,-1.675264E-2,-9.6775985E-1,-5.2950922E-2,9.116697E-1,-2.9767728E-1,5.2701198E-2,-3.5344318E-1,3.4034885E-2,1.0033803E0,-6.092635E-1,2.383208E-1,-9.675363E-1,1.0489206E0,-5.6101445E-2,3.02203E-1,7.127319E-2,1.6238314E-1,-3.1101385E-1,-2.788387E-1,1.6462528E0,-1.0244068E0,6.129065E-1,1.465939E0,2.0749076E-1,4.8873574E-3,-2.980991E-1,-3.25967E-1,2.205249E-1,6.3580424E-1,3.1742442E-1,-3.1028914E-1,6.54E-3,3.8290635E-1,-2.4535038E-1,-2.5829268E-1,4.687581E-1,-2.862521E-1,3.4453875E-1,-1.6522884E-1,3.0665735E-2],"categories":[],"categories_nodes":[],"categories_segments":[],"categories_sizes":[],"default_left":[0,0,0,0,0,0,0,0,0,0,0,0,0,0,0,0,0,0,0,0,0,0,0,0,0,0,0,0,0,0,0,0,0,0,0,0,0,0,0,0,0],"id":23,"left_children":[1,3,5,7,9,-1,-1,11,13,15,17,19,21,23,25,-1,-1,-1,-1,27,29,31,33,35,37,39,-1,-1,-1,-1,-1,-1,-1,-1,-1,-1,-1,-1,-1,-1,-1],"loss_changes":[1.13056114E2,1.3424628E2,3.7891006E0,1.0049444E2,2.152031E1,0E0,0E0,3.138742E2,2.7285883E2,1.9088745E-1,5.05962E0,3.2107892E2,3.8714783E1,8.5068756E1,1.566707E2,0E0,0E0,0E0,0E0,2.6524066E2,3.071402E1,4.2588196E0,1.5608905E1,3.7870453E1,9.049922E1,1.3923662E2,0E0,0E0,0E0,0E0,0E0,0E0,0E0,0E0,0E0,0E0,0E0,0E0,0E0,0E0,0E0],"parents":[2147483647,0,0,1,1,2,2,3,3,4,4,7,7,8,8,9,9,10,10,11,11,12,12,13,13,14,14,19,19,20,20,21,21,22,22,23,23,24,24,25,25],"right_children":[2,4,6,8,10,-1,-1,12,14,16,18,20,22,24,26,-1,-1,-1,-1,28,30,32,34,36,38,40,-1,-1,-1,-1,-1,-1,-1,-1,-1,-1,-1,-1,-1,-1,-1],"split_conditions":[3.5686444E-2,3.4599442E-2,8.66E-1,1.9332537E-2,1.5624215E-5,-2.9767728E-1,5.2701198E-2,1.6607692E-2,2.0796245E-2,1.5359987E-5,2E-1,1.227481E-2,3.3333334E-1,1.056338E-2,1.33E-1,3.02203E-1,7.127319E-2,1.6238314E-1,-3.1101385E-1,2.5E-1,1.5209265E-2,4.96E-1,2.2975709E-1,8.888889E-3,3.3333334E-1,2.0883592E-2,-2.980991E-1,-3.25967E-1,2.205249E-1,6.3580424E-1,3.1742442E-1,-3.1028914E-1,6.54E-3,3.8290635E-1,-2.4535038E-1,-2.5829268E-1,4.687581E-1,-2.862521E-1,3.4453875E-1,-1.6522884E-1,3.0665735E-2],"split_indices":[7,7,8,7,0,0,0,7,7,0,4,7,10,8,8,0,0,0,0,8,7,8,8,8,10,7,0,0,0,0,0,0,0,0,0,0,0,0,0,0,0],"split_type":[0,0,0,0,0,0,0,0,0,0,0,0,0,0,0,0,0,0,0,0,0,0,0,0,0,0,0,0,0,0,0,0,0,0,0,0,0,0,0,0,0],"sum_hessian":[4.1201685E3,3.9921213E3,1.2804701E2,3.843221E3,1.4890048E2,1.25490616E2,2.5563972E0,8.6208545E2,2.9811355E3,1.4075348E2,8.146995E0,4.3933606E2,4.2274942E2,2.423027E2,2.7388328E3,1.3971504E2,1.0384367E0,2.1347408E0,6.012254E0,3.2189868E2,1.1743739E2,4.084052E2,1.4344204E1,1.6151335E2,8.0789345E1,2.5724863E3,1.6634648E2,1.791284E2,1.4277026E2,6.3642994E1,5.3794395E1,4.0459177E2,3.813444E0,9.873621E0,4.4705825E0,6.1216526E0,1.5539171E2,3.6148567E1,4.4640778E1,3.827536E2,2.1897327E3],"tree_param":{"num_deleted":"0","num_feature":"12","num_nodes":"41","size_leaf_vector":"1"}},{"base_weights":[-4.2755693E-2,-1.2357509E-2,-7.618892E-1,-1.79352E-1,1.4574057E-1,-7.9766977E-1,2.8751194E-1,2.441548E-2,-6.123059E-1,-1.5141737E-2,4.1151664E-1,-9.582734E-1,-5.28015E-1,1.1943421E-1,-3.031891E-1,-9.3981814E-1,-2.8159085E-1,3.6429504E-1,-2.4082848E-1,-1.8702857E-1,7.9354656E-1,-9.722054E-1,4.5347713E-2,-1.006642E0,-1.4648253E-1,-3.914566E-2,8.994299E-1,-3.1159973E-1,-6.672575E-1,-6.978092E-1,-7.130872E-2,-1.19802326E-1,1.6624514E0,-5.934747E-1,3.6218408E-1,-3.7868825E-1,3.480742E0,1.021859E0,-2.9500252E-1,-3.8580322E-1,-2.9468203E-1,-3.1227154E-1,-3.8983062E-2,2.4006948E0,-7.9240245E-1,4.6545014E-2,-2.6665196E-1,3.591359E-1,1.6384618E-1,2.7182165E-1,-2.6629394E-1,-3.0548614E-1,-9.4289325E-2,4.6333897E-1,-1.2984073E-1,-1.0893351E-1,1.4516585E-1,4.0043393E-1,1.2974757E0,-9.8752394E-2,-2.571204E-1,3.0111766E-1,6.558957E-3,-2.0299838E-1,1.5035757E-1,1.11102045E-1,2.618421E0,3.9397272E-1,1.19081505E-1,-8.282862E-3,-1.629083E-1,1.1866224E0,2.9114101E-2,-2.8862777E-1,3.1261463E-2],"categories":[],"categories_nodes":[],"categories_segments":[],"categories_sizes":[],"default_left":[0,0,0,0,0,0,0,0,0,0,0,0,0,0,0,0,0,0,0,0,0,0,0,0,0,0,0,0,0,0,0,0,0,0,0,0,0,0,0,0,0,0,0,0,0,0,0,0,0,0,0,0,0,0,0,0,0,0,0,0,0,0,0,0,0,0,0,0,0,0,0,0,0,0,0],"id":24,"left_children":[1,3,5,7,9,11,-1,13,15,17,19,21,23,25,-1,27,29,31,33,35,37,39,-1,41,43,45,47,-1,49,51,53,55,57,59,61,63,65,67,-1,69,-1,-1,-1,71,73,-1,-1,-1,-1,-1,-1,-1,-1,-1,-1,-1,-1,-1,-1,-1,-1,-1,-1,-1,-1,-1,-1,-1,-1,-1,-1,-1,-1,-1,-1],"loss_changes":[8.36241E1,9.696361E1,1.0313873E1,1.5758295E2,8.0675705E1,6.09964E0,0E0,1.1965602E2,6.1649155E1,1.0080927E2,1.628265E2,1.6055527E0,1.0656204E1,1.3784268E2,0E0,7.0331573E0,2.4968443E1,2.7612506E2,1.5717612E2,1.967297E2,1.772557E2,1.7204285E-1,0E0,6.47892E-1,5.7990208E1,1.531517E2,1.9147095E1,0E0,2.8238293E1,1.1458031E1,1.1223984E2,4.728718E1,9.833035E1,3.2191833E1,5.9580685E1,6.983787E1,2.2367873E2,6.967044E1,0E0,1.6646877E-1,0E0,0E0,0E0,2.5203053E1,4.3521366E0,0E0,0E0,0E0,0E0,0E0,0E0,0E0,0E0,0E0,0E0,0E0,0E0,0E0,0E0,0E0,0E0,0E0,0E0,0E0,0E0,0E0,0E0,0E0,0E0,0E0,0E0,0E0,0E0,0E0,0E0],"parents":[2147483647,0,0,1,1,2,2,3,3,4,4,5,5,7,7,8,8,9,9,10,10,11,11,12,12,13,13,15,15,16,16,17,17,18,18,19,19,20,20,21,21,23,23,24,24,25,25,26,26,28,28,29,29,30,30,31,31,32,32,33,33,34,34,35,35,36,36,37,37,39,39,43,43,44,44],"right_children":[2,4,6,8,10,12,-1,14,16,18,20,22,24,26,-1,28,30,32,34,36,38,40,-1,42,44,46,48,-1,50,52,54,56,58,60,62,64,66,68,-1,70,-1,-1,-1,72,74,-1,-1,-1,-1,-1,-1,-1,-1,-1,-1,-1,-1,-1,-1,-1,-1,-1,-1,-1,-1,-1,-1,-1,-1,-1,-1,-1,-1,-1,-1],"split_conditions":[3.71E-1,1.2E-2,1E0,9.52381E-3,7.969989E-6,1.5557314E-5,2.8751194E-1,2.2870585E-2,1.1E-2,3.359238E-2,2.0932265E-2,3.908046E-1,8.627784E-3,2.105317E-2,-3.031891E-1,3.3333334E-1,2.1170126E-2,2.6605556E-2,3.40381E-2,3.3254156E-1,1.33E-1,6.671329E-8,4.5347713E-2,2.627258E-2,1.4945138E-2,1E0,1E0,-3.1159973E-1,3.125E-2,3.3333334E-1,3.3830334E-2,3.3333334E-1,1.6736401E-2,1.3E-2,1.3E-2,1.33E-1,8.627784E-3,3.125E-2,-2.9500252E-1,4.89E-1,-2.9468203E-1,-3.1227154E-1,-3.8983062E-2,1.6334638E-5,5E-1,4.6545014E-2,-2.6665196E-1,3.591359E-1,1.6384618E-1,2.7182165E-1,-2.6629394E-1,-3.0548614E-1,-9.4289325E-2,4.6333897E-1,-1.2984073E-1,-1.0893351E-1,1.4516585E-1,4.0043393E-1,1.2974757E0,-9.8752394E-2,-2.571204E-1,3.0111766E-1,6.558957E-3,-2.0299838E-1,1.5035757E-1,1.11102045E-1,2.618421E0,3.9397272E-1,1.19081505E-1,-8.282862E-3,-1.629083E-1,1.1866224E0,2.9114101E-2,-2.8862777E-1,3.1261463E-2],"split_indices":[8,8,8,8,0,0,0,7,8,7,7,1,7,7,0,10,7,7,7,8,8,0,0,1,7,4,4,0,5,10,7,10,8,8,8,8,7,5,0,8,0,0,0,0,8,0,0,0,0,0,0,0,0,0,0,0,0,0,0,0,0,0,0,0,0,0,0,0,0,0,0,0,0,0,0],"split_type":[0,0,0,0,0,0,0,0,0,0,0,0,0,0,0,0,0,0,0,0,0,0,0,0,0,0,0,0,0,0,0,0,0,0,0,0,0,0,0,0,0,0,0,0,0,0,0,0,0,0,0,0,0,0,0,0,0,0,0,0,0,0,0,0,0,0,0,0,0,0,0,0,0,0,0],"sum_hessian":[3.8248076E3,3.6706638E3,1.5414388E2,1.7850413E3,1.8856226E3,1.5152847E2,2.615403E0,1.214423E3,5.706182E2,1.1751885E3,7.1043414E2,9.336658E1,5.8161903E1,1.1131215E3,1.01301575E2,2.85772E2,2.8484622E2,4.38069E2,7.3711945E2,2.7698248E2,4.334517E2,9.2330795E1,1.0357788E0,2.507157E1,3.3090332E1,9.2583997E2,1.8728146E2,2.0765315E2,7.811885E1,9.48292E1,1.9001701E2,3.1974146E2,1.1832754E2,4.651261E2,2.7199335E2,2.640797E2,1.2902758E1,3.8447534E2,4.8976337E1,2.2221568E0,9.010864E1,2.3948318E1,1.1232512E0,6.1441693E0,2.6946163E1,7.5419824E2,1.716417E2,1.0034046E2,8.6941E1,9.215966E0,6.8902885E1,5.0758316E1,4.4070885E1,3.4141586E1,1.5587543E2,2.2817627E2,9.156518E1,1.0669753E2,1.1630001E1,2.3337457E2,2.3175151E2,9.359929E1,1.7839407E2,1.9744543E2,6.663428E1,8.773037E0,4.1297207E0,2.6146158E2,1.2301379E2,1.0364621E0,1.1856947E0,3.2402992E0,2.90387E0,2.2596548E1,4.3496156E0],"tree_param":{"num_deleted":"0","num_feature":"12","num_nodes":"75","size_leaf_vector":"1"}},{"base_weights":[-4.6587907E-2,-2.42421E-2,-2.9769248E-1,-9.7637546E-1,-1.3015274E-3,-1.7301584E-2,-2.963224E-1,1.8480942E-2,-2.965196E-1,-2.5659522E-1,9.021597E-2,2.4940152E-1,-9.582316E-1,8.7355995E-1,1.39706535E-2,-4.7486026E-2,3.5855886E-1,-3.0227262E-1,3.6284724E-1,4.1619602E-1,-1.0420801E-2,-1.4581595E-1,2.4686018E-2],"categories":[],"categories_nodes":[],"categories_segments":[],"categories_sizes":[],"default_left":[0,0,0,0,0,0,0,0,0,0,0,0,0,0,0,0,0,0,0,0,0,0,0],"id":25,"left_children":[1,3,-1,5,7,-1,-1,9,-1,11,13,15,17,19,21,-1,-1,-1,-1,-1,-1,-1,-1],"loss_changes":[7.3111725E1,7.386778E1,0E0,7.7384186E-1,6.452319E1,0E0,0E0,6.3945183E1,0E0,2.382149E2,1.5349083E2,1.5066241E2,3.1282257E1,1.0642091E2,8.008141E1,0E0,0E0,0E0,0E0,0E0,0E0,0E0,0E0],"parents":[2147483647,0,0,1,1,3,3,4,4,7,7,9,9,10,10,11,11,12,12,13,13,14,14],"right_children":[2,4,-1,6,8,-1,-1,10,-1,12,14,16,18,20,22,-1,-1,-1,-1,-1,-1,-1,-1],"split_conditions":[4.848485E-1,9E-3,-2.9769248E-1,6.671329E-8,6.666667E-1,-1.7301584E-2,-2.963224E-1,1.9332537E-2,-2.965196E-1,1.7020425E-2,2.081002E-2,1.227481E-2,3.3333334E-1,1.056338E-2,2.0883592E-2,-4.7486026E-2,3.5855886E-1,-3.0227262E-1,3.6284724E-1,4.1619602E-1,-1.0420801E-2,-1.4581595E-1,2.4686018E-2],"split_indices":[6,8,0,0,10,0,0,7,0,7,7,7,10,8,7,0,0,0,0,0,0,0,0],"split_type":[0,0,0,0,0,0,0,0,0,0,0,0,0,0,0,0,0,0,0,0,0,0,0],"sum_hessian":[3.4597576E3,3.3808982E3,7.88594E1,7.8564606E1,3.3023335E3,1.0343227E0,7.753029E1,3.2384136E3,6.3919952E1,6.693061E2,2.5691077E3,3.892422E2,2.800639E2,2.2695152E2,2.342156E3,2.7257874E2,1.1666344E2,2.7435397E2,5.709915E0,1.4462167E2,8.232985E1,2.807988E2,2.0613572E3],"tree_param":{"num_deleted":"0","num_feature":"12","num_nodes":"23","size_leaf_vector":"1"}},{"base_weights":[-3.9153576E-2,-5.9230216E-2,2.9637274E-1,6.741907E-4,-5.556914E-1,6.391679E-2,-3.5968378E-1,-9.845089E-1,3.6666617E-2,-8.579955E-2,4.0985107E-1,-8.855731E-1,-7.257101E-2,-2.962598E-1,-9.229789E-2,-2.1979871E-1,4.1552004E-1,1.7941666E-1,-3.4736434E-1,4.3909814E-2,1.0779806E0,-3.3711138E-1,-9.8996687E-1,-2.856328E0,-1.9753749E-2,-6.2933743E-1,3.572E-1,7.138358E-1,-8.4882796E-1,-9.9101864E-2,1.2581822E-1,-1.3887803E-1,2.4586321E-1,4.2361116E-1,-1.1485491E-2,3.7464857E-1,-2.5193113E-1,-1.8029428E-1,2.6226038E-1,-2.712696E-1,-4.8163235E-1,-1.092156E0,-1.5507008E-1,-6.9149755E-2,2.7439353E-1,9.4458625E-2,-2.178937E-1,2.0481247E-1,-1.3135041E-1,2.4597168E-1,-7.505874E-2,6.421354E-3,-2.8024724E-1],"categories":[],"categories_nodes":[],"categories_segments":[],"categories_sizes":[],"default_left":[0,0,0,0,0,0,0,0,0,0,0,0,0,0,0,0,0,0,0,0,0,0,0,0,0,0,0,0,0,0,0,0,0,0,0,0,0,0,0,0,0,0,0,0,0,0,0,0,0,0,0,0,0],"id":26,"left_children":[1,3,-1,5,7,9,11,13,15,17,19,21,23,-1,-1,25,27,29,31,33,35,37,39,41,43,45,47,49,51,-1,-1,-1,-1,-1,-1,-1,-1,-1,-1,-1,-1,-1,-1,-1,-1,-1,-1,-1,-1,-1,-1,-1,-1],"loss_changes":[6.794758E1,9.60676E1,0E0,6.573586E1,8.838232E1,1.2712106E2,6.4957504E1,1.0913086E-1,1.4375681E1,1.1892389E2,1.812125E2,8.368675E0,4.106014E1,0E0,0E0,2.1095541E1,2.312055E1,1.04293686E2,1.16753654E2,5.4036785E1,8.699408E1,8.778262E0,5.2588043E0,7.6580772E0,5.4451836E1,4.9917507E0,9.952501E0,5.1993084E0,9.001045E-1,0E0,0E0,0E0,0E0,0E0,0E0,0E0,0E0,0E0,0E0,0E0,0E0,0E0,0E0,0E0,0E0,0E0,0E0,0E0,0E0,0E0,0E0,0E0,0E0],"parents":[2147483647,0,0,1,1,3,3,4,4,5,5,6,6,7,7,8,8,9,9,10,10,11,11,12,12,15,15,16,16,17,17,18,18,19,19,20,20,21,21,22,22,23,23,24,24,25,25,26,26,27,27,28,28],"right_children":[2,4,-1,6,8,10,12,14,16,18,20,22,24,-1,-1,26,28,30,32,34,36,38,40,42,44,46,48,50,52,-1,-1,-1,-1,-1,-1,-1,-1,-1,-1,-1,-1,-1,-1,-1,-1,-1,-1,-1,-1,-1,-1,-1,-1],"split_conditions":[1E0,2.7272728E-1,2.9637274E-1,1.61523E-5,1E0,8.502946E-6,2.1875E-1,3.888889E-1,2.1027902E-2,3.359238E-2,2.0900635E-2,1.7468014E-5,8.214384E-3,-2.962598E-1,-9.229789E-2,1.6E-2,3.213547E-2,1.9332537E-2,3.4599442E-2,8.214384E-3,1E-1,2.0923594E-2,6.25E-2,7.654921E-2,1.5E-2,2.0771721E-2,3.15E-1,2.4096385E-2,2E-1,-9.9101864E-2,1.2581822E-1,-1.3887803E-1,2.4586321E-1,4.2361116E-1,-1.1485491E-2,3.7464857E-1,-2.5193113E-1,-1.8029428E-1,2.6226038E-1,-2.712696E-1,-4.8163235E-1,-1.092156E0,-1.5507008E-1,-6.9149755E-2,2.7439353E-1,9.4458625E-2,-2.178937E-1,2.0481247E-1,-1.3135041E-1,2.4597168E-1,-7.505874E-2,6.421354E-3,-2.8024724E-1],"split_indices":[11,6,0,0,9,0,5,2,7,7,7,0,7,0,0,8,7,7,7,7,8,7,5,8,8,7,8,8,4,0,0,0,0,0,0,0,0,0,0,0,0,0,0,0,0,0,0,0,0,0,0,0,0],"split_type":[0,0,0,0,0,0,0,0,0,0,0,0,0,0,0,0,0,0,0,0,0,0,0,0,0,0,0,0,0,0,0,0,0,0,0,0,0,0,0,0,0,0,0,0,0,0,0,0,0,0,0,0,0],"sum_hessian":[3.291394E3,3.229213E3,6.2181133E1,2.8824116E3,3.4680127E2,2.4527742E3,4.2963766E2,2.0078662E2,1.4601465E2,1.7124135E3,7.4036066E2,1.5099101E2,2.7864664E2,1.9943668E2,1.3499426E0,8.7321846E1,5.869281E1,8.504278E2,8.619856E2,4.7904736E2,2.6131332E2,2.482024E1,1.2617077E2,4.200081E0,2.7444656E2,5.1019104E1,3.6302742E1,4.7840523E1,1.0852287E1,2.7208746E2,5.7834033E2,7.848617E2,7.712392E1,2.6232347E1,4.52815E2,2.4025809E2,2.1055225E1,2.0794313E1,4.0259256E0,1.1291148E2,1.3259288E1,2.7291076E0,1.4709733E0,2.2455377E2,4.9892807E1,4.542646E0,4.6476456E1,2.5857346E1,1.04453945E1,4.3233192E1,4.60733E0,1.035982E0,9.816305E0],"tree_param":{"num_deleted":"0","num_feature":"12","num_nodes":"53","size_leaf_vector":"1"}},{"base_weights":[-3.1813256E-2,-1.32092275E-2,-9.496958E-1,-3.731681E-2,8.706381E-1,-2.9481182E-1,-6.0985636E-2,-9.992264E-3,-6.6737145E-1,9.735357E-1,-5.460463E-1,-3.892364E-2,5.764783E-1,4.7814512E-1,-7.245171E-1,3.023547E-1,6.521756E-1,1.4896542E-1,-2.9557297E-1,-8.8128746E-1,4.35568E-3,1.3036062E0,-2.9612944E-1,8.6387676E-1,-2.4046269E-1,-2.9217932E-1,-3.633511E-1,-1.6913345E-1,2.6589012E-1,-3.2215172E-1,8.125554E-2,3.223089E-1,-1.1569356E-2,2.0654416E-1,1.5965496E0,1.11778535E-1,-1.923277E-1],"categories":[],"categories_nodes":[],"categories_segments":[],"categories_sizes":[],"default_left":[0,0,0,0,0,0,0,0,0,0,0,0,0,0,0,0,0,0,0,0,0,0,0,0,0,0,0,0,0,0,0,0,0,0,0,0,0],"id":27,"left_children":[1,3,5,7,9,-1,-1,11,13,15,17,19,21,23,25,-1,27,-1,-1,29,31,33,-1,-1,-1,-1,35,-1,-1,-1,-1,-1,-1,-1,-1,-1,-1],"loss_changes":[5.1759575E1,6.3370792E1,1.2838821E0,4.9827076E1,1.2043037E1,0E0,0E0,4.7112453E1,8.221588E0,1.5847778E-1,3.231132E0,9.6461075E1,1.4969713E2,2.172615E1,1.0003834E1,0E0,3.3382115E0,0E0,0E0,2.8975204E1,1.1565688E2,2.1763414E2,0E0,0E0,0E0,0E0,1.0165566E1,0E0,0E0,0E0,0E0,0E0,0E0,0E0,0E0,0E0,0E0],"parents":[2147483647,0,0,1,1,2,2,3,3,4,4,7,7,8,8,9,9,10,10,11,11,12,12,13,13,14,14,16,16,19,19,20,20,21,21,26,26],"right_children":[2,4,6,8,10,-1,-1,12,14,16,18,20,22,24,26,-1,28,-1,-1,30,32,34,-1,-1,-1,-1,36,-1,-1,-1,-1,-1,-1,-1,-1,-1,-1],"split_conditions":[3.5686444E-2,3.4599442E-2,8.66E-1,3.4971097E-1,1.5467738E-5,-2.9481182E-1,-6.0985636E-2,2.638298E-1,5.155288E-7,1E0,2E-1,1.1521577E-2,1.4945138E-2,8.214384E-3,1.5557314E-5,3.023547E-1,1E0,1.4896542E-1,-2.9557297E-1,1.9234857E-1,1.6607692E-2,8.627784E-3,-2.9612944E-1,8.6387676E-1,-2.4046269E-1,-2.9217932E-1,1.591262E-5,-1.6913345E-1,2.6589012E-1,-3.2215172E-1,8.125554E-2,3.223089E-1,-1.1569356E-2,2.0654416E-1,1.5965496E0,1.11778535E-1,-1.923277E-1],"split_indices":[7,7,8,8,0,0,0,8,0,4,4,7,7,7,0,0,11,0,0,8,7,7,0,0,0,0,0,0,0,0,0,0,0,0,0,0,0],"split_type":[0,0,0,0,0,0,0,0,0,0,0,0,0,0,0,0,0,0,0,0,0,0,0,0,0,0,0,0,0,0,0,0,0,0,0,0,0],"sum_hessian":[3.0308088E3,2.9715938E3,5.9215115E1,2.8936257E3,7.796798E1,5.6404053E1,2.8110604E0,2.7743232E3,1.19302475E2,7.298005E1,4.9879336E0,2.644786E3,1.2953719E2,5.3187184E0,1.1398375E2,6.400925E1,8.970797E0,1.4396936E0,3.54824E0,1.2829832E2,2.5164878E3,8.853227E1,4.1004913E1,1.4143466E0,3.9043717E0,6.6419304E1,4.756445E1,1.2210593E0,7.7497377E0,1.0998501E2,1.831331E1,9.6121895E1,2.4203657E3,7.779452E1,1.0737751E1,1.2938656E1,3.4625793E1],"tree_param":{"num_deleted":"0","num_feature":"12","num_nodes":"37","size_leaf_vector":"1"}},{"base_weights":[-2.6688121E-2,-4.2697277E-2,2.9437116E-1,-1.026366E-4,-4.628308E-1,-2.784317E-1,7.375251E-2,-9.7056913E-1,4.7865763E-2,1.2661605E-1,-9.192833E-1,7.893741E-1,1.5452939E-2,-2.927127E-1,-7.338697E-2,-2.378702E-1,3.719397E-1,-1.5044631E-1,6.741641E-1,-9.721271E-1,6.4291775E-1,1.1587956E0,8.128684E-2,5.1439896E-2,-9.473447E-1,-4.4321057E-1,3.5720177E-2,3.214448E-1,1.4989603E-1,-3.2218558E-1,9.9197574E-2,4.0113378E-1,1.6109893E-3,-2.9730853E-1,3.093605E-1,3.1424612E-1,-1.8062831E-1,-2.3220553E-1,3.697916E-1,-2.7748236E-1,3.373508E-1,5.854349E-2,-3.799689E-2,-2.9709837E-1,7.01552E-2,3.7805748E-1,-1.6289309E-1,8.922721E-2,-2.6952142E-1,3.7155217E-1,1.6431563E-2],"categories":[],"categories_nodes":[],"categories_segments":[],"categories_sizes":[],"default_left":[0,0,0,0,0,0,0,0,0,0,0,0,0,0,0,0,0,0,0,0,0,0,0,0,0,0,0,0,0,0,0,0,0,0,0,0,0,0,0,0,0,0,0,0,0,0,0,0,0,0,0],"id":28,"left_children":[1,3,-1,5,7,9,11,13,15,17,19,21,23,-1,-1,25,27,29,31,33,35,37,39,41,43,45,47,-1,49,-1,-1,-1,-1,-1,-1,-1,-1,-1,-1,-1,-1,-1,-1,-1,-1,-1,-1,-1,-1,-1,-1],"loss_changes":[4.7609547E1,5.1946526E1,0E0,5.4218143E1,6.9332565E1,1.4369171E2,8.69525E1,2.6142883E-1,1.2512281E1,5.1649002E1,1.8318283E1,4.0975037E1,6.6866325E1,0E0,0E0,4.055724E0,9.664902E0,1.00963005E2,5.0692234E1,8.887131E0,4.466135E0,1.566893E1,5.8673035E1,4.7626373E1,3.7620049E0,7.678031E0,8.030661E0,0E0,5.024712E0,0E0,0E0,0E0,0E0,0E0,0E0,0E0,0E0,0E0,0E0,0E0,0E0,0E0,0E0,0E0,0E0,0E0,0E0,0E0,0E0,0E0,0E0],"parents":[2147483647,0,0,1,1,3,3,4,4,5,5,6,6,7,7,8,8,9,9,10,10,11,11,12,12,15,15,16,16,17,17,18,18,19,19,20,20,21,21,22,22,23,23,24,24,25,25,26,26,28,28],"right_children":[2,4,-1,6,8,10,12,14,16,18,20,22,24,-1,-1,26,28,30,32,34,36,38,40,42,44,46,48,-1,50,-1,-1,-1,-1,-1,-1,-1,-1,-1,-1,-1,-1,-1,-1,-1,-1,-1,-1,-1,-1,-1,-1],"split_conditions":[1E0,2.7272728E-1,2.9437116E-1,1.9332537E-2,1E0,1.6607692E-2,2.0796245E-2,3.888889E-1,5.254516E-2,1.1521577E-2,3.3333334E-1,1.2E-2,1.33E-1,-2.927127E-1,-7.338697E-2,2.1012856E-2,7.356322E-2,1.9234857E-1,9.52381E-3,4.96E-1,2.2975709E-1,8.888889E-3,3.3333334E-1,3.359238E-2,8.66E-1,4.2241337E-4,3.213547E-2,3.214448E-1,3.3333334E-1,-3.2218558E-1,9.9197574E-2,4.0113378E-1,1.6109893E-3,-2.9730853E-1,3.093605E-1,3.1424612E-1,-1.8062831E-1,-2.3220553E-1,3.697916E-1,-2.7748236E-1,3.373508E-1,5.854349E-2,-3.799689E-2,-2.9709837E-1,7.01552E-2,3.7805748E-1,-1.6289309E-1,8.922721E-2,-2.6952142E-1,3.7155217E-1,1.6431563E-2],"split_indices":[11,6,0,7,9,7,7,2,1,7,10,8,8,0,0,7,1,8,8,8,8,8,10,7,8,0,7,0,10,0,0,0,0,0,0,0,0,0,0,0,0,0,0,0,0,0,0,0,0,0,0],"split_type":[0,0,0,0,0,0,0,0,0,0,0,0,0,0,0,0,0,0,0,0,0,0,0,0,0,0,0,0,0,0,0,0,0,0,0,0,0,0,0,0,0,0,0,0,0,0,0,0,0,0,0],"sum_hessian":[2.9469153E3,2.9017832E3,4.5132187E1,2.6355789E3,2.6620416E2,5.5211584E2,2.0834631E3,1.3303716E2,1.33167E2,3.3878836E2,2.1332745E2,1.5600288E2,1.9274602E3,1.3176024E2,1.2769256E0,7.091088E1,6.2256123E1,2.2543982E2,1.1334856E2,2.0671281E2,6.614648E0,1.0209935E2,5.3903526E1,1.8589248E3,6.853537E1,4.015385E1,3.075703E1,1.4078046E1,4.8178078E1,7.6795204E1,1.486446E2,5.6421215E1,5.6927345E1,2.052813E2,1.4315091E0,5.11211E0,1.5025375E0,3.4082305E0,9.869112E1,2.749589E1,2.6407637E1,1.0287418E3,8.3018304E2,6.628488E1,2.250485E0,1.5780985E0,3.8575752E1,2.4558374E1,6.198657E0,2.905646E0,4.527243E1],"tree_param":{"num_deleted":"0","num_feature":"12","num_nodes":"51","size_leaf_vector":"1"}},{"base_weights":[-2.3607934E-2,-1.5000756E-1,8.437602E-2,4.594395E-2,-5.5348045E-1,4.2008176E-1,-5.2670036E-2,1.07992806E-1,-2.9938412E-1,-9.150772E-1,-2.1138588E-1,-1.035347E0,5.300783E-1,-1.6715962E-1,3.1721023E-1,-1.1215307E-2,9.3691707E-1,-3.1136876E-1,-5.9308404E-1,-5.571178E-1,-5.628328E-2,-8.989989E-1,-1.3203573E0,3.513134E-1,3.3891177E-1,6.936271E-1,-2.7106166E-1,6.134307E-1,-8.5346645E-1,1.7872514E-1,-5.0117445E-1,6.62424E-1,3.5464293E-1,-8.585753E-1,6.466129E-1,-2.9711196E-1,-2.462663E-1,1.2963172E0,-3.3586302E-1,-2.8460526E-1,2.160053E-2,-4.3023828E-1,-9.63394E-2,6.1792717E-3,1.0517093E0,-5.59157E-1,1.0860366E0,-3.9829206E-1,1.9492805E-1,-4.2910698E-1,7.132606E-1,-3.55895E-1,-2.9116923E-1,-1.319182E-1,1.3613641E-1,-3.1542492E-1,-9.0763114E-2,2.9081506E-1,1.3833857E-1,2.3144644E-1,-2.9873002E-1,3.527887E-1,-2.1947138E-1,-1.390051E-1,5.4215544E-1,6.4001894E-1,2.1729232E-1,-1.6826084E-1,3.79433E-1,-6.331888E-2,3.6500067E-1,3.2675874E-1,-1.9200993E-1,-2.6805425E-1,3.521245E-1,4.5902774E-1,-6.562807E-2,-8.600497E-2,-2.3435073E-1,-7.360844E-2,4.9591407E-1,3.2776445E-1,1.3891768E-1,2.4411617E-1,-2.6468503E-1],"categories":[],"categories_nodes":[],"categories_segments":[],"categories_sizes":[],"default_left":[0,0,0,0,0,0,0,0,0,0,0,0,0,0,0,0,0,0,0,0,0,0,0,0,0,0,0,0,0,0,0,0,0,0,0,0,0,0,0,0,0,0,0,0,0,0,0,0,0,0,0,0,0,0,0,0,0,0,0,0,0,0,0,0,0,0,0,0,0,0,0,0,0,0,0,0,0,0,0,0,0,0,0,0,0],"id":29,"left_children":[1,3,5,7,9,11,13,15,-1,17,19,21,23,25,27,29,31,-1,33,35,37,39,41,-1,43,45,47,49,51,53,55,57,-1,59,61,-1,63,65,67,-1,-1,-1,-1,69,71,73,75,77,79,-1,81,83,-1,-1,-1,-1,-1,-1,-1,-1,-1,-1,-1,-1,-1,-1,-1,-1,-1,-1,-1,-1,-1,-1,-1,-1,-1,-1,-1,-1,-1,-1,-1,-1,-1],"loss_changes":[3.7684666E1,1.0058693E2,6.853062E1,5.562218E1,5.125045E1,6.967372E1,4.4869385E1,8.003912E1,0E0,7.36792E0,1.1497831E1,5.176544E-3,4.887343E1,7.252576E1,8.738939E1,6.607583E1,6.0719604E0,0E0,1.9668848E1,8.708271E0,5.6981583E1,1.2206059E0,4.2545795E-1,0E0,7.378576E1,4.3570457E1,4.2908154E1,4.1926758E1,2.6261864E0,8.7246925E1,2.1360191E1,2.662634E0,0E0,1.1560623E1,8.749313E0,0E0,1.8683159E1,1.081739E1,4.562452E1,0E0,0E0,0E0,0E0,5.630206E1,6.97612E0,1.3509068E1,3.909017E1,2.4039688E1,1.00306694E2,0E0,1.769767E1,7.6720467E0,0E0,0E0,0E0,0E0,0E0,0E0,0E0,0E0,0E0,0E0,0E0,0E0,0E0,0E0,0E0,0E0,0E0,0E0,0E0,0E0,0E0,0E0,0E0,0E0,0E0,0E0,0E0,0E0,0E0,0E0,0E0,0E0,0E0],"parents":[2147483647,0,0,1,1,2,2,3,3,4,4,5,5,6,6,7,7,9,9,10,10,11,11,12,12,13,13,14,14,15,15,16,16,18,18,19,19,20,20,21,21,22,22,24,24,25,25,26,26,27,27,28,28,29,29,30,30,31,31,33,33,34,34,36,36,37,37,38,38,43,43,44,44,45,45,46,46,47,47,48,48,50,50,51,51],"right_children":[2,4,6,8,10,12,14,16,-1,18,20,22,24,26,28,30,32,-1,34,36,38,40,42,-1,44,46,48,50,52,54,56,58,-1,60,62,-1,64,66,68,-1,-1,-1,-1,70,72,74,76,78,80,-1,82,84,-1,-1,-1,-1,-1,-1,-1,-1,-1,-1,-1,-1,-1,-1,-1,-1,-1,-1,-1,-1,-1,-1,-1,-1,-1,-1,-1,-1,-1,-1,-1,-1,-1],"split_conditions":[1.2E-2,9.52381E-3,1.3E-2,2.2870585E-2,1.1E-2,2.1170126E-2,3.3333334E-1,2.1085799E-2,-2.9938412E-1,3.3333334E-1,2.2870585E-2,1.5151516E-1,3.359238E-2,8.214384E-3,2.48E-1,1.61523E-5,2.1134092E-2,-3.1136876E-1,2.1170126E-2,3.3333334E-1,3.3830334E-2,2.0883592E-2,2.955665E-2,3.513134E-1,3.398484E-2,1.6584625E-6,3.40381E-2,8.214384E-3,2.57E-1,1.8956795E-2,1E0,1E0,3.5464293E-1,3.125E-2,2.2870585E-2,-2.9711196E-1,1.1764706E-2,6.0364287E-6,8.402314E-6,-2.8460526E-1,2.160053E-2,-4.3023828E-1,-9.63394E-2,7.969989E-6,3.5686444E-2,3.4031415E-1,3.15E-1,3.3830334E-2,3.5E-2,-4.2910698E-1,2.0985363E-2,6.666667E-1,-2.9116923E-1,-1.319182E-1,1.3613641E-1,-3.1542492E-1,-9.0763114E-2,2.9081506E-1,1.3833857E-1,2.3144644E-1,-2.9873002E-1,3.527887E-1,-2.1947138E-1,-1.390051E-1,5.4215544E-1,6.4001894E-1,2.1729232E-1,-1.6826084E-1,3.79433E-1,-6.331888E-2,3.6500067E-1,3.2675874E-1,-1.9200993E-1,-2.6805425E-1,3.521245E-1,4.5902774E-1,-6.562807E-2,-8.600497E-2,-2.3435073E-1,-7.360844E-2,4.9591407E-1,3.2776445E-1,1.3891768E-1,2.4411617E-1,-2.6468503E-1],"split_indices":[8,8,8,7,8,7,10,7,0,10,7,6,7,7,8,0,7,0,7,10,7,7,1,0,7,0,7,7,8,7,9,4,0,5,7,0,8,0,0,0,0,0,0,0,7,8,8,7,8,0,7,10,0,0,0,0,0,0,0,0,0,0,0,0,0,0,0,0,0,0,0,0,0,0,0,0,0,0,0,0,0,0,0,0,0],"split_type":[0,0,0,0,0,0,0,0,0,0,0,0,0,0,0,0,0,0,0,0,0,0,0,0,0,0,0,0,0,0,0,0,0,0,0,0,0,0,0,0,0,0,0,0,0,0,0,0,0,0,0,0,0,0,0,0,0,0,0,0,0,0,0,0,0,0,0,0,0,0,0,0,0,0,0,0,0,0,0,0,0,0,0,0,0],"sum_hessian":[2.7590298E3,1.2709463E3,1.4880836E3,8.5607104E2,4.1487518E2,4.3078198E2,1.0573016E3,8.088873E2,4.71837E1,2.0087437E2,2.140008E2,2.9678316E1,4.0110367E2,8.0780774E2,2.4949384E2,7.080489E2,1.0083848E2,1.438008E2,5.7073586E1,6.547085E1,1.4852995E2,2.288464E1,6.7936754E0,9.09683E1,3.1013538E2,8.639383E1,7.2141394E2,1.9949174E2,5.000209E1,5.1070227E2,1.9734662E2,4.93264E1,5.1512077E1,4.725992E1,9.813668E0,2.6437323E1,3.9033527E1,2.4819088E1,1.2371086E2,2.1792519E1,1.0921221E0,5.708479E0,1.0851969E0,2.1212466E2,9.801071E1,2.0505192E1,6.588863E1,5.668034E2,1.5461055E2,8.66979E0,1.9082195E2,1.0295161E1,3.9706932E1,1.5703209E2,3.5367017E2,5.120539E1,1.4614124E2,1.8024605E1,3.1301796E1,3.309855E0,4.395006E1,7.1963425E0,2.617326E0,3.6001884E1,3.0316436E0,8.967049E0,1.585204E1,1.0903333E2,1.4677528E1,1.80548E2,3.1576658E1,9.6234474E1,1.7762407E0,1.7594742E1,2.9104502E0,4.9029854E1,1.6858782E1,4.4022604E2,1.2657733E2,1.1939123E2,3.5219322E1,7.4507416E1,1.1631453E2,3.02589E0,7.2692714E0],"tree_param":{"num_deleted":"0","num_feature":"12","num_nodes":"85","size_leaf_vector":"1"}},{"base_weights":[-2.1313407E-2,-9.451324E-1,-7.892847E-3,-1.07173305E-2,-2.9153207E-1,-2.036805E-2,2.911192E-1,3.004007E-2,-3.395162E-1,5.481803E-2,-6.196981E-1,-5.5800164E-1,2.1664715E-1,6.2623797E-3,3.914911E-1,-9.156186E-1,-1.2545034E-1,-2.9707298E-1,-3.6885652E-1,1.1650268E-1,8.161024E-1,1.2575782E-2,-2.4144176E-1,-4.559271E-1,1.4557037E-1,-2.830792E-1,5.9378285E-2,-2.7970615E-1,2.122948E-1,1.7386597E-2,-2.755309E-1,2.1730329E-1,-1.0941193E-2,2.9580998E-1,1.1591397E-1],"categories":[],"categories_nodes":[],"categories_segments":[],"categories_sizes":[],"default_left":[0,0,0,0,0,0,0,0,0,0,0,0,0,0,0,0,0,0,0,0,0,0,0,0,0,0,0,0,0,0,0,0,0,0,0],"id":30,"left_children":[1,3,5,-1,-1,7,-1,9,11,13,15,17,19,21,23,25,27,-1,29,31,33,-1,-1,-1,-1,-1,-1,-1,-1,-1,-1,-1,-1,-1,-1],"loss_changes":[3.0953106E1,8.3141136E-1,3.0072287E1,0E0,0E0,3.914203E1,0E0,3.386716E1,4.04472E1,3.3105343E1,1.1188013E1,1.9137337E1,5.567242E0,5.1251667E1,4.6470837E1,1.6878319E0,2.0894266E1,0E0,3.934969E1,7.649798E0,5.927925E-1,0E0,0E0,0E0,0E0,0E0,0E0,0E0,0E0,0E0,0E0,0E0,0E0,0E0,0E0],"parents":[2147483647,0,0,1,1,2,2,5,5,7,7,8,8,9,9,10,10,11,11,12,12,13,13,14,14,15,15,16,16,18,18,19,19,20,20],"right_children":[2,4,6,-1,-1,8,-1,10,12,14,16,18,20,22,24,26,28,-1,30,32,34,-1,-1,-1,-1,-1,-1,-1,-1,-1,-1,-1,-1,-1,-1],"split_conditions":[9E-3,2.0913492E-7,1E0,-1.07173305E-2,-2.9153207E-1,1E0,2.911192E-1,3.71E-1,1.5722536E-3,3.3333334E-1,1.5624215E-5,1E0,2.1170126E-2,1.7468014E-5,8.214384E-3,1.1111111E-1,8.627784E-3,-2.9707298E-1,1.5719958E-3,2.0985363E-2,1.1E-2,1.2575782E-2,-2.4144176E-1,-4.559271E-1,1.4557037E-1,-2.830792E-1,5.9378285E-2,-2.7970615E-1,2.122948E-1,1.7386597E-2,-2.755309E-1,2.1730329E-1,-1.0941193E-2,2.9580998E-1,1.1591397E-1],"split_indices":[8,0,11,0,0,4,0,8,0,10,0,9,7,0,7,2,7,0,0,7,8,0,0,0,0,0,0,0,0,0,0,0,0,0,0],"split_type":[0,0,0,0,0,0,0,0,0,0,0,0,0,0,0,0,0,0,0,0,0,0,0,0,0,0,0,0,0,0,0,0,0,0,0],"sum_hessian":[2.496189E3,3.474943E1,2.4614395E3,1.0556415E0,3.369379E1,2.4314133E3,3.002632E1,2.1005466E3,3.308667E2,2.0242661E3,7.628036E1,2.375452E2,9.332151E1,1.7700104E3,2.5425577E2,4.717986E1,2.91005E1,7.1017624E1,1.6652757E2,8.098634E1,1.2335161E1,1.6963809E3,7.362947E1,1.1176506E1,2.4307927E2,4.6172363E1,1.0074984E0,1.4722144E1,1.4378355E1,9.423658E1,7.229099E1,1.5532529E1,6.545382E1,7.91188E0,4.4232807E0],"tree_param":{"num_deleted":"0","num_feature":"12","num_nodes":"35","size_leaf_vector":"1"}},{"base_weights":[-1.8526603E-2,-8.198287E-3,-2.8921738E-1,2.2912389E-3,-2.8932977E-1,-9.2719233E-1,1.302058E-2,-8.836007E-3,-2.886078E-1,5.99249E-2,-1.8631831E-1,1.3810376E-2,6.7921233E-1,-7.728796E-1,-4.2672705E-2,-2.7852656E-2,8.5596785E-2,2.9772627E-1,-4.7996134E-2,-4.89421E-2,-2.765708E-1,-2.7549747E-2,3.1950933E-1],"categories":[],"categories_nodes":[],"categories_segments":[],"categories_sizes":[],"default_left":[0,0,0,0,0,0,0,0,0,0,0,0,0,0,0,0,0,0,0,0,0,0,0],"id":31,"left_children":[1,3,-1,5,-1,7,9,-1,-1,11,13,15,17,19,21,-1,-1,-1,-1,-1,-1,-1,-1],"loss_changes":[2.3636126E1,2.4034817E1,0E0,2.3657118E1,0E0,8.1819916E-1,2.1935602E1,0E0,0E0,5.4222473E1,3.7621307E1,5.123522E1,3.4745415E1,7.8325615E0,1.970378E1,0E0,0E0,0E0,0E0,0E0,0E0,0E0,0E0],"parents":[2147483647,0,0,1,1,3,3,5,5,6,6,9,9,10,10,11,11,12,12,13,13,14,14],"right_children":[2,4,-1,6,-1,8,10,-1,-1,12,14,16,18,20,22,-1,-1,-1,-1,-1,-1,-1,-1],"split_conditions":[4.848485E-1,6.666667E-1,-2.8921738E-1,9E-3,-2.8932977E-1,2.0913492E-7,1.61523E-5,-8.836007E-3,-2.886078E-1,3.3333334E-1,1E0,8.697839E-6,1.5151516E-1,1.7468014E-5,1.1111111E-1,-2.7852656E-2,8.5596785E-2,2.9772627E-1,-4.7996134E-2,-4.89421E-2,-2.765708E-1,-2.7549747E-2,3.1950933E-1],"split_indices":[6,10,0,8,0,0,0,0,0,10,9,0,6,0,2,0,0,0,0,0,0,0,0],"split_type":[0,0,0,0,0,0,0,0,0,0,0,0,0,0,0,0,0,0,0,0,0,0,0],"sum_hessian":[2.4201187E3,2.3949663E3,2.5152246E1,2.3699663E3,2.5000027E1,2.6070385E1,2.343896E3,1.0427234E0,2.5027662E1,1.8979976E3,4.4589832E2,1.7674116E3,1.3058597E2,8.685497E1,3.5904333E2,1.2694269E3,4.9798477E2,9.496155E1,3.5624416E1,1.746997E1,6.9385E1,3.4466428E2,1.437907E1],"tree_param":{"num_deleted":"0","num_feature":"12","num_nodes":"23","size_leaf_vector":"1"}},{"base_weights":[-1.4002197E-2,-1.2338169E-1,8.029365E-2,4.391228E-1,-1.8914215E-1,-7.054543E-2,4.3278572E-1,-6.442E-1,6.39907E-1,1.1054422E-1,-3.055813E-1,3.2935265E-1,-2.1630949E-1,1.020301E0,7.7506863E-3,-1.4501624E0,3.6319846E-1,5.64432E-1,2.5937107E0,-8.064004E-2,5.571395E-1,-9.196251E-1,-1.6566408E-1,6.005909E-1,-8.389718E-1,-4.251003E-1,7.484839E-2,1.1470814E0,-8.142857E-1,7.082068E-2,-2.9727885E-1,-9.139705E-1,-7.9400104E-1,-1.5436609E-1,1.0459484E0,8.273192E-1,2.2507408E-1,1.4768698E0,-1.7073616E-1,-8.976412E-1,2.9373753E-1,-2.1259661E-1,1.1692148E0,-9.4841754E-1,2.7219066E-1,5.857986E-1,-3.6947197E-1,8.298801E-2,9.66866E-1,-2.9708284E-1,-1.4179228E-1,-5.373856E-2,-6.264074E-1,-2.4216296E-2,1.4944663E0,9.7431535E-1,1.7145647E0,-2.8320044E-1,6.9031045E-2,-6.719932E-2,8.514329E-1,-4.125046E-2,-3.0339843E-1,-1.6443816E-1,2.6446363E-1,6.4998025E-1,-3.8374554E-2,1.14662096E-1,3.8174525E-1,-7.982508E-2,2.4474822E-1,-2.8694898E-1,4.6926998E-2,2.7606038E-2,6.240945E-1,4.77086E-1,-1.5934546E-1,4.2338893E-1,1.3465539E-1,-2.9536667E-1,1.0981982E-1,3.1919032E-1,-5.008393E-2,-1.8371314E-1,-5.0291885E-2,2.7548823E-1,-3.108281E-1,-3.885092E-2,4.201345E-1,2.0746432E-1,-2.4607235E-1,-2.909612E-1,3.0633304E-2,-1.5080948E-1,-2.467326E-1,-5.5774298E-2,2.1382312E-1,1.454182E0,-2.5017592E-1,1.2833072E-1,3.3068553E-1,8.1507283E-1,4.0442055E-1,5.7827473E-2,-1.11125514E-1,3.166179E-1,5.5040855E-2],"categories":[],"categories_nodes":[],"categories_segments":[],"categories_sizes":[],"default_left":[0,0,0,0,0,0,0,0,0,0,0,0,0,0,0,0,0,0,0,0,0,0,0,0,0,0,0,0,0,0,0,0,0,0,0,0,0,0,0,0,0,0,0,0,0,0,0,0,0,0,0,0,0,0,0,0,0,0,0,0,0,0,0,0,0,0,0,0,0,0,0,0,0,0,0,0,0,0,0,0,0,0,0,0,0,0,0,0,0,0,0,0,0,0,0,0,0,0,0,0,0,0,0,0,0,0,0],"id":32,"left_children":[1,3,5,7,9,11,13,15,17,19,21,23,25,27,29,31,33,35,37,39,41,43,45,47,49,51,53,55,57,59,-1,61,-1,63,65,67,69,-1,-1,71,73,75,77,79,-1,81,83,85,87,-1,89,91,93,95,97,99,101,-1,-1,103,105,-1,-1,-1,-1,-1,-1,-1,-1,-1,-1,-1,-1,-1,-1,-1,-1,-1,-1,-1,-1,-1,-1,-1,-1,-1,-1,-1,-1,-1,-1,-1,-1,-1,-1,-1,-1,-1,-1,-1,-1,-1,-1,-1,-1,-1,-1],"loss_changes":[2.4275074E1,4.038788E1,6.723896E1,2.5284792E1,3.410018E1,5.1722088E1,9.462127E1,1.5448322E1,1.2835705E1,2.3431534E1,6.0275574E1,7.563943E1,3.954541E1,3.7930374E1,1.3983111E1,4.259693E0,3.330452E0,8.257126E0,2.7322239E1,5.919558E1,3.899195E1,7.714699E0,8.81328E1,3.6511353E1,4.6160507E0,2.82762E1,3.8331112E1,1.2956955E1,1.6893377E0,2.254245E1,0E0,5.198374E-1,0E0,2.9193797E0,5.5332193E0,1.0006844E1,1.2602651E1,0E0,0E0,3.9209595E0,4.769644E1,2.2250498E1,7.381714E0,6.4774094E0,0E0,4.4399235E1,2.2065983E1,7.673922E1,5.386589E1,0E0,5.7731595E0,1.926165E1,5.539665E0,3.0581972E1,1.4283154E2,7.690048E0,8.6455E0,0E0,0E0,1.4123347E1,4.0882053E0,0E0,0E0,0E0,0E0,0E0,0E0,0E0,0E0,0E0,0E0,0E0,0E0,0E0,0E0,0E0,0E0,0E0,0E0,0E0,0E0,0E0,0E0,0E0,0E0,0E0,0E0,0E0,0E0,0E0,0E0,0E0,0E0,0E0,0E0,0E0,0E0,0E0,0E0,0E0,0E0,0E0,0E0,0E0,0E0,0E0,0E0],"parents":[2147483647,0,0,1,1,2,2,3,3,4,4,5,5,6,6,7,7,8,8,9,9,10,10,11,11,12,12,13,13,14,14,15,15,16,16,17,17,18,18,19,19,20,20,21,21,22,22,23,23,24,24,25,25,26,26,27,27,28,28,29,29,31,31,33,33,34,34,35,35,36,36,39,39,40,40,41,41,42,42,43,43,45,45,46,46,47,47,48,48,50,50,51,51,52,52,53,53,54,54,55,55,56,56,59,59,60,60],"right_children":[2,4,6,8,10,12,14,16,18,20,22,24,26,28,30,32,34,36,38,40,42,44,46,48,50,52,54,56,58,60,-1,62,-1,64,66,68,70,-1,-1,72,74,76,78,80,-1,82,84,86,88,-1,90,92,94,96,98,100,102,-1,-1,104,106,-1,-1,-1,-1,-1,-1,-1,-1,-1,-1,-1,-1,-1,-1,-1,-1,-1,-1,-1,-1,-1,-1,-1,-1,-1,-1,-1,-1,-1,-1,-1,-1,-1,-1,-1,-1,-1,-1,-1,-1,-1,-1,-1,-1,-1,-1],"split_conditions":[2.1027902E-2,1.1569883E-6,7.958934E-6,8.214384E-3,1.6607692E-2,3.359238E-2,3.125E-2,3.0116472E-1,3.3254156E-1,1.1521577E-2,1.9291911E-2,4E-2,3.40381E-2,6.5E-2,3.4873616E-2,3.3333334E-1,3.4031415E-1,2.083405E-2,4.24E-1,2.5E-1,1.3900351E-5,4.96E-1,2.081002E-2,1.056338E-2,3.3333334E-1,3.3830334E-2,3.8E-2,1.6736401E-2,4.79E-1,2.1170126E-2,-2.9727885E-1,8.9575714E-8,-7.9400104E-1,5.155288E-7,3.71E-1,1.8481134E-2,2.0883592E-2,1.4768698E0,-1.7073616E-1,3.939394E-1,8.635202E-3,2.1473809E-6,2.9E-2,3.3333334E-1,2.7219066E-1,1.056338E-2,2.0883592E-2,2.2870585E-2,2.50014E-2,-2.9708284E-1,1E-1,1.1E-2,1.3E-2,3.4599442E-2,4E-2,8.818897E-6,2.1E-2,-2.8320044E-1,6.9031045E-2,9.52381E-3,2.2870585E-2,-4.125046E-2,-3.0339843E-1,-1.6443816E-1,2.6446363E-1,6.4998025E-1,-3.8374554E-2,1.14662096E-1,3.8174525E-1,-7.982508E-2,2.4474822E-1,-2.8694898E-1,4.6926998E-2,2.7606038E-2,6.240945E-1,4.77086E-1,-1.5934546E-1,4.2338893E-1,1.3465539E-1,-2.9536667E-1,1.0981982E-1,3.1919032E-1,-5.008393E-2,-1.8371314E-1,-5.0291885E-2,2.7548823E-1,-3.108281E-1,-3.885092E-2,4.201345E-1,2.0746432E-1,-2.4607235E-1,-2.909612E-1,3.0633304E-2,-1.5080948E-1,-2.467326E-1,-5.5774298E-2,2.1382312E-1,1.454182E0,-2.5017592E-1,1.2833072E-1,3.3068553E-1,8.1507283E-1,4.0442055E-1,5.7827473E-2,-1.11125514E-1,3.166179E-1,5.5040855E-2],"split_indices":[7,0,0,7,7,7,5,8,8,7,7,8,7,8,7,10,8,7,8,8,0,8,7,8,10,7,8,8,8,7,0,0,0,0,8,7,7,0,0,6,7,0,8,10,0,8,7,7,7,0,8,8,8,7,8,0,8,0,0,8,7,0,0,0,0,0,0,0,0,0,0,0,0,0,0,0,0,0,0,0,0,0,0,0,0,0,0,0,0,0,0,0,0,0,0,0,0,0,0,0,0,0,0,0,0,0,0],"split_type":[0,0,0,0,0,0,0,0,0,0,0,0,0,0,0,0,0,0,0,0,0,0,0,0,0,0,0,0,0,0,0,0,0,0,0,0,0,0,0,0,0,0,0,0,0,0,0,0,0,0,0,0,0,0,0,0,0,0,0,0,0,0,0,0,0,0,0,0,0,0,0,0,0,0,0,0,0,0,0,0,0,0,0,0,0,0,0,0,0,0,0,0,0,0,0,0,0,0,0,0,0,0,0,0,0,0,0],"sum_hessian":[2.3516365E3,1.0885975E3,1.2630391E3,1.1334919E2,9.7524835E2,8.8508966E2,3.7794937E2,1.7378078E1,9.597111E1,2.729056E2,7.023428E2,2.3609972E2,6.489899E2,1.5806273E2,2.1988664E2,9.410088E0,7.96799E0,9.364261E1,2.328503E0,1.9167174E2,8.1233864E1,1.2930396E2,5.730388E2,1.9200887E2,4.409085E1,3.7768796E2,2.71302E2,1.4819627E2,9.866456E0,2.0769884E2,1.2187793E1,7.716121E0,1.6939664E0,4.9724703E0,2.9955194E0,5.1956257E1,4.1686348E1,1.0204977E0,1.3080053E0,5.979151E1,1.3188022E2,3.627175E1,4.4962112E1,1.2777115E2,1.5328091E0,1.218585E2,4.511803E2,