{"learner":{"attributes":{"scikit_learn":"{\"_estimator_type\": \"classifier\"}"},"feature_names":[],"feature_types":[],"gradient_booster":{"model":{"cats":{"enc":[],"feature_segments":[],"sorted_idx":[]},"gbtree_model_param":{"num_parallel_tree":"1","num_trees":"100"},"iteration_indptr":[0,1,2,3,4,5,6,7,8,9,10,11,12,13,14,15,16,17,18,19,20,21,22,23,24,25,26,27,28,29,30,31,32,33,34,35,36,37,38,39,40,41,42,43,44,45,46,47,48,49,50,51,52,53,54,55,56,57,58,59,60,61,62,63,64,65,66,67,68,69,70,71,72,73,74,75,76,77,78,79,80,81,82,83,84,85,86,87,88,89,90,91,92,93,94,95,96,97,98,99,100],"tree_info":[0,0,0,0,0,0,0,0,0,0,0,0,0,0,0,0,0,0,0,0,0,0,0,0,0,0,0,0,0,0,0,0,0,0,0,0,0,0,0,0,0,0,0,0,0,0,0,0,0,0,0,0,0,0,0,0,0,0,0,0,0,0,0,0,0,0,0,0,0,0,0,0,0,0,0,0,0,0,0,0,0,0,0,0,0,0,0,0,0,0,0,0,0,0,0,0,0,0,0,0],"trees":[{"base_weights":[-4.5466518E-8,-5.100917E-1,4.1753635E0,-1.0640794E0,1.3175907E1,-1.0769494E0,2.6324072E-1,4.1748714E0,1.7481226E-1,-3.232125E-1,-4.61371E-1,-1.0606248E0,4.1045194E0,-1.0631119E0,2.920083E0,7.1752768E0,-3.1973407E-1,1.2214104E-1,-3.208217E-1,1.1613123E1,2.6731708E0,-1.1631966E-2,-3.2031262E-1,3.3003814E0,1.8725739E0,3.2000668E0,-2.2222309E-1,5.48774E-1,-2.6875043E-1,3.6270263E0,2.0130494E0,2.9557067E-1,2.0146458E0,1.5941787E-1,1.4147848E0],"categories":[],"categories_nodes":[],"categories_segments":[],"categories_sizes":[],"default_left":[0,0,0,0,0,0,0,0,0,0,0,0,0,0,0,0,0,0,0,0,0,0,0,0,0,0,0,0,0,0,0,0,0,0,0],"id":0,"left_children":[1,3,-1,5,7,9,11,-1,13,-1,15,17,19,21,23,25,-1,27,-1,29,31,-1,-1,-1,33,-1,-1,-1,-1,-1,-1,-1,-1,-1,-1],"loss_changes":[1.090243E6,1.1231865E6,0E0,2.4324688E3,5.5469188E4,3.6421875E1,6.9614175E3,0E0,1.0617563E3,0E0,4.6527826E2,1.0705566E1,3.7396953E3,9.730072E-1,8.0119745E2,2.1246054E2,0E0,1.6238008E1,0E0,4.9538086E1,2.0128765E3,0E0,0E0,0E0,3.2982266E2,0E0,0E0,0E0,0E0,0E0,0E0,0E0,0E0,0E0,0E0],"parents":[2147483647,0,0,1,1,3,3,4,4,5,5,6,6,8,8,10,10,11,11,12,12,13,13,14,14,15,15,17,17,19,19,20,20,24,24],"right_children":[2,4,-1,6,8,10,12,-1,14,-1,16,18,20,22,24,26,-1,28,-1,30,32,-1,-1,-1,34,-1,-1,-1,-1,-1,-1,-1,-1,-1,-1],"split_conditions":[1E0,4.0625E-1,4.1753635E0,1E0,3.511368E-5,3.888889E-1,4.4317406E-2,4.1748714E0,4.422669E-2,-3.232125E-1,2.2929009E-2,8.215794E-3,5.2744493E-2,4.2582306E-4,5.260331E-2,1.4874253E-5,-3.1973407E-1,2.5E-1,-3.208217E-1,5.271674E-2,5.5708464E-2,-1.1631966E-2,-3.2031262E-1,3.3003814E0,5.3227104E-2,3.2000668E0,-2.2222309E-1,5.48774E-1,-2.6875043E-1,3.6270263E0,2.0130494E0,2.9557067E-1,2.0146458E0,1.5941787E-1,1.4147848E0],"split_indices":[11,5,0,9,0,2,7,0,7,0,7,7,7,0,7,0,0,5,0,7,7,0,0,0,7,0,0,0,0,0,0,0,0,0,0],"split_type":[0,0,0,0,0,0,0,0,0,0,0,0,0,0,0,0,0,0,0,0,0,0,0,0,0,0,0,0,0,0,0,0,0,0,0],"sum_hessian":[1.5356645E5,1.4813814E5,5.4283154E3,1.4237592E5,5.7622305E3,1.4100884E5,1.3670636E3,5.4517188E3,3.105114E2,1.409107E5,9.814748E1,1.01721326E3,3.498504E2,2.144309E2,9.608051E1,6.4009223E0,9.174655E1,7.4010663E0,1.0098122E3,5.4874573E1,2.9497583E2,1.0001441E0,2.1343076E2,9.934765E0,8.6145744E1,4.2006054E0,2.2003171E0,2.4670222E0,4.9340444E0,4.867368E1,6.2008934E0,2.0896344E2,8.601239E1,5.9341885E1,2.6803862E1],"tree_param":{"num_deleted":"0","num_feature":"12","num_nodes":"35","size_leaf_vector":"1"}},{"base_weights":[-6.5457E-1,-8.292471E-1,3.5954267E-1,-1.0440351E0,1.1585023E0,-1.0556749E0,-2.1826081E-1,-8.852405E-1,1.1891062E0,-3.1679776E-1,-6.5321577E-1,-1.0344431E0,6.457581E-1,-1.0631506E0,7.602725E-1,1.1947374E0,-3.904859E-1,9.857897E-1,-3.1236014E-1,5.6548834E-2,-3.136809E-1,1.1794053E0,-4.6865723E-1,-5.682562E-1,-3.128617E-1,3.348907E-1,-2.350427E-1,-3.101631E-1,1.1960702E0,-2.953359E-1,3.9348334E-1,-2.6076898E-1,3.310716E-1,1.8489225E-1,7.991261E-1,3.5954553E-1,3.0147037E-1],"categories":[],"categories_nodes":[],"categories_segments":[],"categories_sizes":[],"default_left":[0,0,0,0,0,0,0,0,0,0,0,0,0,0,0,0,0,0,0,0,0,0,0,0,0,0,0,0,0,0,0,0,0,0,0,0,0],"id":1,"left_children":[1,3,-1,5,7,9,11,13,15,-1,17,19,21,23,25,27,-1,29,-1,31,-1,33,-1,-1,-1,-1,-1,-1,35,-1,-1,-1,-1,-1,-1,-1,-1],"loss_changes":[4.2288844E4,5.097478E4,0E0,1.0354375E3,7.292998E2,1.2890625E1,1.0577216E3,5.1265213E1,1.6246094E2,0E0,5.5961258E1,9.448608E0,8.605055E2,6.5275574E-1,1.043767E1,3.523633E1,0E0,1.2235849E1,0E0,9.447913E0,0E0,4.8938617E2,0E0,0E0,0E0,0E0,0E0,0E0,4.0771484E0,0E0,0E0,0E0,0E0,0E0,0E0,0E0,0E0],"parents":[2147483647,0,0,1,1,3,3,4,4,5,5,6,6,7,7,8,8,10,10,11,11,12,12,13,13,14,14,15,15,17,17,19,19,21,21,28,28],"right_children":[2,4,-1,6,8,10,12,14,16,-1,18,20,22,24,26,28,-1,30,-1,32,-1,34,-1,-1,-1,-1,-1,-1,36,-1,-1,-1,-1,-1,-1,-1,-1],"split_conditions":[1E0,4.0625E-1,3.5954267E-1,1E0,3.587458E-2,3.888889E-1,4.4317406E-2,1E0,4.375E-1,-3.1679776E-1,2.2929009E-2,8.215794E-3,6.0087472E-2,4.2582306E-4,1.6335387E-5,7.434944E-3,-3.904859E-1,3.6363637E-1,-3.1236014E-1,3.3333334E-1,-3.136809E-1,5.3227104E-2,-4.6865723E-1,-5.682562E-1,-3.128617E-1,3.348907E-1,-2.350427E-1,-3.101631E-1,3.511368E-5,-2.953359E-1,3.9348334E-1,-2.6076898E-1,3.310716E-1,1.8489225E-1,7.991261E-1,3.5954553E-1,3.0147037E-1],"split_indices":[11,5,0,9,7,2,7,4,5,0,7,7,7,0,0,8,0,6,0,10,0,7,0,0,0,0,0,0,0,0,0,0,0,0,0,0,0],"split_type":[0,0,0,0,0,0,0,0,0,0,0,0,0,0,0,0,0,0,0,0,0,0,0,0,0,0,0,0,0,0,0,0,0,0,0,0,0],"sum_hessian":[1.3064424E5,1.1939047E5,1.1253775E4,1.07748125E5,1.1642342E4,1.0625018E5,1.4979481E3,1.7135303E2,1.1470989E4,1.0616479E5,8.5387924E1,7.701965E2,7.2775165E2,1.5495361E2,1.6399414E1,1.1445632E4,2.5357128E1,1.6049116E1,6.933881E1,7.7574067E0,7.624391E2,5.864711E2,1.4128052E2,1.4898053E0,1.534638E2,1.3551064E1,2.8483512E0,6.377713E0,1.1439254E4,1.9905857E0,1.405853E1,4.207203E0,3.5502038E0,4.2620322E2,1.6026793E2,1.12913545E4,1.4789958E2],"tree_param":{"num_deleted":"0","num_feature":"12","num_nodes":"37","size_leaf_vector":"1"}},{"base_weights":[-6.415552E-1,-8.135927E-1,3.415436E-1,-1.0267868E0,1.09292E0,-1.0404387E0,-2.0719503E-1,-8.648198E-1,1.1215298E0,-3.1223163E-1,-6.292082E-1,-1.0128623E0,4.2103475E-1,-1.042794E0,6.9974583E-1,1.1269014E0,-3.6477318E-1,8.192208E-1,-3.0647123E-1,1.5664585E-2,-3.081114E-1,7.5687224E-1,-4.030414E-1,-6.1885697E-1,-3.0452585E-1,3.133015E-1,-2.1890745E-1,1.1384324E0,5.4673547E-1,-2.7077723E-1,3.3155265E-1,2.8785992E-1,-2.6970306E-1,3.9616564E-1,-7.947204E-2,7.3197596E-2,3.415641E-1,2.805957E-1,-4.094741E-1],"categories":[],"categories_nodes":[],"categories_segments":[],"categories_sizes":[],"default_left":[0,0,0,0,0,0,0,0,0,0,0,0,0,0,0,0,0,0,0,0,0,0,0,0,0,0,0,0,0,0,0,0,0,0,0,0,0,0,0],"id":2,"left_children":[1,3,-1,5,7,9,11,13,15,-1,17,19,21,23,25,27,-1,29,-1,31,-1,33,-1,-1,-1,-1,-1,35,37,-1,-1,-1,-1,-1,-1,-1,-1,-1,-1],"loss_changes":[3.0248457E4,3.6610207E4,0E0,9.0621094E2,5.0838867E2,1.0265625E1,6.728524E2,3.722045E1,1.134834E2,0E0,3.8951866E1,8.506897E0,4.4377954E2,1.242981E0,7.649727E0,5.8981445E1,0E0,8.309205E0,0E0,8.548205E0,0E0,3.6224548E2,0E0,0E0,0E0,0E0,0E0,6.152344E-1,1.3168164E2,0E0,0E0,0E0,0E0,0E0,0E0,0E0,0E0,0E0,0E0],"parents":[2147483647,0,0,1,1,3,3,4,4,5,5,6,6,7,7,8,8,10,10,11,11,12,12,13,13,14,14,15,15,17,17,19,19,21,21,27,27,28,28],"right_children":[2,4,-1,6,8,10,12,14,16,-1,18,20,22,24,26,28,-1,30,-1,32,-1,34,-1,-1,-1,-1,-1,36,38,-1,-1,-1,-1,-1,-1,-1,-1,-1,-1],"split_conditions":[1E0,4.0625E-1,3.415436E-1,1E0,3.587458E-2,3.888889E-1,4.4317406E-2,1E0,4.375E-1,-3.1223163E-1,2.2929009E-2,8.215794E-3,6.0087472E-2,2.7903397E-7,1.6335387E-5,3.511368E-5,-3.6477318E-1,3.6363637E-1,-3.0647123E-1,3.1E-2,-3.081114E-1,9.501188E-3,-4.030414E-1,-6.1885697E-1,-3.0452585E-1,3.133015E-1,-2.1890745E-1,3.3333334E-1,6.0087472E-2,-2.7077723E-1,3.3155265E-1,2.8785992E-1,-2.6970306E-1,3.9616564E-1,-7.947204E-2,7.3197596E-2,3.415641E-1,2.805957E-1,-4.094741E-1],"split_indices":[11,5,0,9,7,2,7,4,5,0,7,7,7,0,0,0,0,6,0,8,0,8,0,0,0,0,0,10,7,0,0,0,0,0,0,0,0,0,0],"split_type":[0,0,0,0,0,0,0,0,0,0,0,0,0,0,0,0,0,0,0,0,0,0,0,0,0,0,0,0,0,0,0,0,0,0,0,0,0,0,0],"sum_hessian":[9.877208E4,9.006772E4,8.704361E3,8.1009375E4,9.058341E3,7.968185E4,1.3275264E3,1.300485E2,8.928293E3,7.961578E4,6.606733E1,5.813576E2,7.4616876E2,1.1706543E2,1.2983056E1,8.908339E3,1.9953741E1,1.3850282E1,5.2217045E1,7.90222E0,5.734554E2,6.273388E2,1.1883E2,1.1533823E0,1.1591205E2,1.0678267E1,2.3047895E0,8.733788E3,1.7455035E2,1.6654913E0,1.2184791E1,3.8649106E0,4.0373096E0,4.041119E2,2.2322687E2,1.3904241E0,8.732398E3,1.4548761E2,2.9062742E1],"tree_param":{"num_deleted":"0","num_feature":"12","num_nodes":"39","size_leaf_vector":"1"}},{"base_weights":[-6.3154846E-1,-8.013734E-1,3.2950217E-1,-1.0133187E0,1.0447952E0,-1.0294625E0,-1.9190077E-1,1.0971918E0,-1.5043913E-1,-3.0894434E-1,-6.0707873E-1,-3.3356732E-1,2.6305645E0,-5.7708997E-1,3.2951993E-1,4.584534E-1,-7.538424E-1,6.906875E-1,-3.0140358E-1,-9.9553037E-1,9.554882E-2,3.532036E0,4.5834175E-1,7.998338E-1,-3.552802E-1,-9.3966764E-1,5.112992E-1,-2.4673916E-1,2.8547636E-1,-1.8195881E-3,-3.0415618E-1,9.3843706E-2,-3.658353E-1,3.8806972E-1,1.8301774E0,6.0086485E-2,7.983902E-1,-2.5714085E-1,-3.394295E-1,6.8051624E-1,-3.3848974E-1],"categories":[],"categories_nodes":[],"categories_segments":[],"categories_sizes":[],"default_left":[0,0,0,0,0,0,0,0,0,0,0,0,0,0,0,0,0,0,0,0,0,0,0,0,0,0,0,0,0,0,0,0,0,0,0,0,0,0,0,0,0],"id":3,"left_children":[1,3,-1,5,7,9,11,13,15,-1,17,19,21,-1,-1,23,25,27,-1,29,31,33,-1,35,-1,37,39,-1,-1,-1,-1,-1,-1,-1,-1,-1,-1,-1,-1,-1,-1],"loss_changes":[2.1843025E4,2.6492422E4,0E0,8.0515234E2,4.3683252E2,8.230469E0,4.6942694E2,2.648877E1,1.0825581E2,0E0,2.7549694E1,3.1730338E2,5.039081E1,0E0,0E0,8.32774E1,3.5250244E1,5.8353486E0,0E0,7.9582214E0,1.9420668E2,1.6525656E2,0E0,1.357876E2,0E0,1.0767136E0,5.899295E1,0E0,0E0,0E0,0E0,0E0,0E0,0E0,0E0,0E0,0E0,0E0,0E0,0E0,0E0],"parents":[2147483647,0,0,1,1,3,3,4,4,5,5,6,6,7,7,8,8,10,10,11,11,12,12,15,15,16,16,17,17,19,19,20,20,21,21,23,23,25,25,26,26],"right_children":[2,4,-1,6,8,10,12,14,16,-1,18,20,22,-1,-1,24,26,28,-1,30,32,34,-1,36,-1,38,40,-1,-1,-1,-1,-1,-1,-1,-1,-1,-1,-1,-1,-1,-1],"split_conditions":[1E0,4.0625E-1,3.2950217E-1,1E0,3.511368E-5,3.888889E-1,2.777778E-1,5E-1,9.501188E-3,-3.0894434E-1,2.2929009E-2,4.4317406E-2,5.5708464E-2,-5.7708997E-1,3.2951993E-1,6.0087472E-2,5.5708464E-2,3.6363637E-1,-3.0140358E-1,8.215794E-3,6.0087472E-2,5.2744493E-2,4.5834175E-1,5.3182002E-2,-3.552802E-1,5.2790053E-2,6.0087472E-2,-2.4673916E-1,2.8547636E-1,-1.8195881E-3,-3.0415618E-1,9.3843706E-2,-3.658353E-1,3.8806972E-1,1.8301774E0,6.0086485E-2,7.983902E-1,-2.5714085E-1,-3.394295E-1,6.8051624E-1,-3.3848974E-1],"split_indices":[11,5,0,9,0,2,2,4,8,0,7,7,7,0,0,7,7,6,0,7,7,7,0,7,0,7,7,0,0,0,0,0,0,0,0,0,0,0,0,0,0],"split_type":[0,0,0,0,0,0,0,0,0,0,0,0,0,0,0,0,0,0,0,0,0,0,0,0,0,0,0,0,0,0,0,0,0,0,0,0,0,0,0,0,0],"sum_hessian":[7.434808E4,6.770222E4,6.645857E3,6.0730625E4,6.971592E3,5.955981E4,1.1708162E3,6.6788853E3,2.9270697E2,5.950876E4,5.104691E1,1.1156984E3,5.5117863E1,2.0335858E0,6.6768516E3,1.4581038E2,1.468966E2,1.1798724E1,3.9248184E1,4.382796E2,6.7741876E2,2.9114626E1,2.6003237E1,1.21147354E2,2.4663017E1,1.2830788E2,1.8588728E1,1.4186324E0,1.0380092E1,7.992984E0,4.3028662E2,5.820199E2,9.539887E1,1.6360353E1,1.2754272E1,9.247152E1,2.8675838E1,9.352587E1,3.478201E1,8.787757E0,9.80097E0],"tree_param":{"num_deleted":"0","num_feature":"12","num_nodes":"41","size_leaf_vector":"1"}},{"base_weights":[-6.233722E-1,-7.911471E-1,3.211922E-1,-1.0017891E0,1.0090929E0,-1.0214835E0,-1.7797323E-1,1.0692976E0,-1.4163184E-1,-3.0655795E-1,-5.8479196E-1,-9.7359E-1,1.8237379E-1,-4.216669E-1,3.2120472E-1,-2.9835746E-1,2.4325034E-1,5.7953644E-1,-2.9665786E-1,-1.5880419E-2,-9.9745005E-1,3.3513972E-1,-3.4212363E-1,4.8871937E-1,-3.3774674E-1,-2.2425622E-1,2.4611433E-1,-2.5201842E-1,2.0811927E-1,-3.036428E-1,-2.3560083E-1,-2.5300062E-3,4.448336E-1,1.6294472E-2,5.158386E-1],"categories":[],"categories_nodes":[],"categories_segments":[],"categories_sizes":[],"default_left":[0,0,0,0,0,0,0,0,0,0,0,0,0,0,0,0,0,0,0,0,0,0,0,0,0,0,0,0,0,0,0,0,0,0,0],"id":4,"left_children":[1,3,-1,5,7,9,11,13,15,-1,17,19,21,-1,-1,-1,23,25,-1,27,29,31,-1,33,-1,-1,-1,-1,-1,-1,-1,-1,-1,-1,-1],"loss_changes":[1.5867727E4,1.9263586E4,0E0,7.3766406E2,3.6882227E2,6.6953125E0,3.049411E2,1.8838379E1,8.7382095E1,0E0,1.9657902E1,7.5598755E0,1.4839984E2,0E0,0E0,0E0,6.2291492E1,4.1550493E0,0E0,5.8902693E0,2.131958E-1,2.592321E2,0E0,8.356909E1,0E0,0E0,0E0,0E0,0E0,0E0,0E0,0E0,0E0,0E0,0E0],"parents":[2147483647,0,0,1,1,3,3,4,4,5,5,6,6,7,7,8,8,10,10,11,11,12,12,16,16,17,17,19,19,20,20,21,21,23,23],"right_children":[2,4,-1,6,8,10,12,14,16,-1,18,20,22,-1,-1,-1,24,26,-1,28,30,32,-1,34,-1,-1,-1,-1,-1,-1,-1,-1,-1,-1,-1],"split_conditions":[1E0,4.0625E-1,3.211922E-1,1E0,3.511368E-5,3.888889E-1,4.4317406E-2,5E-1,4.422669E-2,-3.0655795E-1,2.2929009E-2,8.215794E-3,6.0087472E-2,-4.216669E-1,3.2120472E-1,-2.9835746E-1,6.0087472E-2,3.6363637E-1,-2.9665786E-1,3.3333334E-1,3.5975695E-2,5.5708464E-2,-3.4212363E-1,5.5708464E-2,-3.3774674E-1,-2.2425622E-1,2.4611433E-1,-2.5201842E-1,2.0811927E-1,-3.036428E-1,-2.3560083E-1,-2.5300062E-3,4.448336E-1,1.6294472E-2,5.158386E-1],"split_indices":[11,5,0,9,0,2,7,4,7,0,7,7,7,0,0,0,7,6,0,10,7,7,0,7,0,0,0,0,0,0,0,0,0,0,0],"split_type":[0,0,0,0,0,0,0,0,0,0,0,0,0,0,0,0,0,0,0,0,0,0,0,0,0,0,0,0,0,0,0,0,0,0,0],"sum_hessian":[5.582644E4,5.079613E4,5.030312E3,4.5475582E4,5.3205483E3,4.441357E4,1.0620118E3,5.0560903E3,2.644582E2,4.4374004E4,3.956567E1,3.30529E2,7.3148285E2,2.2607157E0,5.0538296E3,8.173988E1,1.8271829E2,1.0081468E1,2.9484203E1,8.074994E0,3.22454E2,6.564207E2,7.506209E1,1.5548373E2,2.7234556E1,1.2254536E0,8.856014E0,3.6508577E0,4.4241366E0,2.9803787E2,2.4416138E1,5.0594632E2,1.5047443E2,1.15692795E2,3.979094E1],"tree_param":{"num_deleted":"0","num_feature":"12","num_nodes":"35","size_leaf_vector":"1"}},{"base_weights":[-6.163506E-1,-7.822724E-1,3.1533334E-1,-9.9180436E-1,9.81262E-1,-1.0156388E0,-1.5249856E-1,1.0495691E0,-1.2589963E-1,-3.048141E-1,-5.608776E-1,-9.5337737E-1,1.3900174E-1,-3.3589926E-1,3.1534243E-1,-9.749593E-1,1.8017417E-1,4.785184E-1,-2.918279E-1,-3.4172308E-2,-9.8352647E-1,4.446632E-1,-4.391023E-1,-4.1699675E-1,-2.9695576E-1,3.5965836E-1,-3.2078427E-1,2.1963416E-1,-1.9318102E-1,1.8924315E-1,-2.5960183E-1,-3.0087832E-1,-2.1708524E-1,1.794084E-1,-3.2774994E-1,-2.2642915E-1,1.7540768E-1,-1.55646615E-2,-1.7071061E-1,1.1343639E-2,4.1694996E-1],"categories":[],"categories_nodes":[],"categories_segments":[],"categories_sizes":[],"default_left":[0,0,0,0,0,0,0,0,0,0,0,0,0,0,0,0,0,0,0,0,0,0,0,0,0,0,0,0,0,0,0,0,0,0,0,0,0,0,0,0,0],"id":5,"left_children":[1,3,-1,5,7,9,11,13,15,-1,17,19,21,-1,-1,23,25,27,-1,29,31,33,35,37,-1,39,-1,-1,-1,-1,-1,-1,-1,-1,-1,-1,-1,-1,-1,-1,-1],"loss_changes":[1.1572891E4,1.4058045E4,0E0,6.800469E2,3.0569507E2,5.5664062E0,2.196068E2,1.4156738E1,6.142351E1,0E0,1.4114878E1,6.922241E0,1.2214123E2,0E0,0E0,1.07471466E-1,3.942281E1,3.23791E0,0E0,5.524112E0,4.995575E-1,1.0719342E2,7.774023E1,1.5674728E-1,0E0,5.0662792E1,0E0,0E0,0E0,0E0,0E0,0E0,0E0,0E0,0E0,0E0,0E0,0E0,0E0,0E0,0E0],"parents":[2147483647,0,0,1,1,3,3,4,4,5,5,6,6,7,7,8,8,10,10,11,11,12,12,15,15,16,16,17,17,19,19,20,20,21,21,22,22,23,23,25,25],"right_children":[2,4,-1,6,8,10,12,14,16,-1,18,20,22,-1,-1,24,26,28,-1,30,32,34,36,38,-1,40,-1,-1,-1,-1,-1,-1,-1,-1,-1,-1,-1,-1,-1,-1,-1],"split_conditions":[1E0,4.0625E-1,3.1533334E-1,1E0,3.511368E-5,3.888889E-1,4.4317406E-2,5E-1,4.422669E-2,-3.048141E-1,2.2929009E-2,8.215794E-3,9.501188E-3,-3.3589926E-1,3.1534243E-1,8.215794E-3,6.0087472E-2,1.4874253E-5,-2.918279E-1,3.1E-2,3.5975695E-2,6.0087472E-2,5.5708464E-2,1.5720022E-3,-2.9695576E-1,5.5708464E-2,-3.2078427E-1,2.1963416E-1,-1.9318102E-1,1.8924315E-1,-2.5960183E-1,-3.0087832E-1,-2.1708524E-1,1.794084E-1,-3.2774994E-1,-2.2642915E-1,1.7540768E-1,-1.55646615E-2,-1.7071061E-1,1.1343639E-2,4.1694996E-1],"split_indices":[11,5,0,9,0,2,7,4,7,0,7,7,8,0,0,7,7,0,0,8,7,7,7,0,0,7,0,0,0,0,0,0,0,0,0,0,0,0,0,0,0],"split_type":[0,0,0,0,0,0,0,0,0,0,0,0,0,0,0,0,0,0,0,0,0,0,0,0,0,0,0,0,0,0,0,0,0,0,0,0,0,0,0,0,0],"sum_hessian":[4.1825516E4,3.8040777E4,3.7847395E3,3.4001387E4,4.0393909E3,3.3062277E4,9.391081E2,3.8047087E3,2.3468204E2,3.3031395E4,3.0883024E1,2.4999419E2,6.8911395E2,2.2407203E0,3.8024683E3,6.1604248E1,1.7307777E2,8.7188835E0,2.216414E1,8.006948E0,2.4198724E2,4.5092615E2,2.3818777E2,2.3555233E0,5.9248726E1,1.5196077E2,2.1117012E1,7.395729E0,1.3231547E0,4.582073E0,3.424875E0,2.225184E2,1.9468834E1,4.1057364E2,4.0352516E1,1.8225635E2,5.5931423E1,1.0868179E0,1.2687055E0,1.1657669E2,3.5384075E1],"tree_param":{"num_deleted":"0","num_feature":"12","num_nodes":"41","size_leaf_vector":"1"}},{"base_weights":[-6.09799E-1,-7.7373105E-1,3.1113744E-1,-9.820402E-1,9.5691663E-1,-1.0113306E0,-1.3558117E-1,1.035361E0,-1.09534286E-1,-3.0353266E-1,-5.370999E-1,-9.3030936E-1,9.3744E-2,-2.7806875E-1,3.111442E-1,3.2602894E-1,-6.839524E-1,3.9873645E-1,-2.8656316E-1,-4.8019182E-2,-9.6851575E-1,-2.3577215E-2,1.4605299E0,-8.9198506E-1,4.9520767E-1,-8.2175815E-1,2.0817156E-1,2.2807953E-1,-9.0511784E-2,-2.4176201E-1,1.4742425E-1,-2.9823864E-1,-1.9670202E-1,2.2036128E-2,-3.2033902E-1,4.7426525E-1,3.326318E-1,-2.844774E-1,-1.1059689E-1,2.0630996E-1,-2.9979163E-1,-1.9883782E-1,-3.244182E-1,2.8366297E-1,-2.6998487E-1],"categories":[],"categories_nodes":[],"categories_segments":[],"categories_sizes":[],"default_left":[0,0,0,0,0,0,0,0,0,0,0,0,0,0,0,0,0,0,0,0,0,0,0,0,0,0,0,0,0,0,0,0,0,0,0,0,0,0,0,0,0,0,0,0,0],"id":6,"left_children":[1,3,-1,5,7,9,11,13,15,-1,17,19,21,-1,-1,23,25,27,-1,29,31,33,35,37,39,41,43,-1,-1,-1,-1,-1,-1,-1,-1,-1,-1,-1,-1,-1,-1,-1,-1,-1,-1],"loss_changes":[8.459268E3,1.0273287E4,0E0,6.304297E2,2.5624805E2,4.6464844E0,1.553283E2,1.0957764E1,5.29349E1,0E0,1.0229834E1,6.386627E0,1.06180984E2,0E0,0E0,2.5272469E1,1.1380928E1,2.3763862E0,0E0,4.064413E0,8.1347656E-1,6.1946533E1,4.6321106E-1,9.371948E-2,3.1310486E1,2.5514107E0,1.1471644E1,0E0,0E0,0E0,0E0,0E0,0E0,0E0,0E0,0E0,0E0,0E0,0E0,0E0,0E0,0E0,0E0,0E0,0E0],"parents":[2147483647,0,0,1,1,3,3,4,4,5,5,6,6,7,7,8,8,10,10,11,11,12,12,15,15,16,16,17,17,19,19,20,20,21,21,22,22,23,23,24,24,25,25,26,26],"right_children":[2,4,-1,6,8,10,12,14,16,-1,18,20,22,-1,-1,24,26,28,-1,30,32,34,36,38,40,42,44,-1,-1,-1,-1,-1,-1,-1,-1,-1,-1,-1,-1,-1,-1,-1,-1,-1,-1],"split_conditions":[1E0,4.0625E-1,3.1113744E-1,1E0,3.511368E-5,3.888889E-1,4.4317406E-2,5E-1,9.501188E-3,-3.0353266E-1,2.2929009E-2,8.215794E-3,9.195402E-3,-2.7806875E-1,3.111442E-1,4.422669E-2,5.5708464E-2,9.501188E-3,-2.8656316E-1,3.3333334E-1,3.5975695E-2,6.0087472E-2,5.5708464E-2,1.5722585E-3,6.0087472E-2,5.2790053E-2,6.0087472E-2,2.2807953E-1,-9.0511784E-2,-2.4176201E-1,1.4742425E-1,-2.9823864E-1,-1.9670202E-1,2.2036128E-2,-3.2033902E-1,4.7426525E-1,3.326318E-1,-2.844774E-1,-1.1059689E-1,2.0630996E-1,-2.9979163E-1,-1.9883782E-1,-3.244182E-1,2.8366297E-1,-2.6998487E-1],"split_indices":[11,5,0,9,0,2,7,4,8,0,7,7,1,0,0,7,7,8,0,10,7,7,7,0,7,7,7,0,0,0,0,0,0,0,0,0,0,0,0,0,0,0,0,0,0],"split_type":[0,0,0,0,0,0,0,0,0,0,0,0,0,0,0,0,0,0,0,0,0,0,0,0,0,0,0,0,0,0,0,0,0,0,0,0,0,0,0,0,0,0,0,0,0],"sum_hessian":[3.1328559E4,2.849295E4,2.8356099E3,2.5432234E4,3.0607148E3,2.4581438E4,8.5079755E2,2.8510317E3,2.0968298E2,2.4557266E4,2.4170921E1,1.8984196E2,6.6095557E2,2.1218238E0,2.84891E3,1.1950131E2,9.018168E1,7.4785E0,1.6692421E1,7.973311E0,1.8186865E2,6.0961096E2,5.134461E1,1.405304E1,1.0544827E2,7.8183586E1,1.1998092E1,4.87625E0,2.60225E0,3.1100507E0,4.8632603E0,1.6609259E2,1.5776056E1,5.586315E2,5.0979496E1,3.565199E1,1.56926155E1,1.1955505E1,2.0975344E0,9.389457E1,1.1553701E1,5.0696667E1,2.7486921E1,7.292316E0,4.7057753E0],"tree_param":{"num_deleted":"0","num_feature":"12","num_nodes":"45","size_leaf_vector":"1"}},{"base_weights":[-6.0271007E-1,-7.6429164E-1,3.0809438E-1,-9.71022E-1,9.320685E-1,-1.0081028E0,-1.11559555E-1,1.0249578E0,-1.04781404E-1,-3.0258554E-1,-4.9725962E-1,-9.0377444E-1,6.801329E-2,-2.3454288E-1,3.0809957E-1,-9.363285E-1,1.059569E-1,3.3293778E-1,-2.805532E-1,-5.7154335E-2,-9.512537E-1,-2.0579083E-2,3.8901666E-1,-8.530675E-2,-2.8787675E-1,7.1161246E-1,-1.4606002E-1,1.7015427E-1,-1.7221253E-1,1.373545E-1,-2.4749479E-1,-2.954863E-1,-1.7489097E-1,-6.025814E-2,1.7113402E-1,2.3775624E-1,-2.8215596E-1,-1.4084683E-1,1.301664E-1],"categories":[],"categories_nodes":[],"categories_segments":[],"categories_sizes":[],"default_left":[0,0,0,0,0,0,0,0,0,0,0,0,0,0,0,0,0,0,0,0,0,0,0,0,0,0,0,0,0,0,0,0,0,0,0,0,0,0,0],"id":7,"left_children":[1,3,-1,5,7,9,11,13,15,-1,17,19,21,-1,-1,23,25,27,-1,29,31,33,-1,-1,-1,35,37,-1,-1,-1,-1,-1,-1,-1,-1,-1,-1,-1,-1],"loss_changes":[6.185787E3,7.4950205E3,0E0,6.0696094E2,2.2373206E2,4.3085938E0,1.1230151E2,8.660156E0,3.37128E1,0E0,7.723818E0,5.8088226E0,7.0141304E1,0E0,0E0,3.168335E-1,2.3599304E1,1.9781059E0,0E0,3.861332E0,1.1392212E0,6.423486E1,0E0,0E0,0E0,6.814213E0,2.0748508E1,0E0,0E0,0E0,0E0,0E0,0E0,0E0,0E0,0E0,0E0,0E0,0E0],"parents":[2147483647,0,0,1,1,3,3,4,4,5,5,6,6,7,7,8,8,10,10,11,11,12,12,15,15,16,16,17,17,19,19,20,20,21,21,25,25,26,26],"right_children":[2,4,-1,6,8,10,12,14,16,-1,18,20,22,-1,-1,24,26,28,-1,30,32,34,-1,-1,-1,36,38,-1,-1,-1,-1,-1,-1,-1,-1,-1,-1,-1,-1],"split_conditions":[1E0,4.0625E-1,3.0809438E-1,1E0,3.511368E-5,3.888889E-1,4.4317406E-2,5E-1,4.422669E-2,-3.0258554E-1,2.2929009E-2,8.215794E-3,9.195402E-3,-2.3454288E-1,3.0809957E-1,8.215794E-3,5.272618E-2,1.4874253E-5,-2.805532E-1,3.1E-2,3.5975695E-2,5.3227104E-2,3.8901666E-1,-8.530675E-2,-2.8787675E-1,4.375E-1,5.5708464E-2,1.7015427E-1,-1.7221253E-1,1.373545E-1,-2.4749479E-1,-2.954863E-1,-1.7489097E-1,-6.025814E-2,1.7113402E-1,2.3775624E-1,-2.8215596E-1,-1.4084683E-1,1.301664E-1],"split_indices":[11,5,0,9,0,2,7,4,7,0,7,7,1,0,0,7,7,0,0,8,7,7,0,0,0,5,7,0,0,0,0,0,0,0,0,0,0,0,0],"split_type":[0,0,0,0,0,0,0,0,0,0,0,0,0,0,0,0,0,0,0,0,0,0,0,0,0,0,0,0,0,0,0,0,0,0,0,0,0,0,0],"sum_hessian":[2.3486818E4,2.1368676E4,2.1181428E3,1.9047805E4,2.3208718E3,1.8259828E4,7.879766E2,2.130056E3,1.908159E2,1.824044E4,1.9388659E1,1.448619E2,6.4311475E2,1.9720075E0,2.128084E3,3.7884663E1,1.5293124E2,6.7782617E0,1.2610397E1,7.809609E0,1.3705228E2,6.007805E2,4.233423E1,1.7606356E0,3.6124027E1,4.4401173E1,1.0853007E2,5.6847305E0,1.093531E0,4.916017E0,2.893592E0,1.2402836E2,1.3023917E1,4.6086304E2,1.399175E2,4.2824284E1,1.576889E0,6.9796135E1,3.873393E1],"tree_param":{"num_deleted":"0","num_feature":"12","num_nodes":"39","size_leaf_vector":"1"}},{"base_weights":[-5.949031E-1,-7.5377303E-1,3.058613E-1,-1.0057648E0,6.208014E-1,-3.018961E-1,-5.411095E-1,1.0155064E0,-1.3035941E-1,2.6694915E-1,-2.8517094E-1,1.0223267E0,-2.8623748E-1,-9.1049325E-1,1.5111703E-2,6.1096156E-1,-2.9176125E-1,-1.8449193E-1,1.0252745E0,3.2503805E-1,-9.351858E-1,2.3759778E-1,-4.383889E-1,3.9908253E-2,2.1218826E-1,7.316014E-2,-2.0595951E-1,1.7537014E-1,-2.5205472E-1,3.7917474E-1,3.057999E-1,2.8725064E-1,-1.7399852E-1,-2.9446593E-1,-2.2602381E-1,1.0123767E-1,-3.1369266E-1,-2.5100493E-1,9.4359495E-2],"categories":[],"categories_nodes":[],"categories_segments":[],"categories_sizes":[],"default_left":[0,0,0,0,0,0,0,0,0,0,0,0,0,0,0,0,0,0,0,0,0,0,0,0,0,0,0,0,0,0,0,0,0,0,0,0,0,0,0],"id":8,"left_children":[1,3,-1,5,7,-1,9,11,13,15,-1,17,-1,19,21,23,25,27,29,31,33,35,37,-1,-1,-1,-1,-1,-1,-1,-1,-1,-1,-1,-1,-1,-1,-1,-1],"loss_changes":[4.5224033E3,5.560167E3,0E0,2.9570312E0,7.375488E2,0E0,6.327076E0,2.2879395E1,9.734246E1,1.5148187E0,0E0,5.9714355E0,0E0,4.4165955E0,7.31356E1,1.18944526E-1,8.7087834E-1,2.9157014E0,1.0108643E0,2.4919932E0,3.765564E-1,6.2662136E1,7.180946E1,0E0,0E0,0E0,0E0,0E0,0E0,0E0,0E0,0E0,0E0,0E0,0E0,0E0,0E0,0E0,0E0],"parents":[2147483647,0,0,1,1,3,3,4,4,6,6,7,7,8,8,9,9,11,11,13,13,14,14,15,15,16,16,17,17,18,18,19,19,20,20,21,21,22,22],"right_children":[2,4,-1,6,8,-1,10,12,14,16,-1,18,-1,20,22,24,26,28,30,32,34,36,38,-1,-1,-1,-1,-1,-1,-1,-1,-1,-1,-1,-1,-1,-1,-1,-1],"split_conditions":[1E0,1E0,3.058613E-1,3.888889E-1,3.511368E-5,-3.018961E-1,2.2929009E-2,7.6E-2,4.4317406E-2,9.501188E-3,-2.8517094E-1,2.2929009E-2,-2.8623748E-1,4.2582306E-4,9.501188E-3,7.877228E-6,9.775558E-6,7.434944E-3,2.5E-1,2.4096385E-2,2.5312796E-2,6.0087472E-2,1.3E-2,3.9908253E-2,2.1218826E-1,7.316014E-2,-2.0595951E-1,1.7537014E-1,-2.5205472E-1,3.7917474E-1,3.057999E-1,2.8725064E-1,-1.7399852E-1,-2.9446593E-1,-2.2602381E-1,1.0123767E-1,-3.1369266E-1,-2.5100493E-1,9.4359495E-2],"split_indices":[11,9,0,2,0,0,7,8,7,8,0,7,0,0,8,0,0,8,4,8,7,7,8,0,0,0,0,0,0,0,0,0,0,0,0,0,0,0,0],"split_type":[0,0,0,0,0,0,0,0,0,0,0,0,0,0,0,0,0,0,0,0,0,0,0,0,0,0,0,0,0,0,0,0,0,0,0,0,0,0,0],"sum_hessian":[1.762816E4,1.6049349E4,1.5788118E3,1.3563169E4,2.4861794E3,1.3545813E4,1.735573E1,1.6295592E3,8.566203E2,5.9539056E0,1.1401825E1,1.6244153E3,5.143936E0,1.3380275E2,7.2281757E2,3.6270912E0,2.3268144E0,3.808107E0,1.6206072E3,2.3833747E0,1.3141937E2,4.8523755E2,2.3758003E2,1.0078373E0,2.6192539E0,1.1494648E0,1.1773496E0,1.802466E0,2.005641E0,3.422507E1,1.5863821E3,1.3688245E0,1.0145501E0,1.0120405E2,3.021533E1,4.5088678E2,3.435076E1,1.5530997E2,8.227006E1],"tree_param":{"num_deleted":"0","num_feature":"12","num_nodes":"39","size_leaf_vector":"1"}},{"base_weights":[-5.863727E-1,-7.420766E-1,3.0420056E-1,-1.0038817E0,5.631368E-1,-3.0136353E-1,-4.9579123E-1,1.0078473E0,-1.0991027E-1,2.2599968E-1,-2.786726E-1,1.0149755E0,-2.699902E-1,-8.791696E-1,3.686907E-3,2.348639E-1,-3.4514123E-1,-1.6089115E-1,3.0560634E-1,2.3763993E-1,-9.093161E-1,7.80479E-2,-1.0388169E0,1.315316E-1,-2.2898717E-1,-1.6950452E-1,2.5918493E-1,-2.908125E-1,-2.0706563E-1,-4.050012E-2,3.4582075E-1,-3.174485E-1,-1.3888235E-1],"categories":[],"categories_nodes":[],"categories_segments":[],"categories_sizes":[],"default_left":[0,0,0,0,0,0,0,0,0,0,0,0,0,0,0,0,0,0,0,0,0,0,0,0,0,0,0,0,0,0,0,0,0],"id":9,"left_children":[1,3,-1,5,7,-1,9,11,13,15,-1,17,-1,19,21,-1,-1,23,-1,25,27,29,31,-1,-1,-1,-1,-1,-1,-1,-1,-1,-1],"loss_changes":[3.304563E3,4.129631E3,0E0,2.8955078E0,6.045559E2,0E0,4.930629E0,1.7451538E1,7.029286E1,5.8580675E0,0E0,5.4543457E0,0E0,3.70076E0,5.4490364E1,0E0,0E0,2.0235307E0,0E0,2.2542822E0,6.598053E-1,1.5036734E2,3.1490326E-2,0E0,0E0,0E0,0E0,0E0,0E0,0E0,0E0,0E0,0E0],"parents":[2147483647,0,0,1,1,3,3,4,4,6,6,7,7,8,8,9,9,11,11,13,13,14,14,17,17,19,19,20,20,21,21,22,22],"right_children":[2,4,-1,6,8,-1,10,12,14,16,-1,18,-1,20,22,-1,-1,24,-1,26,28,30,32,-1,-1,-1,-1,-1,-1,-1,-1,-1,-1],"split_conditions":[1E0,1E0,3.0420056E-1,3.888889E-1,3.511368E-5,-3.0136353E-1,1.4874253E-5,7.6E-2,4.4317406E-2,5.555556E-1,-2.786726E-1,2.2929009E-2,-2.699902E-1,4.2582306E-4,6.0087472E-2,2.348639E-1,-3.4514123E-1,7.434944E-3,3.0560634E-1,3.3333334E-1,2.5312796E-2,5.5708464E-2,7.018513E-2,1.315316E-1,-2.2898717E-1,-1.6950452E-1,2.5918493E-1,-2.908125E-1,-2.0706563E-1,-4.050012E-2,3.4582075E-1,-3.174485E-1,-1.3888235E-1],"split_indices":[11,9,0,2,0,0,0,8,7,2,0,7,0,0,7,0,0,8,0,10,7,7,7,0,0,0,0,0,0,0,0,0,0],"split_type":[0,0,0,0,0,0,0,0,0,0,0,0,0,0,0,0,0,0,0,0,0,0,0,0,0,0,0,0,0,0,0,0,0],"sum_hessian":[1.3257484E4,1.2082488E4,1.1749956E3,1.0064034E4,2.0184542E3,1.0049934E4,1.4100418E1,1.2150935E3,8.033608E2,5.467321E0,8.633097E0,1.2110366E3,4.056857E0,1.0250131E2,7.008595E2,4.1995473E0,1.2677736E0,3.6778584E0,1.2073588E3,2.513229E0,9.998808E1,6.550597E2,4.579977E1,1.9800638E0,1.6977944E0,1.1444331E0,1.3687959E0,7.578855E1,2.4199526E1,5.474137E2,1.0764602E2,4.3501015E1,2.298755E0],"tree_param":{"num_deleted":"0","num_feature":"12","num_nodes":"33","size_leaf_vector":"1"}},{"base_weights":[-5.7681376E-1,-7.2908056E-1,3.0294296E-1,-1.0024601E0,5.1313686E-1,-3.009558E-1,-4.7903168E-1,1.0017294E0,-8.642142E-2,1.8670575E-1,-2.6806387E-1,1.0092726E0,-2.5321916E-1,1.11522764E-1,-4.7113636E-1,1.4808264E-1,-8.032337E-2,-1.4533263E-1,3.0420142E-1,-1.2258555E0,1.8602593E-1,-6.3465536E-1,2.9679325E-1,9.996636E-2,-2.0855425E-1,-2.8286287E-1,-4.523233E-1,1.6278733E-1,-1.2320027E-2,-2.7768758E-1,-9.387478E-2,2.9750454E-1,-2.8859195E-1],"categories":[],"categories_nodes":[],"categories_segments":[],"categories_sizes":[],"default_left":[0,0,0,0,0,0,0,0,0,0,0,0,0,0,0,0,0,0,0,0,0,0,0,0,0,0,0,0,0,0,0,0,0],"id":10,"left_children":[1,3,-1,5,7,-1,9,11,13,15,-1,17,-1,19,21,-1,-1,23,-1,25,27,29,31,-1,-1,-1,-1,-1,-1,-1,-1,-1,-1],"loss_changes":[2.4123098E3,3.0937598E3,0E0,2.3564453E0,4.815753E2,0E0,3.5483043E0,1.3462219E1,5.6324085E1,9.0331864E-1,0E0,5.078247E0,0E0,4.892251E1,3.1735191E1,0E0,0E0,1.431096E0,0E0,6.4601135E-1,3.7580338E1,1.9130325E1,4.0127605E1,0E0,0E0,0E0,0E0,0E0,0E0,0E0,0E0,0E0,0E0],"parents":[2147483647,0,0,1,1,3,3,4,4,6,6,7,7,8,8,9,9,11,11,13,13,14,14,17,17,19,19,20,20,21,21,22,22],"right_children":[2,4,-1,6,8,-1,10,12,14,16,-1,18,-1,20,22,-1,-1,24,-1,26,28,30,32,-1,-1,-1,-1,-1,-1,-1,-1,-1,-1],"split_conditions":[1E0,1E0,3.0294296E-1,3.888889E-1,3.511368E-5,-3.009558E-1,2.2929009E-2,7.6E-2,9.501188E-3,9.501188E-3,-2.6806387E-1,2.2929009E-2,-2.5321916E-1,8E-3,5.5708464E-2,1.4808264E-1,-8.032337E-2,7.434944E-3,3.0420142E-1,4.4317406E-2,8.230452E-3,1.2E-2,6.0087472E-2,9.996636E-2,-2.0855425E-1,-2.8286287E-1,-4.523233E-1,1.6278733E-1,-1.2320027E-2,-2.7768758E-1,-9.387478E-2,2.9750454E-1,-2.8859195E-1],"split_indices":[11,9,0,2,0,0,7,8,8,8,0,7,0,8,7,0,0,8,0,7,8,8,7,0,0,0,0,0,0,0,0,0,0],"split_type":[0,0,0,0,0,0,0,0,0,0,0,0,0,0,0,0,0,0,0,0,0,0,0,0,0,0,0,0,0,0,0,0,0],"sum_hessian":[9.981088E3,9.107582E3,8.735058E2,7.464938E3,1.6426444E3,7.453684E3,1.1253589E1,9.047081E2,7.379362E2,4.5291147E0,6.724474E0,9.014773E2,3.2308617E0,4.8770932E2,2.502269E2,2.6519868E0,1.8771278E0,3.5583477E0,8.9791895E2,2.4920319E1,4.62789E2,2.064418E2,4.3785107E1,2.11316E0,1.4451878E0,1.4604334E1,1.0315985E1,1.7951353E2,2.8327548E2,1.07418945E2,9.902286E1,2.834805E1,1.54370575E1],"tree_param":{"num_deleted":"0","num_feature":"12","num_nodes":"33","size_leaf_vector":"1"}},{"base_weights":[-5.6462955E-1,-7.1230865E-1,3.019646E-1,-1.0012122E0,4.5243397E-1,-3.0063498E-1,-4.2916942E-1,9.96148E-1,-7.138829E-2,1.7188385E-1,-2.5910953E-1,1.0042256E0,-2.36275E-1,-8.2288677E-1,1.5136388E-2,-2.1561816E-1,5.70323E-1,-1.9862926E-1,1.008285E0,1.22190714E-1,-8.8654536E-1,3.632071E-1,-2.3988661E-1,1.9532707E-2,2.1565412E-1,8.221607E-2,3.0309272E-1,-2.0699373E-1,2.4435048E-1,-2.9494748E-1,-1.8004246E-1,4.406202E-2,2.4187422E-1,-1.627741E-1,1.2763795E-1],"categories":[],"categories_nodes":[],"categories_segments":[],"categories_sizes":[],"default_left":[0,0,0,0,0,0,0,0,0,0,0,0,0,0,0,0,0,0,0,0,0,0,0,0,0,0,0,0,0,0,0,0,0,0,0],"id":11,"left_children":[1,3,-1,5,7,-1,9,11,13,15,-1,17,-1,19,21,-1,23,-1,25,27,29,31,33,-1,-1,-1,-1,-1,-1,-1,-1,-1,-1,-1,-1],"loss_changes":[1.7546929E3,2.3257837E3,0E0,2.4345703E0,3.9142374E2,0E0,2.887898E0,1.0506409E1,4.5579247E1,2.267624E0,0E0,5.2113037E0,0E0,4.4624176E0,5.595696E1,0E0,2.664404E-1,0E0,7.1954346E-1,3.6241837E0,1.2894974E0,2.542865E1,7.3510574E1,0E0,0E0,0E0,0E0,0E0,0E0,0E0,0E0,0E0,0E0,0E0,0E0],"parents":[2147483647,0,0,1,1,3,3,4,4,6,6,7,7,8,8,9,9,11,11,13,13,14,14,16,16,18,18,19,19,20,20,21,21,22,22],"right_children":[2,4,-1,6,8,-1,10,12,14,16,-1,18,-1,20,22,-1,24,-1,26,28,30,32,34,-1,-1,-1,-1,-1,-1,-1,-1,-1,-1,-1,-1],"split_conditions":[1E0,1E0,3.019646E-1,3.888889E-1,3.511368E-5,-3.0063498E-1,1.4874253E-5,7.6E-2,4.4317406E-2,3.125E-2,-2.5910953E-1,5.167959E-3,-2.36275E-1,8.215794E-3,5.2851316E-2,-2.1561816E-1,2.0960297E-2,-1.9862926E-1,2.2929009E-2,3.3333334E-1,2.5312796E-2,1.5722585E-3,5.3227104E-2,1.9532707E-2,2.1565412E-1,8.221607E-2,3.0309272E-1,-2.0699373E-1,2.4435048E-1,-2.9494748E-1,-1.8004246E-1,4.406202E-2,2.4187422E-1,-1.627741E-1,1.2763795E-1],"split_indices":[11,9,0,2,0,0,0,8,7,5,0,8,0,7,7,0,7,0,7,10,7,0,7,0,0,0,0,0,0,0,0,0,0,0,0],"split_type":[0,0,0,0,0,0,0,0,0,0,0,0,0,0,0,0,0,0,0,0,0,0,0,0,0,0,0,0,0,0,0,0,0,0,0],"sum_hessian":[7.5582593E3,6.909376E3,6.4888336E2,5.5362905E3,1.3730854E3,5.526802E3,9.488911E0,6.733077E2,6.997778E2,4.2351556E0,5.253755E0,6.7070746E2,2.60026E0,7.137235E1,6.2840546E2,1.0605978E0,3.174558E0,1.2360573E0,6.694714E2,4.4460893E0,6.692626E1,2.6554688E2,3.6285855E2,1.0480211E0,2.1265368E0,2.2153115E0,6.6725604E2,2.047489E0,2.3986E0,4.822554E1,1.8700726E1,1.7931837E2,8.62285E1,2.4952417E2,1.1333439E2],"tree_param":{"num_deleted":"0","num_feature":"12","num_nodes":"35","size_leaf_vector":"1"}},{"base_weights":[-5.508627E-1,-7.895253E-1,3.9570895E-1,-1.0001887E0,3.0117148E-1,9.9058205E-1,-5.9982266E-2,-3.003718E-1,-3.9884385E-1,-3.1083578E-1,1.0030317E0,-2.1213258E-3,-1.0439495E0,1.4325029E-1,-2.4686745E-1,9.499483E-2,-2.3291586E-1,3.0217692E-1,-5.748402E-2,5.4986257E-2,-9.962571E-1,-6.2064415E-1,-9.5551264E-1,-1.2370429E-1,4.034766E-1,-7.824504E-2,3.1564018E-1,-3.069381E-1,-9.9790506E-2,-3.162443E-1,-2.4889487E-1,1.6947699E-1,6.045453E-3,3.2441877E-2,-1.7042808E-1,2.1094035E-1,-2.4348909E-1],"categories":[],"categories_nodes":[],"categories_segments":[],"categories_sizes":[],"default_left":[0,0,0,0,0,0,0,0,0,0,0,0,0,0,0,0,0,0,0,0,0,0,0,0,0,0,0,0,0,0,0,0,0,0,0,0,0],"id":12,"left_children":[1,3,5,7,-1,9,11,-1,13,15,17,19,21,23,-1,-1,-1,-1,-1,25,27,-1,29,-1,31,33,-1,-1,-1,-1,35,-1,-1,-1,-1,-1,-1],"loss_changes":[1.2980262E3,1.7343921E3,3.1379684E2,2.194336E0,0E0,8.446533E0,3.7362663E1,0E0,2.1460485E0,1.8586373E0,2.7041016E0,3.5301846E1,1.3266258E0,8.4940374E-1,0E0,0E0,0E0,0E0,0E0,7.820769E1,2.6200485E-1,0E0,2.2056122E0,0E0,2.1900386E-1,4.750882E1,0E0,0E0,0E0,0E0,3.5957196E0,0E0,0E0,0E0,0E0,0E0,0E0],"parents":[2147483647,0,0,1,1,2,2,3,3,5,5,6,6,8,8,9,9,10,10,11,11,12,12,13,13,19,19,20,20,22,22,24,24,25,25,30,30],"right_children":[2,4,6,8,-1,10,12,-1,14,16,18,20,22,24,-1,-1,-1,-1,-1,26,28,-1,30,-1,32,34,-1,-1,-1,-1,36,-1,-1,-1,-1,-1,-1],"split_conditions":[1E0,1E0,3.511368E-5,3.888889E-1,3.0117148E-1,2.5312796E-2,4.6E-2,-3.003718E-1,1.4874253E-5,7.434944E-3,6.4E-2,6.0087472E-2,4.2582306E-4,6.4515125E-6,-2.4686745E-1,9.499483E-2,-2.3291586E-1,3.0217692E-1,-5.748402E-2,5.5708464E-2,7.018513E-2,-6.2064415E-1,5.5708464E-2,-1.2370429E-1,9.775558E-6,5.291602E-2,3.1564018E-1,-3.069381E-1,-9.9790506E-2,-3.162443E-1,6.0087472E-2,1.6947699E-1,6.045453E-3,3.2441877E-2,-1.7042808E-1,2.1094035E-1,-2.4348909E-1],"split_indices":[9,11,0,2,0,7,8,0,0,8,8,7,0,0,0,0,0,0,0,7,7,0,7,0,0,7,0,0,0,0,7,0,0,0,0,0,0],"split_type":[0,0,0,0,0,0,0,0,0,0,0,0,0,0,0,0,0,0,0,0,0,0,0,0,0,0,0,0,0,0,0,0,0,0,0,0,0],"sum_hessian":[5.743354E3,4.5869863E3,1.1563677E3,4.105214E3,4.8177237E2,5.010752E2,6.552925E2,4.097391E3,7.822972E0,4.5208893E0,4.965543E2,6.198454E2,3.5447067E1,3.724205E0,4.098767E0,2.0617836E0,2.4591055E0,4.9496085E2,1.5934732E0,5.870664E2,3.2779015E1,1.0369611E0,3.4410107E1,1.0014594E0,2.7227457E0,5.186852E2,6.838124E1,3.0982801E1,1.7962146E0,2.9763653E1,4.646453E0,1.5824947E0,1.140251E0,3.7628867E2,1.4239648E2,1.633471E0,3.012982E0],"tree_param":{"num_deleted":"0","num_feature":"12","num_nodes":"37","size_leaf_vector":"1"}},{"base_weights":[-5.34564E-1,-7.886044E-1,3.4305176E-1,-9.991633E-1,3.004891E-1,9.843005E-1,-4.9459744E-2,-3.001422E-1,-3.5573122E-1,-2.2920543E-1,1.0000178E0,-8.087231E-1,1.178447E-2,1.3236554E-1,-2.3382106E-1,2.3778242E-1,-1.8264759E-1,3.0136114E-1,-2.9849505E-2,1.9537385E-1,-9.0702796E-1,6.389113E-2,-9.733546E-1,1.18471466E-1,-6.926303E-2,-1.9161385E-1,3.1924897E-1,2.2254996E-1,-1.8802525E-1,-2.9164013E-1,-5.9173423E-1,-3.6549937E-2,9.3204325E-1,-3.0130824E-1,-9.745441E-2,2.792514E-1,-2.6637113E-1,6.3944764E-2,-1.0788176E-1,2.996419E-1,-2.5324225E-1],"categories":[],"categories_nodes":[],"categories_segments":[],"categories_sizes":[],"default_left":[0,0,0,0,0,0,0,0,0,0,0,0,0,0,0,0,0,0,0,0,0,0,0,0,0,0,0,0,0,0,0,0,0,0,0,0,0,0,0,0,0],"id":13,"left_children":[1,3,5,7,-1,9,11,-1,13,15,17,19,21,23,-1,25,-1,-1,-1,27,29,31,33,-1,-1,-1,-1,-1,-1,-1,35,37,39,-1,-1,-1,-1,-1,-1,-1,-1],"loss_changes":[9.78421E2,1.2836584E3,2.4811786E2,2.2124023E0,0E0,7.367584E0,2.8482573E1,0E0,1.7041209E0,1.1373534E0,1.9368591E0,4.690014E0,2.9198317E1,5.157622E-1,0E0,3.019064E0,0E0,0E0,0E0,2.6661625E0,2.831955E-1,4.712306E1,2.4831963E-1,0E0,0E0,0E0,0E0,0E0,0E0,0E0,5.2064524E0,3.9198917E1,7.488209E0,0E0,0E0,0E0,0E0,0E0,0E0,0E0,0E0],"parents":[2147483647,0,0,1,1,2,2,3,3,5,5,6,6,8,8,9,9,10,10,11,11,12,12,13,13,15,15,19,19,20,20,21,21,22,22,30,30,31,31,32,32],"right_children":[2,4,6,8,-1,10,12,-1,14,16,18,20,22,24,-1,26,-1,-1,-1,28,30,32,34,-1,-1,-1,-1,-1,-1,-1,36,38,40,-1,-1,-1,-1,-1,-1,-1,-1],"split_conditions":[1E0,1E0,3.511368E-5,3.888889E-1,3.004891E-1,3.1104397E-2,3.5975695E-2,-3.001422E-1,2.2929009E-2,8.230452E-3,6.4E-2,8.215794E-3,6.0087472E-2,9.501188E-3,-2.3382106E-1,3.3333334E-1,-1.8264759E-1,3.0136114E-1,-2.9849505E-2,3.1E-2,2.5312796E-2,5.5708464E-2,7.018513E-2,1.18471466E-1,-6.926303E-2,-1.9161385E-1,3.1924897E-1,2.2254996E-1,-1.8802525E-1,-2.9164013E-1,3.164763E-2,5.2851316E-2,5.0847456E-2,-3.0130824E-1,-9.745441E-2,2.792514E-1,-2.6637113E-1,6.3944764E-2,-1.0788176E-1,2.996419E-1,-2.5324225E-1],"split_indices":[9,11,0,2,0,7,7,0,7,8,8,7,7,8,0,10,0,0,0,8,7,7,7,0,0,0,0,0,0,0,7,7,8,0,0,0,0,0,0,0,0],"split_type":[0,0,0,0,0,0,0,0,0,0,0,0,0,0,0,0,0,0,0,0,0,0,0,0,0,0,0,0,0,0,0,0,0,0,0,0,0,0,0,0,0],"sum_hessian":[4.386312E3,3.4017273E3,9.845845E2,3.0441328E3,3.5759457E2,3.7326736E2,6.1131714E2,3.0373909E3,6.7418194E0,4.599039E0,3.6866833E2,4.4718857E1,5.6659827E2,3.4522216E0,3.289598E0,2.2297504E0,2.3692887E0,3.6724524E2,1.4231007E0,3.8996782E0,4.0819176E1,5.39023E2,2.7575235E1,1.9532857E0,1.4989359E0,1.1922717E0,1.0374788E0,2.4012508E0,1.4984275E0,3.2106216E1,8.712961E0,4.8398605E2,5.5036983E1,2.5793285E1,1.7819511E0,1.0698855E0,7.643076E0,2.7317865E2,2.1080737E2,5.3465008E1,1.571974E0],"tree_param":{"num_deleted":"0","num_feature":"12","num_nodes":"41","size_leaf_vector":"1"}},{"base_weights":[-5.1544374E-1,-7.876374E-1,2.936451E-1,-9.9808556E-1,2.9985452E-1,9.77579E-1,-4.1103266E-2,-2.9992548E-1,-3.1426233E-1,9.8981625E-1,-2.0212333E-1,8.913859E-2,-3.679352E-1,-1.40779335E-2,-2.9726872E-1,-1.7266533E-1,9.975561E-1,-1.2997828E0,1.4091592E-1,-7.571279E-1,1.4407479E-2,2.001039E-1,-2.1426037E-1,7.6604426E-2,3.005631E-1,-2.6468444E-1,-1.5692737E0,3.847715E-1,-2.0617008E-2,-8.4565437E-1,2.9665682E-1,4.3728408E-1,-1.0101267E0,-6.8445337E-1,-2.7452E-1,2.34525E-2,2.831794E-1,-3.743443E-2,2.0937447E-1,1.1218426E-1,-2.7487114E-1,2.6336327E-1,-2.1170923E-1,2.7385542E-1,3.0800675E-3,-1.6223454E-1,-3.2395464E-1],"categories":[],"categories_nodes":[],"categories_segments":[],"categories_sizes":[],"default_left":[0,0,0,0,0,0,0,0,0,0,0,0,0,0,0,0,0,0,0,0,0,0,0,0,0,0,0,0,0,0,0,0,0,0,0,0,0,0,0,0,0,0,0,0,0,0,0],"id":14,"left_children":[1,3,5,7,-1,9,11,-1,13,15,-1,17,19,21,-1,-1,23,25,27,29,31,-1,-1,-1,-1,-1,33,35,37,39,41,43,45,-1,-1,-1,-1,-1,-1,-1,-1,-1,-1,-1,-1,-1,-1],"loss_changes":[7.429737E2,9.50234E2,1.9457971E2,2.258789E0,0E0,6.310211E0,2.4357956E1,0E0,1.3971386E0,3.9376526E0,0E0,2.9626749E1,2.4270422E1,3.254834E0,0E0,0E0,6.312866E-1,2.8201294E-1,1.5591369E1,7.789406E0,3.6496696E1,0E0,0E0,0E0,0E0,0E0,1.5081978E0,2.6959719E1,1.7969454E1,6.782196E0,4.6992974E0,1.2094717E1,2.2154808E-1,0E0,0E0,0E0,0E0,0E0,0E0,0E0,0E0,0E0,0E0,0E0,0E0,0E0,0E0],"parents":[2147483647,0,0,1,1,2,2,3,3,5,5,6,6,8,8,9,9,11,11,12,12,13,13,16,16,17,17,18,18,19,19,20,20,26,26,27,27,28,28,29,29,30,30,31,31,32,32],"right_children":[2,4,6,8,-1,10,12,-1,14,16,-1,18,20,22,-1,-1,24,26,28,30,32,-1,-1,-1,-1,-1,34,36,38,40,42,44,46,-1,-1,-1,-1,-1,-1,-1,-1,-1,-1,-1,-1,-1,-1],"split_conditions":[1E0,1E0,3.511368E-5,3.888889E-1,2.9985452E-1,7.6E-2,9.501188E-3,-2.9992548E-1,5.555556E-1,5.167959E-3,-2.0212333E-1,8E-3,1.2E-2,1.4874253E-5,-2.9726872E-1,-1.7266533E-1,2.2929009E-2,4.4317406E-2,8.230452E-3,5.93921E-2,4.6E-2,2.001039E-1,-2.1426037E-1,7.6604426E-2,3.005631E-1,-2.6468444E-1,5.2735608E-2,1.5722585E-3,6.896552E-2,4.4870656E-2,6.0087472E-2,5.2822787E-2,5.8E-2,-6.8445337E-1,-2.7452E-1,2.34525E-2,2.831794E-1,-3.743443E-2,2.0937447E-1,1.1218426E-1,-2.7487114E-1,2.6336327E-1,-2.1170923E-1,2.7385542E-1,3.0800675E-3,-1.6223454E-1,-3.2395464E-1],"split_indices":[9,11,0,2,0,8,8,0,2,8,0,8,8,0,0,0,7,7,8,7,8,0,0,0,0,0,7,0,1,7,7,7,8,0,0,0,0,0,0,0,0,0,0,0,0,0,0],"split_type":[0,0,0,0,0,0,0,0,0,0,0,0,0,0,0,0,0,0,0,0,0,0,0,0,0,0,0,0,0,0,0,0,0,0,0,0,0,0,0,0,0,0,0,0,0,0,0],"sum_hessian":[3.3715933E3,2.5228743E3,8.48719E2,2.2574834E3,2.6539096E2,2.7826584E2,5.704531E2,2.2515361E3,5.9472456E0,2.7661655E2,1.6493013E0,4.084242E2,1.6202893E2,4.8267097E0,1.1205356E0,1.0000253E0,2.7561652E2,1.3812123E1,3.9461206E2,7.9809425E1,8.2219505E1,2.4705818E0,2.3561282E0,1.9430932E0,2.7367343E2,7.0947156E0,6.717407E0,1.5668823E2,2.3792384E2,7.380658E1,6.0028462E0,5.860392E1,2.3615585E1,2.025162E0,4.6922455E0,1.01935265E2,5.4752964E1,2.085212E2,2.9402647E1,3.802641E0,7.000394E1,3.878222E0,2.1246245E0,2.7187534E1,3.1416386E1,4.186919E0,1.9428667E1],"tree_param":{"num_deleted":"0","num_feature":"12","num_nodes":"47","size_leaf_vector":"1"}},{"base_weights":[-4.9081263E-1,-7.867498E-1,2.3781148E-1,-9.971393E-1,2.9921025E-1,9.6961516E-1,-3.827731E-2,-2.9970205E-1,-3.1187105E-1,-1.8562232E-1,9.921948E-1,-7.6164484E-1,9.339988E-3,7.921878E-2,-2.0725037E-1,7.799663E-2,-1.6519946E-1,2.9967895E-1,-3.2605354E-2,1.23325475E-1,-8.7140256E-1,6.3859296E-1,-5.4552134E-2,9.171083E-2,-5.977465E-2,-1.82367E-1,1.9170998E-1,-2.8698364E-1,-5.769743E-1,1.3113384E-4,9.522356E-1,-1.3013504E0,-9.3210945E-3,1.9080035E-1,-2.631831E-1,-1.2093937E-1,2.2730081E-1,3.0052686E-1,5.4152645E-2,1.7930884E-3,-5.409802E-1,1.1194305E-2,-2.823937E-1],"categories":[],"categories_nodes":[],"categories_segments":[],"categories_sizes":[],"default_left":[0,0,0,0,0,0,0,0,0,0,0,0,0,0,0,0,0,0,0,0,0,0,0,0,0,0,0,0,0,0,0,0,0,0,0,0,0,0,0,0,0,0,0],"id":15,"left_children":[1,3,5,7,-1,9,11,-1,13,15,17,19,21,23,-1,-1,-1,-1,-1,25,27,29,31,-1,-1,-1,-1,-1,33,35,37,39,41,-1,-1,-1,-1,-1,-1,-1,-1,-1,-1],"loss_changes":[5.6772205E2,7.036727E2,1.5379343E2,1.8320312E0,0E0,5.622818E0,1.9072659E1,0E0,9.449148E-1,9.303896E-1,1.6260223E0,3.4291763E0,2.0953629E1,3.039129E-1,0E0,0E0,0E0,0E0,0E0,2.1417148E0,2.1446228E-1,9.619745E0,2.6677593E1,0E0,0E0,0E0,0E0,0E0,3.9733882E0,5.4453616E0,1.0502834E0,1.0877604E1,1.992902E1,0E0,0E0,0E0,0E0,0E0,0E0,0E0,0E0,0E0,0E0],"parents":[2147483647,0,0,1,1,2,2,3,3,5,5,6,6,8,8,9,9,10,10,11,11,12,12,13,13,19,19,20,20,21,21,22,22,28,28,29,29,30,30,31,31,32,32],"right_children":[2,4,6,8,-1,10,12,-1,14,16,18,20,22,24,-1,-1,-1,-1,-1,26,28,30,32,-1,-1,-1,-1,-1,34,36,38,40,42,-1,-1,-1,-1,-1,-1,-1,-1,-1,-1],"split_conditions":[1E0,1E0,3.511368E-5,3.888889E-1,2.9921025E-1,3.1104397E-2,3.5975695E-2,-2.9970205E-1,2.2929009E-2,7.434944E-3,6.4E-2,8.215794E-3,4.520321E-2,9.501188E-3,-2.0725037E-1,7.799663E-2,-1.6519946E-1,2.9967895E-1,-3.2605354E-2,3.3333334E-1,2.5312796E-2,4.4638548E-2,5.260331E-2,9.171083E-2,-5.977465E-2,-1.82367E-1,1.9170998E-1,-2.8698364E-1,3.164763E-2,1.5722585E-3,9.195402E-3,8.230452E-3,6.0087472E-2,1.9080035E-1,-2.631831E-1,-1.2093937E-1,2.2730081E-1,3.0052686E-1,5.4152645E-2,1.7930884E-3,-5.409802E-1,1.1194305E-2,-2.823937E-1],"split_indices":[9,11,0,2,0,7,7,0,7,8,8,7,7,8,0,0,0,0,0,10,7,7,7,0,0,0,0,0,7,0,1,8,7,0,0,0,0,0,0,0,0,0,0],"split_type":[0,0,0,0,0,0,0,0,0,0,0,0,0,0,0,0,0,0,0,0,0,0,0,0,0,0,0,0,0,0,0,0,0,0,0,0,0,0,0,0,0,0,0],"sum_hessian":[2.6310225E3,1.8710138E3,7.600086E2,1.6740455E3,1.969683E2,2.0749866E2,5.5250995E2,1.6690392E3,5.0063095E0,3.8394756E0,2.0365918E2,3.3197803E1,5.1931213E2,2.8529885E0,2.1533213E0,1.8585322E0,1.9809436E0,2.0251283E2,1.1463386E0,3.649386E0,2.954842E1,4.703958E1,4.7227258E2,1.5194124E0,1.333576E0,1.4354007E0,2.2139852E0,2.1172035E1,8.376384E0,1.5825355E1,3.1214228E1,1.5560996E1,4.5671158E2,1.440417E0,6.9359665E0,1.0632936E1,5.192419E0,2.9051935E1,2.162291E0,4.5910163E0,1.096998E1,4.358617E2,2.0849901E1],"tree_param":{"num_deleted":"0","num_feature":"12","num_nodes":"43","size_leaf_vector":"1"}},{"base_weights":[-4.592184E-1,-2.9991126E-1,-6.1767563E-2,-2.0909193E-1,2.9849926E-1,-9.8330814E-1,1.9300187E-1,-9.922227E-1,-9.335154E-2,9.586853E-1,-2.8882599E-2,-1.5750863E-3,-2.9850173E-1,1.6938774E-1,-4.857149E-1,-2.1156493E-1,9.854472E-1,-3.7878E-1,-3.469636E-3,-3.7733514E-2,-1.7761159E-1,6.168389E-2,-1.8746218E-1,2.98628E-1,-3.8925935E-2,8.767348E-3,-2.813596E-1],"categories":[],"categories_nodes":[],"categories_segments":[],"categories_sizes":[],"default_left":[0,0,0,0,0,0,0,0,0,0,0,0,0,0,0,0,0,0,0,0,0,0,0,0,0,0,0],"id":16,"left_children":[1,-1,3,5,-1,7,9,11,13,15,17,-1,-1,-1,19,21,23,-1,25,-1,-1,-1,-1,-1,-1,-1,-1],"loss_changes":[4.47549E2,0E0,1.8731158E2,3.2879807E2,0E0,2.7713318E0,1.18203255E2,9.761658E-1,1.4834864E0,5.103882E0,1.6934542E1,0E0,0E0,0E0,5.839914E-2,8.730007E-1,1.8318481E0,0E0,1.622992E1,0E0,0E0,0E0,0E0,0E0,0E0,0E0,0E0],"parents":[2147483647,0,0,2,2,3,3,5,5,6,6,7,7,8,8,9,9,10,10,14,14,15,15,16,16,18,18],"right_children":[2,-1,4,6,-1,8,10,12,14,16,18,-1,-1,-1,20,22,24,-1,26,-1,-1,-1,-1,-1,-1,-1,-1],"split_conditions":[1.875E-1,-2.9991126E-1,1E0,1E0,2.9849926E-1,3.888889E-1,3.511368E-5,1.8921262E-2,9.775558E-6,2.5312796E-2,8E-3,-1.5750863E-3,-2.9850173E-1,1.6938774E-1,2.2929009E-2,7.434944E-3,6.4E-2,-3.7878E-1,4.6E-2,-3.7733514E-2,-1.7761159E-1,6.168389E-2,-1.8746218E-1,2.98628E-1,-3.8925935E-2,8.767348E-3,-2.813596E-1],"split_indices":[5,0,11,9,0,2,0,7,0,7,8,0,0,0,7,8,8,0,8,0,0,0,0,0,0,0,0],"split_type":[0,0,0,0,0,0,0,0,0,0,0,0,0,0,0,0,0,0,0,0,0,0,0,0,0,0,0],"sum_hessian":[2.0826892E3,8.8189795E2,1.2007913E3,1.0545743E3,1.4621683E2,3.5998724E2,6.9458716E2,3.5630328E2,3.6839569E0,1.5531215E2,5.3927496E2,1.0099612E0,3.5529333E2,1.212166E0,2.471791E0,3.3179672E0,1.5199419E2,9.9015875E0,5.293734E2,1.0614502E0,1.4103407E0,1.9013447E0,1.4166225E0,1.5075256E2,1.2416171E0,5.12413E2,1.69604E1],"tree_param":{"num_deleted":"0","num_feature":"12","num_nodes":"27","size_leaf_vector":"1"}},{"base_weights":[-4.2169863E-1,-2.9974005E-1,-5.421586E-2,-1.7863062E-1,2.9765987E-1,-9.783404E-1,1.5096723E-1,-9.89169E-1,-8.29636E-2,9.4529134E-1,-2.320052E-2,-1.3388986E-3,-2.9787108E-1,1.0652354E-1,-1.7605746E-1,-1.5247652E-1,9.796122E-1,2.1942283E-1,-1.2580743E-1,-1.7724901E-1,5.0232112E-2,2.9727417E-1,-2.1117432E-2,7.913964E-2,-3.5972455E-1,-1.2244849E-1,5.1878247E-2],"categories":[],"categories_nodes":[],"categories_segments":[],"categories_sizes":[],"default_left":[0,0,0,0,0,0,0,0,0,0,0,0,0,0,0,0,0,0,0,0,0,0,0,0,0,0,0],"id":17,"left_children":[1,-1,3,5,-1,7,9,11,13,15,17,-1,-1,-1,-1,19,21,23,25,-1,-1,-1,-1,-1,-1,-1,-1],"loss_changes":[3.5717E2,0E0,1.3424738E2,2.4296674E2,0E0,2.5260925E0,9.03927E1,9.7262573E-1,1.1588223E0,4.5761795E0,1.3389374E1,0E0,0E0,0E0,0E0,7.198074E-1,1.4233856E0,1.0380813E1,3.1941154E1,0E0,0E0,0E0,0E0,0E0,0E0,0E0,0E0],"parents":[2147483647,0,0,2,2,3,3,5,5,6,6,7,7,8,8,9,9,10,10,15,15,16,16,17,17,18,18],"right_children":[2,-1,4,6,-1,8,10,12,14,16,18,-1,-1,-1,-1,20,22,24,26,-1,-1,-1,-1,-1,-1,-1,-1],"split_conditions":[1.875E-1,-2.9974005E-1,1E0,1E0,2.9765987E-1,3.888889E-1,3.511368E-5,1.8921262E-2,1.4874253E-5,3.1104397E-2,1.5720022E-3,-1.3388986E-3,-2.9787108E-1,1.0652354E-1,-1.7605746E-1,3.3333334E-1,6.4E-2,5.8E-2,1.5722585E-3,-1.7724901E-1,5.0232112E-2,2.9727417E-1,-2.1117432E-2,7.913964E-2,-3.5972455E-1,-1.2244849E-1,5.1878247E-2],"split_indices":[5,0,11,9,0,2,0,7,0,7,0,0,0,0,0,10,8,8,0,0,0,0,0,0,0,0,0],"split_type":[0,0,0,0,0,0,0,0,0,0,0,0,0,0,0,0,0,0,0,0,0,0,0,0,0,0,0],"sum_hessian":[1.6824528E3,6.5364514E2,1.0288076E3,9.202256E2,1.0858199E2,2.6800107E2,6.5222455E2,2.646951E2,3.3059597E0,1.16495926E2,5.3572864E2,1.0083736E0,2.6368674E2,1.9265321E0,1.3794276E0,3.427362E0,1.13068565E2,1.5888712E2,3.768415E2,1.0887381E0,2.338624E0,1.1192019E2,1.1483749E0,1.5485667E2,4.030447E0,1.9354396E2,1.8329753E2],"tree_param":{"num_deleted":"0","num_feature":"12","num_nodes":"27","size_leaf_vector":"1"}},{"base_weights":[-3.8077688E-1,-2.9953802E-1,-4.6931677E-2,-1.5019576E-1,2.9662147E-1,-9.725102E-1,1.1669552E-1,-9.851767E-1,-8.429437E-2,9.270741E-1,-1.9007627E-2,-1.1381176E-3,-2.970537E-1,9.182733E-2,-1.6287538E-1,-1.4197466E-1,9.7024226E-1,8.957315E-3,-9.0182066E-1,6.2051043E-2,-1.4540483E-1,2.9549217E-1,-1.7718289E-2,-2.0020574E-2,2.6104724E-1,-2.8703335E-1,-3.145686E-2],"categories":[],"categories_nodes":[],"categories_segments":[],"categories_sizes":[],"default_left":[0,0,0,0,0,0,0,0,0,0,0,0,0,0,0,0,0,0,0,0,0,0,0,0,0,0,0],"id":18,"left_children":[1,-1,3,5,-1,7,9,11,13,15,17,-1,-1,-1,-1,19,21,23,25,-1,-1,-1,-1,-1,-1,-1,-1],"loss_changes":[2.8533844E2,0E0,9.634125E1,1.79805E2,0E0,2.1752625E0,6.8092674E1,9.673462E-1,8.6727434E-1,4.236305E0,1.3122643E1,0E0,0E0,0E0,0E0,6.165899E-1,1.3545227E0,3.3687473E1,6.1449814E-1,0E0,0E0,0E0,0E0,0E0,0E0,0E0,0E0],"parents":[2147483647,0,0,2,2,3,3,5,5,6,6,7,7,8,8,9,9,10,10,15,15,16,16,17,17,18,18],"right_children":[2,-1,4,6,-1,8,10,12,14,16,18,-1,-1,-1,-1,20,22,24,26,-1,-1,-1,-1,-1,-1,-1,-1],"split_conditions":[1.875E-1,-2.9953802E-1,1E0,1E0,2.9662147E-1,3.888889E-1,3.511368E-5,1.8921262E-2,1.4874253E-5,3.1104397E-2,6.0087472E-2,-1.1381176E-3,-2.970537E-1,9.182733E-2,-1.6287538E-1,8.230452E-3,6.4E-2,5.5708464E-2,7.018513E-2,6.2051043E-2,-1.4540483E-1,2.9549217E-1,-1.7718289E-2,-2.0020574E-2,2.6104724E-1,-2.8703335E-1,-3.145686E-2],"split_indices":[5,0,11,9,0,2,0,7,0,7,7,0,0,0,0,8,8,7,7,0,0,0,0,0,0,0,0],"split_type":[0,0,0,0,0,0,0,0,0,0,0,0,0,0,0,0,0,0,0,0,0,0,0,0,0,0,0],"sum_hessian":[1.382951E3,4.8451205E2,8.9843896E2,8.177574E2,8.068159E1,1.9972966E2,6.180277E2,1.9681383E2,2.9158409E0,8.781159E1,5.302161E2,1.0070258E0,1.958068E2,1.7547584E0,1.1610824E0,3.3193703E0,8.449222E1,5.1489557E2,1.5320538E1,1.8415189E0,1.4778514E0,8.334247E1,1.1497502E0,4.741446E2,4.0750984E1,1.4144623E1,1.1759148E0],"tree_param":{"num_deleted":"0","num_feature":"12","num_nodes":"27","size_leaf_vector":"1"}},{"base_weights":[-3.3873758E-1,-2.9928887E-1,-3.830452E-2,-1.2358931E-1,2.953003E-1,-9.6496326E-1,9.367137E-2,-9.7991896E-1,-8.595321E-2,9.045623E-1,-1.27767585E-2,-9.674441E-4,-2.9598075E-1,7.718917E-2,-1.4615974E-1,-1.19635984E-1,9.466371E-1,-3.6817798E-1,7.029006E-3,9.963343E-2,2.943047E-1,8.163851E-2,-3.1305432E-2],"categories":[],"categories_nodes":[],"categories_segments":[],"categories_sizes":[],"default_left":[0,0,0,0,0,0,0,0,0,0,0,0,0,0,0,0,0,0,0,0,0,0,0],"id":19,"left_children":[1,-1,3,5,-1,7,9,11,13,15,17,-1,-1,-1,-1,-1,19,-1,21,-1,-1,-1,-1],"loss_changes":[2.2766129E2,0E0,6.9116035E1,1.3372859E2,0E0,1.8893433E0,5.024403E1,9.597626E-1,6.222316E-1,4.081459E0,1.2406051E1,0E0,0E0,0E0,0E0,0E0,1.0627823E0,0E0,1.5031854E1,0E0,0E0,0E0,0E0],"parents":[2147483647,0,0,2,2,3,3,5,5,6,6,7,7,8,8,9,9,10,10,16,16,18,18],"right_children":[2,-1,4,6,-1,8,10,12,14,16,18,-1,-1,-1,-1,-1,20,-1,22,-1,-1,-1,-1],"split_conditions":[1.875E-1,-2.9928887E-1,1E0,1E0,2.953003E-1,3.888889E-1,3.511368E-5,1.8921262E-2,1.43845855E-5,3.3333334E-1,8E-3,-9.674441E-4,-2.9598075E-1,7.718917E-2,-1.4615974E-1,-1.19635984E-1,3.75E-1,-3.6817798E-1,8.230452E-3,9.963343E-2,2.943047E-1,8.163851E-2,-3.1305432E-2],"split_indices":[5,0,11,9,0,2,0,7,0,10,8,0,0,0,0,0,5,0,8,0,0,0,0],"split_type":[0,0,0,0,0,0,0,0,0,0,0,0,0,0,0,0,0,0,0,0,0,0,0],"sum_hessian":[1.1492709E3,3.5919186E2,7.90079E2,7.3007245E2,6.0006542E1,1.4912447E2,5.80948E2,1.465168E2,2.60767E0,6.6543236E1,5.144047E2,1.0058817E0,1.4551093E2,1.5987529E0,1.0089172E0,1.815847E0,6.472739E1,7.2760315E0,5.071287E2,3.9939933E0,6.073339E1,1.4960558E2,3.5752313E2],"tree_param":{"num_deleted":"0","num_feature":"12","num_nodes":"23","size_leaf_vector":"1"}},{"base_weights":[-2.9355854E-1,-2.9897216E-1,-3.179137E-2,-1.001875E-1,2.9359415E-1,-9.5507497E-1,7.106522E-2,-9.729809E-1,-8.647359E-2,8.7561107E-1,-1.0587442E-2,-8.223669E-4,-2.9456422E-1,5.1899884E-2,-1.04116045E-1,-1.6722582E-1,9.468473E-1,-6.5750474E-1,1.9696891E-2,5.3939093E-2,-1.4562878E-1,2.908705E-1,-1.607478E-2,6.188656E-2,-2.4020462E-1,1.8962993E-1,-8.834016E-3],"categories":[],"categories_nodes":[],"categories_segments":[],"categories_sizes":[],"default_left":[0,0,0,0,0,0,0,0,0,0,0,0,0,0,0,0,0,0,0,0,0,0,0,0,0,0,0],"id":20,"left_children":[1,-1,3,5,-1,7,9,11,13,15,17,-1,-1,-1,-1,19,21,23,25,-1,-1,-1,-1,-1,-1,-1,-1],"loss_changes":[1.813146E2,0E0,4.9795002E1,9.8803604E1,0E0,1.6674957E0,3.6981037E1,9.4932556E-1,2.880552E-1,4.0113983E0,1.0042343E1,0E0,0E0,0E0,0E0,5.473446E-1,1.1589432E0,3.0001068E0,1.4765633E1,0E0,0E0,0E0,0E0,0E0,0E0,0E0,0E0],"parents":[2147483647,0,0,2,2,3,3,5,5,6,6,7,7,8,8,9,9,10,10,15,15,16,16,17,17,18,18],"right_children":[2,-1,4,6,-1,8,10,12,14,16,18,-1,-1,-1,-1,20,22,24,26,-1,-1,-1,-1,-1,-1,-1,-1],"split_conditions":[1.875E-1,-2.9897216E-1,1E0,1E0,2.9359415E-1,3.888889E-1,3.511368E-5,1.8921262E-2,1.2814949E-5,3.1104397E-2,3.5975695E-2,-8.223669E-4,-2.9456422E-1,5.1899884E-2,-1.04116045E-1,7.434944E-3,5.0847456E-2,8.215794E-3,4.4870656E-2,5.3939093E-2,-1.4562878E-1,2.908705E-1,-1.607478E-2,6.188656E-2,-2.4020462E-1,1.8962993E-1,-8.834016E-3],"split_indices":[5,0,11,9,0,2,0,7,0,7,7,0,0,0,0,8,8,7,7,0,0,0,0,0,0,0,0],"split_type":[0,0,0,0,0,0,0,0,0,0,0,0,0,0,0,0,0,0,0,0,0,0,0,0,0,0,0],"sum_hessian":[9.844367E2,2.663382E2,7.180985E2,6.7341614E2,4.468239E1,1.1162269E2,5.6179346E2,1.0925036E2,2.3723316E0,5.0866676E1,5.109268E2,1.0049101E0,1.08245445E2,1.3570963E0,1.0152353E0,3.1663642E0,4.7700314E1,2.1922358E1,4.8900443E2,1.7226537E0,1.4437106E0,4.6671204E1,1.0291085E0,3.054382E0,1.8867977E1,3.5444958E1,4.5355948E2],"tree_param":{"num_deleted":"0","num_feature":"12","num_nodes":"27","size_leaf_vector":"1"}},{"base_weights":[-2.5022116E-1,-2.985615E-1,-2.5485432E-2,-8.009322E-2,2.9137775E-1,-9.4140905E-1,5.4929566E-2,-9.6384275E-1,-7.9649664E-2,8.4171194E-1,-7.892246E-3,-6.990231E-4,-2.9269215E-1,3.513782E-2,-7.6925054E-2,-1.8493733E-1,9.2332244E-1,1.4502868E-2,-8.6369175E-1,5.1310733E-2,-1.6816103E-1,2.8693494E-1,-3.6238696E-2,-1.024726E-2,2.9212493E-1,-2.7954325E-1,-2.4797136E-2],"categories":[],"categories_nodes":[],"categories_segments":[],"categories_sizes":[],"default_left":[0,0,0,0,0,0,0,0,0,0,0,0,0,0,0,0,0,0,0,0,0,0,0,0,0,0,0],"id":21,"left_children":[1,-1,3,5,-1,7,9,11,13,15,17,-1,-1,-1,-1,19,21,23,25,-1,-1,-1,-1,-1,-1,-1,-1],"loss_changes":[1.434253E2,0E0,3.5961662E1,7.2847694E1,0E0,1.5642166E0,2.6799318E1,9.351578E-1,1.4286117E-1,3.529789E0,9.652383E0,0E0,0E0,0E0,0E0,6.019865E-1,1.4058838E0,2.2957933E1,6.062689E-1,0E0,0E0,0E0,0E0,0E0,0E0,0E0,0E0],"parents":[2147483647,0,0,2,2,3,3,5,5,6,6,7,7,8,8,9,9,10,10,15,15,16,16,17,17,18,18],"right_children":[2,-1,4,6,-1,8,10,12,14,16,18,-1,-1,-1,-1,20,22,24,26,-1,-1,-1,-1,-1,-1,-1,-1],"split_conditions":[1.875E-1,-2.985615E-1,1E0,1E0,2.9137775E-1,3.888889E-1,3.511368E-5,1.8921262E-2,1.22300835E-5,2.5312796E-2,6.0087472E-2,-6.990231E-4,-2.9269215E-1,3.513782E-2,-7.6925054E-2,2.5E-1,6.4E-2,5.93921E-2,7.018513E-2,5.1310733E-2,-1.6816103E-1,2.8693494E-1,-3.6238696E-2,-1.024726E-2,2.9212493E-1,-2.7954325E-1,-2.4797136E-2],"split_indices":[5,0,11,9,0,2,0,7,0,7,7,0,0,0,0,5,8,7,7,0,0,0,0,0,0,0,0],"split_type":[0,0,0,0,0,0,0,0,0,0,0,0,0,0,0,0,0,0,0,0,0,0,0,0,0,0,0],"sum_hessian":[8.558081E2,1.9754184E2,6.582663E2,6.2494745E2,3.3318813E1,8.388289E1,5.410646E2,8.163916E1,2.243726E0,3.909087E1,5.019737E2,1.0040848E0,8.063508E1,1.2214345E0,1.0222917E0,2.7853575E0,3.630551E1,4.901307E2,1.1843003E1,1.7096628E0,1.0756947E0,3.5270435E1,1.0350792E0,4.6738568E2,2.2745016E1,1.0715398E1,1.1276057E0],"tree_param":{"num_deleted":"0","num_feature":"12","num_nodes":"27","size_leaf_vector":"1"}},{"base_weights":[-2.0893776E-1,-2.9802245E-1,-1.9339561E-2,-6.261811E-2,2.885078E-1,-9.2327344E-1,4.3309335E-2,-9.51866E-1,-7.055251E-2,8.0143577E-1,-4.8268517E-3,-5.9419515E-4,-2.902238E-1,2.7835377E-2,-6.367884E-2,-1.1202056E-1,8.7815124E-1,1.4445601E-2,-3.0578926E-1,3.7709042E-2,2.8646827E-1,-1.19357165E-2,2.122287E-1],"categories":[],"categories_nodes":[],"categories_segments":[],"categories_sizes":[],"default_left":[0,0,0,0,0,0,0,0,0,0,0,0,0,0,0,0,0,0,0,0,0,0,0],"id":22,"left_children":[1,-1,3,5,-1,7,9,11,13,15,17,-1,-1,-1,-1,-1,19,21,-1,-1,-1,-1,-1],"loss_changes":[1.1275906E2,0E0,2.6030842E1,5.353474E1,0E0,1.5017776E0,1.910549E1,9.1635513E-1,9.301724E-2,3.1449642E0,9.656894E0,0E0,0E0,0E0,0E0,0E0,1.5914726E0,1.8253754E1,0E0,0E0,0E0,0E0,0E0],"parents":[2147483647,0,0,2,2,3,3,5,5,6,6,7,7,8,8,9,9,10,10,16,16,17,17],"right_children":[2,-1,4,6,-1,8,10,12,14,16,18,-1,-1,-1,-1,-1,20,22,-1,-1,-1,-1,-1],"split_conditions":[1.875E-1,-2.9802245E-1,1E0,1E0,2.885078E-1,3.888889E-1,3.511368E-5,1.8921262E-2,1.1991152E-5,3.3333334E-1,5.8E-2,-5.9419515E-4,-2.902238E-1,2.7835377E-2,-6.367884E-2,-1.1202056E-1,3.75E-1,1.6E-2,-3.0578926E-1,3.7709042E-2,2.8646827E-1,-1.19357165E-2,2.122287E-1],"split_indices":[5,0,11,9,0,2,0,7,0,10,8,0,0,0,0,0,5,8,0,0,0,0,0],"split_type":[0,0,0,0,0,0,0,0,0,0,0,0,0,0,0,0,0,0,0,0,0,0,0],"sum_hessian":[7.572541E2,1.4657101E2,6.106831E2,5.857775E2,2.4905588E1,6.3349533E1,5.22428E2,6.1181778E1,2.1677535E0,3.0256136E1,4.9217184E2,1.003384E0,6.0178394E1,1.1674206E0,1.0003327E0,1.617533E0,2.8638603E1,4.8396347E2,8.208358E0,2.894666E0,2.5743937E1,4.4971255E2,3.4250908E1],"tree_param":{"num_deleted":"0","num_feature":"12","num_nodes":"23","size_leaf_vector":"1"}},{"base_weights":[-1.7059791E-1,-2.973099E-1,-1.5761472E-2,1.786458E-2,-2.9544044E-1,-1.573294E-2,2.8480873E-1,-8.264589E-1,3.5085022E-2,-3.9138533E-2,-2.890763E-1,7.643736E-1,-1.5951451E-3,2.9781997E-1,-1.8129475E-1,3.5222415E-3,2.722208E-1,2.4334058E-2,-7.512553E-2],"categories":[],"categories_nodes":[],"categories_segments":[],"categories_sizes":[],"default_left":[0,0,0,0,0,0,0,0,0,0,0,0,0,0,0,0,0,0,0],"id":23,"left_children":[1,-1,3,5,-1,7,-1,9,11,13,-1,15,17,-1,-1,-1,-1,-1,-1],"loss_changes":[8.785952E1,0E0,1.9012733E1,1.7677586E1,0E0,2.251195E1,0E0,3.4418983E0,1.3763801E1,3.9958947E0,0E0,2.641715E0,1.0121755E1,0E0,0E0,0E0,0E0,0E0,0E0],"parents":[2147483647,0,0,2,2,3,3,5,5,7,7,8,8,9,9,11,11,12,12],"right_children":[2,-1,4,6,-1,8,-1,10,12,14,-1,16,18,-1,-1,-1,-1,-1,-1],"split_conditions":[1.875E-1,-2.973099E-1,4.5454547E-1,1E0,-2.9544044E-1,1E0,2.8480873E-1,6E-1,3.511368E-5,1.2E-2,-2.890763E-1,3.75E-1,9.501188E-3,2.9781997E-1,-1.8129475E-1,3.5222415E-3,2.722208E-1,2.4334058E-2,-7.512553E-2],"split_indices":[5,0,6,11,0,9,0,4,0,8,0,5,8,0,0,0,0,0,0],"split_type":[0,0,0,0,0,0,0,0,0,0,0,0,0,0,0,0,0,0,0],"sum_hessian":[6.907491E2,1.0880756E2,5.8194147E2,5.633738E2,1.8567717E1,5.4471014E2,1.8663645E1,3.1229305E1,5.1348083E2,4.82309E0,2.6406216E1,2.3639175E1,4.8984164E2,1.4391198E0,3.38397E0,3.9477608E0,1.9691414E1,3.6814465E2,1.21697E2],"tree_param":{"num_deleted":"0","num_feature":"12","num_nodes":"19","size_leaf_vector":"1"}},{"base_weights":[-1.3712789E-1,-2.963655E-1,-1.2571053E-2,1.3676239E-2,-2.9222834E-1,-1.23561295E-2,2.8010282E-1,-7.9039377E-1,2.6141247E-2,-1.3910832E-2,-2.8557837E-1,2.4183756E-1,-8.028982E-2,2.1843366E-1,-2.0050937E-1,8.1224546E-2,-3.2593766E-1,-9.13946E-2,4.235296E-2],"categories":[],"categories_nodes":[],"categories_segments":[],"categories_sizes":[],"default_left":[0,0,0,0,0,0,0,0,0,0,0,0,0,0,0,0,0,0,0],"id":24,"left_children":[1,-1,3,5,-1,7,-1,9,11,13,-1,15,17,-1,-1,-1,-1,-1,-1],"loss_changes":[6.789672E1,0E0,1.41467285E1,1.3091078E1,0E0,1.5957824E1,0E0,3.1372995E0,1.1680652E1,3.0800455E0,0E0,6.748846E0,1.6980808E1,0E0,0E0,0E0,0E0,0E0,0E0],"parents":[2147483647,0,0,2,2,3,3,5,5,7,7,8,8,9,9,11,11,12,12],"right_children":[2,-1,4,6,-1,8,-1,10,12,14,-1,16,18,-1,-1,-1,-1,-1,-1],"split_conditions":[1.875E-1,-2.963655E-1,4.5454547E-1,1E0,-2.9222834E-1,1E0,2.8010282E-1,6E-1,1.5720022E-3,5.8E-2,-2.8557837E-1,7.6E-2,1.5722585E-3,2.1843366E-1,-2.0050937E-1,8.1224546E-2,-3.2593766E-1,-9.13946E-2,4.235296E-2],"split_indices":[5,0,6,11,0,9,0,4,0,8,0,8,0,0,0,0,0,0,0],"split_type":[0,0,0,0,0,0,0,0,0,0,0,0,0,0,0,0,0,0,0],"sum_hessian":[6.398481E2,8.082949E1,5.590186E2,5.451238E2,1.38948E1,5.310828E2,1.4040981E1,2.4118254E1,5.0696457E2,4.3403955E0,1.9777859E1,1.6708102E2,3.3988354E2,1.9813645E0,2.3590307E0,1.6430112E2,2.7799113E0,1.686526E2,1.7123094E2],"tree_param":{"num_deleted":"0","num_feature":"12","num_nodes":"19","size_leaf_vector":"1"}},{"base_weights":[-1.10668875E-1,-2.951139E-1,-1.2585456E-2,1.2750561E-2,-7.9516536E-1,-1.6396515E-2,1.0718755E0,-2.9113388E-1,-1.636904E-1,1.0467239E-1,-1.830357E-1,1.5447114E0,-8.420396E-2,4.0334696E-1,-2.814927E-1,3.478869E-2,5.080886E-1,-3.2602376E-1,2.9217693E-1,-2.8814096E-2,1.8206031E0,1.698356E-1,-1.3024658E-1,1.8989523E-1,-2.5429465E-3,3.5116732E-2,-2.2551966E-1,-6.8799615E-2,2.0380133E-1,5.1072977E-2,-1.6044912E-1,2.132659E-1,-1.5180188E-1,2.4728744E-1,6.1681676E-1,1.0393317E-1,-2.9829377E-2],"categories":[],"categories_nodes":[],"categories_segments":[],"categories_sizes":[],"default_left":[0,0,0,0,0,0,0,0,0,0,0,0,0,0,0,0,0,0,0,0,0,0,0,0,0,0,0,0,0,0,0,0,0,0,0,0,0],"id":25,"left_children":[1,-1,3,5,7,9,11,-1,13,15,17,19,21,23,-1,25,27,29,31,-1,33,35,-1,-1,-1,-1,-1,-1,-1,-1,-1,-1,-1,-1,-1,-1,-1],"loss_changes":[5.180248E1,0E0,1.0815952E1,1.6344488E1,1.7345991E0,1.04234295E1,7.8814545E0,0E0,2.5393312E0,8.421115E0,1.4865841E1,4.753948E0,5.239743E-1,3.4011847E-1,0E0,1.6665825E1,5.7277946E0,1.7455254E1,1.7339298E1,0E0,3.483696E-1,2.0817247E-1,0E0,0E0,0E0,0E0,0E0,0E0,0E0,0E0,0E0,0E0,0E0,0E0,0E0,0E0,0E0],"parents":[2147483647,0,0,2,2,3,3,4,4,5,5,6,6,8,8,9,9,10,10,11,11,12,12,13,13,15,15,16,16,17,17,18,18,20,20,21,21],"right_children":[2,-1,4,6,8,10,12,-1,14,16,18,20,22,24,-1,26,28,30,32,-1,34,36,-1,-1,-1,-1,-1,-1,-1,-1,-1,-1,-1,-1,-1,-1,-1],"split_conditions":[1.875E-1,-2.951139E-1,4.6E-2,3.1E-2,5.5708464E-2,5.2865207E-2,5.296587E-2,-2.9113388E-1,7.6E-2,1.1E-2,5.3227104E-2,4.472467E-2,6.9287375E-2,5.9625953E-2,-2.814927E-1,9.501188E-3,6E-1,8.230452E-3,6.9287375E-2,-2.8814096E-2,5.269146E-2,3.8E-2,-1.3024658E-1,1.8989523E-1,-2.5429465E-3,3.5116732E-2,-2.2551966E-1,-6.8799615E-2,2.0380133E-1,5.1072977E-2,-1.6044912E-1,2.132659E-1,-1.5180188E-1,2.4728744E-1,6.1681676E-1,1.0393317E-1,-2.9829377E-2],"split_indices":[5,0,8,8,7,7,7,0,8,8,7,7,7,7,0,8,4,8,7,0,7,8,0,0,0,0,0,0,0,0,0,0,0,0,0,0,0],"split_type":[0,0,0,0,0,0,0,0,0,0,0,0,0,0,0,0,0,0,0,0,0,0,0,0,0,0,0,0,0,0,0,0,0,0,0,0,0],"sum_hessian":[6.040936E2,6.010121E1,5.4399243E2,5.278858E2,1.6106592E1,5.147057E2,1.3180161E1,1.2187006E1,3.9195855E0,2.983305E2,2.1637517E2,9.115686E0,4.064475E0,2.5397387E0,1.3798469E0,2.5520724E2,4.312326E1,1.6656953E2,4.980563E1,1.4059879E0,7.709698E0,2.6531594E0,1.4113157E0,1.2857583E0,1.2539803E0,2.318118E2,2.3395454E1,8.063147E0,3.5060112E1,4.938405E1,1.17185486E2,3.2740208E1,1.7065426E1,2.3340611E0,5.3756375E0,1.4291688E0,1.2239906E0],"tree_param":{"num_deleted":"0","num_feature":"12","num_nodes":"37","size_leaf_vector":"1"}},{"base_weights":[-9.074548E-2,-2.9345956E-1,-1.3194766E-2,5.5316803E-3,-2.8424126E-1,-9.3588006E-1,2.3261549E-2,3.4146406E-2,-3.4955347E-1,6.0292236E-3,2.693699E-1,-7.148603E-1,3.2276135E-2,2.685366E-2,-2.7850327E-1,2.1886332E-1,2.1653555E-3],"categories":[],"categories_nodes":[],"categories_segments":[],"categories_sizes":[],"default_left":[0,0,0,0,0,0,0,0,0,0,0,0,0,0,0,0,0],"id":26,"left_children":[1,-1,3,5,-1,7,9,-1,-1,11,-1,13,15,-1,-1,-1,-1],"loss_changes":[3.9173744E1,0E0,9.18421E0,8.623153E0,0E0,2.4312906E0,7.6327558E0,0E0,0E0,9.445644E0,0E0,3.094676E0,8.406874E0,0E0,0E0,0E0,0E0],"parents":[2147483647,0,0,2,2,3,3,5,5,6,6,9,9,11,11,12,12],"right_children":[2,-1,4,6,-1,8,10,-1,-1,12,-1,14,16,-1,-1,-1,-1],"split_conditions":[1.875E-1,-2.9345956E-1,4.5454547E-1,8E-3,-2.8424126E-1,2.3894977E-6,1E0,3.4146406E-2,-3.4955347E-1,1E0,2.693699E-1,6E-1,3.511368E-5,2.685366E-2,-2.7850327E-1,2.1886332E-1,2.1653555E-3],"split_indices":[5,0,6,8,0,0,11,0,0,9,0,4,0,0,0,0,0],"split_type":[0,0,0,0,0,0,0,0,0,0,0,0,0,0,0,0,0],"sum_hessian":[5.683863E2,4.4743988E1,5.236423E2,5.143273E2,9.314996E0,8.55015E0,5.0577713E2,1.6231511E0,6.926999E0,4.969922E2,8.784963E0,1.653767E1,4.804545E2,3.5903862E0,1.2947284E1,1.5692182E1,4.6476233E2],"tree_param":{"num_deleted":"0","num_feature":"12","num_nodes":"17","size_leaf_vector":"1"}},{"base_weights":[-7.14184E-2,-2.9128364E-1,-1.1093793E-2,4.301016E-3,-2.8205654E-1,-8.532041E-1,1.8328404E-2,1.9257125E-2,-3.312354E-1,1.6248803E-1,-7.445514E-2,3.873266E-2,5.052824E-1,2.2010903E-1,-2.1814413E-1,-5.3114865E-2,9.097243E-2,3.0999318E-1,-1.0910284E-1,3.6803637E-2,2.4241245E-1,-9.361908E-2,1.2682493E-1],"categories":[],"categories_nodes":[],"categories_segments":[],"categories_sizes":[],"default_left":[0,0,0,0,0,0,0,0,0,0,0,0,0,0,0,0,0,0,0,0,0,0,0],"id":27,"left_children":[1,-1,3,5,-1,7,9,-1,-1,11,13,15,17,19,21,-1,-1,-1,-1,-1,-1,-1,-1],"loss_changes":[2.9670963E1,0E0,7.3505545E0,6.105087E0,0E0,1.9513083E0,6.687615E0,0E0,0E0,8.284531E0,1.2929114E1,8.324429E0,2.416183E1,5.64508E0,1.24746475E1,0E0,0E0,0E0,0E0,0E0,0E0,0E0,0E0],"parents":[2147483647,0,0,2,2,3,3,5,5,6,6,9,9,10,10,11,11,12,12,13,13,14,14],"right_children":[2,-1,4,6,-1,8,10,-1,-1,12,14,16,18,20,22,-1,-1,-1,-1,-1,-1,-1,-1],"split_conditions":[1.875E-1,-2.9128364E-1,7.6E-2,8E-3,-2.8205654E-1,2.3894977E-6,5.2790053E-2,1.9257125E-2,-3.312354E-1,5.2744493E-2,8.230452E-3,3.6363637E-1,2.7272728E-1,4.0625E-1,5.5708464E-2,-5.3114865E-2,9.097243E-2,3.0999318E-1,-1.0910284E-1,3.6803637E-2,2.4241245E-1,-9.361908E-2,1.2682493E-1],"split_indices":[5,0,8,8,0,0,7,0,0,7,8,6,6,5,7,0,0,0,0,0,0,0,0],"split_type":[0,0,0,0,0,0,0,0,0,0,0,0,0,0,0,0,0,0,0,0,0,0,0],"sum_hessian":[5.4599146E2,3.3365677E1,5.126258E2,5.0524936E2,7.3764544E0,7.169156E0,4.980802E2,1.6995213E0,5.4696345E0,1.9474689E2,3.033333E2,1.4390675E2,5.084012E1,9.927878E1,2.0405453E2,7.94353E1,6.447146E1,3.1506102E1,1.9334017E1,8.620228E1,1.3076499E1,1.78421E2,2.5633526E1],"tree_param":{"num_deleted":"0","num_feature":"12","num_nodes":"23","size_leaf_vector":"1"}},{"base_weights":[-5.7903994E-2,-6.82727E-1,1.1163937E-2,-9.042826E-1,2.5793356E-1,-5.1125735E-1,3.2179E-2,-2.797338E-1,-2.2138011E-1,-2.338166E-3,-6.962857E-1,5.9055036E-1,-1.0146627E-2,3.45715E-2,-1.4179997E-1,-1.9140063E-1,3.443567E-1,-2.666679E-1,-2.707065E-1,7.658032E-2,2.8242415E-1,-5.7968545E-1,2.154532E-2,5.7918835E-1,-4.0564004E-2,2.882765E-1,-2.3438969E-1,-3.8364795E-1,4.8935413E-1,-7.224325E-1,2.284529E-1,7.0901114E-1,-1.4164877E-2,2.3924699E-2,2.4998496E-1,-2.2649187E-1,9.521827E-3,-1.4279794E-2,3.8283843E-1,-3.835512E-2,-2.8122327E-1,-7.881944E-2,3.6827424E-1,-2.6087305E-1,8.375017E-3],"categories":[],"categories_nodes":[],"categories_segments":[],"categories_sizes":[],"default_left":[0,0,0,0,0,0,0,0,0,0,0,0,0,0,0,0,0,0,0,0,0,0,0,0,0,0,0,0,0,0,0,0,0,0,0,0,0,0,0,0,0,0,0,0,0],"id":28,"left_children":[1,3,5,7,-1,9,11,-1,13,15,17,19,21,-1,-1,-1,23,-1,25,27,-1,29,31,33,-1,-1,-1,35,37,39,-1,41,43,-1,-1,-1,-1,-1,-1,-1,-1,-1,-1,-1,-1],"loss_changes":[2.283831E1,1.8779158E1,5.2572694E0,6.88797E-1,0E0,1.7422152E0,1.0873642E1,0E0,3.2133645E-1,1.5290198E0,8.7235117E-1,5.7739124E0,7.7454653E0,0E0,0E0,0E0,5.844041E-1,0E0,4.315376E0,2.893003E0,0E0,4.880558E0,9.996937E0,3.4039664E-1,0E0,0E0,0E0,1.1489747E0,3.4179254E0,2.5588245E0,0E0,1.0455031E1,1.3980289E1,0E0,0E0,0E0,0E0,0E0,0E0,0E0,0E0,0E0,0E0,0E0,0E0],"parents":[2147483647,0,0,1,1,2,2,3,3,5,5,6,6,8,8,9,9,10,10,11,11,12,12,16,16,18,18,19,19,21,21,22,22,23,23,27,27,28,28,29,29,31,31,32,32],"right_children":[2,4,6,8,-1,10,12,-1,14,16,18,20,22,-1,-1,-1,24,-1,26,28,-1,30,32,34,-1,-1,-1,36,38,40,-1,42,44,-1,-1,-1,-1,-1,-1,-1,-1,-1,-1,-1,-1],"split_conditions":[1E0,1E0,3.5975695E-2,3.888889E-1,2.5793356E-1,8.215794E-3,4.4870656E-2,-2.797338E-1,1.4017474E-5,3.3333334E-1,2.5312796E-2,4.4638548E-2,5.260331E-2,3.45715E-2,-1.4179997E-1,-1.9140063E-1,2.4096385E-2,-2.666679E-1,3.1691622E-2,8.230452E-3,2.8242415E-1,1.3E-2,5.267339E-2,6.671329E-8,-4.0564004E-2,2.882765E-1,-2.3438969E-1,4.4317406E-2,1.5722585E-3,8.230452E-3,2.284529E-1,8.230452E-3,5.2705724E-2,2.3924699E-2,2.4998496E-1,-2.2649187E-1,9.521827E-3,-1.4279794E-2,3.8283843E-1,-3.835512E-2,-2.8122327E-1,-7.881944E-2,3.6827424E-1,-2.6087305E-1,8.375017E-3],"split_indices":[9,11,7,2,0,7,7,0,0,10,7,7,7,0,0,0,8,0,7,8,0,8,7,0,0,0,0,7,0,8,0,8,7,0,0,0,0,0,0,0,0,0,0,0,0],"split_type":[0,0,0,0,0,0,0,0,0,0,0,0,0,0,0,0,0,0,0,0,0,0,0,0,0,0,0,0,0,0,0,0,0,0,0,0,0,0,0,0,0,0,0,0,0],"sum_hessian":[5.280364E2,5.1674866E1,4.763615E2,4.55466E1,6.128265E0,1.751912E1,4.588424E2,4.339168E1,2.1549191E0,4.9411526E0,1.2577967E1,3.1417784E1,4.2742462E2,1.1524825E0,1.0024366E0,1.4472969E0,3.4938555E0,7.9096007E0,4.6683655E0,1.3240462E1,1.817732E1,2.1618862E1,4.0580576E2,2.2059438E0,1.2879117E0,1.1096776E0,3.5586882E0,6.293733E0,6.946729E0,1.9956219E1,1.6626432E0,1.9107523E1,3.8669824E2,1.1868908E0,1.019053E0,2.8914657E0,3.4022672E0,4.687279E0,2.25945E0,5.7228394E0,1.4233379E1,6.8203287E0,1.2287194E1,1.7209467E1,3.6948877E2],"tree_param":{"num_deleted":"0","num_feature":"12","num_nodes":"45","size_leaf_vector":"1"}},{"base_weights":[-4.3495256E-2,-2.8490552E-1,-6.9519617E-3,5.5870447E-2,-1.9282869E-1,-4.5567233E-2,2.7926564E-1,-3.8332948E-1,1.6323064E-1,1.11115254E-1,-2.0741695E-1,4.81003E-1,1.6597964E-1,1.398629E-1,-6.0593957E-1,5.707983E-1,-5.1481867E-1,-2.2604424E-1,2.7331194E-1,-3.2208005E-1,1.8161446E-1,2.9196339E-2,6.2747234E-1,9.162383E-2,7.7217954E-1,5.949972E-1,-1.279048E-1,-6.7995787E-1,1.4632174E-1,-1.8365267E-1,6.6422164E-1,-2.5440273E-1,2.4698246E-1,-1.6206288E-1,1.1999033E-2,9.906602E-2,-2.5995582E-1,-1.1132391E-1,9.216825E-2,-2.5885502E-1,9.0740316E-2,-1.6686223E-1,4.7354516E-2,2.3671548E-1,2.9408557E-2,7.489248E-2,-2.683635E-1,3.1234795E-1,-1.6974682E-1,5.397647E-2,4.9960887E-1,3.0952517E-2,-1.1528022E-1,-1.0941976E-1,-2.3853378E-1,4.0228876E-1,-1.7633367E-1,8.270058E-2,2.7682933E-1,-1.8911336E-1,2.1528585E-1],"categories":[],"categories_nodes":[],"categories_segments":[],"categories_sizes":[],"default_left":[0,0,0,0,0,0,0,0,0,0,0,0,0,0,0,0,0,0,0,0,0,0,0,0,0,0,0,0,0,0,0,0,0,0,0,0,0,0,0,0,0,0,0,0,0,0,0,0,0,0,0,0,0,0,0,0,0,0,0,0,0],"id":29,"left_children":[1,-1,3,5,7,9,11,13,15,17,19,21,23,25,27,29,31,33,35,37,39,41,43,45,47,49,51,53,55,-1,57,-1,59,-1,-1,-1,-1,-1,-1,-1,-1,-1,-1,-1,-1,-1,-1,-1,-1,-1,-1,-1,-1,-1,-1,-1,-1,-1,-1,-1,-1],"loss_changes":[1.6966604E1,0E0,5.7757053E0,8.391685E0,8.536712E0,6.493415E0,2.5622444E0,9.598635E0,1.25212965E1,7.187167E0,5.6725607E0,2.697978E0,3.3350863E0,3.1465826E0,3.3007145E0,3.513176E0,4.559202E0,3.604633E0,6.022015E0,3.122507E0,3.9581075E0,9.2360985E-1,2.5702362E0,1.0888362E1,3.511788E0,3.9251387E0,1.0280969E0,1.6164188E0,6.02649E0,0E0,2.4109058E0,0E0,2.925316E0,0E0,0E0,0E0,0E0,0E0,0E0,0E0,0E0,0E0,0E0,0E0,0E0,0E0,0E0,0E0,0E0,0E0,0E0,0E0,0E0,0E0,0E0,0E0,0E0,0E0,0E0,0E0,0E0],"parents":[2147483647,0,0,2,2,3,3,4,4,5,5,6,6,7,7,8,8,9,9,10,10,11,11,12,12,13,13,14,14,15,15,16,16,17,17,18,18,19,19,20,20,21,21,22,22,23,23,24,24,25,25,26,26,27,27,28,28,30,30,32,32],"right_children":[2,-1,4,6,8,10,12,14,16,18,20,22,24,26,28,30,32,34,36,38,40,42,44,46,48,50,52,54,56,-1,58,-1,60,-1,-1,-1,-1,-1,-1,-1,-1,-1,-1,-1,-1,-1,-1,-1,-1,-1,-1,-1,-1,-1,-1,-1,-1,-1,-1,-1,-1],"split_conditions":[1.875E-1,-2.8490552E-1,5.2937713E-2,1.5722585E-3,5.3227104E-2,1.5720022E-3,8.230452E-3,8.230452E-3,6.3157834E-2,9E-3,6.4367816E-2,5.272618E-2,7.780725E-2,1.5720022E-3,1.5E-2,1E0,4.0625E-1,5.2762352E-2,4.5454547E-1,2.1E-2,8.230452E-3,4.4317406E-2,5.2892003E-2,2.5E-1,5.2822787E-2,5.302088E-2,5.298232E-2,1.5720022E-3,2.4096385E-2,-1.8365267E-1,5.93921E-2,-2.5440273E-1,1E0,-1.6206288E-1,1.1999033E-2,9.906602E-2,-2.5995582E-1,-1.1132391E-1,9.216825E-2,-2.5885502E-1,9.0740316E-2,-1.6686223E-1,4.7354516E-2,2.3671548E-1,2.9408557E-2,7.489248E-2,-2.683635E-1,3.1234795E-1,-1.6974682E-1,5.397647E-2,4.9960887E-1,3.0952517E-2,-1.1528022E-1,-1.0941976E-1,-2.3853378E-1,4.0228876E-1,-1.7633367E-1,8.270058E-2,2.7682933E-1,-1.8911336E-1,2.1528585E-1],"split_indices":[5,0,7,0,7,0,8,8,7,8,1,7,1,0,8,9,5,7,6,8,8,7,7,5,7,7,7,0,8,0,7,0,4,0,0,0,0,0,0,0,0,0,0,0,0,0,0,0,0,0,0,0,0,0,0,0,0,0,0,0,0],"split_type":[0,0,0,0,0,0,0,0,0,0,0,0,0,0,0,0,0,0,0,0,0,0,0,0,0,0,0,0,0,0,0,0,0,0,0,0,0,0,0,0,0,0,0,0,0,0,0,0,0,0,0,0,0,0,0,0,0,0,0,0,0],"sum_hessian":[5.1155096E2,1.886071E1,4.9269025E2,3.6875745E2,1.2393281E2,2.541506E2,1.1460685E2,8.068675E1,4.3246056E1,1.2929599E2,1.2485461E2,4.0046665E1,7.456019E1,2.4194654E1,5.64921E1,2.7109201E1,1.6136852E1,4.186898E1,8.742701E1,9.656511E1,2.82895E1,1.0097807E1,2.9948858E1,6.74393E1,7.1208863E0,8.509199E0,1.5685456E1,5.151903E1,4.9730697E0,1.5777857E0,2.5531416E1,1.1147907E1,4.9889455E0,1.8725574E1,2.3143406E1,8.3946144E1,3.480869E0,8.997012E1,6.5949864E0,2.297125E0,2.5992374E1,1.2205602E0,8.877247E0,2.2570347E1,7.3785105E0,5.876931E1,8.669987E0,6.1136975E0,1.007189E0,6.973174E0,1.5360247E0,8.563784E0,7.121672E0,1.4899728E1,3.6619305E1,1.5781647E0,3.3949049E0,1.1026458E1,1.4504958E1,1.6233279E0,3.3656175E0],"tree_param":{"num_deleted":"0","num_feature":"12","num_nodes":"61","size_leaf_vector":"1"}},{"base_weights":[-3.782033E-2,-2.802518E-1,-9.291517E-3,6.4179394E-3,-7.238371E-1,-1.4561919E-2,6.5068936E-1,-2.7022332E-1,-2.0225461E-1,4.514137E-2,-2.4795668E-1,8.4808123E-1,-1.1190529E-1,9.428038E-2,-2.3201472E-1,-6.02502E-1,6.1968587E-2,-7.374887E-1,5.553462E-2,-6.282898E-2,9.700106E-1,3.1437755E-2,-1.1150196E-1,2.4815089E-1,-2.637705E-1,1.0976744E-2,1.384211E-1,1.5339871E-1,-2.853375E-1,1.2157141E-1,-1.10901535E-1,4.596107E-1,1.4555117E-1],"categories":[],"categories_nodes":[],"categories_segments":[],"categories_sizes":[],"default_left":[0,0,0,0,0,0,0,0,0,0,0,0,0,0,0,0,0,0,0,0,0,0,0,0,0,0,0,0,0,0,0,0,0],"id":30,"left_children":[1,-1,3,5,7,9,11,-1,13,15,17,19,21,-1,-1,23,25,27,29,-1,31,-1,-1,-1,-1,-1,-1,-1,-1,-1,-1,-1,-1],"loss_changes":[1.258841E1,0E0,5.3750806E0,6.350564E0,7.683039E-1,6.3557143E0,2.3252606E0,0E0,1.3931035E0,3.997818E0,1.3842979E1,1.735836E0,2.601744E-1,0E0,0E0,4.405282E0,3.583085E0,9.990295E0,8.815362E0,0E0,2.2092638E0,0E0,0E0,0E0,0E0,0E0,0E0,0E0,0E0,0E0,0E0,0E0,0E0],"parents":[2147483647,0,0,2,2,3,3,4,4,5,5,6,6,8,8,9,9,10,10,11,11,12,12,15,15,16,16,17,17,18,18,20,20],"right_children":[2,-1,4,6,8,10,12,-1,14,16,18,20,22,-1,-1,24,26,28,30,-1,32,-1,-1,-1,-1,-1,-1,-1,-1,-1,-1,-1,-1],"split_conditions":[1.875E-1,-2.802518E-1,4.6E-2,3.1E-2,5.5708464E-2,9.501188E-3,5.296587E-2,-2.7022332E-1,7.6E-2,1E0,1.0526316E-2,4.472467E-2,6.3157834E-2,9.428038E-2,-2.3201472E-1,2.2929009E-2,5.3227104E-2,5.1599182E-2,5.2822787E-2,-6.282898E-2,5.2790053E-2,3.1437755E-2,-1.1150196E-1,2.4815089E-1,-2.637705E-1,1.0976744E-2,1.384211E-1,1.5339871E-1,-2.853375E-1,1.2157141E-1,-1.10901535E-1,4.596107E-1,1.4555117E-1],"split_indices":[5,0,8,8,7,8,7,0,8,9,8,7,7,0,0,7,7,7,7,0,7,0,0,0,0,0,0,0,0,0,0,0,0],"split_type":[0,0,0,0,0,0,0,0,0,0,0,0,0,0,0,0,0,0,0,0,0,0,0,0,0,0,0,0,0,0,0,0,0],"sum_hessian":[4.9161517E2,1.4185126E1,4.7743005E2,4.6812912E2,9.300914E0,4.5431244E2,1.3816693E1,6.4024296E0,2.898484E0,3.624125E2,9.189994E1,1.0886663E1,2.9300296E0,1.7581613E0,1.1403228E0,8.296408E0,3.541161E2,3.4622986E1,5.7276955E1,1.0512642E0,9.8354E0,1.922705E0,1.0073245E0,1.0228834E0,7.2735243E0,3.3398672E2,2.012936E1,4.854193E0,2.9768793E1,3.1454624E1,2.582233E1,3.554804E0,6.2805953E0],"tree_param":{"num_deleted":"0","num_feature":"12","num_nodes":"33","size_leaf_vector":"1"}},{"base_weights":[-3.156934E-2,-2.7440503E-1,-9.446212E-3,3.0032801E-3,-6.566323E-1,-2.4446597E-2,3.220968E-1,-2.5058538E-1,-1.8758768E-1,3.1625587E-2,-3.3718616E-1,1.2566122E-1,7.7117753E-1,7.795598E-2,-2.0786446E-1,4.6559222E-2,-5.519117E-1,-3.3385165E-2,-6.1823386E-1,5.172063E-1,-1.7942022E-1,1.6693728E0,2.361696E-1,5.8793E-3,2.070882E-1,-2.5308418E-1,9.763796E-2,-1.4448436E-1,8.070007E-2,-2.1980208E-1,1.10091865E-1,-7.7203944E-2,3.270767E-1,2.4762419E-1,-1.4258131E-1,2.5231142E-2,6.655141E-1,-8.185387E-2,2.8396505E-1],"categories":[],"categories_nodes":[],"categories_segments":[],"categories_sizes":[],"default_left":[0,0,0,0,0,0,0,0,0,0,0,0,0,0,0,0,0,0,0,0,0,0,0,0,0,0,0,0,0,0,0,0,0,0,0,0,0,0,0],"id":31,"left_children":[1,-1,3,5,7,9,11,-1,13,15,17,19,21,-1,-1,23,25,27,29,31,33,35,37,-1,-1,-1,-1,-1,-1,-1,-1,-1,-1,-1,-1,-1,-1,-1,-1],"loss_changes":[9.367668E0,0E0,3.7823915E0,4.0487986E0,5.8573604E-1,7.47622E0,3.1329794E0,0E0,1.0241352E0,3.1795578E0,5.5131025E0,3.2781923E0,4.8663006E0,0E0,0E0,6.1271935E0,2.6057618E0,4.4941397E0,4.0582027E0,5.578409E0,5.0686965E0,3.2266045E0,3.16021E0,0E0,0E0,0E0,0E0,0E0,0E0,0E0,0E0,0E0,0E0,0E0,0E0,0E0,0E0,0E0,0E0],"parents":[2147483647,0,0,2,2,3,3,4,4,5,5,6,6,8,8,9,9,10,10,11,11,12,12,15,15,16,16,17,17,18,18,19,19,20,20,21,21,22,22],"right_children":[2,-1,4,6,8,10,12,-1,14,16,18,20,22,-1,-1,24,26,28,30,32,34,36,38,-1,-1,-1,-1,-1,-1,-1,-1,-1,-1,-1,-1,-1,-1,-1,-1],"split_conditions":[1.875E-1,-2.7440503E-1,4.6E-2,1.6E-2,5.5708464E-2,9.501188E-3,1.5722585E-3,-2.5058538E-1,7.6E-2,6.9287375E-2,5.2790053E-2,5.2799694E-2,2.4096385E-2,7.795598E-2,-2.0786446E-1,5.3227104E-2,7.233164E-2,1.1E-2,5.93921E-2,2.6E-2,2.2988506E-2,5.271674E-2,3.2258064E-2,5.8793E-3,2.070882E-1,-2.5308418E-1,9.763796E-2,-1.4448436E-1,8.070007E-2,-2.1980208E-1,1.10091865E-1,-7.7203944E-2,3.270767E-1,2.4762419E-1,-1.4258131E-1,2.5231142E-2,6.655141E-1,-8.185387E-2,2.8396505E-1],"split_indices":[5,0,8,8,7,8,0,0,8,7,7,7,8,0,0,7,7,8,7,8,8,7,8,0,0,0,0,0,0,0,0,0,0,0,0,0,0,0,0],"split_type":[0,0,0,0,0,0,0,0,0,0,0,0,0,0,0,0,0,0,0,0,0,0,0,0,0,0,0,0,0,0,0,0,0,0,0,0,0,0,0],"sum_hessian":[4.7891962E2,1.071834E1,4.6820126E2,4.6034134E2,7.859923E0,4.2472772E2,3.5613625E1,5.1264944E0,2.7334285E0,3.6091656E2,6.381114E1,2.5666485E1,9.947139E0,1.7073221E0,1.0261064E0,3.528079E2,8.108695E0,3.120193E1,3.260921E1,1.0935908E1,1.4730577E1,2.9217305E0,7.0254087E0,3.3961426E2,1.3193627E1,6.114324E0,1.994371E0,1.2330931E1,1.8870998E1,2.9445232E1,3.1639771E0,4.884615E0,6.051293E0,2.9434414E0,1.1787136E1,1.0482068E0,1.8735236E0,4.4515862E0,2.5738227E0],"tree_param":{"num_deleted":"0","num_feature":"12","num_nodes":"39","size_leaf_vector":"1"}},{"base_weights":[-2.4886226E-2,-2.6720417E-1,-7.6303002E-3,1.2693537E-3,-2.5790566E-1,4.411027E-2,-1.5144292E-1,-2.101801E-2,1.8314554E-1,9.4587594E-2,-3.0090666E-1,1.0922888E-1,-1.5627417E-1,-1.8539125E-1,2.0010892E-1,-2.3780705E-1,2.1474294E-1,-4.4646725E-1,1.4607127E-1,-4.6765253E-2,7.338711E-2,9.034999E-4,-9.649567E-2,5.680633E-1,5.0047398E-2,-1.324579E-1,1.00585E-1,-3.3849154E-2,-1.8146695E-1,1.8514301E-1,-2.5030965E-1],"categories":[],"categories_nodes":[],"categories_segments":[],"categories_sizes":[],"default_left":[0,0,0,0,0,0,0,0,0,0,0,0,0,0,0,0,0,0,0,0,0,0,0,0,0,0,0,0,0,0,0],"id":32,"left_children":[1,-1,3,5,-1,7,9,11,13,15,17,19,21,-1,23,-1,25,27,29,-1,-1,-1,-1,-1,-1,-1,-1,-1,-1,-1,-1],"loss_changes":[6.992504E0,0E0,3.4918869E0,2.993812E0,0E0,3.2395444E0,3.715E0,4.319782E0,1.6741352E0,4.2905083E0,4.1384068E0,4.525464E0,3.1680515E0,0E0,6.0241275E0,0E0,2.9029465E0,2.4408998E0,7.965878E0,0E0,0E0,0E0,0E0,0E0,0E0,0E0,0E0,0E0,0E0,0E0,0E0],"parents":[2147483647,0,0,2,2,3,3,5,5,6,6,7,7,8,8,9,9,10,10,11,11,12,12,14,14,16,16,17,17,18,18],"right_children":[2,-1,4,6,-1,8,10,12,14,16,18,20,22,-1,24,-1,26,28,30,-1,-1,-1,-1,-1,-1,-1,-1,-1,-1,-1,-1],"split_conditions":[1.875E-1,-2.6720417E-1,4.5454547E-1,5.2937713E-2,-2.5790566E-1,1.5722585E-3,1.5720022E-3,1.5720022E-3,2.5312796E-2,1E0,5.3227104E-2,9E-3,1E0,-1.8539125E-1,4.1170564E-2,-2.3780705E-1,5.2957237E-2,8.230452E-3,6.0087472E-2,-4.6765253E-2,7.338711E-2,9.034999E-4,-9.649567E-2,5.680633E-1,5.0047398E-2,-1.324579E-1,1.00585E-1,-3.3849154E-2,-1.8146695E-1,1.8514301E-1,-2.5030965E-1],"split_indices":[5,0,6,7,0,0,0,0,7,9,7,8,4,0,7,0,7,8,7,0,0,0,0,0,0,0,0,0,0,0,0],"split_type":[0,0,0,0,0,0,0,0,0,0,0,0,0,0,0,0,0,0,0,0,0,0,0,0,0,0,0,0,0,0,0],"sum_hessian":[4.6749142E2,8.146278E0,4.5934515E2,4.555851E2,3.7600427E0,3.5633292E2,9.925218E1,2.4324059E2,1.1309234E2,3.7647774E1,6.1604404E1,1.2401295E2,1.1922764E2,1.6103821E0,1.1148196E2,3.8226326E0,3.382514E1,4.6471783E1,1.5132623E1,4.1872383E1,8.2140564E1,6.1232563E1,5.799508E1,1.0715892E0,1.1041036E2,4.8355594E0,2.8989582E1,1.5513237E1,3.0958544E1,1.0471775E1,4.660848E0],"tree_param":{"num_deleted":"0","num_feature":"12","num_nodes":"31","size_leaf_vector":"1"}},{"base_weights":[-2.2427076E-2,-5.5059093E-1,-8.298662E-4,-2.57461E-1,-2.9703662E-1,-3.008585E-1,8.554187E-3,2.337929E-1,-5.209322E-1,3.213597E-1,-2.4228824E-2,1.8745148E-1,-7.587911E-2,-7.2658515E-1,-1.0904405E-2,4.989851E-1,-2.9148623E-1,-1.0570649E0,-4.765795E-3,-5.4790843E-2,-2.4010982E-1,1.4884567E-1,-1.6694969E-1,5.3540003E-1,3.950843E-1,-5.647364E-1,1.8789636E-1,-5.26758E-1,-3.5955104E-1,-2.591899E-1,1.1641697E-2,4.425342E-1,8.285226E-2,-2.3540205E-1,1.5102933E-1,2.1866833E-1,-4.7822496E-1,1.9784437E-1,-1.791717E-5],"categories":[],"categories_nodes":[],"categories_segments":[],"categories_sizes":[],"default_left":[0,0,0,0,0,0,0,0,0,0,0,0,0,0,0,0,0,0,0,0,0,0,0,0,0,0,0,0,0,0,0,0,0,0,0,0,0,0,0],"id":33,"left_children":[1,3,5,-1,7,-1,9,11,13,15,17,-1,-1,19,21,23,25,27,29,-1,-1,-1,-1,-1,31,33,-1,-1,35,-1,37,-1,-1,-1,-1,-1,-1,-1,-1],"loss_changes":[5.2302146E0,1.1500077E0,4.1604505E0,0E0,1.4770716E0,0E0,4.5038276E0,9.332773E-1,8.6581683E-1,4.6805234E0,7.991103E0,0E0,0E0,9.146118E-2,1.21918E0,3.6588154E0,2.8598073E0,2.952489E0,5.528082E0,0E0,0E0,0E0,0E0,0E0,3.6392956E0,2.327586E0,0E0,0E0,7.7961197E0,0E0,2.9191592E0,0E0,0E0,0E0,0E0,0E0,0E0,0E0,0E0],"parents":[2147483647,0,0,1,1,2,2,4,4,6,6,7,7,8,8,9,9,10,10,13,13,14,14,15,15,16,16,17,17,18,18,24,24,25,25,28,28,30,30],"right_children":[2,4,6,-1,8,-1,10,12,14,16,18,-1,-1,20,22,24,26,28,30,-1,-1,-1,-1,-1,32,34,-1,-1,36,-1,38,-1,-1,-1,-1,-1,-1,-1,-1],"split_conditions":[2.1181956E-2,3.3333334E-1,8E-3,-2.57461E-1,9.652064E-6,-3.008585E-1,4.520321E-2,9.501188E-3,2.2988506E-2,1.3E-2,5.1599182E-2,1.8745148E-1,-7.587911E-2,1.9870067E-5,3.1E-2,3.174384E-2,4.4638548E-2,1.5722585E-3,1E0,-5.4790843E-2,-2.4010982E-1,1.4884567E-1,-1.6694969E-1,5.3540003E-1,3.3333334E-1,1E0,1.8789636E-1,-5.26758E-1,1.0526316E-2,-2.591899E-1,3.511368E-5,4.425342E-1,8.285226E-2,-2.3540205E-1,1.5102933E-1,2.1866833E-1,-4.7822496E-1,1.9784437E-1,-1.791717E-5],"split_indices":[7,10,8,0,0,0,7,8,8,8,7,0,0,0,8,7,7,0,9,0,0,0,0,0,10,11,0,0,8,0,0,0,0,0,0,0,0,0,0],"split_type":[0,0,0,0,0,0,0,0,0,0,0,0,0,0,0,0,0,0,0,0,0,0,0,0,0,0,0,0,0,0,0,0,0,0,0,0,0,0,0],"sum_hessian":[4.575547E2,1.7012684E1,4.4054202E2,6.6094255E0,1.0403258E1,3.1051445E0,4.3743686E2,3.0731006E0,7.3301578E0,4.0660847E1,3.9677603E2,1.5466886E0,1.5264121E0,4.9212265E0,2.4089315E0,3.166806E1,8.992785E0,6.352625E0,3.904234E2,1.0028812E0,3.9183452E0,1.295531E0,1.1134006E0,1.1583132E0,3.0509748E1,7.2261124E0,1.7666727E0,2.4154382E0,3.9371867E0,6.347943E0,3.8407544E2,1.8947679E0,2.8614979E1,6.212378E0,1.0137345E0,2.3100617E0,1.6271251E0,5.832009E0,3.7824344E2],"tree_param":{"num_deleted":"0","num_feature":"12","num_nodes":"39","size_leaf_vector":"1"}},{"base_weights":[-1.7843703E-2,-2.5203517E-1,-6.2868996E-3,3.258589E-3,-5.9669936E-1,-7.2476845E-3,6.630961E-1,-7.248667E-1,-2.4174398E-1,-1.3554772E-2,2.190034E-1,8.9296234E-1,-7.584678E-2,-5.225731E-2,-2.4805386E-1,6.4710125E-2,-1.9945882E-1,-5.902286E-1,-1.6758288E-3,3.3639374E-1,4.9092102E-1,1.477071E-1,-2.5902018E-1,-1.4118794E-1,4.512478E-3,-9.997926E-2,2.292667E-1],"categories":[],"categories_nodes":[],"categories_segments":[],"categories_sizes":[],"default_left":[0,0,0,0,0,0,0,0,0,0,0,0,0,0,0,0,0,0,0,0,0,0,0,0,0,0,0],"id":34,"left_children":[1,-1,3,5,7,9,11,13,15,17,-1,19,-1,-1,-1,-1,-1,21,23,25,-1,-1,-1,-1,-1,-1,-1],"loss_changes":[4.287592E0,0E0,2.5182734E0,3.0577304E0,1.4819336E-1,2.0301616E0,1.6811984E0,1.2119532E-1,7.9885674E-1,2.9567304E0,0E0,1.8273735E0,0E0,0E0,0E0,0E0,0E0,3.0014086E0,3.3315182E0,1.5568686E0,0E0,0E0,0E0,0E0,0E0,0E0,0E0],"parents":[2147483647,0,0,2,2,3,3,4,4,5,5,6,6,7,7,8,8,9,9,11,11,17,17,18,18,19,19],"right_children":[2,-1,4,6,8,10,12,14,16,18,-1,20,-1,-1,-1,-1,-1,22,24,26,-1,-1,-1,-1,-1,-1,-1],"split_conditions":[1.875E-1,-2.5203517E-1,4.6E-2,3.8E-2,5.5708464E-2,1E0,5.296587E-2,2.8437478E-5,7.6E-2,1E0,2.190034E-1,5.2878797E-2,-7.584678E-2,-5.225731E-2,-2.4805386E-1,6.4710125E-2,-1.9945882E-1,6E-1,3.5975695E-2,4E-2,4.9092102E-1,1.477071E-1,-2.5902018E-1,-1.4118794E-1,4.512478E-3,-9.997926E-2,2.292667E-1],"split_indices":[5,0,8,8,7,11,7,0,8,9,0,7,0,0,0,0,0,4,7,8,0,0,0,0,0,0,0],"split_type":[0,0,0,0,0,0,0,0,0,0,0,0,0,0,0,0,0,0,0,0,0,0,0,0,0,0,0],"sum_hessian":[4.507457E2,5.25361E0,4.454921E2,4.3938284E2,6.1092377E0,4.3346994E2,5.9129167E0,3.7228546E0,2.3863833E0,4.3076645E2,2.7034972E0,4.7467084E0,1.1662079E0,1.0048575E0,2.717997E0,1.3822311E0,1.004152E0,7.7116284E0,4.230548E2,3.5451527E0,1.2015558E0,1.392148E0,6.3194804E0,1.3627575E1,4.0942725E2,1.4681566E0,2.076996E0],"tree_param":{"num_deleted":"0","num_feature":"12","num_nodes":"27","size_leaf_vector":"1"}},{"base_weights":[-1.4339156E-2,-2.4098822E-1,-5.2687447E-3,2.2423154E-2,-1.8492109E-1,9.003651E-3,3.8582417E-1,-3.907964E-1,8.537379E-2,2.4464652E-2,-4.064452E-1,2.310414E-1,1.2699553E-1,2.907323E-2,-5.6284404E-1,3.8840288E-1,-4.660918E-1,-2.792853E-2,1.3237244E-1,-7.828604E-2,-6.296815E-1,3.783168E-1,-1.277289E-1,-2.2515085E-1,4.862904E-1,-2.436085E-1,-7.752538E-1,6.672149E-3,7.3678875E-1,-2.4452351E-1,3.2299033E-1,1.6967395E-2,-3.5341714E-2,2.6927749E-2,1.2336811E-1,2.7005097E-2,-6.965518E-2,-2.1232423E-1,-2.3659594E-2,1.8320827E-1,1.666111E-2,-8.739358E-2,7.3990235E-3,2.3482297E-1,-1.9165309E-1,-1.22376665E-1,1.1322045E-1,-2.4896775E-1,-2.3701256E-2,1.2017524E-1,-1.20420985E-1,2.6107724E-3,2.6493305E-1,-2.7439991E-2,1.6481802E-1],"categories":[],"categories_nodes":[],"categories_segments":[],"categories_sizes":[],"default_left":[0,0,0,0,0,0,0,0,0,0,0,0,0,0,0,0,0,0,0,0,0,0,0,0,0,0,0,0,0,0,0,0,0,0,0,0,0,0,0,0,0,0,0,0,0,0,0,0,0,0,0,0,0,0,0],"id":35,"left_children":[1,-1,3,5,7,9,11,13,15,17,19,-1,21,23,25,27,29,31,33,35,37,39,41,-1,43,45,47,49,51,-1,53,-1,-1,-1,-1,-1,-1,-1,-1,-1,-1,-1,-1,-1,-1,-1,-1,-1,-1,-1,-1,-1,-1,-1,-1],"loss_changes":[3.2003698E0,0E0,2.2116551E0,1.8757848E0,3.3371463E0,2.403621E0,1.2649179E0,2.4638057E0,4.6077538E0,2.0403066E0,9.3437815E-1,0E0,6.4904875E-1,4.2139792E0,1.4440999E0,2.3411832E0,2.9753673E0,1.8542719E0,1.3642359E0,1.912876E-1,2.8170824E-1,3.3930558E-1,1.4199775E-1,0E0,2.9727883E0,1.284528E0,4.6710682E-1,1.6761317E0,9.73958E-1,0E0,4.0084013E-1,0E0,0E0,0E0,0E0,0E0,0E0,0E0,0E0,0E0,0E0,0E0,0E0,0E0,0E0,0E0,0E0,0E0,0E0,0E0,0E0,0E0,0E0,0E0,0E0],"parents":[2147483647,0,0,2,2,3,3,4,4,5,5,6,6,7,7,8,8,9,9,10,10,12,12,13,13,14,14,15,15,16,16,17,17,18,18,19,19,20,20,21,21,22,22,24,24,25,25,26,26,27,27,28,28,30,30],"right_children":[2,-1,4,6,8,10,12,14,16,18,20,-1,22,24,26,28,30,32,34,36,38,40,42,-1,44,46,48,50,52,-1,54,-1,-1,-1,-1,-1,-1,-1,-1,-1,-1,-1,-1,-1,-1,-1,-1,-1,-1,-1,-1,-1,-1,-1,-1],"split_conditions":[1.875E-1,-2.4098822E-1,5.2990165E-2,5.296587E-2,5.3227104E-2,5.294794E-2,1.5720022E-3,8.230452E-3,6.3157834E-2,1.5722585E-3,1.5720022E-3,2.310414E-1,8.230452E-3,5.3013302E-2,5.304216E-2,5.93921E-2,7.018513E-2,1.5720022E-3,5.2904468E-2,8.230452E-3,9.501188E-3,5.2974515E-2,5.2974515E-2,-2.2515085E-1,5.3073283E-2,5.302796E-2,1.8E-2,9.501188E-3,4.2582306E-4,-2.4452351E-1,3.4375E-1,1.6967395E-2,-3.5341714E-2,2.6927749E-2,1.2336811E-1,2.7005097E-2,-6.965518E-2,-2.1232423E-1,-2.3659594E-2,1.8320827E-1,1.666111E-2,-8.739358E-2,7.3990235E-3,2.3482297E-1,-1.9165309E-1,-1.22376665E-1,1.1322045E-1,-2.4896775E-1,-2.3701256E-2,1.2017524E-1,-1.20420985E-1,2.6107724E-3,2.6493305E-1,-2.7439991E-2,1.6481802E-1],"split_indices":[5,0,7,7,7,7,0,8,7,0,0,0,8,7,7,7,7,0,7,8,8,7,7,0,7,7,8,8,0,0,5,0,0,0,0,0,0,0,0,0,0,0,0,0,0,0,0,0,0,0,0,0,0,0,0],"split_type":[0,0,0,0,0,0,0,0,0,0,0,0,0,0,0,0,0,0,0,0,0,0,0,0,0,0,0,0,0,0,0,0,0,0,0,0,0,0,0,0,0,0,0,0,0,0,0,0,0,0,0,0,0,0,0],"sum_hessian":[4.468112E2,4.083251E0,4.4272794E2,3.843576E2,5.837031E1,3.71658E2,1.2699636E1,3.288046E1,2.5489851E1,3.592303E2,1.2427703E1,4.3158717E0,8.383764E0,9.798633E0,2.3081827E1,1.6641226E1,8.848626E0,2.4231746E2,1.1691281E2,5.578277E0,6.8494263E0,3.975841E0,4.4079237E0,3.38522E0,6.4134126E0,1.0079699E1,1.300213E1,8.4269085E0,8.214317E0,6.1123695E0,2.7362561E0,1.250956E2,1.1722187E2,1.0256168E2,1.4351125E1,2.8627045E0,2.7155728E0,5.749637E0,1.0997891E0,1.7930174E0,2.1828237E0,1.6862521E0,2.7216713E0,5.3168325E0,1.0965798E0,8.242055E0,1.8376433E0,1.1878044E1,1.124085E0,4.297207E0,4.129702E0,1.5518556E0,6.6624618E0,1.1772197E0,1.5590363E0],"tree_param":{"num_deleted":"0","num_feature":"12","num_nodes":"55","size_leaf_vector":"1"}},{"base_weights":[-1.2834936E-2,-4.511078E-3,-2.111467E-1,-6.0912985E-1,3.5380367E-3,9.1752514E-2,-2.815814E-1,-1.4617263E-2,2.4370009E-1,3.0938134E-2,-2.6785946E-1,4.6056828E-1,1.1078557E-1,3.0179718E-1,7.875564E-3,-6.1819166E-1,-1.8108265E-2,4.0026516E-1,-1.0604871E-1,6.36025E-3,2.1091396E-1,-1.4103284E-1,1.030208E-2,1.239167E-1,-2.5946587E-1,-1.3103823E-1,4.7226805E-2,1.7907873E-1,-5.9234362E-2,-1.3461024E-1,1.2215467E-1],"categories":[],"categories_nodes":[],"categories_segments":[],"categories_sizes":[],"default_left":[0,0,0,0,0,0,0,0,0,0,0,0,0,0,0,0,0,0,0,0,0,0,0,0,0,0,0,0,0,0,0],"id":36,"left_children":[1,3,-1,5,7,-1,-1,9,11,13,15,-1,17,19,21,23,25,27,29,-1,-1,-1,-1,-1,-1,-1,-1,-1,-1,-1,-1],"loss_changes":[2.532203E0,2.1267674E0,0E0,2.0178354E0,1.8864104E0,0E0,0E0,4.6508045E0,5.0495806E0,2.133753E0,5.3660564E0,0E0,1.8405964E0,3.0030665E0,4.0154295E0,6.856722E0,2.781307E0,1.5846163E0,3.2020702E0,0E0,0E0,0E0,0E0,0E0,0E0,0E0,0E0,0E0,0E0,0E0,0E0],"parents":[2147483647,0,0,1,1,3,3,4,4,7,7,8,8,9,9,10,10,12,12,13,13,14,14,15,15,16,16,17,17,18,18],"right_children":[2,4,-1,6,8,-1,-1,10,12,14,16,-1,18,20,22,24,26,28,30,-1,-1,-1,-1,-1,-1,-1,-1,-1,-1,-1,-1],"split_conditions":[5.8E-2,8E-3,-2.111467E-1,8.215794E-3,2.1E-2,9.1752514E-2,-2.815814E-1,9.501188E-3,2.2988506E-2,4.4870656E-2,1.1E-2,4.6056828E-1,5.2799694E-2,4.4638548E-2,5.260331E-2,5.1599182E-2,5.1599182E-2,1.5722585E-3,3.5E-2,6.36025E-3,2.1091396E-1,-1.4103284E-1,1.030208E-2,1.239167E-1,-2.5946587E-1,-1.3103823E-1,4.7226805E-2,1.7907873E-1,-5.9234362E-2,-1.3461024E-1,1.2215467E-1],"split_indices":[8,8,0,7,8,0,0,8,8,7,8,0,7,7,7,7,7,0,8,0,0,0,0,0,0,0,0,0,0,0,0],"split_type":[0,0,0,0,0,0,0,0,0,0,0,0,0,0,0,0,0,0,0,0,0,0,0,0,0,0,0,0,0,0,0],"sum_hessian":[4.3980643E2,4.3556598E2,4.240441E0,4.741296E0,4.3082468E2,1.2742777E0,3.4670184E0,4.0141818E2,2.940649E1,3.40961E2,6.0457184E1,1.7594514E0,2.764704E1,2.5805187E1,3.1515582E2,2.4547945E1,3.590924E1,1.1477851E1,1.616919E1,1.5805284E1,9.999904E0,1.5654404E1,2.995014E2,4.6085687E0,1.9939377E1,1.01678705E1,2.574137E1,8.637266E0,2.8405845E0,9.771263E0,6.397926E0],"tree_param":{"num_deleted":"0","num_feature":"12","num_nodes":"31","size_leaf_vector":"1"}},{"base_weights":[-1.0126005E-2,-4.1457155E-1,2.2504437E-3,1.245738E-4,-5.9640396E-1,3.2999116E-1,-4.6095527E-3,-1.538242E-1,3.001615E-1,-2.4527286E-1,-2.130923E-1,-2.5149262E-1,1.4222765E-3,1.7903629E-1,-4.275527E-2,1.2092273E-1,-5.9433997E-1,-4.6860817E-1,1.122357E-2,-2.5784418E-1,-1.6911741E-2,-2.5624138E-1,1.9281751E-1,7.1510506E-1,-2.0096751E-3,3.6289427E-2,2.5579575E-1,-2.407291E-1,2.367503E-3],"categories":[],"categories_nodes":[],"categories_segments":[],"categories_sizes":[],"default_left":[0,0,0,0,0,0,0,0,0,0,0,0,0,0,0,0,0,0,0,0,0,0,0,0,0,0,0,0,0],"id":37,"left_children":[1,3,5,7,9,-1,11,-1,13,-1,15,-1,17,-1,-1,-1,19,21,23,-1,-1,-1,-1,25,27,-1,-1,-1,-1],"loss_changes":[2.193885E0,9.8137E-1,3.2136502E0,9.181662E-1,5.9277153E-1,0E0,2.1355653E0,0E0,5.793325E-1,0E0,1.3348942E0,0E0,1.9511493E0,0E0,0E0,0E0,4.2005122E-1,4.255622E0,3.8645341E0,0E0,0E0,0E0,0E0,5.225327E-1,3.2404509E0,0E0,0E0,0E0,0E0],"parents":[2147483647,0,0,1,1,2,2,3,3,4,4,6,6,8,8,10,10,12,12,16,16,17,17,18,18,23,23,24,24],"right_children":[2,4,6,8,10,-1,12,-1,14,-1,16,-1,18,-1,-1,-1,20,22,24,-1,-1,-1,-1,26,28,-1,-1,-1,-1],"split_conditions":[2.1181956E-2,9.438244E-6,3.1104397E-2,3.3333334E-1,1.5E-2,3.2999116E-1,8E-3,-1.538242E-1,9.501188E-3,-2.4527286E-1,2.4096385E-2,-2.5149262E-1,1E0,1.7903629E-1,-4.275527E-2,1.2092273E-1,4.2582306E-4,1E0,3.511368E-5,-2.5784418E-1,-1.6911741E-2,-2.5624138E-1,1.9281751E-1,2.4719523E-6,3.5975695E-2,3.6289427E-2,2.5579575E-1,-2.407291E-1,2.367503E-3],"split_indices":[7,0,7,10,8,0,8,0,8,0,8,0,9,0,0,0,0,11,0,0,0,0,0,0,7,0,0,0,0],"split_type":[0,0,0,0,0,0,0,0,0,0,0,0,0,0,0,0,0,0,0,0,0,0,0,0,0,0,0,0,0],"sum_hessian":[4.3709976E2,1.2013636E1,4.2508612E2,3.9665759E0,8.047059E0,1.6503819E0,4.2343573E2,1.2023599E0,2.764216E0,4.384347E0,3.6627123E0,2.0504367E0,4.213853E2,1.4466988E0,1.3175173E0,1.3781339E0,2.2845783E0,7.651253E0,4.1373404E2,1.1300046E0,1.1545738E0,5.852431E0,1.7988223E0,6.6560793E0,4.0707797E2,1.6045618E0,5.051517E0,3.9960575E0,4.030819E2],"tree_param":{"num_deleted":"0","num_feature":"12","num_nodes":"29","size_leaf_vector":"1"}},{"base_weights":[-8.784579E-3,-3.2949838E-4,-5.616815E-1,-1.6747348E-2,2.3360476E-1,-7.027564E-1,-4.52185E-2,1.5199861E-2,-2.0739731E-1,3.3243E-1,1.2305095E-1,-2.374525E-1,-6.247927E-2,-9.138171E-3,2.685512E-1,-5.196023E-1,-1.3336859E-2,4.1019997E-1,-9.86784E-2,2.5403613E-1,-3.3345062E-2,-3.7081814E-1,4.8484543E-1,3.5255018E-1,-7.6011723E-1,2.3409522E-1,-3.934483E-1,-1.02055214E-1,5.913311E-1,-4.0275547E-1,5.298309E-1,-1.6525768E-2,1.920647E-1,-1.3164753E-1,5.7667727E-3,9.16428E-2,3.2367814E-1,-1.0832317E-1,1.8921502E-1,-2.6291692E-1,1.0790582E-1,-1.0014858E-1,1.9535032E-1,-1.694615E-1,1.872464E-1,8.311149E-2,-1.2914734E-1,-1.5607095E-1,2.5231194E-1,-2.0777395E-1,4.772454E-2,-1.13890566E-1,2.724136E-1],"categories":[],"categories_nodes":[],"categories_segments":[],"categories_sizes":[],"default_left":[0,0,0,0,0,0,0,0,0,0,0,0,0,0,0,0,0,0,0,0,0,0,0,0,0,0,0,0,0,0,0,0,0,0,0,0,0,0,0,0,0,0,0,0,0,0,0,0,0,0,0,0,0],"id":38,"left_children":[1,3,5,7,9,11,-1,13,15,-1,17,-1,-1,19,21,23,25,27,29,31,33,-1,35,37,39,41,43,45,47,49,51,-1,-1,-1,-1,-1,-1,-1,-1,-1,-1,-1,-1,-1,-1,-1,-1,-1,-1,-1,-1,-1,-1],"loss_changes":[2.0277073E0,1.64873E0,2.7283835E-1,2.446197E0,2.5853271E0,3.662324E-2,0E0,2.1264992E0,3.4850104E0,0E0,1.703342E0,0E0,0E0,2.0168047E0,1.0435415E1,4.896741E0,3.531495E0,1.134222E0,3.1839817E0,3.2190742E0,6.1808367E0,0E0,2.5628452E0,1.3102019E0,2.6085205E0,5.61255E0,2.9328551E0,6.018785E-1,2.8517013E0,1.9084376E0,2.2365541E0,0E0,0E0,0E0,0E0,0E0,0E0,0E0,0E0,0E0,0E0,0E0,0E0,0E0,0E0,0E0,0E0,0E0,0E0,0E0,0E0,0E0,0E0],"parents":[2147483647,0,0,1,1,2,2,3,3,4,4,5,5,7,7,8,8,10,10,13,13,14,14,15,15,16,16,17,17,18,18,19,19,20,20,22,22,23,23,24,24,25,25,26,26,27,27,28,28,29,29,30,30],"right_children":[2,4,6,8,10,12,-1,14,16,-1,18,-1,-1,20,22,24,26,28,30,32,34,-1,36,38,40,42,44,46,48,50,52,-1,-1,-1,-1,-1,-1,-1,-1,-1,-1,-1,-1,-1,-1,-1,-1,-1,-1,-1,-1,-1,-1],"split_conditions":[4.6E-2,2.1E-2,5.5708464E-2,9.501188E-3,2.2988506E-2,3.939394E-1,-4.52185E-2,7.780725E-2,1.1E-2,3.3243E-1,5.2799694E-2,-2.374525E-1,-6.247927E-2,4.520321E-2,8.230452E-3,5.1599182E-2,5.2822787E-2,4.4638548E-2,1.5722585E-3,4.4638548E-2,5.2705724E-2,-3.7081814E-1,5.2799694E-2,4.4638548E-2,5.93921E-2,5.1599182E-2,5.5708464E-2,8.215794E-3,2.6E-2,3.5E-2,5.2851316E-2,-1.6525768E-2,1.920647E-1,-1.3164753E-1,5.7667727E-3,9.16428E-2,3.2367814E-1,-1.0832317E-1,1.8921502E-1,-2.6291692E-1,1.0790582E-1,-1.0014858E-1,1.9535032E-1,-1.694615E-1,1.872464E-1,8.311149E-2,-1.2914734E-1,-1.5607095E-1,2.5231194E-1,-2.0777395E-1,4.772454E-2,-1.13890566E-1,2.724136E-1],"split_indices":[8,8,7,8,8,6,0,1,8,0,7,0,0,7,8,7,7,7,0,7,7,0,7,7,7,7,7,7,8,8,7,0,0,0,0,0,0,0,0,0,0,0,0,0,0,0,0,0,0,0,0,0,0],"split_type":[0,0,0,0,0,0,0,0,0,0,0,0,0,0,0,0,0,0,0,0,0,0,0,0,0,0,0,0,0,0,0,0,0,0,0,0,0,0,0,0,0,0,0,0,0,0,0,0,0,0,0,0,0],"sum_hessian":[4.327934E2,4.272602E2,5.533207E0,4.001084E2,2.7151787E1,3.5905526E0,1.9426543E0,3.4347293E2,5.6635475E1,2.0346067E0,2.511718E1,2.534932E0,1.0556207E0,3.1424875E2,2.922417E1,2.1066347E1,3.556913E1,1.0573736E1,1.4543444E1,2.5670284E1,2.8857846E2,3.0805016E0,2.614367E1,4.4530244E0,1.6613323E1,2.1777372E1,1.3791756E1,2.8761876E0,7.6975484E0,1.0043513E1,4.499931E0,1.4733797E1,1.0936487E1,3.2275314E1,2.5630316E2,2.124379E1,4.8998804E0,1.1653342E0,3.28769E0,1.5247502E1,1.3658211E0,9.305605E0,1.2471767E1,1.2184139E1,1.6076163E0,1.4077733E0,1.4684143E0,1.2132853E0,6.484263E0,6.472145E0,3.571368E0,1.3206053E0,3.1793253E0],"tree_param":{"num_deleted":"0","num_feature":"12","num_nodes":"53","size_leaf_vector":"1"}},{"base_weights":[-7.748654E-3,1.289564E-3,-4.677811E-1,-1.1118007E-2,7.0054466E-1,-2.3385538E-1,2.6762512E-1,6.733389E-3,-3.2018107E-1,2.2934405E-3,2.5396314E-1,-1.66251E-2,1.3798155E-1,1.328443E-2,-6.3411987E-1,-5.1608455E-1,4.0708333E-2,7.3652635E-3,2.100841E-1,-2.1925873E-1,-5.2019138E-2,4.137296E-2,-6.947443E-1,3.042186E-1,-2.1050288E-1,-1.1918778E-1,5.331077E-3,2.0600909E-1,-1.0248847E-1,-2.656323E-1,-1.09827936E-1,-1.7457485E-2,1.5453622E-1,-1.6143447E-1,3.535985E-2],"categories":[],"categories_nodes":[],"categories_segments":[],"categories_sizes":[],"default_left":[0,0,0,0,0,0,0,0,0,0,0,0,0,0,0,0,0,0,0,0,0,0,0,0,0,0,0,0,0,0,0,0,0,0,0],"id":39,"left_children":[1,3,5,7,9,-1,11,13,15,-1,-1,-1,-1,17,19,21,23,25,-1,-1,-1,27,29,31,33,-1,-1,-1,-1,-1,-1,-1,-1,-1,-1],"loss_changes":[1.7895534E0,3.6774395E0,2.1098318E0,2.300476E0,7.4110293E-1,0E0,2.2511506E-1,1.6659175E0,1.6306856E0,0E0,0E0,0E0,0E0,1.5880328E0,5.2248597E-2,1.5057671E0,6.556784E-1,1.6468393E0,0E0,0E0,0E0,1.357488E0,3.8323832E-1,3.9463645E-1,6.1923766E-1,0E0,0E0,0E0,0E0,0E0,0E0,0E0,0E0,0E0,0E0],"parents":[2147483647,0,0,1,1,2,2,3,3,4,4,6,6,7,7,8,8,13,13,14,14,15,15,16,16,17,17,21,21,22,22,23,23,24,24],"right_children":[2,4,6,8,10,-1,12,14,16,-1,-1,-1,-1,18,20,22,24,26,-1,-1,-1,28,30,32,34,-1,-1,-1,-1,-1,-1,-1,-1,-1,-1],"split_conditions":[6.3157834E-2,5.93921E-2,7.018513E-2,5.304216E-2,4.2582306E-4,-2.3385538E-1,3.4375E-1,4.6E-2,5.3227104E-2,2.2934405E-3,2.5396314E-1,-1.66251E-2,1.3798155E-1,1E0,3.939394E-1,8.230452E-3,9.501188E-3,2.1181956E-2,2.100841E-1,-2.1925873E-1,-5.2019138E-2,1.5720022E-3,5.3090945E-2,1.5720022E-3,1.5E-2,-1.1918778E-1,5.331077E-3,2.0600909E-1,-1.0248847E-1,-2.656323E-1,-1.09827936E-1,-1.7457485E-2,1.5453622E-1,-1.6143447E-1,3.535985E-2],"split_indices":[7,7,7,7,0,0,5,8,7,0,0,0,0,11,6,8,8,7,0,0,0,0,7,0,8,0,0,0,0,0,0,0,0,0,0],"split_type":[0,0,0,0,0,0,0,0,0,0,0,0,0,0,0,0,0,0,0,0,0,0,0,0,0,0,0,0,0,0,0,0,0,0,0],"sum_hessian":[4.29256E2,4.2196295E2,7.293073E0,4.1557312E2,6.389822E0,5.079783E0,2.21329E0,3.9380527E2,2.1767868E1,1.2952117E0,5.09461E0,1.0915604E0,1.1217295E0,3.9078973E2,3.0155277E0,1.3830273E1,7.9375944E0,3.8845352E2,2.3362005E0,2.0076272E0,1.0079005E0,3.5431848E0,1.0287088E1,3.770982E0,4.1666126E0,8.80582E0,3.796477E2,1.0243337E0,2.518851E0,5.4377303E0,4.849358E0,1.6535813E0,2.1174006E0,1.7659665E0,2.400646E0],"tree_param":{"num_deleted":"0","num_feature":"12","num_nodes":"35","size_leaf_vector":"1"}},{"base_weights":[-6.544807E-3,-1.9999833E-1,-1.8534729E-3,1.2947895E-1,-3.1743318E-2,-5.4129595E-3,5.546423E-1,-5.73062E-1,-2.7651712E-3,1.7546968E-1,-3.4198E-1,1.1166039E0,2.4869446E-1,-1.2363739E0,-7.2370856E-3,1.7134035E-1,-4.3310687E-2,-9.673313E-3,5.3225607E-1,3.2938445E-1,-6.6513866E-1,2.5092585E-2,4.1222873E-1,8.214539E-2,2.8275347E-1,-1.5988415E0,1.3159275E-1,1.5236518E-1,-2.1840255E-1,-2.2871213E-2,3.5281166E-1,-3.7414193E-1,-2.0410946E-2,2.2094993E-1,-4.8635814E-2,1.9126086E-1,-9.4750345E-2,-1.4514156E-1,1.8493617E-1,-2.640964E-1,-9.6084304E-2,-1.2805678E-1,7.673824E-2,-6.9669557E-1,-2.1158822E-1,-9.661791E-4,2.0870148E-1,1.00425564E-1,-7.5228274E-2,2.1433115E-1,-1.2681916E-1,3.0413785E-3,-2.1068092E-1,2.6745195E-2,-2.642402E-2],"categories":[],"categories_nodes":[],"categories_segments":[],"categories_sizes":[],"default_left":[0,0,0,0,0,0,0,0,0,0,0,0,0,0,0,0,0,0,0,0,0,0,0,0,0,0,0,0,0,0,0,0,0,0,0,0,0,0,0,0,0,0,0,0,0,0,0,0,0,0,0,0,0,0,0],"id":40,"left_children":[1,-1,3,5,7,9,11,13,15,17,19,21,23,25,27,29,31,33,35,37,39,-1,-1,41,-1,43,-1,45,-1,47,49,51,53,-1,-1,-1,-1,-1,-1,-1,-1,-1,-1,-1,-1,-1,-1,-1,-1,-1,-1,-1,-1,-1,-1],"loss_changes":[1.3163898E0,0E0,1.6664692E0,4.516959E0,5.422291E0,3.757849E0,2.9832711E0,6.583333E0,2.3313406E0,2.6585555E0,4.8992825E0,1.5871854E0,1.4903378E0,5.6068916E0,1.3170476E0,2.2067673E0,2.021348E0,3.2393413E0,1.4282465E0,2.0906947E0,8.2326555E-1,0E0,0E0,1.1730543E0,0E0,2.7953224E0,0E0,7.9774743E-1,0E0,2.6164286E0,9.363922E0,2.1860425E0,1.8727455E0,0E0,0E0,0E0,0E0,0E0,0E0,0E0,0E0,0E0,0E0,0E0,0E0,0E0,0E0,0E0,0E0,0E0,0E0,0E0,0E0,0E0,0E0],"parents":[2147483647,0,0,2,2,3,3,4,4,5,5,6,6,7,7,8,8,9,9,10,10,11,11,12,12,13,13,14,14,15,15,16,16,17,17,18,18,19,19,20,20,23,23,25,25,27,27,29,29,30,30,31,31,32,32],"right_children":[2,-1,4,6,8,10,12,14,16,18,20,22,24,26,28,30,32,34,36,38,40,-1,-1,42,-1,44,-1,46,-1,48,50,52,54,-1,-1,-1,-1,-1,-1,-1,-1,-1,-1,-1,-1,-1,-1,-1,-1,-1,-1,-1,-1,-1,-1],"split_conditions":[1.875E-1,-1.9999833E-1,5.267339E-2,5.260331E-2,5.2705724E-2,4.520321E-2,5E-1,8.230452E-3,5.2771356E-2,4.4638548E-2,8.230452E-3,8.230452E-3,1.0526316E-2,1.5722585E-3,1.4E-2,5.2744493E-2,6E-1,2.1875E-1,5.5172417E-2,5.1599182E-2,9.501188E-3,2.5092585E-2,4.1222873E-1,8E-1,2.8275347E-1,2.7272728E-1,1.3159275E-1,1.0526316E-2,-2.1840255E-1,1E0,2.7272728E-1,2.5E-1,8.230452E-3,2.2094993E-1,-4.8635814E-2,1.9126086E-1,-9.4750345E-2,-1.4514156E-1,1.8493617E-1,-2.640964E-1,-9.6084304E-2,